{
  "layers": [
    {
      "activation": 2,
      "biases": [
        -0.02995439269213128,
        0.006340015556338392,
        0.0789298157102224,
        -0.023423588038248604,
        0.6140881864371718,
        -0.007756434295687127,
        0.005898646242098304,
        0.0,
        0.6448274100943403,
        0.040277918354383366
      ],
      "cols": 10,
      "rows": 4,
      "weights": [
        [
          -0.4723796142469562,
          0.7656047240131659,
          0.5172647916246488,
          -0.01748609966649614,
          -0.8983273944769407,
          0.7778944607101226,
          0.6418751118162938,
          -0.23981317877609548,
          0.19272862451766093,
          0.2854519930094561
        ],
        [
          0.3534020982764028,
          0.4963196489125451,
          -0.17965599724425182,
          0.35543055267018003,
          0.8104637352883359,
          -0.17181247587569803,
          0.06689156993585992,
          -0.49209881153040896,
          0.23706534051832331,
          -0.5468032402035291
        ],
        [
          -0.08947194239077508,
          0.651493218492696,
          0.2683565392065381,
          -0.7354928017144813,
          0.28580485945558093,
          -0.19710125592421388,
          0.3709461457624747,
          0.18975033299852676,
          -0.8420495582096225,
          0.7287965009858774
        ],
        [
          -0.6368992163868588,
          0.554950901135222,
          0.0971259764482885,
          0.5026593456403169,
          0.6051874132526697,
          0.49706389370741483,
          -0.8260602962737281,
          -0.33883698302452403,
          0.25059627850484273,
          0.10856083635671764
        ]
      ]
    },
    {
      "activation": 2,
      "biases": [
        0.0,
        -0.48522088822167136,
        0.0,
        -0.005760430453972894,
        0.0968315571984246,
        0.9846731154357763,
        -0.1685943438766341,
        -0.14129080950386158,
        -0.00210524356243593,
        0.0,
        0.8260494394035544,
        0.017948629817490562,
        0.008226282009592299,
        0.0,
        0.012126113445097656,
        0.0
      ],
      "cols": 16,
      "rows": 10,
      "weights": [
        [
          -0.35202574059040626,
          0.23405867377395576,
          0.3629165645069439,
          -0.12564388459856773,
          0.05067111731793655,
          -0.27983820793138414,
          0.15099793052852548,
          0.33722506102428446,
          -0.02796382864552001,
          0.27199186431133987,
          -0.19849839684820209,
          0.36447840444244856,
          0.4085201913812709,
          -0.12815508525169916,
          -0.43990942762561175,
          -0.41455782967276367
        ],
        [
          -0.0815953125981384,
          0.4598725508580681,
          -0.38319138278427417,
          0.06415375867295739,
          0.35208824369731856,
          -0.027892178375219335,
          0.8504368365239472,
          0.8032110604988003,
          -0.1727808127736261,
          0.028728653060661982,
          0.2631911541639345,
          0.1333527894350773,
          -0.20580128509375806,
          0.1414071607243571,
          -0.4251276467576797,
          0.02278505681204402
        ],
        [
          -0.35516595775625004,
          -0.22464843899245113,
          -0.2634807223011752,
          -0.3149255197167419,
          0.43718275096405207,
          -0.28200375996656807,
          -0.19621207144868416,
          0.3626978145109862,
          0.021279539627143882,
          -0.4242961932071625,
          0.16834034781240548,
          -0.08042923262019676,
          0.25971617346948855,
          -0.3121647884438941,
          0.3992420761358574,
          -0.3983503693551885
        ],
        [
          -0.016934463255972813,
          0.49623975270923504,
          -0.1365343899713651,
          0.4238656397346665,
          -0.1289842313984177,
          -0.30534309630750034,
          0.2685155179366938,
          -0.4872373082653154,
          0.26478728733009016,
          -0.31917398463914065,
          -0.13635559254854338,
          0.33793514472438846,
          0.39093533876695896,
          0.20548820095600076,
          0.4480515411006202,
          -0.4368034695705968
        ],
        [
          -0.2299227853004774,
          0.7221680200136744,
          -0.4173045294446311,
          -0.19178918117534058,
          -0.8516746831397242,
          0.6526639403047149,
          0.4363895160158885,
          0.10693387294503687,
          -0.14112696330626673,
          -0.3842636672281262,
          0.3129617358563124,
          -0.3772206764572191,
          -0.344644169717428,
          -0.3240841082248209,
          -0.4705315978736701,
          -0.1205737249956969
        ],
        [
          -0.09964492076086846,
          -0.23350336553445855,
          -0.02408971309830569,
          -0.4222635573808551,
          -0.2899469561842046,
          -0.2217314539694625,
          -0.1260601627965349,
          0.47385971839136115,
          0.06811784129257664,
          -0.03075583634311712,
          -0.1215887852120535,
          0.02454254739275832,
          0.4236093359509238,
          -0.2825834083308343,
          0.41888720734640505,
          -0.2209377531051764
        ],
        [
          -0.11195073431473468,
          0.19659033899112657,
          -0.3920915315732617,
          -0.06523222348034319,
          0.8242751325655371,
          -0.3201136500209044,
          0.03324998537996238,
          0.23505584089579348,
          -0.260638807478902,
          -0.019660935947726804,
          0.32184624478239243,
          0.4435134393962354,
          0.3109134400496922,
          -0.2985582650564809,
          -0.17630822494117113,
          0.07107030127063982
        ],
        [
          -0.37044072558149693,
          0.4691155278686108,
          0.0316705427463361,
          0.020037574102612712,
          -0.28481275504012893,
          -0.03290930074372509,
          -0.28320958479345787,
          0.03462451114535217,
          -0.41091811355255287,
          0.06315898025512871,
          -0.07996199388654511,
          -0.3106134723757723,
          -0.22472560369682187,
          0.22732313954620648,
          -0.2873079855565297,
          0.24278237730413604
        ],
        [
          -0.21465490643100646,
          0.4309445349191194,
          0.02082868956114822,
          -0.45838027703590745,
          -0.5226973268355753,
          0.6241826679315675,
          -0.22879175709466007,
          -0.3849350622773974,
          -0.294160715028693,
          -0.13667857977965664,
          0.3678343188227143,
          0.21173954686001129,
          -0.18584836431059337,
          -0.35799974389703904,
          0.040038431779225704,
          0.05780008938486037
        ],
        [
          -0.01770715731211356,
          0.17697339274407597,
          0.3478975439080123,
          0.3412300878307312,
          0.3524399269073677,
          -0.3000222970461562,
          0.3531340289813973,
          0.4675959022517583,
          -0.0737835834777113,
          0.04160413109118731,
          0.17037271654758096,
          0.5975831052248177,
          -0.011201532436013394,
          0.3940680100295114,
          0.3580450266450371,
          0.10872130969026056
        ]
      ]
    },
    {
      "activation": 2,
      "biases": [
        -0.013986416966289373,
        -0.03572324517478813,
        -0.09356048687924924,
        -0.18527940484646263,
        0.0,
        -0.024834509183549427,
        0.017478689772726593,
        0.44026803776232526,
        0.2290531991532994,
        -0.0017462943442703624,
        -0.03768066607182142,
        -0.006530597510932893,
        0.9599711259955608,
        0.39695971351932624,
        0.004804923254042415,
        -0.08657973978358861,
        -0.25432364650096173,
        0.12569396027926663,
        0.01251125975605792,
        -0.033144150745409065,
        0.7633586900851478,
        -0.09118187283835956,
        -0.0851372527794619
      ],
      "cols": 23,
      "rows": 16,
      "weights": [
        [
          -0.08445780166993197,
          -0.16380683089632914,
          0.16354622814767944,
          -0.3492494424099421,
          0.2470307539628567,
          0.0633393425533271,
          -0.3585779321601339,
          0.3550692295213353,
          -0.06396133397299404,
          0.08723642655075814,
          -0.3443619814271667,
          -0.3750279643244917,
          -0.007440004383762094,
          -0.24713105623495144,
          0.29015153795547033,
          -0.09291184515160668,
          -0.3540157760311955,
          0.26325348511079216,
          -0.08272046888583032,
          -0.26029816605481404,
          0.02374923002685776,
          -0.3603681347865936,
          0.0056852090485723285
        ],
        [
          -0.38591880664668454,
          0.5311209768977573,
          -0.12077579563719919,
          0.5568124635827891,
          -0.3249312919005451,
          -0.05445519564421808,
          -0.3156216266202441,
          0.1336824168392629,
          -0.3384429633940513,
          0.017967274686483244,
          0.1735263973278504,
          0.0758447100029531,
          -0.618920403131513,
          0.2540937546033665,
          0.3479825288129458,
          0.42873186030691485,
          0.39020174223342774,
          0.07765142695513333,
          -0.07655269766371628,
          0.12828741099798266,
          -0.24705912089110918,
          0.11308336262051025,
          -0.22840455811346497
        ],
        [
          -0.18456202080445125,
          -0.35431757234023975,
          -0.10397640814954016,
          0.169215791803987,
          0.3219083556871312,
          -0.04141294784778877,
          0.08614819553752837,
          -0.211987451897418,
          0.16787879943730608,
          0.08145911043556306,
          -0.0622610986990537,
          0.2236258221086492,
          0.2831098961006078,
          0.0590820965060352,
          0.22947132158817035,
          0.10313577539122037,
          -0.10756596001815474,
          0.1269340252362291,
          0.15429857301551295,
          -0.05530670494245775,
          -0.07214223121427649,
          -0.03867402283705096,
          0.13705826178483152
        ],
        [
          -0.1610903148931325,
          -0.14511098658969684,
          0.2555045821744595,
          0.32585565053460025,
          -0.13820215860657328,
          -0.20719410479978945,
          -0.22881946111121074,
          0.16483915062296275,
          -0.17982288328590962,
          0.19264582598405983,
          0.0534112623545247,
          0.10957839190847828,
          -0.3340536739739527,
          -0.13916641085968012,
          0.29682057512875976,
          -0.26342213637154716,
          0.3295555256177019,
          -0.36322807182159306,
          -0.14366847837407234,
          0.05069058710509991,
          0.287699676185195,
          0.3267359486111636,
          0.3506420751393205
        ],
        [
          -0.2577969554796665,
          -0.025671236002818516,
          0.06704397799166731,
          0.2767851297891185,
          0.03582487597479408,
          0.3291080611082527,
          -0.3366830711153184,
          -0.4571998076239383,
          0.20320281104409377,
          0.3132384529517565,
          0.25565200016572714,
          -0.23870841203035242,
          -0.5431070607891214,
          0.014750854561333761,
          0.25291995218844604,
          0.30157515215822683,
          0.08467407794047184,
          0.7341564144690347,
          0.09715786261973092,
          -0.02326130022059892,
          -0.23326870824320806,
          -0.40049099805668775,
          0.758061687121571
        ],
        [
          -0.12948002221437718,
          0.5202720478393515,
          0.13099477070048512,
          -0.2506374978981027,
          -0.36007663613705837,
          0.011812284276223675,
          0.038852858477585905,
          0.3351823358768541,
          0.16291724129696378,
          0.05704605164252253,
          0.3062523915261533,
          -0.22097610765034678,
          0.6081466213447274,
          0.15647127255730564,
          -0.08346011725204425,
          -0.21694154064660778,
          0.02088342423901035,
          -0.4611128502379849,
          0.5326000632989355,
          0.21029030661213405,
          0.8481016678810617,
          -0.32957191434281796,
          -0.6776837083458057
        ],
        [
          -0.14471171328632135,
          0.2731195249152254,
          0.14643015402481582,
          0.44971560920002723,
          0.33590680881936413,
          -0.07731637142698278,
          0.19929059660283793,
          -0.14032379369128647,
          -0.2056765290857987,
          0.28663701566154814,
          -0.3063959015833054,
          0.19231398761828655,
          0.037243886664052823,
          -0.11904778396258808,
          -0.23281470113229127,
          0.3667246514706706,
          0.4137336035304698,
          0.20152383167894802,
          0.2532407181409039,
          0.2193553417140802,
          -0.4616691095876958,
          0.390964973657893,
          0.16064388509616273
        ],
        [
          -0.3404637734004687,
          -0.4726620712608124,
          0.2799655095145605,
          0.29206515421018026,
          -0.20556253098931018,
          0.1815144116210217,
          0.36448341136899337,
          -0.2648452347807876,
          0.1983935164893982,
          -0.2945966112665577,
          -0.25406690432992085,
          0.11146022361335671,
          0.0030199187946142714,
          -0.5979161855717107,
          0.1527518587784998,
          -0.3548480945233737,
          0.3186999741310271,
          0.07370171627105736,
          -0.3431159553937683,
          0.04431769518902705,
          -0.6778565342175762,
          0.6422306208161127,
          0.2839917105443437
        ],
        [
          0.11931082424779776,
          0.2986306885402913,
          -0.14530307574755016,
          0.053440130366487246,
          -0.10762174308628729,
          0.18386151052619404,
          0.1730894414501376,
          -0.03287779911750151,
          0.2704468660476706,
          0.2549262697176023,
          -0.10306612536840083,
          0.010610707673916834,
          -0.30278685384388915,
          0.11158557828772753,
          0.3477750911740191,
          0.354960307564423,
          -0.26559132335560537,
          0.2262772780177859,
          -0.17737554373872988,
          0.06963396208711012,
          0.3132509694935921,
          0.11815218449016085,
          0.24721678682537515
        ],
        [
          0.16565747994392926,
          0.24866692968510654,
          -0.07067934840759402,
          0.1927762508280163,
          0.17659446337885407,
          0.25712777787771907,
          0.3197260829167976,
          0.2696388307143275,
          0.1645388070912107,
          -0.06266077354940724,
          -0.13466352627155054,
          0.2278926092899858,
          -0.11717798864488758,
          0.19381540668093772,
          0.010665703302854636,
          -0.07667486714242555,
          0.15670971209034962,
          -0.04188095473743901,
          -0.05105180518346049,
          -0.08309370662323623,
          -0.2558573455054154,
          -0.191084534228065,
          0.2669060722445678
        ],
        [
          0.13865976090783738,
          -0.27974536476609024,
          -0.3824502629953499,
          0.2656717314041053,
          -0.3906754431530274,
          -0.14465842255605343,
          0.12138268265509766,
          0.055087543963398974,
          0.190299534323769,
          -0.38858323081756,
          -0.038546628988878937,
          -0.3505281702183914,
          0.7884347535263221,
          0.4168356367396002,
          -0.38179081205242776,
          0.2026923057584987,
          0.306176579755852,
          -0.16460963916402205,
          0.2586273813146837,
          -0.2030513562762152,
          0.5279129354594897,
          -0.02835992124388946,
          0.29925103574814593
        ],
        [
          -0.3426516011869302,
          -0.42562415316607827,
          -0.36578546542142815,
          0.22165459591756534,
          -0.11396864652962045,
          0.4584418458071512,
          -0.27594024578681264,
          0.11105116327791319,
          0.3296770630357203,
          -0.21424719835950684,
          -0.010513749024622548,
          0.013430104892779446,
          -0.4123102249695646,
          -0.40132229252609974,
          -0.060566607491650395,
          0.04806361985997967,
          0.20070817803888852,
          0.3084218302447726,
          -0.15090609024900542,
          0.17815702582151136,
          0.24797529642637758,
          0.17959099698544634,
          0.31629449435713813
        ],
        [
          -0.19126895109990666,
          0.29268458098200356,
          -0.07347773553829644,
          -0.2544206225231597,
          0.1913658064505708,
          -0.02588114231299317,
          -0.34233186717312675,
          0.16671372925456682,
          0.11088909876529335,
          0.33044376038252227,
          -0.3760554647172515,
          0.2703624060074932,
          -0.37779319948694745,
          -0.0372367210204558,
          -0.2647053462013476,
          -0.18389186207754243,
          0.04643950236116079,
          -0.08203814048146277,
          0.019771253434859325,
          -0.3212906741993082,
          0.33361804377273774,
          0.045716943330177895,
          0.017832222732048965
        ],
        [
          0.07842604898177054,
          -0.25811985746330246,
          0.2567251218567641,
          0.05300115505089265,
          -0.01950725147439321,
          -0.08614837416666996,
          0.19363526412317614,
          0.0558180058374184,
          0.21523646064094962,
          0.0566849456637484,
          0.0666077305495943,
          -0.03599014665196207,
          0.007514004701973375,
          0.3068015532976174,
          0.33136823539005644,
          0.34079120169138344,
          0.14701268667700523,
          0.3066347867383746,
          -0.38285733366172353,
          0.16643183909896997,
          0.29874380751616625,
          -0.3464295783068754,
          0.0871062935773213
        ],
        [
          0.20617710802107161,
          -0.13382907036250943,
          0.22415000658478143,
          -0.363909617067254,
          0.04780242091690748,
          0.2280992146144426,
          -0.316531279925164,
          -0.08007627510507659,
          0.3159919131030506,
          0.3636220972966688,
          0.045227978277228305,
          -0.06536533050481073,
          -0.007333334881921284,
          0.13903079237792754,
          0.39215881680442444,
          0.2998701033404223,
          -0.22176488062714309,
          -0.319882541407263,
          0.27908657356444444,
          -0.1810147532978093,
          -0.3676839937111032,
          -0.15236336486370394,
          0.17567306217638162
        ],
        [
          0.23877888871523184,
          -0.08983939396298384,
          0.2904369361823804,
          0.08472958718731352,
          0.12359882446160521,
          0.07092446740691376,
          -0.3225022256196755,
          -0.3005432937438592,
          0.15337881339220813,
          0.09374932468548933,
          0.0004911097746031932,
          -0.15785485310607114,
          0.13305535039326563,
          0.3139057646668118,
          -0.05783569212768439,
          -0.17113113711205818,
          0.3546046509230825,
          -0.015781027855995153,
          -0.38900385429479134,
          -0.002145630965395306,
          0.23428640598797815,
          -0.17274335570754018,
          -0.03870980382486847
        ]
      ]
    },
    {
      "activation": 1,
      "biases": [
        -0.07130807887917455,
        -0.15129923996233216,
        -0.040018765448684344,
        0.2973534073954433,
        0.15451415595912266,
        -0.11896034476468302,
        -0.40812047641616855,
        0.24921897366874388,
        0.02236330951457305,
        -0.45016593799351173,
        -0.39129436662780176,
        -0.47128797121210064,
        -0.21310704387710225,
        0.5238928192268876,
        -0.2841889761073534,
        -0.5791170545467051,
        -0.3542786037305478,
        -0.28214215368010936,
        -0.37143287041793904,
        -0.19526485643030259,
        -0.3695541643728833,
        -0.21564131081714577,
        -0.05965054451805855,
        -0.05551848945929565,
        0.1560885377054556,
        -0.06321839985010128,
        0.0035493320796956096,
        -0.30979305800107926,
        -0.08512421803677579,
        0.34229116280945493,
        -0.31760972544768973,
        -0.19299811872595574
      ],
      "cols": 32,
      "rows": 23,
      "weights": [
        [
          -0.23125834789777125,
          0.14896093220419784,
          0.08459617066871765,
          -0.02689964078127601,
          0.02154040984088912,
          -0.31897741458968293,
          -0.32407951587033923,
          -0.043858839577396,
          -0.20521935311605166,
          0.167573365113645,
          0.2145670322476118,
          0.18402051128445182,
          0.00211414903337863,
          -0.17714315130719555,
          -0.04695208798307069,
          0.21796016686866507,
          -0.24066485950065827,
          0.010464227829294846,
          0.01631244709684718,
          -0.2709344575475479,
          -0.1592065095436215,
          0.07637058551420114,
          0.20275943249389253,
          0.23361867283434945,
          0.22961251500232527,
          -0.07101861336373029,
          -0.13230414753466302,
          0.11706154009035566,
          0.2809747859179859,
          -0.2915792861767969,
          -0.005670664083134142,
          0.213114362455928
        ],
        [
          0.3678872489637798,
          0.14416874010631123,
          -0.15735125779549725,
          -0.10235001384398662,
          -0.2318087109810288,
          0.20408391381433233,
          0.04446875605035299,
          -0.08847868090458849,
          0.27649731271723105,
          0.05871369960005409,
          -0.0553421395491919,
          -0.07147808607042344,
          0.07279207676186049,
          -0.20863745568971892,
          0.30139580017531364,
          0.32949229846189637,
          0.1338722969881699,
          -0.11781923331763965,
          -0.34587138711296944,
          -0.15821909772903917,
          -0.12001880555583948,
          0.17621154503277803,
          -0.07658627976277695,
          -0.22544374432638126,
          0.021613331827211413,
          0.03663079528435146,
          -0.14554948086751002,
          -0.5685222384892079,
          -0.03597420760086827,
          -0.4139872412456149,
          -0.10317038685935455,
          0.368283314467567
        ],
        [
          -0.30513737395593044,
          -0.14787830408265956,
          -0.19365157851515108,
          0.14504900846357494,
          0.20933586466619217,
          0.08004350931335483,
          -0.052146421494526946,
          0.08611219441507759,
          0.25564196529402883,
          -0.14790928866765857,
          0.1589069203496878,
          -0.10310184478853587,
          -0.06691723243330952,
          -0.03337046664241903,
          0.29634689527463953,
          0.0545830204886254,
          0.18764178081547442,
          -0.02005833369842714,
          -0.27528192360235565,
          0.06986625211166304,
          -0.08310062120612033,
          -0.16595325190244745,
          -0.17286599025182195,
          -0.2508807649313834,
          0.2744295197669938,
          -0.12708226828798513,
          0.13197708403049407,
          -0.3227615582277976,
          -0.2432124674751062,
          -0.07857719866854371,
          0.0908703322810078,
          -0.24536438382946202
        ],
        [
          0.09947263846977267,
          0.022808230345049342,
          0.21619991854210482,
          -0.38362848435964125,
          -0.25682425494463623,
          -0.00377119117261782,
          -0.04082401358729449,
          -0.0075281383112087725,
          -0.09189204785907641,
          0.04490462156914291,
          0.3834226943539578,
          0.37802964200330413,
          0.22315247093457283,
          -0.31760608819149205,
          0.25014832527314657,
          0.13952105707067688,
          0.3381464784104976,
          -0.03999706070952228,
          -0.04586522434623806,
          0.3073042505483962,
          0.11776885197029824,
          -0.059065314365809155,
          0.10208048811627715,
          -0.13674774338644852,
          -0.1168678481702153,
          0.16379937127914596,
          -0.19347520769088628,
          0.3370219484678828,
          -0.037824434500462946,
          -0.12211716763834003,
          0.24822136112654064,
          -0.22416954694181704
        ],
        [
          0.266435433887221,
          0.14473206580022827,
          0.20564453181169953,
          0.18687959654720138,
          -0.1258273034328162,
          -0.05369803288867898,
          0.0918033983500616,
          0.24723070087881835,
          0.22160691655533882,
          0.09432036679521177,
          0.20187794864738076,
          -0.04068674608344332,
          -0.17844297806133036,
          0.24604422100379703,
          0.014771933832541663,
          0.10093539556181186,
          0.11077668358345864,
          0.14479912969227077,
          0.27084294741127307,
          0.12314342812256591,
          0.279775672406605,
          -0.06737600157432373,
          0.10346224030389853,
          0.2458094926137595,
          -0.29872825239120593,
          -0.08992695268706226,
          0.21687356951634876,
          -0.3014328431012411,
          0.1077216773547671,
          0.2689783402621149,
          -0.10640470374966787,
          -0.04408361331564493
        ],
        [
          -0.0686466822655392,
          0.1673129388281609,
          0.2648523674472895,
          -0.2637813297212895,
          -0.28598488093911073,
          -0.09584138944794256,
          -0.19674291752660303,
          0.10424297624589365,
          0.2275184560667407,
          -0.20444841214887682,
          0.17293527861943403,
          -0.24313640173163065,
          -0.018087649067937427,
          -0.014525018055237645,
          -0.07284319646526298,
          0.027096017903857902,
          0.2533193870191108,
          0.12304738000942995,
          0.005532634836050094,
          0.10342675413552228,
          0.10535900862584639,
          -0.09848348511670839,
          0.23968945850828532,
          -0.01422014567735238,
          0.3815750827684479,
          0.1131199535852937,
          -0.05024168157101305,
          -0.29029049728030976,
          -0.18501243353899577,
          -0.33883303681772076,
          -0.15168493320694454,
          0.2995940572167752
        ],
        [
          -0.21179670390139707,
          0.2394671897708844,
          -0.05507170669751088,
          0.20851974786602323,
          0.02138535545515213,
          -0.10853704876747088,
          -0.19637757119960483,
          0.301202642108295,
          0.2066720471823139,
          0.1999640821339811,
          -0.14780739945010096,
          0.15631578582215122,
          -0.09534395020461561,
          0.19491857751130903,
          -0.167368348449441,
          0.3044540755192906,
          -0.06389110867390423,
          0.00929648000352014,
          0.2757534721330565,
          0.1135090829981053,
          -0.10783487395161363,
          0.10099801002250265,
          0.11651310945553899,
          -0.010976686931483383,
          0.1131638153101264,
          0.2568855835624322,
          0.16973020485767654,
          0.19178198239338032,
          -0.19803526897068782,
          -0.1453129072999522,
          0.05338191751701012,
          0.036785170276604856
        ],
        [
          -0.2689711106838374,
          -0.2655830249049322,
          -0.16918599823284572,
          -0.09790424288243918,
          0.05549088738412945,
          -0.24152709799482258,
          0.19830685527494762,
          -0.24538127124376502,
          0.05698625109345679,
          -0.19472962602957533,
          -0.236932341911532,
          -0.30594848282316195,
          -0.12263983359215362,
          0.15527552215579984,
          0.21252727034919155,
          -0.038458930812533,
          -0.1470027521971626,
          -0.18658280780466036,
          0.18015395878515786,
          -0.2808811414418523,
          0.1721687752911156,
          -0.21429199544292699,
          0.008773439318702152,
          0.3300902096256707,
          0.36739701552617254,
          -0.1253191234176633,
          0.013492061862160794,
          -0.40333218299812107,
          -0.2605480468860065,
          0.3142186407160734,
          -0.26566095815854335,
          -0.03362568188293386
        ],
        [
          -0.3236103920035182,
          0.21974990049411414,
          0.38496966743218725,
          0.08412282568720503,
          -0.19493937628229596,
          -0.021868887771671338,
          -0.3709957410218558,
          0.21215062969237913,
          -0.12786885257736078,
          -0.4011331279423589,
          0.26837131569541645,
          0.06006350988453715,
          0.2632075748864441,
          0.46239535077409577,
          -0.12828995481270627,
          0.06169912770464823,
          -0.17231087836346215,
          -0.004189695558355062,
          -0.32811048857530883,
          0.1164652804425507,
          -0.24332588441008662,
          -0.04217155641583143,
          0.07431161724146156,
          -0.25755109019810024,
          0.14171689834308984,
          0.07800517835349705,
          -0.2109794827897983,
          -0.22429604655093605,
          0.1524825395894989,
          -0.08091366213204881,
          0.12302744117325355,
          0.02214610826722386
        ],
        [
          0.008706196000805246,
          -0.2689374458018575,
          -0.3229430618916665,
          -0.015170169960206823,
          -0.12331394065374965,
          -0.0137654748408233,
          0.21088753127936963,
          0.12370686833103377,
          0.04109932016908354,
          -0.2636318835518877,
          0.2625680900968568,
          0.16936693820915735,
          0.0857371616974111,
          -0.19824927947713353,
          -0.1286805938407293,
          0.06672649087490545,
          0.013468807317322602,
          -0.018473123931196957,
          0.17709789317619068,
          0.26496340763724247,
          0.24865093094900417,
          0.27529182591096835,
          -0.0391537787806402,
          -0.25694081413132963,
          0.011547494171826777,
          -0.17628573681915732,
          0.2514228278058572,
          -0.29508935469428815,
          -0.28201105342907096,
          0.19512751026918326,
          -0.29087223264449563,
          0.05143645904755316
        ],
        [
          0.1089275427880365,
          0.0958012209838009,
          0.24396832083777945,
          0.00991136932745237,
          -0.2899775707994525,
          0.18507380092304526,
          -0.027647685677165065,
          -0.02914358153947584,
          -0.15275385805507277,
          0.256583029718431,
          -0.10339801223922006,
          -0.02145515954332379,
          0.04212721804709083,
          -0.21465231798027717,
          -0.037703561164842074,
          -0.15708563798698164,
          0.21857885204341376,
          0.3221007852408232,
          0.0359439141139628,
          -0.27100862028931544,
          -0.3317044772225595,
          -0.24514615872446333,
          -0.3127766812477445,
          -0.10594215966695485,
          0.2169575075799898,
          0.20155610525025805,
          -0.17159048580995545,
          -0.18754886871447368,
          0.01764115956778816,
          -0.15993544625520764,
          0.027441762245694973,
          -0.019582337617503793
        ],
        [
          0.30427260086000796,
          -0.05107587539272433,
          0.04407127659624302,
          -0.22950611594470932,
          0.24738013677886295,
          -0.25427965326652435,
          0.18475903435656174,
          0.15980260768705917,
          -0.06729803914705061,
          0.33004240079804037,
          0.14603600809176454,
          0.20666122209437032,
          0.15859784418371334,
          0.22164117983586237,
          0.0677530479591957,
          0.020905877474386207,
          0.2177324340819553,
          -0.3020700165300121,
          -0.04044997993736046,
          -0.002171959725651573,
          0.2566846894225506,
          -0.06774122915417288,
          -0.18950753239534493,
          0.28782705038384954,
          0.11996591781825049,
          -0.23696631895603512,
          0.053374258526007134,
          0.2509907548797703,
          -0.22070404742668492,
          -0.2795114747858221,
          -0.20122932580570152,
          0.06422279005837764
        ],
        [
          -0.07334292541139144,
          0.002530143770812562,
          -0.18204440906580585,
          0.5230945894859415,
          0.2163778536813696,
          -0.5104468835861365,
          -0.4475139600763462,
          0.5879218727593176,
          -0.04180621920857983,
          -0.2085063665045108,
          -0.3377309680591864,
          -0.008820531301009082,
          -0.47843547619186444,
          0.21674797566961873,
          -0.5745573357705254,
          -0.7548750391192414,
          -0.2584607077726516,
          -0.31295239517403506,
          -0.46083685547981595,
          -0.02382586617044544,
          -0.30425712652097836,
          -0.012475604109501713,
          -0.24408300429685753,
          0.34990509883942245,
          0.023250132793306524,
          -0.13703191372983883,
          -0.01081774991489152,
          -0.18031129149802108,
          -0.009858929272432395,
          0.2897186627410848,
          -0.5393365667964681,
          -0.5075946531160894
        ],
        [
          -0.1870234116515878,
          -0.06006115125443429,
          0.04187883215158819,
          -0.262274574094934,
          -0.1553366028887031,
          0.030923656348357864,
          -0.30512888089713613,
          0.3481711492663917,
          0.11556435743804581,
          -0.0434795023414245,
          -0.3939003933103844,
          -0.24122278666148528,
          0.10059613746630816,
          -0.2505809687661556,
          -0.030604890898170936,
          -0.016472176599083958,
          -0.49019109427967983,
          -0.41427726033481904,
          -0.2388881025587256,
          0.06374954649478053,
          -0.2234333870204803,
          -0.24477507491293607,
          0.2646821374541817,
          -0.12065316284696725,
          0.14288321890865022,
          -0.29249001978682954,
          0.24976931006813563,
          -0.5407542698622346,
          0.16821365821939982,
          0.05896342188907409,
          0.16247576089695678,
          -0.07845908932743778
        ],
        [
          0.12144505649161262,
          0.2643366655821404,
          -0.12934026547233918,
          -0.3128538535258006,
          0.3227563044276879,
          0.2913632461883235,
          0.021806154412320648,
          0.2719239788248729,
          -0.32571934485186915,
          -0.05321691642213316,
          -0.059726653948005366,
          0.23059545838595488,
          0.1942637113098434,
          0.2519686630641127,
          0.16820833141228383,
          -0.3277430771724768,
          -0.012754020411112548,
          0.13916249169034428,
          -0.3016220715297546,
          0.17158847765511526,
          0.04387554932764906,
          0.2100060702983555,
          -0.2806589908875345,
          0.03767947236278884,
          0.06561807582580141,
          -0.09481722417820496,
          0.10205016035995887,
          -0.07308345145231569,
          -0.17856340944223975,
          0.16166573784223848,
          0.30349698659732355,
          -0.08831737241121139
        ],
        [
          -0.2874945007291744,
          -0.08191473928468099,
          0.09166400340174684,
          -0.3476644953627524,
          0.27431336034653175,
          0.17678668770906983,
          -0.33168038082925716,
          0.08517383449476681,
          0.1941751609400791,
          0.025602472890602385,
          0.011705845186794187,
          0.390979877559409,
          0.31613745354849626,
          -0.2860355339454022,
          0.05828286799088546,
          0.02087159325388834,
          0.2347840352335342,
          -0.20216195090372086,
          0.19047391969920166,
          -0.12985558143361545,
          -0.3286244521158035,
          0.06618463970068655,
          -0.1342732575719761,
          0.18864429287024412,
          0.25530206602048844,
          0.2165809075057084,
          0.13108337989581687,
          0.09352139607338576,
          -0.17816668798468727,
          -0.26654620986600347,
          0.07684825819091043,
          0.23642500636332156
        ],
        [
          -0.18416919482146754,
          -0.061804503358556334,
          -0.07455781559943614,
          -0.2519273386279176,
          0.13383573638998844,
          -0.08230056288556362,
          0.006366509664975636,
          -0.003745989166120951,
          -0.32085440790145286,
          -0.020747608435256065,
          0.03219811522880028,
          0.41130498924432174,
          -0.217408827245307,
          -0.46554391597007105,
          0.1931207396546772,
          0.14334339891458447,
          -0.26142208123154154,
          0.33457148288187505,
          -0.055708178573917785,
          0.1407619182354119,
          0.023094342088930686,
          -0.22417182949145453,
          0.05889449898721409,
          0.051302365017315735,
          -0.07649928951008872,
          0.08923413347822144,
          0.005960405338533127,
          0.271126834506018,
          0.23914522998646193,
          0.428183449397928,
          -0.1916494606883335,
          -0.22771820139809787
        ],
        [
          0.2770385208337394,
          -0.37664926922233316,
          0.5229128336669409,
          -0.13909887360510276,
          -0.03203673444236049,
          0.08875528894021616,
          -0.017975441688117804,
          -0.39625299975252104,
          0.3121399951357904,
          0.20053704026084176,
          -0.2647357620877198,
          -0.05169063025142574,
          0.3703565990367757,
          -0.24006690912907613,
          0.3470960531727483,
          -0.06206638801628539,
          0.10952494942548559,
          0.1294614150928336,
          -0.25738362844960244,
          -0.08285808174930188,
          -0.12848305576196314,
          0.002743261344541393,
          0.12672128959048157,
          -0.11835089792144637,
          -0.03876111849755781,
          0.029144286205825595,
          0.26162961388854417,
          -0.12603129108322492,
          -0.033384418124016185,
          0.14293545071622032,
          0.18831395558247663,
          0.3886832140094362
        ],
        [
          -0.17004012817429837,
          0.06906953533467192,
          -0.005451366013650018,
          -0.281733272055059,
          -0.08510908619828904,
          -0.3187445227510216,
          0.03441432786121366,
          -0.024390771157452355,
          0.3326369167896601,
          -0.5120779458473299,
          -0.04400930193767056,
          -0.08397803492978352,
          0.1468543838192119,
          0.042981615757237385,
          -0.1319405081749713,
          -0.029992392046640753,
          -0.014078943247152531,
          0.16216450386401707,
          0.14880315883048717,
          -0.2837224858184214,
          0.10327428413021207,
          0.10804902653712031,
          -0.1564076847444093,
          -0.11940647967527829,
          -0.20500000817411992,
          -0.41902154003798325,
          -0.08226901044876805,
          -0.22598496753304942,
          0.06760614637880563,
          0.29164240592998675,
          -0.14818801754019473,
          -0.2575558506779698
        ],
        [
          -0.025628443734518714,
          0.2409333578470466,
          0.28567678622229964,
          0.13842581027495637,
          -0.21099884968785954,
          -0.19872299573259739,
          0.12546556570580328,
          0.21264093449417024,
          -0.2727363718551749,
          0.2182552514680894,
          0.17337168190672772,
          0.2405344404859885,
          0.27583531740693945,
          -0.10970526887601428,
          -0.20202041985257374,
          0.1344673515343761,
          0.21754819332520994,
          -0.03864799464667587,
          0.22641018877872865,
          -0.12039225519268049,
          0.04950017363640218,
          0.25892225744403663,
          -0.10848720105390632,
          0.23084648524211995,
          0.23509306054345977,
          -0.3133734117525212,
          0.3134652060768328,
          -0.24406083564786796,
          -0.23542359321131712,
          0.02079541733528957,
          0.2268710479233659,
          0.20546441445601946
        ],
        [
          0.0335270941399563,
          -0.047014199944669266,
          0.11203342043850893,
          0.29956674285490453,
          0.32998781580168146,
          0.17807286877504794,
          -0.049450480689121605,
          -0.11598707798901513,
          -0.062481468015576004,
          -0.3690760381422439,
          -0.7015558845709983,
          -0.4339065410427264,
          -0.14909548828708272,
          0.47504737410539755,
          -0.2771282886818818,
          -0.19002946032699874,
          -0.633746492661269,
          -0.2425301064222833,
          -0.200199147307766,
          -0.3308416670183329,
          -0.3337681874617551,
          -0.2535630437871852,
          -0.3051895838497542,
          -0.22990771315845063,
          0.29810391024503247,
          -0.13328133263899117,
          0.020190479581447412,
          -0.556254353316823,
          -0.2738425798473667,
          -0.1884194422703159,
          0.14608492999709058,
          -0.018407486679392984
        ],
        [
          0.08881375711929472,
          -0.16356682864469363,
          -0.33069271792717814,
          0.40269553589150553,
          0.10609025354246172,
          0.15726029669730768,
          -0.03874815726414845,
          -0.12761276486099632,
          0.01816643344846117,
          -0.043788386608787214,
          0.17813942331377397,
          0.4077687035080591,
          0.009148371873829416,
          0.3425619875981191,
          -0.14877785372153396,
          -0.3470888995189953,
          0.006685065402671156,
          -0.05256823133917046,
          0.3653605335371019,
          0.10257296854243621,
          -0.16021528109669414,
          0.1876151352514513,
          -0.22724825171233065,
          0.12801876297509263,
          -0.42021344853450493,
          -0.18356271233357183,
          -0.34867224782282275,
          0.32858909926569824,
          0.12143179569187412,
          0.45167496163845283,
          -0.016073849871322727,
          0.23721659072291781
        ],
        [
          0.2897232802296746,
          -0.20184456976302675,
          0.7057604361336173,
          0.07022668401773535,
          0.15024985713910372,
          0.3381112179203228,
          -0.014201908457145333,
          -0.19499718274827205,
          0.1256077971770357,
          0.270499736238606,
          0.20967574090236876,
          0.18654165893919022,
          -0.09443801054380159,
          -0.012818894841202081,
          -0.1769204815288835,
          -0.06973445205120131,
          -0.3073379308461904,
          0.5708889174629884,
          -0.06984336305126526,
          0.10256764311080749,
          -0.01395608540662906,
          0.4316302550380879,
          0.273560120538875,
          -0.44644920195477955,
          -0.306328009381958,
          0.3802920814356585,
          -0.012597297821874092,
          0.3295580757908704,
          -0.21032407529224617,
          -0.28210145471807546,
          0.08796382181301143,
          0.17134166407198892
        ]
      ]
    }
  ]
}
