{
  "layers": [
    {
      "activation": 2,
      "biases": [
        0.0,
        -0.1978128951310288,
        -0.0055279080342771755,
        -0.43253380085763005,
        0.39011958454121776,
        -0.3045458610423357,
        0.0,
        0.0,
        -0.2332312597464231
      ],
      "cols": 9,
      "rows": 3,
      "weights": [
        [
          0.16811286769355951,
          0.16906122272539534,
          0.4707235593601226,
          0.6445705286121876,
          0.7413654480168315,
          -0.30655993751149746,
          -0.5663036406528209,
          0.30944755571987437,
          0.7044715861486098
        ],
        [
          -0.1257302957904751,
          1.7131676607899973,
          0.9186872532467929,
          0.8687825746070912,
          -1.2076753747222866,
          0.8979762317338953,
          -0.20801368103138537,
          -0.5924134243152043,
          0.6666586633277956
        ],
        [
          -0.31401916511097416,
          -0.08755123770411245,
          1.039775381435008,
          -0.13986317965194506,
          0.9261938378917334,
          0.23954139887023676,
          -0.15001090820226745,
          -0.6289433590493396,
          -0.24472855321832485
        ]
      ]
    },
    {
      "activation": 2,
      "biases": [
        0.3095120743283691,
        0.02596909755457638,
        -0.024484304695092506,
        0.10532485059789239,
        -0.5371698276158692,
        -0.3430934203446679,
        -0.04094831073612538,
        -0.02637375462459242,
        0.4880885770085183,
        0.2795783619370784,
        0.0,
        -0.08390583718777278,
        0.4785057439081235,
        0.0,
        0.4212660692808557,
        1.3689873187507924
      ],
      "cols": 16,
      "rows": 9,
      "weights": [
        [
          0.02993211590341114,
          -0.34751039051099913,
          0.3672049768460143,
          0.3998686072578418,
          -0.032625877527647104,
          0.15888565101428648,
          -0.20104775022612553,
          0.04724935299534586,
          -0.3412226659122735,
          -0.3657481436188568,
          -0.16755927001888465,
          -0.3582115021187264,
          0.22407221526947246,
          -0.4290258068368673,
          -0.47160490123290394,
          0.3290229328633822
        ],
        [
          0.4295661175592304,
          -0.08367793260876646,
          -0.12057181668547864,
          0.6093999252758474,
          1.0163910560470577,
          0.4447224577976735,
          0.28139415742056584,
          0.47846894172451915,
          -0.5309168768456755,
          0.08214720608068547,
          -0.2352429038530735,
          0.8153903352413439,
          -0.4704224498331611,
          -0.3187286506663371,
          0.5931650597170127,
          -0.2611772419930742
        ],
        [
          -0.3931626703592852,
          -0.16200498728694812,
          0.232817110025863,
          0.2093758481069766,
          1.12071109789971,
          0.2113145455015946,
          -0.25505432679599876,
          0.13044567222263723,
          0.7546363675028782,
          -0.24992589158661885,
          -0.25104020655656933,
          0.2943247772804292,
          -0.11188025069075935,
          -0.3282622308736758,
          -0.2095570280628345,
          0.3089715333198174
        ],
        [
          0.23130363051494207,
          0.34476902380984215,
          -0.17044189426000858,
          0.6153513356199574,
          0.7067788726108761,
          -0.4277057451517824,
          -0.10168511965198847,
          0.017104551785638578,
          -0.3222671230754811,
          -0.3767393215696519,
          -0.23161862651549792,
          0.3912062404671152,
          -0.3584262143678773,
          0.1273823509614492,
          -0.42442382196453293,
          -0.6002496356170601
        ],
        [
          0.0021647525913905744,
          0.21508233534444668,
          -0.22430134124653903,
          -0.27754401505700865,
          -0.9674849124601289,
          -0.329321718115574,
          0.19064154309263306,
          0.6115756427264541,
          0.6418272545782582,
          -0.4766598133084392,
          -0.08515661494728444,
          -0.7890062333113504,
          0.7136587289860782,
          0.061137416578179164,
          -0.4020916465333645,
          0.1861488362328144
        ],
        [
          -0.25980347191143494,
          0.25505242348244,
          -0.45749009365344795,
          -0.018044197167176607,
          0.6436322736587101,
          -0.3105667251575003,
          -0.18041287439675285,
          -0.20427449781354967,
          0.23143569088049304,
          0.4650256619576012,
          0.2545782634798867,
          0.6809550838026094,
          -0.38786303570784064,
          -0.2693356423648552,
          0.5224212297258708,
          -0.4731889700457423
        ],
        [
          -0.472200427310915,
          -0.014791230805836804,
          0.14104233274759775,
          0.10339632173056926,
          0.4171722160721001,
          0.3816073744571223,
          0.45979148126519115,
          0.21985730151749014,
          0.3523245396780367,
          -0.13869604201627708,
          -0.07180838719896776,
          -0.33462173091607933,
          -0.0073415529561324045,
          -0.06709656280899867,
          -0.26633861209643395,
          -0.1570473961945668
        ],
        [
          0.07418480294837139,
          0.2719417130713529,
          0.37221137187261516,
          -0.3759421532649128,
          -0.006004218782183206,
          -0.0688000026179166,
          0.06518509169856734,
          0.3313385903107568,
          -0.3678637838489961,
          -0.12993893509675128,
          0.2249815904991785,
          0.041017923631617645,
          0.06480250255452959,
          0.05314644653432159,
          0.3344004057703524,
          0.0745589810680046
        ],
        [
          -0.5329606164635979,
          -0.24171179640696844,
          -0.24180659868255502,
          0.44799235039794133,
          0.42775261418495153,
          -0.10491355155557637,
          0.1463730182743817,
          -0.3039704170299161,
          -0.27768909254333213,
          0.004642900236580568,
          0.23322455957922764,
          -0.2432834406280182,
          -0.4657127390313582,
          -0.3415312649604793,
          0.19905694853047254,
          -0.2737668958455907
        ]
      ]
    },
    {
      "activation": 2,
      "biases": [
        -0.01924044146233372,
        0.12468977294325549,
        -0.13984568622442325,
        0.0,
        -0.07011840327248656,
        0.7245592485351325,
        -0.11089067837271208,
        -0.026605518468225262,
        -0.29763985001660154,
        -0.6269196245394835,
        0.8107737345521754,
        0.0,
        -0.8550439515617064,
        0.0,
        0.8464997227287402,
        0.6364551483118502,
        0.006269536077743498,
        -0.509262753592236,
        -0.1461640523424751,
        0.0,
        0.31733027166580274,
        0.0
      ],
      "cols": 22,
      "rows": 16,
      "weights": [
        [
          0.1787435623161575,
          -0.20682142382014845,
          0.36669838700444146,
          -0.24181585980109715,
          -0.37721853556065554,
          -0.16473898364651735,
          -0.16648587640635168,
          -0.26307012829839554,
          -0.033071281664868016,
          -0.3669183107957143,
          0.2530360710969038,
          0.0708483370161271,
          -0.41507038748017283,
          0.07218974367570041,
          -0.3506067785562547,
          -0.3862466233114964,
          0.1985807798010029,
          -0.0726492930169886,
          0.12818940823327585,
          -0.2424607905263364,
          0.2763481827390885,
          0.2111488913799513
        ],
        [
          0.15234538336573117,
          0.1195653930209065,
          0.22515566528800537,
          -0.004071258659590143,
          0.3685000454275772,
          0.07882463094680546,
          0.07893277405892322,
          -0.39554489943055227,
          0.3741608667684938,
          -0.07017345357622834,
          0.16450726921801018,
          0.25831769998742193,
          0.3797976302070614,
          -0.24352358549614028,
          0.40456245992468853,
          -0.16345873591156804,
          0.3139870435538925,
          -0.04160029033254138,
          0.30543190251849056,
          0.28264984159084566,
          -0.02516202985332181,
          0.3572328455893971
        ],
        [
          -0.11709445029896937,
          0.36745264575216485,
          0.3915376781654645,
          -0.07977466717520616,
          -0.1075563937723261,
          -0.3771013293901478,
          0.2359199720292173,
          -0.09524738367480594,
          0.17491081380634704,
          -0.24444068105250724,
          0.35701342254053725,
          -0.00657629920087748,
          -0.044262980889833305,
          -0.09591810264448516,
          -0.12117701275727326,
          0.20621415484230818,
          0.32881934635571936,
          -0.1381752319826469,
          -0.05778255513334746,
          -0.33677070355602245,
          0.02821850738999956,
          -0.09273875484607683
        ],
        [
          -0.2962807205360878,
          -0.0061794556009647506,
          -0.21381424624226786,
          -0.08117939245294303,
          -0.15812237912214772,
          -0.15826076595636765,
          0.09810480391213364,
          0.12396781507388704,
          0.09488916674322274,
          0.4974364768825007,
          0.36850731522343677,
          -0.06186208992292803,
          0.2816924556910357,
          0.3901403451220528,
          -0.5217725730479791,
          -0.4523761893980973,
          -0.1699379623529648,
          -0.23132375288640591,
          0.1297304448775269,
          -0.11354645572437819,
          0.4619932679807845,
          -0.2154813752825213
        ],
        [
          -0.017147919463569115,
          -0.1711882302890993,
          -0.3821667727927232,
          0.15118529179468557,
          -0.1542544544177327,
          0.06773882425804993,
          -0.1549597180786766,
          -0.3927259384680556,
          0.45679517960091093,
          0.792640023488299,
          0.1198040563664853,
          -0.2231515100051346,
          1.0176530706706495,
          -0.14110641986397035,
          -1.0748021407506436,
          -0.8071350207439075,
          -0.3564083696031809,
          0.7594836469854555,
          0.1521041350073938,
          -0.25396777172209706,
          0.3863967336834144,
          -0.059103686092170704
        ],
        [
          0.06493500250264951,
          -0.2593012953304462,
          0.09213070086219952,
          0.2532318711134586,
          -0.19406598382968757,
          -0.24892360472182773,
          -0.2418995985154135,
          0.019865539683184538,
          -0.0038572249626164417,
          0.04890776670020977,
          -0.39598637585928126,
          -0.226512862332603,
          -0.100799311699465,
          -0.13286656449570103,
          -0.3581286598541621,
          0.20416073923357173,
          0.2697873666483924,
          0.39947111459254164,
          -0.15513442700627475,
          0.0016345445245948493,
          0.08364137855868527,
          0.04361564766972782
        ],
        [
          0.32232405598202424,
          0.17260603926202253,
          0.27267962260262524,
          0.3455945539125202,
          -0.13851418859479425,
          -0.29419407797351455,
          0.17797099830347426,
          0.09797147489106059,
          -0.18933023349111128,
          -0.1396199992953095,
          0.09462683487370646,
          -0.29568301912255374,
          0.06833551275075934,
          0.07320453241644738,
          -0.3491953747218746,
          0.13319340588118972,
          -0.3527037750925192,
          0.13185919183089126,
          -0.09795152367379432,
          -0.34338967350078525,
          0.13404737083750518,
          0.31689045673332367
        ],
        [
          -0.21935483320037813,
          -0.2993255170748196,
          -0.14641759603745075,
          -0.19653106531549563,
          -0.2866976667516289,
          0.31188987768557497,
          -0.1733868712138136,
          -0.054016005898985156,
          0.245737936134588,
          0.02655418490483026,
          -0.3320671734203176,
          -0.1640051561296391,
          0.05742745794150648,
          0.12292308121822555,
          -0.012501485841889644,
          0.1664532993453838,
          -0.10069378195120932,
          -0.4717753305763659,
          0.12502835262911619,
          -0.09785632388943126,
          -0.33820680774019046,
          -0.23160791298253236
        ],
        [
          -0.2497296204888404,
          0.2606856771422263,
          -0.023825545580915312,
          -0.2437291801415355,
          0.24716418300144774,
          0.21322826292390568,
          -0.016110420053390254,
          0.20748810431482592,
          -0.3841589495227891,
          0.30348390476324566,
          -0.6005930682673563,
          -0.3477304899009535,
          -0.6028207851457297,
          -0.3022509867510081,
          0.8104225962274656,
          0.5576628367286526,
          0.2516657173924243,
          0.1457735660661255,
          0.14370239021645767,
          -0.3967675491257765,
          0.19481976517269953,
          -0.09850255467081113
        ],
        [
          -0.28528076580972755,
          0.022503091173335356,
          0.30275183834553737,
          -0.3724696508456679,
          -0.17684441583673355,
          0.06726552901548592,
          -0.1941611218122363,
          -0.09509659335748856,
          -0.02276496314600588,
          -0.4041131587766869,
          -0.057349683741600356,
          0.06022854847324616,
          -0.3659130728612133,
          -0.08583850833700182,
          0.12921707344741873,
          -0.10249666282402874,
          -0.20407490844722315,
          -0.46382929332809397,
          -0.23802377519181972,
          0.01840672274423105,
          -0.12829850502849838,
          -0.13189649243119744
        ],
        [
          -0.03375803100944625,
          0.30445008259754675,
          -0.16159753542292532,
          -0.09259580233076516,
          0.026512285976865193,
          -0.36745859166790973,
          -0.14805943281335687,
          -0.10770252462832751,
          -0.36089976847077776,
          -0.3398916661403125,
          -0.1382458071219198,
          -0.21131955067100855,
          -0.030289503060333504,
          -0.27207277615676434,
          0.15764682542190708,
          0.02737823327734577,
          0.1220055831575993,
          -0.05749939942131903,
          -0.21177448705447027,
          0.2159370233107192,
          -0.3556266652700195,
          -0.3119019784908316
        ],
        [
          0.04255994272375105,
          -0.31826268371282057,
          0.25999333182234424,
          -0.19703669315641067,
          -0.2559473257557452,
          -0.08944449498280967,
          -0.1929153789957601,
          0.20749108949116257,
          -0.28575163175439544,
          0.06414597637297623,
          0.6703045564016741,
          -0.04662589343191526,
          0.9045688626028797,
          0.08836066461882573,
          -0.3701096611035005,
          -0.22169344834535423,
          0.15522253457799084,
          0.2412864450331395,
          0.3276419244443782,
          -0.23001404637451933,
          0.36316600466083054,
          -0.16729617479077935
        ],
        [
          -0.16302671197004015,
          0.407896041470089,
          0.32891752402780666,
          9.725422821916179e-05,
          -0.044589161375401275,
          -0.2056036423225414,
          -0.3250115899238301,
          0.15689425278674074,
          0.2979435684894625,
          0.04005792727259532,
          -0.1636515685669597,
          -0.04804847051954921,
          0.13121155122508346,
          -0.2528949641365968,
          0.6529045769723113,
          0.6483165263882505,
          0.1862955279266244,
          0.43511131139576653,
          0.13397908672787623,
          -0.33084655792289064,
          0.19253611450645366,
          -0.02952213095317154
        ],
        [
          0.20259221569784383,
          -0.3365599975028804,
          0.2981018555427473,
          0.045112985201815343,
          -0.22048631276125336,
          0.012324863981148884,
          -0.36325778498589106,
          0.04269014166295077,
          -0.021776738782006515,
          0.09573209321717464,
          0.2845312415377709,
          -0.11571915521327382,
          -0.3275347287416783,
          -0.24623489347020217,
          -0.12030849771708386,
          0.13848596631144727,
          0.3056257356148532,
          0.02317050406467888,
          0.2715417270928292,
          0.11364242044345364,
          -0.13717387660247518,
          -0.27354044480161815
        ],
        [
          0.37484812615988167,
          0.23445180122639303,
          0.2243259270462082,
          0.05162110287883151,
          0.06317001819401177,
          -0.10053129335944591,
          -0.23905207367130493,
          -0.13842012862634676,
          0.2968261152014472,
          -0.562258032204998,
          0.7622094659960749,
          -0.21343502659572192,
          0.18258172551181803,
          -0.3658646110783165,
          -0.30546988585165585,
          -0.21990162383732226,
          0.3801642520105319,
          0.003983948017027419,
          -0.3459404445841139,
          0.27740797674446954,
          0.18264413707769894,
          0.057555591970298324
        ],
        [
          0.08769456114103491,
          0.15207522141784466,
          0.1384276049684871,
          -0.237724264496154,
          -0.08007937305749437,
          0.7589432225597198,
          0.31750845542877143,
          -0.2916203075539118,
          -0.19376982239159674,
          -0.19413382122206974,
          0.3646917748834754,
          0.1609438806659583,
          -0.950952304301204,
          -0.3424104259190738,
          0.6479559331476417,
          0.6270288533423091,
          -0.0713346675738415,
          -0.13557372557479577,
          0.2069035943943201,
          -0.22293819606823992,
          0.12628432238494555,
          0.16330711590913755
        ]
      ]
    },
    {
      "activation": 1,
      "biases": [
        0.9453048749934972,
        0.6672536469253854,
        -0.34417096552711557,
        -0.25269342198267697,
        -0.3906589022774129,
        -0.44911305345648467,
        -0.7677090758285395,
        -0.040733861452797476,
        0.40567506247215823,
        0.48125337485326514,
        0.08813700536737908,
        0.22703326898772141,
        -0.2482669107155937,
        -0.5666356242760133,
        -0.6660121097288759,
        -0.14535352459894302,
        -0.07947975859171719,
        -0.4347270713789355,
        0.32539749708039917,
        -0.48080861336511976,
        -0.5009530859753565,
        0.22586826806620217,
        0.1264457949950708,
        -0.21746078188716236,
        -0.1962505160005752,
        -0.44873211285329095,
        0.4793634932181217,
        0.4247786015694638,
        0.3648248397755705,
        0.15562598370730368,
        -0.4908042728441961,
        0.8535019577103266,
        0.3448490417147757
      ],
      "cols": 33,
      "rows": 22,
      "weights": [
        [
          -0.21448196308559278,
          -0.20309854740034874,
          0.23148797440109192,
          0.05449936735465599,
          -0.3061253461847619,
          0.23434131396251967,
          -0.1888556916638353,
          0.16536606144180696,
          -0.01632759744140619,
          0.1913341410204312,
          0.01572093419283609,
          -0.08847334099904251,
          -0.06870708344989605,
          0.1774327642974399,
          0.04778994773728166,
          -0.1697518576281779,
          -0.18254278016898418,
          0.15540653857869338,
          -0.2831469913947148,
          0.21482731112191505,
          -0.20878431375897002,
          -0.16107078356905535,
          -0.242768051080616,
          0.11028736500002922,
          0.29705651410876016,
          -0.18508715797101902,
          0.09214698851167492,
          0.1868636055357771,
          -0.1920503060725756,
          0.16417985756297623,
          -0.2649793292270078,
          -0.19691348212138893,
          0.03731797587928289
        ],
        [
          0.20097292406075332,
          -0.47200460347319884,
          -0.2320241173316484,
          0.0517371916376016,
          0.23452046458841308,
          0.019131391801180533,
          -0.06548520011950502,
          -0.02223852594415643,
          0.23053707866944287,
          -0.2883280017697221,
          0.3472983229665702,
          0.4036347523504905,
          -0.17261001405218526,
          0.16373711590523676,
          -0.2965967214273792,
          0.2522829416420538,
          -0.304252098693568,
          -0.03509884236503986,
          -0.02256657441852977,
          -0.13374308718616942,
          -0.19582507666552645,
          0.2182971589481547,
          -0.05616075354346428,
          0.33117957154700745,
          -0.12861281017361284,
          0.1424978636425872,
          0.182258252981503,
          -0.21220421394753772,
          0.08865200472392253,
          -0.18467064045434894,
          0.3684357890880853,
          -0.18222590588473156,
          -0.15914597899694263
        ],
        [
          -0.14345314907269197,
          -0.2036690201565372,
          0.03731266514135107,
          -0.2710983099706119,
          0.07439603240105576,
          -0.04173774626480929,
          0.23307417283534743,
          -0.11789617426951171,
          -0.0784310650457736,
          0.30438565270811735,
          0.0040644151487479975,
          -0.17808647271628153,
          0.22331795275880734,
          0.011002782452431303,
          0.17750680310529443,
          -0.3002693811075124,
          -0.022491354539793715,
          0.25830389010653954,
          -0.04887712682852489,
          -0.3230545533809274,
          0.0760412877296018,
          -0.08288276507759954,
          -0.0006161269646151134,
          0.2576527047508104,
          -0.02385246220540456,
          0.16730025618048688,
          -0.2772874018618168,
          -0.08414919595393255,
          0.2241587944961197,
          0.021257054825528067,
          0.026411382885163318,
          -0.20342978387316193,
          -0.2276360412865501
        ],
        [
          -0.16439771091694255,
          0.14721022393895963,
          0.009733520663765604,
          -0.3186551384351913,
          -0.29972052077915773,
          0.27578617106636344,
          0.01062176787012931,
          0.257749309940003,
          -0.06006739941983063,
          0.26203525491401936,
          0.2043721068977748,
          -0.2922275363708561,
          0.0023832603890736226,
          0.31817934989892177,
          0.08879908985093994,
          -0.03206563029922348,
          -0.3075806919853251,
          0.03437683697002496,
          -0.023938281067732436,
          0.08912602828563364,
          -0.23647520403542344,
          0.01997154624223429,
          -0.21290576822181032,
          0.25161278894426053,
          0.1525712690623125,
          -0.28778752830108234,
          -0.15205327302202337,
          -0.06662638611503582,
          0.049819115190512214,
          -0.281881193589277,
          0.28992608049385626,
          -0.3260197832762907,
          -0.027755187913062387
        ],
        [
          0.1667004980751281,
          0.2956903600155549,
          -0.23225545720102064,
          -0.3291331755107259,
          0.16739652023910276,
          -0.1392934927940201,
          0.16360113016937203,
          -0.0798790531608135,
          -0.18898367176655248,
          -0.04854567726153462,
          -0.12407728645150816,
          -0.0679334265129899,
          -0.23946504437864644,
          0.25958288970266263,
          0.20018775710878667,
          0.10517775617563872,
          0.17579134825677292,
          -0.2351298984714916,
          -0.03779206178327513,
          -0.25060279051543105,
          0.261136417634313,
          0.08850965267955946,
          0.04504256112159838,
          -0.1652736233413028,
          -0.10046943256783918,
          -0.09087014931793978,
          0.21816200803914973,
          -0.10873383895741151,
          -0.3029378864656602,
          0.09096053310792626,
          -0.2980333688435415,
          0.08233806264421382,
          -0.11273543820834478
        ],
        [
          0.21533195769645994,
          0.5907565245690679,
          -0.06751264940187822,
          0.11824963801758107,
          -0.09643451288645434,
          -0.765020236786558,
          -0.2607992283750221,
          0.002453476671234284,
          -0.29371764458952404,
          0.1742497836669245,
          -0.019407363436446317,
          0.27314019127046835,
          -0.3935051023048455,
          -0.07098130228306772,
          -0.1283886444317325,
          -0.19590662914194307,
          0.18523084159130868,
          -0.15976959317073028,
          -0.15003945081269984,
          -0.23960877303452885,
          -0.06011058573539009,
          -0.296693349834643,
          -0.1918597055585427,
          -0.2397543735327923,
          0.024248798592433826,
          0.11020576317837245,
          -0.08727468383124193,
          0.343350007767906,
          -0.08556148878934963,
          -0.004064676990747588,
          -0.07986182046195019,
          0.5743543208055902,
          0.1671480068278497
        ],
        [
          -0.048973071217294745,
          0.25252930247587185,
          0.14841252526533624,
          -0.31068797222539574,
          -0.04680939020853031,
          0.11873524559028283,
          0.16027111382279843,
          -0.27658687488643097,
          0.2954447766980351,
          0.2590652616185187,
          -0.32673218393546805,
          -0.1483401916846396,
          0.10484099321394083,
          0.29689656388901153,
          0.08294054539598297,
          0.05521135479998527,
          0.1972171740091301,
          -0.19394391296278832,
          0.06287352619978051,
          0.3213298613931994,
          -0.18694071113426097,
          -0.245859856616056,
          -0.005305886282307884,
          0.025385488785939613,
          0.247472386899916,
          0.3229157912280869,
          -0.3177263293933491,
          -0.2941525287249678,
          -0.18968706076498199,
          0.3172421673864758,
          0.24313589863763826,
          0.06076763048261359,
          -0.29954659412195905
        ],
        [
          0.24559551284038042,
          -0.1175184262763061,
          0.14627679204138969,
          0.28107120042797307,
          -0.08770948757273496,
          -0.2202486212182989,
          -0.21096423380139057,
          0.26053029976211234,
          0.21604102502656186,
          -0.2138840371799868,
          -0.32877653322532663,
          0.13096802774105423,
          0.14140413611198335,
          0.2644147271648836,
          0.06623566305063208,
          0.23260314955166786,
          0.05528524568821445,
          -0.04936421053600575,
          0.16911466759531724,
          -0.043623432946575086,
          0.05050229427123072,
          0.1134136607103419,
          0.03733001861447832,
          0.07113395434835154,
          0.24762783586482093,
          -0.2886786484616207,
          -0.290967509942773,
          -0.033785762437916485,
          -0.17044191738700948,
          -0.2517918944597498,
          0.18189601436641614,
          -0.28936841570809985,
          0.047254996374068284
        ],
        [
          -0.31439133784002976,
          -0.10335999360853307,
          0.2748907329978385,
          -0.08269235658922618,
          0.11093062973323144,
          0.26295218682043525,
          -0.18877208901272208,
          0.23731525938450618,
          -0.008435563471172088,
          0.07625224523483168,
          -0.057790304398165,
          0.033891369017222735,
          0.1570012813352107,
          0.2681083928546305,
          0.27486310396528885,
          0.08765834958737238,
          -0.21896863756566262,
          -0.1868530287251902,
          -0.12061756235487588,
          0.3392515033358338,
          0.03026831011800438,
          0.16548017550608868,
          -0.22981693084476779,
          0.07100962446931997,
          -0.08410338673603895,
          0.14030966155741864,
          0.17918428036658152,
          0.055120575080162396,
          -0.2543532245942318,
          0.16961404418685844,
          0.3109242348031807,
          -0.19841065872135466,
          0.04974732260036601
        ],
        [
          -0.731884663277049,
          -0.20069692862312077,
          0.02601663044362583,
          -0.01811919261470073,
          -0.11056739419753249,
          0.09984346211881748,
          1.0865875899544744,
          -0.2023535769141568,
          -0.38766420677985897,
          -0.14200540884824558,
          -0.20722216620972317,
          -0.27115027597916547,
          0.024327109303698344,
          0.5202233829450045,
          0.5508083349535781,
          -0.2505196236361552,
          0.45353057118524526,
          0.11550641384940953,
          -0.16905794588078793,
          -0.14768705590250153,
          -0.26477527518421046,
          -0.08111296746506445,
          0.06710646566074568,
          -0.042649490611424624,
          0.13956420063645741,
          -0.07452568642363668,
          0.11359913175238685,
          -0.26615008656115485,
          -0.17534179769832733,
          -0.016412276337500434,
          0.034004752169376574,
          -0.019519089988481807,
          -0.07506330993904875
        ],
        [
          0.6244829709909633,
          0.25163673445330614,
          0.03531313904309591,
          0.055467433464306944,
          -0.44461288632315143,
          0.07472832918698435,
          -0.5482916050966337,
          0.02445835739072619,
          0.5950727926996293,
          0.08156797450900208,
          -0.2858872957278918,
          -0.25523026294149953,
          0.08581910458998951,
          -0.7938831144184484,
          -0.43609973227049276,
          -0.31393982888258737,
          0.722193006573652,
          0.15691740341448665,
          -0.15071587136686823,
          -0.29100805235331995,
          -0.42184168281332346,
          -0.08206288460148076,
          0.0743361949822915,
          -0.2234150400199405,
          0.2467753670129083,
          -0.1987001434364671,
          0.10324520179515881,
          -0.2320666167975919,
          -0.05882861484653499,
          -0.03116689219996331,
          -0.20827313078943233,
          0.3901975641998985,
          -0.026469077068372635
        ],
        [
          0.12547971327272212,
          -0.17267239252337402,
          -0.31038578948156736,
          0.22938871628309984,
          -0.06062972052193383,
          0.03016415844984223,
          0.09802624981467788,
          -0.3125709879289384,
          -0.13439269121108394,
          -0.05799220570056432,
          0.02448995378253529,
          0.1354894197339901,
          -0.26421048539794856,
          0.006380490630702085,
          -0.03817693654627603,
          0.19967911834480548,
          -0.2966958078696367,
          0.12355498366225837,
          0.1475510732272479,
          -0.24595603075072414,
          0.016114232924390817,
          0.18466985546964443,
          0.0934281674705237,
          -0.08022855367569243,
          0.23943651509902994,
          0.1773518495006047,
          0.22791090518141371,
          0.22864716686107076,
          0.20855233916633428,
          -0.2726300043893042,
          -0.23897555223577405,
          -0.22036835318696713,
          -0.13551517063945454
        ],
        [
          -0.7044229014228985,
          -1.2182091528485357,
          -0.05841592570405133,
          0.06691297527465022,
          0.4210033650050197,
          0.8489612441212987,
          0.5124150104490813,
          0.6373697033294393,
          0.31369405796289784,
          -0.16686010560350914,
          0.2429957396662216,
          0.26421290055372854,
          0.6051742182360652,
          0.2894557324555045,
          0.04172925153591226,
          0.20519300178495115,
          0.1101954963699325,
          -0.07873847339133154,
          0.05997226759393522,
          0.18764344921416615,
          0.203165917968697,
          -0.14486687336456058,
          -0.0606509512177135,
          0.07451278518662097,
          -0.25150589790056377,
          0.2355913369457244,
          -0.3160376019794993,
          0.3188206485830681,
          0.008298573940721931,
          0.015094460771855975,
          0.22107832530982435,
          0.15946686159623044,
          0.09875908276363693
        ],
        [
          0.05146956538993962,
          0.012278934332904681,
          -0.11170637204798677,
          0.04780484555306465,
          0.29694354675131857,
          0.2949447752129944,
          -0.005085692629753128,
          0.21596454908032434,
          -0.10563295667384805,
          -0.23664757643900325,
          -0.27813422797991905,
          0.11570663558964608,
          -0.22863453164840794,
          -0.29050835505636946,
          0.16976330429851016,
          -0.03429751099106115,
          0.23572558273162678,
          -0.14894976352298717,
          0.03531376862650389,
          -0.22013785222237583,
          0.2459737294611872,
          -0.1207821407792742,
          -0.2938783246289727,
          -0.13535912564002625,
          0.10014801196429343,
          -0.2060050512555272,
          0.15334322192636074,
          0.0561243234732773,
          0.10937149973091462,
          -0.28347518060507526,
          -0.04468603974425915,
          -0.09811799691272154,
          0.1786492713783677
        ],
        [
          -0.2016092025935235,
          -0.5204112125326381,
          0.04175585040623522,
          -0.048008448213165626,
          0.055228103294017505,
          0.2732261247793521,
          -0.05628970233943323,
          -0.07963400920211627,
          0.35426838426984525,
          0.18422820125088907,
          0.8138727796782417,
          0.5583459197703061,
          0.23754449954371398,
          -0.18986209063338827,
          0.20845374344735076,
          0.20790495859355715,
          -0.8920624111588358,
          -0.3256200084917916,
          0.7127840056824875,
          -0.13491635662465182,
          0.43851344511794615,
          0.16887504181129304,
          -0.1577673317979934,
          0.2796763284136917,
          -0.6050606518278915,
          -0.21615089301916326,
          0.3348822314156336,
          0.5270547890957473,
          0.08339932853722364,
          0.37985842302270123,
          0.18848274970485332,
          -0.1735485086842879,
          0.4782179967049004
        ],
        [
          -0.06079889251288845,
          -0.7084412252257279,
          -0.19927445520713752,
          0.04085608379285811,
          0.18062347022988215,
          0.4479855007824815,
          -0.016659375439440693,
          -0.13094545274455657,
          0.1981117550320512,
          -0.1408051267146388,
          0.1880672981548188,
          0.3002518807694307,
          0.3234062180098484,
          0.3721942807829458,
          0.13034732481198835,
          -0.015348728985356054,
          -0.3561103361517665,
          -0.6453484551803413,
          0.41454826286020724,
          0.04280659722201372,
          -0.046124017616330296,
          0.23873007459691706,
          0.12538328374888702,
          0.14290662590736983,
          -0.4844859904317389,
          0.2652868876423334,
          -0.054164534724007576,
          0.4257720944069214,
          -0.012351934361788088,
          0.7786360781917689,
          -0.12551856816893084,
          0.22809943819277018,
          0.06706575880233318
        ],
        [
          -0.22567218329785343,
          0.012286368876556583,
          0.27439136353398985,
          -0.28190401144283433,
          0.23666680294949244,
          -0.04496955140090739,
          0.1889222454168749,
          0.29170740647036547,
          -0.1600245806218761,
          -0.21094705367684705,
          -0.1291316114565638,
          0.09272711801335554,
          0.20618116217351928,
          0.27987680923072555,
          0.29571069244175685,
          0.18805284163210312,
          0.057311084666416934,
          -0.19041241846124365,
          -0.2383615250738959,
          0.08943769343148979,
          0.13042960510784216,
          -0.2460457358122045,
          0.2683064159697675,
          -0.2548159513579041,
          0.14906840665174315,
          0.025005969970695957,
          -0.02421308259555372,
          0.1159311484830058,
          0.20841066197979538,
          0.13569636180628158,
          -0.2410731858902153,
          0.018586953094355305,
          -0.12436039499169678
        ],
        [
          -0.6242174271370018,
          -0.32666950970428704,
          0.11189294557820738,
          0.06569922215808809,
          -0.44144557047170063,
          0.24422014689122912,
          0.7619297485836165,
          -0.039797134454010154,
          0.28624065122975917,
          0.26605251622714465,
          0.10300938353656112,
          0.35369616311649454,
          0.37881371623008514,
          0.29933795873499897,
          0.054702944952063244,
          -0.2517349851603025,
          0.20445474211192957,
          0.06346904354515213,
          0.18092931395622197,
          -0.22503668403505178,
          -0.10834316327897743,
          0.31293986693773496,
          0.11532288341711863,
          0.039123130220295475,
          0.03681394581363576,
          0.10323545959897712,
          0.15895504078312844,
          0.14194654126673453,
          0.04989548948483078,
          0.08437351616167142,
          -0.33659689762052386,
          0.06421937118899573,
          -0.10227158549764967
        ],
        [
          -0.4062077088060972,
          0.167207189652564,
          0.12476316837526973,
          0.10379395460542357,
          -0.1579849970854912,
          -0.1042301037975545,
          0.2933361198678102,
          0.17779624284359982,
          -0.2790287159312672,
          0.06304283785343097,
          -0.016017537451639845,
          -0.19464781643717285,
          -0.23963760281500027,
          0.2257936892055163,
          -0.037498850289778354,
          0.319736008426836,
          0.2243797618172189,
          0.29735490215517085,
          0.15897848010609397,
          0.26261109961011564,
          -0.24383053096603766,
          0.1290801254313871,
          0.1558037631634518,
          -0.10195763035504636,
          0.0007814063217823553,
          -0.20556165677844412,
          -0.28799294947034143,
          -0.12463786599270758,
          0.30454943409930074,
          -0.05877900265105786,
          -0.0936201522849298,
          -0.1921358973622521,
          0.03384317630312753
        ],
        [
          0.1350451201803349,
          -0.11246195444308232,
          -0.06029436507185175,
          -0.06741120305040457,
          -0.1849856305850581,
          -0.10799746280342139,
          -0.22314163102444315,
          -0.053009871208264205,
          0.1593445259061543,
          -0.06543825009080381,
          -0.2686449537962634,
          0.22012169246334307,
          -0.1915890786114125,
          0.25591330243290655,
          -0.08342342668843618,
          0.27148689661356823,
          -0.20225611573912156,
          0.04019420841557644,
          -0.18287851692756,
          0.12848088634671306,
          -0.3041522401051294,
          0.2832488415459111,
          -0.3138159012022424,
          0.0957506934167066,
          0.157848919813414,
          -0.30555542144441916,
          0.15081873928861816,
          0.14591561450031867,
          -0.17355494041090877,
          0.1204691461119874,
          0.10659887924686792,
          0.2173652898758107,
          0.12277925370754193
        ],
        [
          0.1498021857961438,
          0.32933023927904487,
          -0.28391259217445586,
          -0.22262992584428856,
          -0.08335545509947452,
          0.0054899394676990705,
          -0.20691702499910158,
          0.23738785902021117,
          0.24314164945239536,
          0.23685732453444588,
          -0.17229853650301052,
          -0.3506882939655847,
          0.08673131282570422,
          -0.17539530023570354,
          0.08575626916280987,
          0.14192971589651787,
          0.21604435493617424,
          -0.21427554780426525,
          -0.019029947863179165,
          -0.15392071959971937,
          -0.20409499250371582,
          -0.03467075780475586,
          -0.10275494630858159,
          -0.06111149121291818,
          0.25761063328678707,
          -0.42730333325627773,
          0.36017122834850673,
          -0.2948232537769752,
          0.2356876774151958,
          -0.16157170231419185,
          -0.24001339750052325,
          0.9357688066972463,
          -0.005344297411931051
        ],
        [
          -0.2479008897720712,
          -0.13896431730985176,
          -0.3140337817192456,
          0.3159446958338888,
          0.009328932701296545,
          0.27594045163936665,
          -0.046054166335397724,
          0.17788783616918769,
          0.26248187812130336,
          -0.02593954390480416,
          -0.3246543033247897,
          -0.2987519549501633,
          -0.1147957178415244,
          0.24282146353229667,
          0.08429646156139285,
          -0.1295560492476169,
          0.138397773703994,
          -0.13518247290281601,
          0.029844334320301553,
          0.09058274347925585,
          -0.23469232342028845,
          -0.09005935695628338,
          -0.11641116558577352,
          -0.13923553727437077,
          0.06346455733944015,
          -0.10242011087394236,
          0.23072417514649485,
          0.15083639924076017,
          -0.31107947453033774,
          -0.23179002559175174,
          -0.0807023317009589,
          -0.1389758623678336,
          -0.28327746548882493
        ]
      ]
    }
  ]
}
