{
  "layers": [
    {
      "activation": 2,
      "biases": [
        0.0,
        -0.41722055269019226,
        0.041538062707825736,
        0.0,
        -0.62258201924703,
        -0.12916399286279684,
        0.0,
        0.5154731606686256,
        0.0
      ],
      "cols": 9,
      "rows": 3,
      "weights": [
        [
          -0.3963612661802435,
          0.6618747643136942,
          -0.621157240771231,
          0.13151380883511157,
          1.165430495532833,
          1.6131057500048103,
          -0.5288622065622283,
          -0.06608590292348121,
          0.11273481685700448
        ],
        [
          -0.6979219140740103,
          1.7640360309890137,
          0.08739488913669256,
          -0.06321289742655968,
          0.7333888925230684,
          -0.03063227361607224,
          -0.2548661764680445,
          1.4754212678853045,
          -0.31210666427248224
        ],
        [
          -0.4863235194394644,
          -0.5199935873666746,
          1.5075893864855692,
          -0.3447817059944023,
          1.382722799120097,
          -0.10285039399048534,
          0.11705252968128943,
          -1.3578490314052503,
          -0.2586035857985254
        ]
      ]
    },
    {
      "activation": 2,
      "biases": [
        -0.010805171029248965,
        0.2336536682018814,
        -0.04559172082241445,
        0.18348123919214127,
        -0.041937300393208046,
        0.0,
        0.2945950932561782,
        -0.31011033222286083,
        0.013946845774707887,
        0.0,
        0.0,
        -0.1461840017527228,
        -0.3016232390721946,
        -0.32945401984778916,
        0.12310595825982373,
        -0.09181314606477253
      ],
      "cols": 16,
      "rows": 9,
      "weights": [
        [
          -0.32714237335123847,
          -0.3031760245943315,
          0.32222737949192604,
          -0.4406950239316603,
          -0.17479449024330357,
          0.008552280111091147,
          0.0677986992486852,
          0.4089710999939863,
          0.0443962180853096,
          0.10875771217487415,
          -0.24439426904385,
          0.11884704870957315,
          0.0818610460097254,
          -0.27852068997850354,
          -0.2425584063587088,
          -0.22362095730856296
        ],
        [
          0.772196053604068,
          0.7446614560000386,
          1.0540522573533002,
          -0.4637953450120804,
          -0.48484944749598247,
          -0.2918250485427941,
          -0.03834256024260805,
          0.5047678273107966,
          -0.2707283092772768,
          -0.40827549025373594,
          -0.2300791211538108,
          -0.40179142545019303,
          0.19218511853524764,
          0.8433232183518659,
          0.4699874272695804,
          0.13301105030401578
        ],
        [
          -0.06821351983915884,
          -0.05153698804378172,
          -0.6228624171165441,
          0.46491183409579373,
          0.24102066685166965,
          0.15467009029552323,
          1.1139855948962507,
          0.5456357230202007,
          -0.5273719900546673,
          -0.37549721030203875,
          0.3146166739829746,
          0.1822800146787181,
          0.2346579873585568,
          -0.28025335588390954,
          -0.4872398580193602,
          0.5019259330326544
        ],
        [
          0.29183927770569645,
          0.22251442784931555,
          -0.2274096581966057,
          -0.43571481874085377,
          0.05634291366613805,
          0.14169255535002792,
          -0.1291794312274726,
          0.3802380355026521,
          -0.13126221713396952,
          -0.11624023978569076,
          -0.1960170884702051,
          -0.005533535392738428,
          0.11986989954013096,
          -0.26359067955125676,
          -0.10337486323858153,
          0.2378794504362257
        ],
        [
          0.07088527096136886,
          -0.014697411514307146,
          0.6507003605024795,
          0.1493739709595974,
          1.0243288392227405,
          -0.45704811444397475,
          0.605594741330988,
          0.5707981855701869,
          0.1260668887613453,
          0.06330876575818657,
          -0.3853998239199688,
          -0.06524868066430353,
          0.34741813680532047,
          0.6534149318308946,
          -0.1519031705738656,
          1.1689577374617677
        ],
        [
          0.08947359192703076,
          -0.034227129135096714,
          0.8751647189953068,
          -0.03676294601039069,
          0.8836730165420651,
          -0.007826091837257012,
          -0.4824985193976538,
          0.14294143267392498,
          0.6368861397131237,
          -0.027918167171150036,
          0.01583519291983502,
          0.20585021129417735,
          0.33284752793734207,
          0.5210332378546634,
          0.5079930666237703,
          0.00588907561495188
        ],
        [
          -0.46084104799127434,
          -0.07138742991355353,
          -0.2994655843303782,
          -0.34583570467984215,
          0.40987646156588453,
          -0.2404752956000624,
          -0.06121295474050436,
          0.4446871183092787,
          -0.24121506333249984,
          0.10159907173842281,
          -0.3623966111422451,
          0.06257601884720489,
          -0.20975931625056377,
          -0.2782010445884556,
          -0.3303752978367881,
          0.028070281927671636
        ],
        [
          0.44917986076206345,
          0.9274899326127016,
          0.45948218366109034,
          -0.3724866871564688,
          -0.7924592835773672,
          -0.01021755800499712,
          -0.32925717207651967,
          0.04974421083884264,
          0.6233023521388723,
          -0.2086499607601169,
          -0.38854701161946037,
          0.3783451194673444,
          -0.34088440953897664,
          0.11141474083785749,
          0.06607151363267466,
          -1.0290749121360447
        ],
        [
          -0.33580814799768166,
          0.2575748498141206,
          -0.03850217094774147,
          -0.08185923924777033,
          0.2920096507955308,
          -0.2622153951636964,
          0.40093207327589453,
          -0.09711998383843781,
          -0.3666809921538824,
          -0.0903747268872859,
          0.030029971682158863,
          0.09852662147720817,
          0.44939418398026,
          -0.23320200790500645,
          -0.33428769530581337,
          -0.08669292288781466
        ]
      ]
    },
    {
      "activation": 2,
      "biases": [
        0.14399452142387026,
        -0.018571443979010477,
        0.0,
        0.0,
        0.008119932986016038,
        -0.007025398596323669,
        -0.16367992211322419,
        -0.27597300269754127,
        0.027330997314588684,
        0.0,
        -0.00011497254797779726,
        0.0,
        -0.07526624504295984,
        0.0,
        0.3817948218035236,
        -0.47028897663054625,
        -0.5182702780550277,
        -0.032606288439306824,
        0.0,
        0.0,
        0.0,
        0.01914641664047119
      ],
      "cols": 22,
      "rows": 16,
      "weights": [
        [
          -0.06594165822006885,
          -0.2313318535580054,
          0.17655845122482972,
          0.2518649936414764,
          0.1637069593657622,
          0.38562738663591073,
          0.6022588121521881,
          0.2517692610689346,
          0.3484893400619079,
          -0.0033508880412568593,
          -0.21025571617913794,
          -0.15637103958637583,
          0.40082928166001247,
          0.25896570451462647,
          0.6627435448284716,
          -0.0050090192045918,
          -0.02520504834251394,
          -0.3202329234024234,
          0.15750627059055078,
          -0.22028006235170183,
          -0.18687068341782606,
          0.010702201130998687
        ],
        [
          -0.09513640361530662,
          -0.1593962406971399,
          -0.06440303281163491,
          -0.3753715189986377,
          -0.2835862356265412,
          -0.2590427545424081,
          0.22253546994604662,
          0.11725580128796737,
          0.23586935593483072,
          0.10670310156677666,
          0.12753470186587884,
          0.009040560241350014,
          0.0014572466704913262,
          -0.2416360098199594,
          0.6255336977736982,
          0.44930006419387064,
          -0.7752330057563129,
          0.10011242306881088,
          -0.002479014808815015,
          0.3507429945708217,
          -0.0044511307710744935,
          0.3391226021396028
        ],
        [
          -0.3933497443007191,
          -0.22208097833592869,
          -0.013930271594229441,
          -0.3864095807135059,
          -0.045887808757184845,
          0.0677476263285523,
          1.0580769061864612,
          0.23651717705456202,
          1.0175845762898914,
          -0.3226899046673425,
          -0.05626348553363677,
          0.1532878567149484,
          0.6242425616353314,
          -0.16021028263326834,
          -0.04962842984759021,
          0.6932780242188797,
          0.04705426055915909,
          -0.32337573885977133,
          -0.33939235132464746,
          -0.2911050732964856,
          -0.1065299309802539,
          -0.013374903458249519
        ],
        [
          -0.1748383067022809,
          -0.048675046879742154,
          0.3161525162984833,
          0.06123010942956632,
          0.09394093670610981,
          -0.37639817144554943,
          -0.5078609361317208,
          -0.39418097709676264,
          0.20700208695776326,
          -0.2839449769098298,
          -0.2682796829673657,
          -0.17133315478536298,
          0.36411920693410216,
          -0.1448447755197741,
          -0.09939866722878113,
          -0.28701140250361074,
          0.32314542825017906,
          0.1484011525190102,
          0.3287066943808506,
          -0.31025283858788244,
          0.05429029539914155,
          -0.31544601616332313
        ],
        [
          0.06381308450456626,
          -0.32049409431708,
          0.08133782647938131,
          -0.06719225681760013,
          -0.23973586433001703,
          -0.15750733098327704,
          -0.2742780406316441,
          0.07158229809262177,
          0.18136533537581873,
          0.02685558184334044,
          0.3587582239868339,
          -0.32789468960335016,
          0.25044121278434445,
          -0.1805763467061275,
          -1.121392376905709,
          0.4003823732979547,
          0.776448435637211,
          0.3718241963222092,
          -0.31595533075519,
          -0.2653813242889423,
          0.11910722696955255,
          -0.604941504205365
        ],
        [
          -0.08745811997934232,
          0.22866654836166533,
          0.127457147836609,
          -0.0039726997493545035,
          -0.10522221216882727,
          0.3959798808959337,
          -0.2182781061597683,
          -0.039466887641742915,
          0.15649747772500758,
          -0.03886324674393902,
          0.20375088249913664,
          -0.34162983009825576,
          -0.045078030233763826,
          0.08678388895665486,
          0.3181500579246036,
          0.3726589894232891,
          0.16112158831148599,
          -0.24011217120040027,
          0.05388194269540439,
          -0.29856461483732694,
          -0.06304079083729518,
          0.05399478149926344
        ],
        [
          0.7351514161514418,
          -0.07021528056718548,
          -0.3912570985278496,
          -0.01273389132261577,
          -0.2192404942859994,
          0.25327775116643847,
          -0.2111530178971057,
          0.059074266326204466,
          -1.0572981614546109,
          0.08477047909618933,
          -0.0053301453304349326,
          0.0752134155798698,
          -0.6242529680138194,
          0.2666965658846635,
          0.5437985453421311,
          -0.14944433979268512,
          0.2740752926256164,
          0.06779989179331121,
          -0.3863213508288727,
          -0.11710006574214561,
          -0.16559242179789102,
          0.16247988392787197
        ],
        [
          0.23389087666832054,
          -0.1258847175433253,
          -0.3496215438656815,
          -0.23898902890498996,
          0.024101641120203562,
          -0.2019822365010278,
          0.7654712703140588,
          0.15616001123532777,
          -0.09703412735824708,
          -0.1944675609205926,
          -0.05810277894177353,
          -0.2867124034188579,
          -0.3176982802621969,
          0.15168651543174924,
          0.03854560958611551,
          -0.04640769272286601,
          0.13701835883983646,
          0.2427464128900028,
          -0.04532904801915772,
          -0.37553527241219975,
          -0.004444492084166705,
          0.507273565308173
        ],
        [
          -0.011947403921745207,
          -0.14421626389121006,
          0.0660611328510138,
          -0.17668924212757373,
          -0.0046443547251974245,
          0.195408223079726,
          -0.5042303200025988,
          0.38595474530905427,
          0.5516394805825541,
          0.26465437271463144,
          -0.06441483286574838,
          -0.3915557295278907,
          0.290516534385177,
          -0.06461601738617119,
          -0.29529940676345723,
          -0.3942934582109741,
          -0.25501880606565813,
          0.05510608409355308,
          0.2906081972425532,
          0.04026445450570179,
          0.005046479878987292,
          0.17828548305873684
        ],
        [
          0.30819079374931846,
          -0.16203125346910263,
          0.06643813506913901,
          0.2503585731096975,
          -0.38566716761185194,
          -0.22568736332022854,
          -0.31158467227499737,
          0.3681345897751607,
          -0.14570009403789894,
          0.0014807189806841498,
          -0.21225378107958331,
          0.19432313811691007,
          0.2659151266741659,
          0.3800350553696307,
          0.210209286813883,
          -0.2768961905675919,
          -0.2347771404748552,
          0.10599351516022665,
          -0.09354885746343974,
          -0.3762540543197412,
          -0.21878999743654462,
          -0.14995403389966414
        ],
        [
          -0.21847146517858276,
          0.24415554193494773,
          0.04495910118683421,
          -0.2627601409582497,
          -0.17654351889768047,
          0.06824883979128193,
          0.3973529093024771,
          0.3474105003070731,
          -0.2509652245274855,
          0.25014206694841645,
          0.14615191443140782,
          -0.30781019148959454,
          -0.2664516675778753,
          0.08924335832991723,
          -0.3350322257786635,
          0.08261491422140356,
          -0.11750826412666542,
          -0.32791742596804385,
          -0.3206460232376709,
          -0.11951185195751836,
          -0.03675723203052419,
          -0.2221851997028484
        ],
        [
          -0.24579545171955292,
          0.38585758457364444,
          -0.15054929419076118,
          0.04609584096666694,
          0.3153706552081108,
          0.27813562516071394,
          0.2791231450187986,
          0.1219457084433531,
          -0.3955018524230875,
          0.0720178775861591,
          -0.10245430457243057,
          0.2574983304455449,
          -0.011301176290696302,
          0.2775887818764467,
          -0.302739946830094,
          0.129845403467626,
          -0.0860926288537899,
          0.07010773602521476,
          -0.10536460069735887,
          -0.37973606799211646,
          -0.28181387329631385,
          0.11523948583077
        ],
        [
          -0.036149654043222026,
          0.19073637538189128,
          0.10462747293638265,
          -0.11862975627965297,
          -0.3428025386246847,
          0.08362119326605208,
          0.46547843328628236,
          -0.042095697473193854,
          -0.30506547938150486,
          0.046800704539039055,
          -0.2838609889477701,
          -0.2674901474640854,
          -0.17687624027771429,
          -0.3630239998831745,
          -0.45624272712720393,
          0.03046536468707811,
          0.19461899144817427,
          -0.28535830598773376,
          -0.22798899596013858,
          0.16752101011902804,
          0.08194037345007112,
          0.16964373522337364
        ],
        [
          0.10958483743735346,
          0.34613043182024555,
          -0.24012606918171595,
          0.14069653358988107,
          0.23485746774462551,
          -0.21399021185261938,
          0.4559966640015998,
          -0.5597849130274146,
          0.5623372587156616,
          -0.19277890900680344,
          -0.24552064488785186,
          0.0208179212883396,
          0.41867638441632216,
          -0.28342292350905063,
          0.294662693978091,
          0.6261181324773694,
          0.5328644302135656,
          -0.299368712852661,
          0.3259603585349342,
          -0.16526757836502948,
          -0.0768883008872166,
          0.42320389743221304
        ],
        [
          0.1080539829617308,
          -0.10965690942353121,
          -0.21365923132457884,
          0.39638268402896637,
          0.35122573823475717,
          0.12841457035215517,
          -0.5318704792912764,
          -0.2080573187008678,
          0.42651476284419537,
          0.035928175164538535,
          -0.13712569792076765,
          0.2102608279522071,
          0.2520795429996804,
          0.05909353210970927,
          -0.2492740856847761,
          -0.19833318882796905,
          0.01605237030024899,
          -0.03203047435177775,
          -0.37989586720702695,
          -0.1078368156537525,
          -0.047905458793027066,
          -0.0827297807818866
        ],
        [
          0.6817427560591977,
          -0.06204566480177579,
          0.3663320739634306,
          -0.12907909092036313,
          -0.0018594041470968337,
          -0.3464434302509421,
          0.18632272063541858,
          -0.4431609891235067,
          -1.004550266263082,
          -0.14191483126113327,
          0.014994501783556153,
          -0.2634997282048822,
          -0.4465711825415885,
          -0.21427363089933144,
          -0.33690556555806644,
          0.20162762054609226,
          0.7763003892297835,
          0.0637428006472818,
          -0.13406615216457374,
          0.3416231866004371,
          -0.09627931027220818,
          -0.00398108085385402
        ]
      ]
    },
    {
      "activation": 1,
      "biases": [
        -0.8079303287822158,
        0.2323474657420899,
        0.41452148731956406,
        -0.22752338242868525,
        -0.2578980461748808,
        -0.11097330401865649,
        0.006867191276583556,
        -0.3610775726070062,
        0.4399173026096831,
        -0.37356475888180785,
        -0.10640850545365596,
        -0.3966472999422967,
        0.5996042876620895,
        -0.25696562596865774,
        0.35936281283702215,
        -0.028874631054621992,
        0.5913712130220113,
        -0.7203702309604333,
        0.14394673112029988,
        -0.2123343012816848,
        -0.23392510567434366,
        -0.16426376434473977,
        0.24086022076071387,
        0.13006636261998836,
        0.22113445063343273,
        -0.19389757038096017,
        -0.31001013756948786,
        0.29724257510532975,
        0.9940361001106954,
        -0.1304858997296508,
        -0.1865302944398257,
        -0.28314149336954764,
        0.13269825569280122
      ],
      "cols": 33,
      "rows": 22,
      "weights": [
        [
          -0.6035302597759241,
          0.10954007048888248,
          0.4740746432265467,
          -0.1145572104685559,
          0.03612264194834098,
          -0.47889450576527165,
          0.1480742970171624,
          -0.20979538978107612,
          0.21436497350584022,
          -0.0532886564021956,
          0.1809683785568421,
          -0.1456790324498972,
          0.3839083353235526,
          0.7142800328903127,
          0.09362058181716137,
          0.11419748783063857,
          0.28341750532462373,
          -0.2258561935673035,
          0.14760778394167726,
          -0.09686007732517789,
          0.20615416012651733,
          -0.1007690169578151,
          0.34399291643528485,
          0.13592268882060096,
          -0.09672371038966737,
          -0.02929401892678878,
          -0.3618502456410924,
          0.3781307584182226,
          0.23233472781861192,
          0.18455872945737922,
          0.3329376212741297,
          -0.0520910433719103,
          0.3076928547790257
        ],
        [
          -0.18108043102697963,
          0.3266087991912897,
          0.29882024056200046,
          -0.1965686525656098,
          -0.15699242141953057,
          0.30528886052716114,
          0.004412460889330779,
          0.19893531346550455,
          -0.07038842110783454,
          -0.13909237612688638,
          0.03934052578434673,
          -0.03626746339407833,
          0.2556875360705139,
          -0.20827700797519452,
          0.12345384149145433,
          -0.022068267256789488,
          0.008319001180833748,
          0.229722630910789,
          0.2876293431772851,
          -0.20143946508640473,
          0.03407282779556309,
          0.05139325463046525,
          -0.12870940941350442,
          -0.30392032531174035,
          -0.18753530600186727,
          -0.31929322925087106,
          0.11636013192637572,
          0.17585324275026804,
          -0.28817548658823205,
          -0.22631019563158858,
          -0.21983391126096236,
          0.04144680441160546,
          -0.26691817254543215
        ],
        [
          -0.040087436623616544,
          0.13604127393616927,
          0.0898124369210351,
          -0.1772655248762396,
          0.2829542773831016,
          -0.055975393701819254,
          0.22281417181326107,
          -0.20908226015767267,
          -0.11131087691067866,
          0.11287764974058995,
          -0.08783578407980253,
          -0.2352400452471898,
          0.285604257618775,
          -0.20869716147857809,
          0.25489817924736885,
          -0.2193928348534298,
          -0.23752690061856485,
          -0.25814209968498053,
          0.10465402822326962,
          -0.032776733214432134,
          0.012001328473583869,
          0.0005641124440289525,
          -0.1506760942096792,
          -0.11316097645114032,
          -0.19551701051302917,
          0.09500953649957962,
          -0.020853649639499868,
          0.23854176018599818,
          0.021403680354955268,
          -0.009129576200910204,
          -0.13462530542698978,
          0.1361904424096681,
          -0.28110501360738827
        ],
        [
          0.04027692420960362,
          0.18433638379700773,
          0.05630534359653754,
          -0.09372816302757775,
          0.1096528909862582,
          -0.11500102251376922,
          0.01963496467574182,
          0.23079181333842147,
          -0.04427853506432802,
          -0.04610087564916794,
          0.13638600520867716,
          -0.11855990075838953,
          -0.27145090520599163,
          0.09736272212334865,
          0.22368850385955003,
          0.012466779611938657,
          -0.24019910106121833,
          0.08373620449368847,
          -0.19965157040670944,
          0.04371293427001015,
          0.22995863739979205,
          0.23294221973292853,
          0.2439299146016866,
          -0.0917233350401807,
          0.32244320970487034,
          0.20762776218609919,
          0.2797660781841161,
          0.12190911494246384,
          -0.2834954705861458,
          -0.18663110310868186,
          -0.16697097674623734,
          0.049097881588434346,
          -0.07625478913661501
        ],
        [
          -0.15882719865603556,
          0.028233243947144635,
          -0.28490746613447543,
          0.18966422793395965,
          -0.0777213436055984,
          0.02681378249380222,
          -0.28491921881682625,
          0.0037759653421731813,
          0.2832306391936011,
          0.040653022716666355,
          0.03208994969171589,
          0.3280060035421105,
          -0.321460117016716,
          0.12400666057432057,
          0.1817856199802979,
          0.1254927706395043,
          -0.2330376492695126,
          0.3237276978777777,
          0.19404459929398127,
          0.1206072761551812,
          -0.12879834029479176,
          -0.1857935737737384,
          0.18076706464146938,
          0.19410553838898462,
          -0.08026307745108076,
          -0.234683849507917,
          0.03407121414894136,
          -0.18665373277206057,
          0.041958194504376704,
          -0.2865706357627332,
          -0.14667358035829856,
          0.12624206850735234,
          -0.0924091243302564
        ],
        [
          -0.28424354224523907,
          0.1846254427854601,
          -0.3195167976781853,
          -0.0649427763893274,
          -0.1921542885521755,
          0.14147015326288293,
          0.09827223193885343,
          -0.11178734852496605,
          0.01605537535449533,
          0.083197108846169,
          0.2586647531819152,
          0.20147546153851112,
          -0.1485860520346613,
          -0.3219435263682744,
          -0.12125613953107381,
          0.1038558993519607,
          0.16828046831769755,
          0.2225694611622224,
          0.03305890446492033,
          -0.12295887514104253,
          -0.20979253284208335,
          -0.24989664734945571,
          0.20233205551762934,
          -0.1821034086442818,
          -0.11607325615411627,
          0.18063989545075074,
          0.039309160491175284,
          0.29568704221885933,
          0.05546288687000373,
          0.07118659540852246,
          -0.09881943144255052,
          -0.006063147398523144,
          -0.2567322712071422
        ],
        [
          0.2835522170356952,
          -0.085875585006285,
          -0.0825380705237811,
          0.2154667955412201,
          0.22784413408070922,
          0.8596265375950918,
          0.06418018828855727,
          0.25837385832235044,
          -0.8001451952722691,
          -0.0748206886178401,
          0.12994197097838797,
          0.2010195609169273,
          -0.2358937643992695,
          -0.5356607111748092,
          0.05055648962301219,
          -0.07552791001859033,
          0.048293899619650124,
          0.460587979378729,
          -0.21466748012136486,
          0.5597183932163962,
          0.34009550974729635,
          0.2371988737909395,
          -0.1255007069083913,
          -0.27149784227658885,
          0.22988945125131202,
          0.03114591657916849,
          0.19384953639321478,
          0.047999900113712184,
          -0.45528721340092815,
          -0.12352727694592043,
          -0.528906322927928,
          0.681074175552249,
          -0.4636632856220171
        ],
        [
          -0.1453465298208383,
          0.06683980996656576,
          0.07775879387948402,
          -0.26306774341988537,
          0.32977052713728533,
          -0.33468852424141915,
          0.07317763314504329,
          -0.25745467982996173,
          0.25017854495423636,
          0.1439193923009488,
          -0.14782772520817114,
          0.18250834060058163,
          -0.16887268365329555,
          0.15465611685540712,
          0.24262351304366928,
          0.127499874812953,
          -0.2549296659604723,
          0.2757047255142883,
          -0.09588513111226567,
          0.31152536782417173,
          0.1375841858327352,
          0.30125684614329884,
          -0.22232804939473635,
          0.20775631648636075,
          -0.030476477966752864,
          0.23490002997597584,
          -0.3189055218797926,
          -0.061338722914455794,
          0.15134756848465428,
          -0.13835755673527783,
          0.21073395353126018,
          -0.031137900918194145,
          0.07484650947982144
        ],
        [
          0.14543245240668237,
          0.37554602855838287,
          -0.07327775834113982,
          0.3260044534477931,
          -0.19314585173105273,
          -0.780382123806782,
          0.14791703855575242,
          -0.2501823222562389,
          0.6455971717021253,
          -0.09112681984052394,
          -0.4606783078260734,
          -0.3629235449995311,
          0.7465964193584356,
          0.2559929551974855,
          -0.003681900795554713,
          -0.1496506990683528,
          0.4531027162027335,
          -0.45942701885381837,
          0.05677592350468187,
          -0.33401099035659415,
          -0.2091260523521531,
          -0.384393202560674,
          -0.24425847330053496,
          0.34082954904498386,
          -0.08815712560382849,
          -0.21021000451803692,
          -0.09819513398742072,
          0.03536710579789279,
          0.5880069458453661,
          -0.5042865519494026,
          0.07656720132079123,
          -0.6012070297100672,
          0.4915417197135647
        ],
        [
          -0.3125303922789055,
          0.1662816261697046,
          -0.3026635671377715,
          -0.24961881451718085,
          0.0018352091164433905,
          -0.31920329829264166,
          0.09949772823735212,
          0.3296801874048772,
          0.12546338248490763,
          -0.016313002513058353,
          -0.08663425674804145,
          0.08260443475728299,
          -0.1418791875994839,
          -0.17429802847676246,
          0.23302332644142063,
          0.2755325098517037,
          -0.03467180317351397,
          -0.12245220484239382,
          0.278337518449892,
          0.11559140986961106,
          0.09930927697504462,
          -0.16425255546770115,
          0.016211193631827395,
          -0.2688594860249757,
          0.12388156281346806,
          -0.15629404917172848,
          0.13469661827687895,
          -0.2078949186790222,
          0.27445694890899475,
          0.008389259662617466,
          0.1296879585792303,
          -0.14160111448707033,
          -0.14933332971037164
        ],
        [
          0.20834095249428022,
          -0.20889883137655413,
          0.24918010952538006,
          -0.012075834464859152,
          -0.20780871759557393,
          -0.2988675418018954,
          -0.3287182854601137,
          0.0028764108975004856,
          0.09999955784415235,
          -0.033775146380781385,
          -0.14462403472998916,
          -0.20726383195723627,
          0.12553145799600018,
          0.2364544345830158,
          -0.14419058308697733,
          0.21768131083132466,
          -0.09473795519875974,
          0.30628560446610803,
          -0.19493666796414422,
          -0.023519373256179015,
          -0.193018005423702,
          -0.034745333576404094,
          0.3036213106026215,
          0.2890338396661937,
          -0.06249814136408036,
          0.284612430931446,
          0.04498367694433442,
          -0.2873124659594014,
          -0.011667606845400158,
          0.29662392951754546,
          -0.24806789870094617,
          0.17298517761607723,
          -0.31214122235397307
        ],
        [
          -0.15626164352406066,
          0.22169593334498847,
          0.1425444148124307,
          -0.08502341386146012,
          -0.18766226178054035,
          0.052784077534046285,
          -0.08977919397059027,
          -0.13517161011432696,
          -0.1739015843758,
          0.0958387151018434,
          -0.041371793563522184,
          0.0416025541473434,
          0.09954765080050096,
          -0.2710630023931295,
          0.212582346028132,
          0.2823427590521435,
          -0.07680764859429579,
          0.30220707501608834,
          -0.0015852822352563582,
          0.08657306228079249,
          -0.20801625590955444,
          0.07377354848093716,
          -0.3104059748766922,
          -0.24104724878557973,
          -0.03635180474710893,
          -0.13104683546628934,
          -0.07421954017367252,
          -0.15660300282263706,
          0.03535485675329875,
          -0.23448505653113896,
          0.08234990978575411,
          0.17100842366764835,
          -0.17346785353956298
        ],
        [
          0.2934246949498347,
          -0.09047784183926222,
          -0.3963746842307514,
          0.058790219479741015,
          0.2138716330664673,
          -0.3217783837077731,
          -0.21964002365538343,
          -0.20844606420648745,
          0.5787014076309707,
          0.12501176988368995,
          -0.05758098322525739,
          -0.056782873287390255,
          0.1505662139093229,
          0.4191864642430106,
          -0.0213221411713299,
          -0.27370300955374444,
          -0.022874655479315314,
          -0.12454661314057726,
          -0.27508665659561615,
          -0.3491796448649151,
          0.14265984764358888,
          -0.11905074398724583,
          -0.07130013741116563,
          0.3508643872823205,
          -0.03487244396379314,
          -0.14615448930464162,
          -0.42929119410294136,
          -0.1244892662339312,
          -0.03472306345167348,
          -0.2779005939571644,
          0.05007771893597204,
          -0.32043820925356337,
          0.6814842051819578
        ],
        [
          0.029411128874638776,
          -0.322698307130649,
          0.04975958117895402,
          -0.275771010103112,
          -0.03263612510058842,
          0.1709916453135074,
          -0.18509119256371084,
          -0.010244357796071912,
          0.18512285841961576,
          0.30309754405858663,
          0.2837032388726232,
          -0.011199774710846709,
          -0.22599775877204142,
          0.03689274786670063,
          0.14495113182968647,
          -0.29757416832046923,
          -0.08177096290194838,
          0.3107794915851183,
          -0.2952031191095698,
          0.13088171640564916,
          -0.15746016185664297,
          -0.08909865045350221,
          0.12531191958032367,
          -0.06662087351288054,
          -0.17888747048377365,
          0.30597978291795047,
          -0.0032573257412011067,
          -0.2543971485855001,
          0.14545726628570518,
          0.2447063886546461,
          -0.2859672345247208,
          -0.1929307022010948,
          0.30079883356266135
        ],
        [
          -0.6476883722451516,
          -0.056977792590735515,
          0.44342293078324374,
          -0.4903945526557081,
          -0.48464220528642293,
          -0.23200572854428694,
          -0.16024462666548925,
          0.06776227540635879,
          -0.14312071216439137,
          -0.21341420559532717,
          0.5026182140858839,
          0.04811752003518631,
          -0.05473283907477115,
          -0.5528509365441964,
          0.019950290369488956,
          -0.050529525443974925,
          -0.11190063659582887,
          -0.05084580411250012,
          0.18980796646196188,
          -0.4312003823294272,
          -0.27533877802192747,
          0.1789463917019791,
          0.5137431734718376,
          -0.35395217832269926,
          -0.0886281321191035,
          0.06174986161244343,
          0.045214656448644634,
          0.41629851497534953,
          0.42434399165962317,
          0.33432842895969433,
          0.08547350727744404,
          0.20747153360399032,
          -0.3533524203597442
        ],
        [
          0.6367244290985336,
          -0.26089712211400695,
          -0.2499181259346872,
          -0.17842263806374478,
          -0.013976459807333632,
          0.612669194172716,
          0.00953390529314504,
          0.03365364379136451,
          -0.1204281587790672,
          0.2146741564164859,
          0.0818270312854346,
          0.11150694298487461,
          -0.02958518255197929,
          0.19291329765478435,
          0.10615838980755937,
          0.2684039041947336,
          -0.3031057543027498,
          0.33055692332832637,
          0.058051898063344196,
          0.32715061882861035,
          -0.03504794431429216,
          0.11326974296493887,
          0.01709378454057723,
          -0.1850125060471918,
          0.06743665731547109,
          -0.17759143065715055,
          0.38142170910628626,
          -0.5440771915544784,
          -0.07218879903596345,
          -0.36143418135871913,
          -0.35937885766447214,
          0.40933065371282007,
          -0.2341901664579634
        ],
        [
          0.03199300467667137,
          0.2930168609627724,
          -0.2191267531950905,
          0.16175237927703545,
          0.23369981772538231,
          -0.579921651920327,
          0.35251799443021486,
          0.05693464560509042,
          0.635973213452526,
          0.044849105498739376,
          -0.3624981742082641,
          -0.5878870310436929,
          -0.09665489651916563,
          0.7277376828133539,
          0.2022246168976667,
          0.40571125176805023,
          -0.11957729613502162,
          -0.02820095382482705,
          0.00338646506881115,
          0.08637542089464444,
          0.10683301684867187,
          -0.6554717670047835,
          -0.29270162044972015,
          0.025795333333577947,
          -0.541847073153402,
          -0.0480001163210253,
          0.08411511959375045,
          0.11462632223252235,
          -0.3380524319454799,
          -0.12911309017733397,
          0.2346083481804368,
          -0.49651981153208846,
          0.1952068292085946
        ],
        [
          -0.35174316139746126,
          0.3585003476650311,
          -0.24117214693065805,
          -0.12761609077850924,
          -0.03988164434771368,
          0.008652589758143337,
          -0.342907314028389,
          -0.02938719622267416,
          0.24043921074584723,
          -0.2738134177148182,
          0.1150815947925539,
          0.12602508520358122,
          -0.25305298735906506,
          -0.10646128487003945,
          0.06225773897220008,
          0.0469945596098398,
          -0.16872160533239347,
          0.0342294237949981,
          -0.24130181149867902,
          0.048765380390778754,
          -0.3559305099458826,
          0.2197750857496401,
          0.11141721308582161,
          0.2074881781428668,
          -0.0645695252690981,
          0.28482404058785,
          -0.04874772349407663,
          0.17034730855304364,
          0.12768747395179467,
          -0.1399643714769031,
          -0.2445482270418329,
          -0.13664139775428985,
          -0.34610497575508914
        ],
        [
          0.040856053811208576,
          -0.032112772106639695,
          -0.08645878860046902,
          0.16970644922519038,
          0.040216837738167616,
          -0.10271238275890689,
          -0.2841450775804973,
          0.2829746381134883,
          0.05804295941437569,
          -0.18933816173942972,
          0.32648532977241956,
          -0.27936916806048384,
          0.04520774335632312,
          0.18728375816813897,
          -0.15016882345812113,
          -0.2721506562396123,
          0.19246502497253387,
          0.08665002000329769,
          -0.302150979113692,
          -0.043238785887453605,
          0.0654492294618617,
          0.2543911831877211,
          0.12986461316207493,
          -0.13221509216309052,
          -0.1697339147249528,
          0.24915525269317443,
          -0.3172793401573303,
          0.15847088874119275,
          -0.009836910330805203,
          -0.25150594209650434,
          0.17880016398194185,
          -0.27417850851534836,
          0.020947514910549577
        ],
        [
          0.3268852252095899,
          -0.026923131351657605,
          0.15930995871307357,
          -0.12063056159972711,
          0.15283283082235224,
          -0.19602606383974988,
          -0.3060840363418592,
          -0.20872257247971895,
          -0.14606977756793585,
          -0.20101038638783542,
          -0.18466065775093196,
          0.032657918350825495,
          0.14154465253386408,
          0.02271903564634772,
          0.18211206805270674,
          -0.19221357821147134,
          -0.0920599808962692,
          -0.24817506675040188,
          0.2741498110546669,
          -0.07818942703501047,
          0.14239820427556063,
          0.29012309734511627,
          0.08398542849579929,
          0.046209545983647925,
          0.31959616616947284,
          0.14674773258286794,
          -0.3261627642606788,
          -0.03131352046513074,
          -0.18438716088885407,
          -0.020088989799529486,
          0.12385550860876109,
          0.0757426954349318,
          -0.023328985803331814
        ],
        [
          -0.06940063598659536,
          -0.0009611603750249211,
          0.1987920563432911,
          -0.12317170293298453,
          -0.3274619145749973,
          -0.30627694358066476,
          0.22908288483027597,
          -0.32971997405185954,
          -0.28594085856442797,
          -0.18434710662489298,
          -0.19501368172880662,
          -0.058899569679772446,
          0.19866420463876497,
          0.024598362344545287,
          0.2984534635850929,
          -0.3059221194567916,
          -0.1778161680346888,
          -0.18721906929988089,
          0.10251734196680912,
          -0.23954287562213866,
          0.011586627665377502,
          -0.2898114183075052,
          -0.11264291612125522,
          -0.19619332598945965,
          0.2909402648667285,
          -0.21007786883616655,
          0.321393140971213,
          0.19453402597339214,
          -0.22239973431555327,
          -0.08016117294975564,
          0.15743883955076726,
          0.07317693580048068,
          0.29322149443704226
        ],
        [
          -0.18211453621624604,
          -0.251276157133805,
          0.12425509540663097,
          0.01409798156089295,
          0.1748175705036142,
          0.5393737776353852,
          -0.27566274766239923,
          -0.004456085804602862,
          -0.2744528735310076,
          -0.19503054841625062,
          0.32139993262684424,
          0.30715167559840034,
          -0.28592560097055264,
          -0.2908679942226802,
          -0.23414308967979555,
          0.3271923769763808,
          -0.027688531124156642,
          -0.2527922208678731,
          0.25350686658862337,
          0.24502283907480268,
          -0.2081467281424813,
          0.2518177162142932,
          0.10284388399908212,
          0.009059582190494063,
          0.34112116822435257,
          0.06305169343772717,
          0.10484117025434501,
          -0.25269369804568037,
          -0.08974138794415118,
          0.4926668593636642,
          -0.35047506908513865,
          -0.024402086861733497,
          -0.04721999172823851
        ]
      ]
    }
  ]
}
