{
  "layers": [
    {
      "activation": 2,
      "biases": [
        0.18829426091153145,
        -0.006049465830731453,
        0.028894718934971156,
        0.005477707114668054,
        0.4508146016196737,
        0.0,
        0.35011096763906624,
        0.5372245517331458,
        0.0
      ],
      "cols": 9,
      "rows": 3,
      "weights": [
        [
          0.7093479319916728,
          -0.5369001833080341,
          -0.7123332979574045,
          -0.15349369470389987,
          0.14353021503098848,
          -0.504400346238142,
          1.0899962685169873,
          -0.49845175757757976,
          0.4256599864281118
        ],
        [
          0.5403503795456785,
          1.6935196261643073,
          0.3235431843305207,
          0.9063572921353288,
          0.4054114932788769,
          -0.6605263601207657,
          -0.33198789772179216,
          0.40742288088051065,
          -0.43902014821248236
        ],
        [
          0.7162886983421285,
          0.5002622179640258,
          0.4535229639240824,
          -0.7588783551460375,
          -0.5944348721169983,
          0.10993007908892262,
          0.9797631436429833,
          0.21238689841258662,
          -0.6594761067535007
        ]
      ]
    },
    {
      "activation": 2,
      "biases": [
        0.00013126686284466177,
        -0.019769544560638178,
        0.0,
        -0.002362127000241539,
        0.28456286533830694,
        -0.22538095781141282,
        0.02257081630998818,
        0.17723784285458785,
        -0.05711591342144118,
        0.0,
        0.20550403307419868,
        0.20957647221323258,
        0.4107240851893217,
        0.2785607227110723,
        -0.030195816782912232,
        0.6674770378265841
      ],
      "cols": 16,
      "rows": 9,
      "weights": [
        [
          -0.3682853563880612,
          0.10651232679973177,
          -0.4854510689260182,
          0.474621090221982,
          -0.016784658000713198,
          0.43461481783548495,
          0.4337774513626917,
          -0.07347243214661398,
          -0.22312753024282816,
          -0.03353466282219963,
          -0.046995150231903905,
          0.3627315430307485,
          0.32693009740189366,
          0.0974493884262977,
          -0.3920437145335903,
          0.08174112532283508
        ],
        [
          0.07955415958140143,
          -0.4826005774711798,
          -0.21568017737805625,
          0.47221574994330917,
          0.31453065526780544,
          1.1606482571075862,
          -0.7466335555745024,
          -0.10158583188170865,
          0.5560213703790239,
          -0.2344372125781794,
          0.1779160408983717,
          -0.234195325245655,
          0.5186890341069819,
          -0.34955222288292576,
          0.0799050721576767,
          -0.48773523652787965
        ],
        [
          -0.05789908916675585,
          -0.3418681477050968,
          0.3080781261120872,
          -0.37144466535495774,
          -0.07738029460233185,
          0.12020987041147262,
          0.1814463713717228,
          -0.46097152719910833,
          0.548889317730917,
          -0.4269295089972139,
          0.37392274809324294,
          0.39551858520041716,
          -0.3224098729848603,
          0.008692831121799369,
          0.4316361291160668,
          0.20137922806715083
        ],
        [
          0.17847057285315845,
          -0.1933625545680334,
          -0.3522506777893031,
          0.23559913362004187,
          0.5969247011877876,
          0.6153076309891099,
          0.20905689990151927,
          0.06074835783234924,
          0.6643047239310031,
          -0.35890315568904924,
          -0.4470646929443868,
          -0.43801189500659127,
          -0.029177509194579898,
          0.012807783519173848,
          0.19814597905574693,
          -0.4590224348721123
        ],
        [
          0.21271263914600438,
          0.13430276690464485,
          -0.35033124643244995,
          -0.29685983895882545,
          0.2993855955447095,
          -0.2858241185085809,
          -0.5495579433077333,
          -0.05517047544961045,
          0.4623611167184571,
          -0.46179503655368037,
          0.5657699186663819,
          0.4385421524322658,
          0.5750644438070138,
          -0.08000474786567983,
          -0.4594210492298025,
          -0.1409215097416875
        ],
        [
          0.38286149720547347,
          0.381177511112778,
          -0.423713036539275,
          0.2951833294578093,
          -0.27619115240178604,
          -0.29398457529457417,
          0.1825566151791757,
          0.421133786666497,
          0.3488480477120858,
          -0.4258783234854195,
          0.372872706517322,
          -0.3498869143923683,
          0.436500397013913,
          0.20698223278749908,
          -0.36919028840128726,
          -0.34429132927343065
        ],
        [
          0.5953727137780516,
          -0.4387854100231151,
          -0.1884248963400041,
          0.7778185308621981,
          0.1720594738226635,
          -0.06695452966439888,
          0.864051184096577,
          -0.04695721866130076,
          -0.2876663915228329,
          -0.32795440699934914,
          -0.00395817295635257,
          0.4125963619736392,
          -0.44712508318781435,
          0.774300171889478,
          0.061068047450235294,
          0.3423793466922692
        ],
        [
          -0.48214426376261044,
          0.18227212312275218,
          -0.15689331635629256,
          -0.4432426326658202,
          -0.022703838390717084,
          0.5034120866874432,
          0.15583893711399502,
          0.2125983549124582,
          -0.03372940729183028,
          0.40199872120250163,
          0.3535598875381281,
          -0.16723450796216952,
          0.566108853813329,
          0.11200712716555854,
          0.22968560047929548,
          0.6321300886025141
        ],
        [
          0.38266728626415747,
          -0.3091773126352474,
          -0.27520886839590303,
          0.06471150927744013,
          -0.10165584832035529,
          0.04490480880058171,
          -0.033172639282991544,
          0.010889396962959501,
          0.47873209808004763,
          -0.27999924267437554,
          0.28339292471738503,
          -0.28785604832423645,
          -0.37316135681477985,
          -0.22656439700988312,
          0.2608211000815949,
          -0.16386860011074894
        ]
      ]
    },
    {
      "activation": 2,
      "biases": [
        0.4754734816642377,
        0.6321615476663828,
        -0.2896318864964484,
        -0.0032488568102915292,
        0.12462816389608881,
        -0.15392880312446747,
        0.3453570079344251,
        0.006311199595078107,
        -0.2616017138244891,
        -0.0033177580091544165,
        -0.12460185915574158,
        0.0,
        0.09206853650556422,
        0.0,
        0.0027950640969198076,
        0.7858328713041497,
        0.37003610230730255,
        -0.18713622243066058,
        0.0,
        -0.1720482175861531,
        0.034839810211548715,
        -0.12181681531660277
      ],
      "cols": 22,
      "rows": 16,
      "weights": [
        [
          0.05051782787555235,
          -0.3239448905736786,
          -0.11885112589126316,
          0.07809152791372548,
          -0.03334377479539138,
          -0.014494750982244854,
          0.18526045178801692,
          0.1551789866725209,
          0.3212963935718496,
          0.2810481165449884,
          0.07107326414140112,
          0.037094963893562295,
          0.10225245048053386,
          -0.16440824347648209,
          -0.05663907735516519,
          -0.35712606701372074,
          -0.04854564428415151,
          0.30772109183195456,
          0.3318428653645588,
          0.3004658417692274,
          -0.36167500079145787,
          0.3711020776839811
        ],
        [
          0.1782927273531962,
          -0.38221350256663555,
          -0.32776471470510093,
          0.023690577960676883,
          -0.2529552175770296,
          -0.17969365225489578,
          0.20565099657305438,
          0.07175885401211977,
          -0.34536358437123427,
          -0.23650346515125806,
          0.33312367787555247,
          0.3950373957044743,
          -0.38507473761661704,
          0.030055199859525025,
          0.15857369621988668,
          -0.13320588905480743,
          -0.3402706437544138,
          -0.09347822811112914,
          -0.05781094734693177,
          0.21406675063052816,
          -0.23394226277680688,
          0.19059553678210978
        ],
        [
          0.15647910966736886,
          -0.14964395219165155,
          0.25341945629910867,
          0.013117251344468886,
          0.04949227556628933,
          -0.17743933973414094,
          -0.038483859424240714,
          -0.22928953134152077,
          0.37340356854503726,
          0.27277122641489865,
          0.2723681771852724,
          0.3075230522753023,
          0.24379444014726348,
          -0.3038034169838397,
          -0.20903053668019717,
          -0.2846424494428506,
          -0.3266202267683036,
          0.07170208680724362,
          0.3132515544471043,
          0.12508958721450236,
          -0.39066824933057004,
          -0.058246181570168074
        ],
        [
          0.2128844667858408,
          0.12809757504671387,
          0.598332909003822,
          0.39875575665436586,
          -0.17937839493824353,
          0.5551146769338788,
          0.009373522198293967,
          -0.024834403476558305,
          0.06435104928768974,
          -0.27222975653446174,
          0.2826991214080559,
          -0.3151306196219853,
          -0.08568135745643274,
          0.048207238349186735,
          0.44252127361880694,
          0.07059418905030883,
          -0.44635773728990186,
          0.42851629468122926,
          -0.1972437410669537,
          0.2573488807779456,
          0.26034545985588387,
          0.13344319495280965
        ],
        [
          0.40450798198783633,
          -0.24428887595888266,
          0.21129530796766643,
          -0.1456440769457709,
          -0.2703594920521114,
          -0.03615939587446096,
          0.30402988860958124,
          -0.0031564414683141716,
          0.0819320220938052,
          -0.29377085653924506,
          -0.1515545185602509,
          -0.3901474978362818,
          0.3307215002968338,
          -0.39474758902514884,
          -0.3037391851046652,
          0.3540736580626998,
          0.44859287960027355,
          0.002003625137376793,
          -0.3008793213125165,
          0.10584602707771261,
          0.07045029511663066,
          -0.041856671061931805
        ],
        [
          -0.33758179213686146,
          -0.2862860742483899,
          0.5094290396751493,
          0.2555696475766165,
          0.23937957092155204,
          0.4965485446809128,
          -0.3318852815075724,
          0.010192436749894439,
          -0.4713996779992227,
          -0.015120226613507868,
          0.2815759461172697,
          0.020890751817400664,
          0.714533336588974,
          -0.205058678285137,
          -0.5099727475648417,
          -0.12564166754236655,
          0.051571408635254355,
          -0.46446069165991427,
          -0.07912049654056764,
          -0.34022554441363173,
          0.6848985243299116,
          -0.19182948947954245
        ],
        [
          0.35516349530397046,
          0.16841094227834102,
          0.31568408038615325,
          -0.3556885970526911,
          -0.053514196328484934,
          -0.15550869277113885,
          -0.456813963696615,
          -0.13268522399106292,
          0.8214912891056095,
          -0.037944089659208396,
          -0.15939009386189915,
          -0.15511529859595075,
          -0.3593528721597791,
          0.27689361636021514,
          0.07913316117897815,
          -0.004133836753158173,
          -0.005803501616910072,
          0.5399894924156544,
          -0.21260533542964377,
          -0.4005307871014279,
          0.427504274423709,
          -0.10721946626110346
        ],
        [
          0.29003310834343043,
          -0.06603969215774012,
          -0.2066811672627128,
          -0.06750483064361834,
          0.2843429879547524,
          -0.3943734548603936,
          0.06789410805967296,
          0.1440576709370416,
          0.06848767583158454,
          -0.3614027367948104,
          0.16032121242031905,
          -0.34314479813834114,
          -0.17229837156833713,
          -0.12587961760157423,
          -0.31115551572121286,
          -0.13432150376965127,
          0.3622862088092069,
          0.04681267047027828,
          -0.1993861473604149,
          -0.12259582973944683,
          -0.02708685870188825,
          -0.29588172888424324
        ],
        [
          -0.16269658605987392,
          -0.4718169622758068,
          0.4233801963275741,
          -0.3626630720354904,
          -0.5313388961797311,
          -0.19827890890897293,
          0.04843080305133999,
          0.4543054643013119,
          -0.03298458794606403,
          0.11989525471685103,
          0.17589233055361456,
          0.04416682151390336,
          0.5159601562833951,
          -0.1156523253703273,
          -0.3633142414823819,
          0.09288488408358259,
          0.4413790453411185,
          0.28336343910699013,
          0.24879115948004757,
          0.17488715514612502,
          0.44397947980613284,
          -0.07461272418302811
        ],
        [
          -0.30845721644133534,
          -0.16514425251564985,
          0.39154232336969225,
          -0.07515444935574843,
          -0.2422932128087159,
          -0.1782860948309465,
          0.09330523552830801,
          -0.03968225953827272,
          0.3156667234729473,
          -0.01211616222748243,
          -0.04726903079761631,
          0.043836284923151746,
          0.30356386211872954,
          0.11505472956704589,
          0.029026261489817698,
          0.1099870145125862,
          -0.3582555738133326,
          0.38783508172472864,
          -0.3805403445964357,
          0.35596669637837547,
          0.2315891874372102,
          -0.16009613563172714
        ],
        [
          -0.2118030984166808,
          0.5325718195582683,
          0.3229794526408298,
          -0.31209482307909536,
          -0.04579526253982133,
          -0.3685013501694524,
          0.3209654597518626,
          -0.1727175011423536,
          -0.2872662921867598,
          -0.19123422393386028,
          0.26892922800386937,
          0.05154370383480985,
          -0.015685031100311577,
          0.17250498978980197,
          -0.19690069833939128,
          0.1408897669231342,
          0.4542248181251851,
          -0.02126982027808598,
          0.16027416338786166,
          0.05146658131467823,
          -0.16172225754137598,
          0.14839391858404835
        ],
        [
          0.05735520755557237,
          0.4440405660295154,
          0.23592472084776378,
          0.4027271893726813,
          0.4391453685831335,
          -0.006036724077754529,
          0.09167573878173343,
          -0.30529464751633284,
          0.030898438391367352,
          -0.3598045652354641,
          -0.008857263101165852,
          0.05086883111062848,
          -0.03522170718974942,
          0.1549402532344754,
          0.08406881592830343,
          0.2656591990212151,
          -0.4145102948588707,
          0.5036083259715551,
          -0.3709502105088391,
          0.27840291487060526,
          0.3206383314593108,
          0.13207020091906316
        ],
        [
          0.13411630849245537,
          0.34608082920616373,
          0.08455845479056688,
          0.30173059774796523,
          0.2958906649710602,
          0.27558262169581516,
          0.5780514913977288,
          0.267715734928372,
          -0.5422323015000041,
          0.26449298770735136,
          0.27285784431135696,
          -0.16564524485892249,
          -0.164700622830682,
          -0.21468434946099832,
          -0.5340325038281248,
          0.4518210630912653,
          0.034805728695952706,
          -0.485074866360001,
          0.013616683102274698,
          0.15038572457925833,
          -0.05192726935763093,
          0.18639854423763716
        ],
        [
          0.3621011282473286,
          0.26360363645730517,
          0.2351757141464156,
          -0.132606917096428,
          -0.032845829935393936,
          0.08211918531564914,
          0.201591502539819,
          0.03008177999326211,
          0.422784356108885,
          -0.349774348016211,
          0.2559565610952779,
          -0.09752226460172472,
          -0.2008729339466298,
          -0.1737207458198432,
          0.5220597859237774,
          0.14038177900525833,
          0.17401410047335092,
          0.4305130458980873,
          -0.023598400908723453,
          -0.002925908951695503,
          -0.3142047663161055,
          -0.3674282683759152
        ],
        [
          0.33531253388069365,
          -0.3598223288366194,
          -0.042637835346558454,
          -0.205224265975863,
          0.3114286018860684,
          0.011488576453798444,
          -0.09375977775682641,
          -0.24425151169392303,
          -0.10598056351524231,
          -0.1179599823808362,
          0.1344759957940229,
          -0.3452690003152027,
          -0.25717361603440225,
          0.07455292007773916,
          -0.2267062485584475,
          -0.22844941578465255,
          0.2672137709299168,
          -0.06946318851886502,
          -0.05333636764125211,
          -0.14100197478001814,
          0.012925376757597846,
          -0.28172678682439833
        ],
        [
          0.5695147781561998,
          0.46660906586576784,
          -0.37213319270415196,
          -0.10488245836070621,
          0.2608747332486844,
          0.23234236795592522,
          0.5008035184508124,
          0.04503867412149419,
          0.34723204237283367,
          0.27146294319608366,
          -0.3300977510272033,
          0.10507447575777684,
          -0.26090895409012255,
          -0.26158850838213654,
          0.37988817874781583,
          0.12229634574696319,
          0.15758749003202155,
          -0.06999638437628286,
          0.019168315097107654,
          -0.1698457614514118,
          -0.012763075139951098,
          0.11452635024813498
        ]
      ]
    },
    {
      "activation": 1,
      "biases": [
        -0.7030489643831008,
        0.1776324771927172,
        -0.12489112490081722,
        -0.1906607428748196,
        -0.5363432028798398,
        0.5042821496404041,
        0.3699769974006824,
        -0.021475263621315414,
        -0.6705668748127223,
        0.06743076896994646,
        0.5520412808477859,
        0.29576234240447496,
        0.03959735812065246,
        -0.35190325675816425,
        -0.42157372334387844,
        0.24474183661645574,
        0.41519609800303336,
        -0.15642154158894692,
        0.4291112081458555,
        0.30880286562417114,
        0.16258214002813387,
        0.29668340500475465,
        -0.19904800953760476,
        -0.3978135128816383,
        -0.04430826643913944,
        -0.6522975974616854,
        -0.1322380644465638,
        0.4193055047464845,
        -0.5751504588138675,
        -0.5293440434364515,
        0.5044340696686548,
        -0.3893260741999104,
        -0.1342776503464969
      ],
      "cols": 33,
      "rows": 22,
      "weights": [
        [
          -0.038196746449937966,
          -0.005218365158990189,
          -0.04712853471935351,
          -0.03340736148923088,
          -0.5998889283362485,
          0.22801245067541248,
          0.40182094675017455,
          -0.5547445550586325,
          0.2065617776783693,
          0.09643533800279862,
          0.3270588987422298,
          0.23251081214151526,
          0.48886015288972284,
          -0.07606389969532343,
          0.008977127198231804,
          -0.19330306130635655,
          -0.1697924201779479,
          0.0003513603948782365,
          0.34989140254358025,
          -0.23722844600848958,
          -0.20522318224781244,
          0.049365463087596255,
          0.15618037325713144,
          -0.15009445225618698,
          0.0872538075706126,
          -0.17309413242957075,
          0.16741559592594846,
          0.41322395494349196,
          -0.05268267570995053,
          -0.3212344443899797,
          0.3394989792630713,
          -0.3730631894384537,
          0.24664240108228302
        ],
        [
          -0.16607952354274197,
          0.104701300353268,
          0.1549026992708522,
          -0.0657726666550806,
          -0.2017988484726151,
          -0.14952309612377793,
          0.6510753321333835,
          -0.2814004538435987,
          -0.07541838954449227,
          0.208782078128761,
          0.1234971282208783,
          0.027398134895098285,
          0.17950000488649864,
          0.4058384608419068,
          0.21791995141330345,
          -0.3950722113114259,
          0.23392608128211886,
          -0.12932288868721759,
          0.36839913042027667,
          0.28039733803158035,
          0.19298714661216493,
          0.1547110176245202,
          -0.06931344615587863,
          0.22824627605707382,
          -0.1770360178112963,
          -0.3180484699294487,
          -0.4552739840405915,
          0.042254234203368234,
          -0.25334113913328954,
          -0.4896703764518262,
          0.2739682073104916,
          0.24744832975616943,
          -0.2922099760763561
        ],
        [
          0.08916256393064499,
          -0.1246722648820155,
          -0.28550227416382806,
          -0.3319527229069062,
          -0.17579087185619513,
          -0.14690352930222725,
          -0.3570899231877022,
          0.1877486451483715,
          0.1590108617429528,
          -0.07766122071328938,
          -0.3741742632851764,
          -0.23419843237491747,
          -0.474472795919049,
          -0.029447099809871646,
          -0.1152062670138199,
          -0.07563078090210515,
          -0.17674449972466777,
          -0.10276723686229457,
          0.1485878716146582,
          -0.25945517560542924,
          -0.1292843953068547,
          0.1711746793907253,
          0.13946563146565255,
          -0.03466746914796543,
          -0.04985589146448909,
          0.3749786361335923,
          0.4590761876144991,
          0.28196217585150835,
          0.10296584030791449,
          0.14312130112168062,
          -0.4653200400248454,
          -0.17633901093275275,
          0.3247465490146463
        ],
        [
          -0.13646340102107604,
          -0.06288778480003127,
          -0.1260862348080031,
          -0.15741480940815605,
          0.07889387867461435,
          -0.2566213882928011,
          0.12304328517648404,
          -0.0661170294325372,
          0.07377776831598265,
          -0.007853980915198394,
          -0.0872964042650074,
          0.07523124688270606,
          0.3051156542340947,
          -0.17409003705222592,
          -0.06239056254754361,
          0.12495973649460353,
          -0.02478046767108803,
          0.06450839162361072,
          -0.2841927839464313,
          0.13080954105175643,
          0.20583987001967124,
          -0.14061398613530077,
          -0.031144954397570326,
          0.16526423491939699,
          -0.13192563053854983,
          -0.13832745040959663,
          0.28084786735509515,
          0.019123385075460474,
          0.05367821438568544,
          -0.05038191146242728,
          -0.17165428468061442,
          0.18170388493824682,
          -0.28842120805885696
        ],
        [
          -0.23246848123903127,
          -0.27579001822750304,
          -0.07290406254430148,
          -0.29552968102847765,
          -0.25965763217510024,
          0.16825908991014837,
          0.4144326032081118,
          -0.17059592944157853,
          -0.35207658901844396,
          -0.21555793658554748,
          -0.09153243428124884,
          -0.18456356202859125,
          0.3769734462732377,
          0.018075431552306426,
          -0.04050376322242232,
          -0.3019878208107582,
          0.20953910714515372,
          -0.27994411894029586,
          0.08967197965275071,
          -0.028581800034625172,
          0.16750431525243273,
          0.09431253858936083,
          -0.3127906280082902,
          -0.20694530135359807,
          -0.11671188712727887,
          0.048855619742206945,
          -0.14050201963375497,
          -0.05241555142800532,
          -0.06080632514648119,
          0.1263428803625556,
          -0.035009141419629096,
          0.34538865571744676,
          -0.3283976606928661
        ],
        [
          0.3995075461329934,
          -0.30160209682016986,
          0.32894172684841794,
          0.19691694203514673,
          0.12274046494757583,
          -0.1587961457373236,
          -0.17284950206153743,
          -0.14002517247301177,
          0.3667860068951432,
          -0.29629963154322975,
          -0.18643456810613687,
          0.11990244502065438,
          0.0863118010612652,
          0.1903315076082141,
          -0.0016297821629225743,
          0.1421417703190692,
          -0.16749187863968368,
          -0.1473955084612423,
          -0.10971738436068672,
          -0.044707425484323444,
          0.0014013918180662457,
          0.17753110889308155,
          0.1354896976149375,
          -0.1072200023059794,
          0.14853161183279165,
          -0.053345621526045835,
          -0.21446867626859023,
          -0.406587500352808,
          0.2573437151991965,
          0.4788388687151763,
          -0.2238395611197047,
          -0.19807884868298792,
          0.2860222284933322
        ],
        [
          0.1651097244821719,
          -0.05477722402872881,
          -0.1588666300508789,
          -0.07512577281236221,
          0.0246628296684364,
          0.17706112167521157,
          0.036758686323099504,
          0.05677451703055967,
          -0.5620504465627681,
          0.28493447618339796,
          0.6569302729609208,
          0.28692145687170756,
          0.022481770858843574,
          -0.15099908698185827,
          0.11869032746846823,
          0.13326014621698065,
          0.3298266353529464,
          0.21854893156888158,
          -0.34274596449265166,
          0.2691242664464532,
          0.15315397445499315,
          -0.1950565134625578,
          -0.083749939903105,
          0.09658441510555485,
          0.07486442905848258,
          -0.12112805413949357,
          0.13912073279051543,
          -0.06752383063059779,
          -0.3750459362336082,
          -0.33694032613380437,
          0.19940475999209595,
          -0.0762632265460919,
          -0.16069293987946262
        ],
        [
          0.03040649265933955,
          0.06332325482696972,
          0.23172431195408943,
          -0.052662628211196216,
          -0.1715302322492201,
          0.40717517444252926,
          -0.308209778824156,
          0.003921001406674534,
          0.1292224069002695,
          0.17735927115557953,
          0.17957696645120197,
          -0.23038421759306346,
          0.19375226724034758,
          0.13982168787560187,
          -0.18876781363589543,
          0.22378292744490905,
          0.24103185916433723,
          -0.21504577320581528,
          0.13820874749321954,
          0.105380916235803,
          -0.3451558031718341,
          0.048574068487639954,
          0.18007946869913952,
          0.176580997260025,
          0.18135136986084188,
          -0.19595466009340828,
          -0.12355999144773751,
          0.08874287267318007,
          -0.07685771879897843,
          0.11894398660714788,
          -0.20568005012223065,
          -0.16456300216278721,
          0.13416103575325877
        ],
        [
          0.03287328847954915,
          0.4281065059252612,
          -0.27853179438787784,
          0.17192435401385311,
          0.20666926877240585,
          0.4159030380729991,
          -0.15193767366110877,
          -0.36399990317533015,
          0.3181078908732134,
          -0.32208396647540016,
          -0.12121304347481825,
          -0.6878412276535185,
          -0.38206870966811607,
          -0.3165736071022434,
          0.09152073742995108,
          -0.022063398348255662,
          0.17297454694986972,
          0.10922442798362136,
          0.2896314181195178,
          -0.32846783556999165,
          -0.12020374858705933,
          -0.05734674090485406,
          0.06495419157820612,
          -0.2897736911337669,
          -0.23848234255248374,
          0.23058114431204058,
          0.26830305309133073,
          0.37525469709393183,
          0.21501938077465946,
          -0.08055055204009608,
          -0.2852701333912784,
          0.1773331883796193,
          0.20830885314699316
        ],
        [
          0.07739353512987893,
          0.09276633332953645,
          -0.07943792953126184,
          0.11655134346214799,
          0.32693056760961564,
          -0.28012694623321593,
          -0.22657094044637,
          0.07878832573663135,
          0.06264421342919806,
          -0.038820328158287586,
          0.06377687215740749,
          0.1157468266997192,
          -0.04517397287712121,
          0.055704054038502,
          0.07154245907955872,
          -0.13056044345528997,
          0.29304281718343395,
          -0.31612287286526436,
          -0.1069362748089065,
          -0.2515910530139594,
          -0.14186791263923565,
          -0.1535012471401678,
          -0.29324099089769873,
          0.16937289101944156,
          -0.32800205588204356,
          0.29582810572997764,
          -0.0016643189615427052,
          0.007866815496587631,
          0.3118252792801417,
          -0.2964903452248996,
          0.30534398796049955,
          0.19271097192435097,
          0.1378044686723606
        ],
        [
          0.03685343020462159,
          -0.009297058071009423,
          -0.11154149066951517,
          0.24454867029944682,
          0.06171781340864885,
          -0.2929440179602254,
          0.12818988876938472,
          -0.00032649352639992215,
          -0.07147103881420903,
          0.09504106226819614,
          -0.32588021706652337,
          -0.057924422569544366,
          -0.2561206266042643,
          -0.01605909215231457,
          0.11818418313441982,
          0.10493971151924276,
          -0.08655587471505678,
          -0.006555360791096357,
          0.14272827102063032,
          -0.16819514162003588,
          -0.3468829119886202,
          0.27897740876851523,
          0.21841662023202643,
          0.13203391644172469,
          -0.34506950216100446,
          -0.04473533213935081,
          -0.16645406409705077,
          0.03150983011290282,
          -0.25517822315359323,
          0.43124841535830327,
          -0.32541911219594993,
          -0.0489000036534823,
          0.07214049129610095
        ],
        [
          0.048060932238847345,
          -0.18435145370896522,
          0.15379074395756626,
          0.32115753067556874,
          0.27891641857762794,
          -0.32046264227321153,
          -0.0457357645747185,
          -0.2354715114785388,
          -0.1571674039546367,
          -0.16816486930396266,
          0.19281316297841988,
          -0.11657681434346809,
          -0.12162006245899239,
          0.29420639874399435,
          0.30407984694394236,
          -0.17571843850497104,
          -0.1985473938264412,
          0.26826055307455343,
          0.2640213035720497,
          0.10398913753098338,
          -0.21647386910120658,
          0.07978640182519264,
          -0.05658947838732122,
          -0.28997662288253623,
          -0.2933352485713002,
          -0.06729566418774394,
          0.23657664655823873,
          -0.2895832883678239,
          -0.15661059084060294,
          -0.1689411963213868,
          -0.0903055172053967,
          -0.19302215030637607,
          -0.1349566696928207
        ],
        [
          -0.21908645753919528,
          -0.35592879571890895,
          -0.02102859485719167,
          0.1527657597114546,
          0.3910934519179797,
          -0.3165393817037291,
          -0.09956896072201239,
          0.16964027226200698,
          0.2595355028128725,
          -0.029368721539492708,
          -0.28033789743306514,
          -0.12649599324588004,
          -0.5371470275041412,
          -0.08241897194070459,
          -0.23316821158604517,
          0.5041795397577344,
          0.1049882106951548,
          0.31524695608898634,
          0.301952649875826,
          -0.11193540289196152,
          0.08909551537192145,
          0.05309029774710693,
          0.25573938304983274,
          -0.060341758069869064,
          -0.26252763796966033,
          -0.017327131568532366,
          0.37058814323917333,
          0.15536635643447244,
          0.2210021703083222,
          -0.07123047702255965,
          -0.11953367953794182,
          -0.21962406665973683,
          0.31711317225254004
        ],
        [
          -0.241320916061228,
          -0.29545243016410005,
          0.30998539233946343,
          0.0953165279335835,
          0.1292653439985978,
          -0.16878304299233557,
          0.16246552156009927,
          0.22252526390447921,
          0.29755506385185376,
          -0.17773494259038777,
          -0.09334576235827635,
          0.024383054949411922,
          -0.23854769882207935,
          0.08826233047678175,
          -0.1809519496805092,
          0.32362977232583107,
          -0.006744844687468082,
          -0.15301265005287132,
          -0.15531804758960088,
          -0.020206874155825186,
          -0.06117466651479414,
          0.03389337305576424,
          0.1927201636174794,
          -0.15254271494589772,
          0.321193160954027,
          -0.005102223668893097,
          0.31350886055132293,
          -0.16900082261466176,
          -0.10521077766291877,
          0.14053467282361456,
          0.23455952510813666,
          0.24312232592227712,
          0.2698926146038819
        ],
        [
          0.09753876074386968,
          0.09799617248952366,
          -0.04470635856212714,
          0.164850339869775,
          0.020269925146583354,
          0.15585550618730032,
          -0.573082336899789,
          -0.2737283828507708,
          -0.04481672651835852,
          -0.06508875487177661,
          0.03742494929097786,
          0.05680116543621461,
          -0.31022568964589653,
          -0.41413903178135425,
          -0.052991931925321395,
          0.14331285770210508,
          0.18809468816917488,
          -0.026068272518023298,
          0.2856342241599852,
          -0.11020477369224467,
          -0.46736067504034584,
          0.23341124808526187,
          0.21114177762831554,
          -0.07085731362322524,
          0.09253294245908003,
          0.11815112385277943,
          -0.1762150175347206,
          0.11241322683302325,
          0.16926936493605743,
          -0.39239459037691177,
          -0.15498318286764243,
          -0.1664888086142579,
          0.02913255469659529
        ],
        [
          -0.4683309086730323,
          0.23016058227326358,
          -0.0011919050358413685,
          -0.2359509086589607,
          -0.04436469953636479,
          0.49456678267536003,
          0.1135485641184639,
          0.16343684799517652,
          -0.25285319676979195,
          -0.14368654187408716,
          0.497062578425307,
          -0.06905907321882823,
          -0.07496502875255999,
          -0.15309056534055998,
          -0.06328975641463949,
          -0.16882267990178365,
          0.11384015565643464,
          -0.23297498179752327,
          0.004025343503659961,
          0.15566915005493281,
          -0.08117550217143168,
          0.2156593957043869,
          -0.26295176480194377,
          0.00816721800088136,
          0.23658082230882113,
          -0.5537338176257302,
          -0.02488128358091557,
          0.11171927256644593,
          -0.5343873240766455,
          -0.1993842468324241,
          0.07673778616876342,
          -0.374344896934905,
          -0.12331050600478638
        ],
        [
          -0.03195920084478768,
          0.23142075360007613,
          0.16862496667457022,
          -0.10925605740256925,
          -0.009143873231834415,
          0.07939470979340463,
          -0.21189951548155847,
          0.29359551564111136,
          -0.10158665819477947,
          -0.003740611771143434,
          0.16874225340193372,
          0.2524193687920724,
          -0.2864688488565593,
          -0.3646668939502094,
          -0.4656354702232508,
          0.15015732439515533,
          -0.046893941418231354,
          -0.1777240221240419,
          0.2746073596680755,
          0.031524026404407005,
          0.10858796653255405,
          0.05748815391722712,
          -0.23248814429019224,
          -0.12571542364825236,
          -0.159290937371757,
          -0.13271255943819435,
          -0.3235816502179736,
          0.19153488376323863,
          -0.23561312481859678,
          -0.4011997499213612,
          0.33287400630831243,
          0.0783178536250449,
          -0.13993013170321533
        ],
        [
          0.04034603687411168,
          -0.12923408936931424,
          0.09586936903077278,
          0.06250725207223043,
          0.38557492028902435,
          0.06716405290168473,
          -0.09443137107962553,
          -0.32339269074375526,
          0.7195171840779558,
          0.2517800739458269,
          -0.0862407234729222,
          -0.30895064481159296,
          -0.1003664767185072,
          0.18273841295032436,
          0.13720759369216326,
          0.24256410656739302,
          -0.2533085412684426,
          0.11334248791659512,
          -0.06367350900344813,
          0.039605255205093955,
          -0.2158586131893358,
          -0.47793520714314564,
          0.18125355467133725,
          -0.10288131817870136,
          -0.2993101201985421,
          0.33095835938610807,
          0.31556972106547854,
          0.12758649895990865,
          0.08185545090674562,
          0.09468957596278767,
          -0.15354028897576602,
          -0.29607866047079484,
          0.5571818888893602
        ],
        [
          0.17302366780002518,
          -0.2925613325675301,
          0.26568380545608417,
          -0.21744521814677936,
          -0.1370343682454864,
          0.13160617617654594,
          0.2130745717837962,
          0.08810359823376057,
          -0.10755894716016887,
          0.029839191767830568,
          -0.21738230416354087,
          0.027656820217050484,
          -0.2896990170232154,
          0.2549725260125004,
          0.13118527557499987,
          -0.013897089315118748,
          0.20087849735819974,
          -0.25670581996993563,
          0.0678770023984374,
          0.2260980250105734,
          0.20950485197548172,
          0.2566169376039869,
          -0.258429952198528,
          0.16023273496940843,
          -0.2551832556192696,
          -0.3038739947335112,
          0.039172514771803384,
          0.03447159152921875,
          -0.1695675046430947,
          0.07462806087530555,
          -0.18094340162508302,
          0.14322835060542788,
          -0.003244857866051399
        ],
        [
          0.10762192860784295,
          0.24064729543787242,
          -0.18591336972607148,
          -0.2941458051109873,
          0.28160924599781545,
          0.2910646540408324,
          0.11989689072382508,
          -0.24358744495452622,
          0.25806886368633936,
          0.10986797707602594,
          0.07774669346321135,
          -0.23154401690518295,
          0.12061607809123079,
          0.1292798402361527,
          -0.2073748341324919,
          0.3167750039054743,
          -0.042351773798059406,
          -0.2365157697460211,
          0.02388478165070331,
          -0.28435200147345063,
          0.2441422441256547,
          0.0531037727398045,
          -0.1315104713152722,
          -0.1704771949836156,
          0.24033005133045562,
          -0.2822662625831415,
          -0.18378560628605775,
          0.058014979459275084,
          -0.20339392273309967,
          -0.1659459031069025,
          0.14453563841999462,
          0.05175984851042141,
          0.3225228894529358
        ],
        [
          -0.19661687890818982,
          -0.09678493962676347,
          -0.171042642796455,
          0.24715634303523037,
          -0.010649059887437508,
          -0.1849463204267697,
          -0.4012145296619444,
          0.20690384524888586,
          0.007500344144750652,
          -0.281530164741286,
          -0.5292852912698832,
          -0.05888942349765185,
          -0.1164006162280565,
          -0.04259015474966777,
          0.05976445838233965,
          0.4067377767823699,
          -0.008237832786052002,
          -0.10129973732051697,
          -0.11408825819900939,
          -0.17358470515087374,
          -0.14915211606109427,
          -0.3710388079389065,
          -0.21855597718599787,
          -0.22097669682448084,
          -0.16372458445225976,
          0.4987279268445618,
          0.2779993635792128,
          -0.04845916312213055,
          0.31700266489517637,
          0.11436641769972739,
          -0.09251792972779371,
          0.09902791161208818,
          0.026699805525341593
        ],
        [
          0.11375559326563314,
          -0.03296121501579973,
          0.052900170487530686,
          0.30147561291501634,
          0.25087731877319264,
          0.19434742879637973,
          -0.3124954406226051,
          -0.27695891612628276,
          0.18160443662472153,
          0.2048007014266718,
          -0.0612558442534992,
          0.14014585288058604,
          0.18613155578678703,
          -0.0991449760371717,
          0.3045025191765125,
          0.1379471123997813,
          0.14540677579002034,
          0.056948630410042646,
          -0.028398645275991383,
          0.11194390465777543,
          0.21218125781801497,
          -0.3207647324616854,
          -0.023478096153217026,
          -0.25750468588333836,
          0.1021841036472007,
          0.036232498126592454,
          -0.27780921774462014,
          -0.25334690749008015,
          0.326754279037443,
          -0.2574129246829756,
          0.05236506143174838,
          -0.1672120718526651,
          0.2932359920745409
        ]
      ]
    }
  ]
}
