{
  "layers": [
    {
      "activation": 2,
      "biases": [
        -0.1309930001759021,
        -0.0763560697713362,
        0.27784448773595655,
        1.0813399459706288,
        0.11786703341388101,
        0.5189547639243585,
        0.5943156663938579,
        0.2868502159645513,
        0.0023759131353925504
      ],
      "cols": 9,
      "rows": 3,
      "weights": [
        [
          -0.09233579703178514,
          1.4720158969204005,
          -0.4064234036938791,
          0.7407971591255473,
          0.22278860529273445,
          -0.5160010429445743,
          -0.5607573658592485,
          -0.1623339301141755,
          0.8839351374606891
        ],
        [
          0.13539609136620154,
          0.8761156398197203,
          0.9378949485365439,
          -0.7565714463215093,
          -0.12739146178755306,
          -0.5213892837531392,
          -0.542292896762983,
          0.4227568426151884,
          -0.5334421077758186
        ],
        [
          -0.5149808151054486,
          0.31026567711574327,
          0.5816345915840678,
          0.29618828603347125,
          1.2049905341285108,
          -0.36156329009690036,
          0.6581418277693926,
          0.48320346273054393,
          -0.4490591171322802
        ]
      ]
    },
    {
      "activation": 2,
      "biases": [
        0.8823056136308886,
        0.45989281313599223,
        0.27599309796881666,
        -0.06889949029071082,
        -0.05594995714501999,
        -0.05168586279622403,
        -0.010780083710500146,
        -0.044115141250287794,
        -0.1720337883642928,
        0.35449544654668685,
        0.0,
        0.1280402981424319,
        -0.03208775578198061,
        0.31838858113125346,
        0.1016099988346966,
        0.0
      ],
      "cols": 16,
      "rows": 9,
      "weights": [
        [
          0.050420101754165905,
          -0.07556406633666773,
          0.13456625881316703,
          0.09915870356340292,
          0.12709927808826868,
          -0.23019966735769617,
          -0.0029124077245991685,
          0.16050822362561773,
          -0.38909336913463005,
          0.10566743337069062,
          0.38480717953602556,
          0.004993225967588121,
          0.3295853048595174,
          -0.1879415987842582,
          0.3063516122908137,
          0.2774163254398311
        ],
        [
          -0.8662583984240665,
          -0.506558980379972,
          -0.06699331488104336,
          -0.14786932854564327,
          0.37071603614761184,
          -0.2216051442305887,
          0.08108766490387107,
          0.2415144115403988,
          -0.40974168661413696,
          -0.7084101183264039,
          -0.17845038272132202,
          -0.5057741324739403,
          -0.3953308496287697,
          0.6716396818394866,
          0.9581417136342099,
          -0.31249269481640785
        ],
        [
          0.42132380487391474,
          -0.22296742571585812,
          -0.38555024183296854,
          0.352775479352945,
          0.3716806030504928,
          0.2156072956914248,
          -0.43237475138039355,
          -0.07842632857019066,
          0.10745631654532226,
          -0.07901988881541945,
          -0.06034133353561135,
          -0.42763117058257166,
          0.331923687327447,
          -0.07195406341791892,
          0.376901279540959,
          -0.35871325223248524
        ],
        [
          0.4045744607678129,
          0.9166966885494116,
          1.084002011397436,
          -0.200516123636166,
          0.45438592381879045,
          -0.45490303802606363,
          -0.0761195155881624,
          -0.33588640523350893,
          0.18583013618269928,
          0.3840640144019147,
          -0.06803922078393189,
          0.2476488008511272,
          -0.2377567063757584,
          0.2562674665296536,
          0.0030876912188418683,
          -0.2094753334214899
        ],
        [
          -0.22379669233529406,
          -0.2914212391934392,
          0.5958900941564899,
          0.43867877558543,
          0.14426985182212884,
          -0.38611596251508434,
          -0.42198754830291046,
          0.10736593895063536,
          0.10575848040787199,
          0.04551983105352069,
          -0.11337178435553082,
          0.8177760227141527,
          0.4682214823860595,
          -0.09112288515759097,
          0.26333627812731897,
          -0.24527048699790902
        ],
        [
          0.18677630284635088,
          -0.06829351055194809,
          0.8029526823196758,
          -0.22505808042859057,
          -0.34993171398650624,
          0.43824516155206644,
          -0.3830105331173715,
          -0.20362698260225534,
          -0.3944469781639745,
          0.6236943898286681,
          0.2634402219057,
          -0.12526974436840815,
          0.10455643829587019,
          0.2746636867571121,
          -0.17354403212501052,
          -0.25973581832544057
        ],
        [
          0.7826885798514078,
          0.27782766235036305,
          0.28870279583179126,
          0.20835813949742646,
          -0.4542261592193274,
          -0.22257419927606456,
          0.006322020453781432,
          -0.056225582499458006,
          0.016242361880134663,
          -0.28082331316360115,
          -0.05784948577241053,
          0.7577593611453044,
          0.36162419859274725,
          -0.505725397048827,
          -0.14870148548604056,
          -0.38917695605646274
        ],
        [
          0.6121568810188605,
          -0.144332934124764,
          -0.050582633975432945,
          -0.01819197902743634,
          0.2591050720728128,
          0.029796340178198256,
          0.43068786388994684,
          -0.2977621599261949,
          -0.218644620150636,
          -0.29642510019440965,
          -0.31877744053917273,
          0.1550616307558309,
          -0.24203400741348363,
          -0.15074950071068585,
          0.0943849327483776,
          0.2203086872292449
        ],
        [
          -0.49461626676542775,
          0.7068811677557434,
          -0.7519751419967898,
          -0.504482146145422,
          -0.3079970729409177,
          0.47121365560033746,
          0.08774637552086027,
          0.40091923499176335,
          -0.28242659880915016,
          0.3270320342575504,
          -0.1684777265086801,
          0.4691136732230649,
          0.44725685302908696,
          0.4374028963555138,
          0.35296204203486103,
          0.07941107086733976
        ]
      ]
    },
    {
      "activation": 2,
      "biases": [
        -0.12386718913183838,
        -0.13302353538843076,
        0.13496700210665363,
        0.20009534240049942,
        0.2713527309730887,
        -0.026167271259453357,
        0.20037542051704152,
        -0.3118860552495642,
        0.055557353760594785,
        0.0,
        -0.1943801452885278,
        0.3726363138539087,
        0.0,
        0.687413409973493,
        0.18732488628919916,
        -0.05106718924599601,
        -0.3086019491373818,
        -0.13444593705200192,
        0.03871846177804976,
        0.06822471232811966,
        0.3429995869002279,
        0.1877335932065211
      ],
      "cols": 22,
      "rows": 16,
      "weights": [
        [
          0.10536719798610689,
          -0.000517774180376343,
          0.12595417113284996,
          0.3941825862625078,
          0.5031608392813267,
          -0.23047257392482964,
          0.028033386799969598,
          -0.5319700304926132,
          0.013103262898976367,
          -0.29821714828121176,
          -1.0618752196567491,
          0.037029726461702016,
          -0.2610384765741836,
          0.2978482153435203,
          0.27138707853907384,
          0.09792338371798291,
          -0.6602858313967007,
          -0.17353695066544447,
          -0.34717379742843707,
          -0.3721644513824017,
          0.7440684936387254,
          0.21416569937794566
        ],
        [
          0.12651135974428354,
          0.3050009083513858,
          0.07031637988647142,
          -0.06907494615305587,
          0.2706533313938079,
          0.07390376688136502,
          0.38982279372391465,
          0.5248669671148098,
          -0.030967905135575905,
          0.1597344432122181,
          0.08382435506290817,
          -0.39660467817574296,
          0.37221023135957343,
          -0.038518296838294136,
          0.6661365854095677,
          -0.2703432956195775,
          -0.6647298581734308,
          -0.3289537219682184,
          0.6276181131163685,
          0.4693918692220213,
          0.1972563820449348,
          -0.13305522215487497
        ],
        [
          -0.024508327495164375,
          0.6037445758439483,
          0.2332673649549589,
          0.6425812749716807,
          0.5318040864995242,
          -0.4158532264926575,
          0.023746981215093686,
          0.13555919807048405,
          0.27200092857323965,
          0.09460576831919966,
          -0.23189988784210624,
          -0.23300031510921854,
          -0.2938704292634963,
          -0.730648656144947,
          -0.17544815002259548,
          0.6949529237614307,
          0.07218609432733754,
          -0.08640349764630763,
          0.6544657843444442,
          0.5661950112313465,
          -0.13081847597281004,
          0.4081519142569422
        ],
        [
          0.04848201476025415,
          0.0808780841233147,
          -0.2933657447991857,
          -0.3572711230413204,
          0.19252857095006518,
          -0.29493929153202664,
          0.3502763860654124,
          -0.06420418036303137,
          0.16251847276096654,
          -0.19439975150218236,
          -0.009246563866179494,
          0.1596363794756458,
          0.1008548639653719,
          -0.08913614821865505,
          0.42016565905493414,
          0.2754166747812726,
          -0.324594191267236,
          0.15389327648740547,
          0.3111879831251384,
          -0.14247824987249058,
          -0.3857846842897529,
          -0.24881170323072047
        ],
        [
          0.06830744922911747,
          -0.07429096596365978,
          -0.3782462402270817,
          -0.07423131386708547,
          -0.15667137706091494,
          -0.3928448580558027,
          0.16179787528312117,
          0.2222770863440964,
          0.2463115917435936,
          -0.1851115605417144,
          0.33209118839350016,
          0.052380364592557696,
          -0.06881190583701732,
          0.39699333901578904,
          -0.043397887471999234,
          -0.1953146876982614,
          0.42870859661516186,
          0.4513761084612488,
          0.2507838626483105,
          0.055937685292239546,
          -0.14246379435364778,
          0.17939193324894573
        ],
        [
          -0.27094468676471634,
          0.1453777437536642,
          0.1807175391682069,
          0.3130377378128036,
          0.1500772745462799,
          0.21143773957780684,
          -0.11181464662272014,
          -0.18430572853290916,
          -0.13358223104195618,
          0.1565087211937424,
          0.23997500300431318,
          0.28402577173937993,
          -0.20495368496666974,
          -0.1569833751221035,
          0.36854330514756223,
          0.00855834238019694,
          0.07629828675890289,
          0.13723001812181737,
          -0.12896283287942148,
          0.024516498248342775,
          0.28206223344873793,
          -0.10166527867425931
        ],
        [
          -0.025106864967404954,
          0.2874264026075093,
          -0.09792042150508304,
          -0.3553175936718656,
          -0.0324378309831228,
          -0.35113139272654864,
          -0.09495964548371356,
          0.18989725112025924,
          0.11117777273510497,
          -0.07918402794901898,
          -0.026025270020510624,
          -0.12658228591831688,
          -0.3426419228785744,
          -0.1311443630411743,
          0.06421503610807183,
          0.14687992251309498,
          0.38715478490673183,
          0.3451839846877137,
          -0.15864166868061727,
          0.3513312601056242,
          0.19192857751860548,
          -0.036401995919803726
        ],
        [
          0.024305872315726826,
          -0.07282027303803712,
          0.11538265309306389,
          -0.22132742990136253,
          -0.01931539080062931,
          0.11905580406213132,
          0.3310998134606632,
          0.02803398751091498,
          -0.1055332816916919,
          0.30906111120720425,
          -0.25941391272435066,
          -0.014037565081874252,
          -0.24592224421607406,
          -0.23615024271855867,
          0.03299410415768613,
          -0.3414428004373461,
          0.13614652007298647,
          0.3239372145557957,
          -0.3703255572368668,
          -0.0857390391377485,
          0.35060085326555346,
          0.11643070707624015
        ],
        [
          0.14609534194735127,
          -0.1793506456829178,
          0.12089539950375143,
          0.31352126676381425,
          -0.1389327145808307,
          0.04896687094698587,
          0.38066840816611014,
          0.023089257729366604,
          -0.13002353892861465,
          0.10400459320607558,
          0.2103825592347571,
          -0.3508716439188631,
          0.12051491761872553,
          0.14039801310168146,
          0.009395740078072687,
          0.1979909753849639,
          -0.18821807220618175,
          0.13565537498418934,
          -0.10939351329321087,
          -0.36972967145183583,
          -0.14654417357429494,
          0.03609210594904936
        ],
        [
          -0.24066016214874109,
          -0.13745319711562762,
          0.49487988706297725,
          0.6024881829241295,
          0.32982187450838263,
          -0.08027050982146068,
          0.0991081701825995,
          0.15533725035891338,
          0.1971060627763179,
          -0.37751331134586,
          -0.006083522278983817,
          0.04902733389626118,
          -0.2455664773584563,
          -0.014854899208971869,
          0.2570625892323786,
          0.042753683031305945,
          0.34129443740829857,
          -0.3730336800957722,
          -0.11159690265310858,
          0.04487406060228403,
          -0.3451564779257638,
          -0.19749230779750357
        ],
        [
          -0.10735022347687462,
          0.14657004179578917,
          -0.25977602547332806,
          -0.20516368270570615,
          0.24524058255653824,
          0.10913760786376023,
          0.32833886916021354,
          -0.33565397161428945,
          -0.37992590431397594,
          0.17357949451662333,
          0.29693194897342046,
          0.007051825172582105,
          -0.25786682031201985,
          -0.28755760311117745,
          0.15628350506339603,
          -0.041474237234813305,
          0.12781072239915778,
          0.2637821316325443,
          -0.24488260342006804,
          -0.245337800332856,
          0.07325896898296512,
          0.3175904646163644
        ],
        [
          -0.22619547345427876,
          -0.23962343305742145,
          0.05877659464732021,
          -0.1535522537709704,
          0.3224232595686641,
          0.05709725473183618,
          -0.11878392615863477,
          0.44679317763961124,
          -0.022121325628748013,
          -0.06440533057667255,
          -0.8122873589556239,
          0.18684365022727914,
          -0.3626831387076612,
          -0.35131228864987807,
          0.12740679622512532,
          -0.34955134012593014,
          -0.22744395604488524,
          -0.4702827609746594,
          0.16844409781537112,
          -0.41939642115798126,
          0.3627724503125575,
          -0.48373646880743376
        ],
        [
          0.13724961414233044,
          0.023326057625727332,
          -0.412028845328393,
          -0.06421913605518235,
          0.30424442590681333,
          0.09023881053966364,
          0.2132331004337352,
          0.17237292025856904,
          0.2681751647622041,
          -0.052548808582078714,
          0.2774413860320544,
          0.2247069183522342,
          -0.11760504633051583,
          0.1935732790060036,
          -0.37504022447495156,
          -0.33163559902806866,
          0.14512274303417355,
          -0.20100618466904874,
          0.004571887212826694,
          -0.3462127451666535,
          -0.3083408339441973,
          -0.1817580128544148
        ],
        [
          -0.02340037326682709,
          -0.08520096362985152,
          0.08827501420577696,
          -0.10471403332306894,
          0.14734367891023908,
          0.29414334336842696,
          -0.2271802990157633,
          0.12745557430218324,
          -0.055292973029044526,
          -0.25455661943909647,
          0.7088328158424291,
          0.40841109913869067,
          -0.1208304645214677,
          0.5043514541548356,
          0.13423012905352374,
          0.31323739085550767,
          0.09930756721769406,
          0.1497979331939768,
          -0.11178925565122347,
          0.26268240629372896,
          -0.10486918216921812,
          -0.014596572156057162
        ],
        [
          -0.13026581716695848,
          0.16681898691848066,
          -0.42141227794104574,
          -0.3476044810782274,
          -0.20770458311815235,
          0.21599366369502662,
          0.005939377619223542,
          -0.18832908291733072,
          -0.2399515553661488,
          -0.3584960642155688,
          0.5420607421175055,
          0.4985748132979482,
          -0.2895138315954483,
          0.5420014595167916,
          -0.42331753852701076,
          0.02862733530480518,
          0.5108391119416027,
          0.24721921505955702,
          0.1421712831783035,
          0.06616445634831582,
          0.21763187300666822,
          -0.2342395701657912
        ],
        [
          0.04921994729616471,
          0.325322366623426,
          0.2952682053655403,
          -0.178345991781283,
          -0.3560226650349651,
          -0.07092841129665337,
          -0.08398282011809817,
          -0.36070069260958904,
          0.019085406449948526,
          0.3192474892321325,
          -0.022611057674255742,
          -0.11023692467827362,
          0.20800576085858832,
          0.28990974476399856,
          0.2633489446369112,
          0.009340787723654294,
          -0.21684391738368428,
          -0.2988147133686777,
          0.09077030960879859,
          -0.030239114690263937,
          0.08445768255417507,
          0.25530634475517766
        ]
      ]
    },
    {
      "activation": 1,
      "biases": [
        -0.22801918694278248,
        -0.3620885044732412,
        -0.08558642566641261,
        0.01324185655414018,
        0.32918803884464953,
        0.20908459169989566,
        -0.1654797205697257,
        0.22997035187758605,
        0.3324196980387618,
        -0.03050383649269603,
        0.15812256972643232,
        -0.5522532544899598,
        0.027586040279796255,
        0.15659118303265265,
        -0.056439554689817165,
        0.10437965758967209,
        -0.0014965417064706226,
        0.1311316333385711,
        -0.18354410077196207,
        -0.16458874451116556,
        0.1801577346970849,
        0.4550244614560097,
        0.10379470670287415,
        0.253174218595134,
        0.5139478281509006,
        -0.011701327367465975,
        0.18244316716888,
        0.29519305755198705,
        0.1718490406307466,
        0.17387913424670232,
        -0.025218379739797563,
        0.4780560812655205,
        0.16906505723361925
      ],
      "cols": 33,
      "rows": 22,
      "weights": [
        [
          0.20218777941940647,
          -0.2952461710216011,
          0.301567285127223,
          0.20109435526381844,
          -0.30504120829759074,
          0.08669780716996328,
          -0.29207728464035965,
          -0.17778777510868182,
          0.001448425117081564,
          0.02560441622481574,
          0.0775787057424182,
          0.22318608280259788,
          0.18552204841880068,
          0.008776044446232981,
          -0.260817460019598,
          -0.16540075256640344,
          0.16442044088805088,
          0.1579007800192672,
          0.16607617998311197,
          0.14292314118168703,
          -0.10250176278986962,
          0.06218092835213305,
          -0.17666428041666338,
          0.158751166223429,
          0.04361127302932395,
          -0.10943433227172734,
          -0.06775177899959967,
          -0.3012246782244801,
          0.006597109460541328,
          0.2549019835376583,
          -0.061546984868990476,
          -0.19231005339171092,
          -0.22289329613633074
        ],
        [
          0.0034960020433055347,
          0.1601903287845851,
          -0.0832180318358792,
          0.15698910025370705,
          -0.1617171202474892,
          -0.2659535816217597,
          -0.14285001185836185,
          -0.13556184084726186,
          0.039279206012896084,
          -0.12399850657859615,
          -0.4284767810575404,
          -0.06053030837470829,
          -0.3617469983289591,
          0.2036469656344124,
          0.408985831215929,
          0.0682482168115297,
          0.076935961687877,
          -0.3073568562530869,
          -0.18663336719486684,
          0.161542067035917,
          0.14653032309852512,
          0.157015731084756,
          0.32811779695371746,
          -0.23269359759601715,
          0.11583320687674425,
          -0.020482314250834625,
          -0.245149316872059,
          -0.18464736196811582,
          -0.4129311212964169,
          -0.01499641522031361,
          -0.30098003753515373,
          -0.2423120979103435,
          0.051682924159144356
        ],
        [
          -0.44074590932897173,
          -0.7677424293927596,
          -0.29578737908816866,
          -0.15377732552683063,
          -0.17677044306579268,
          -0.21015072280029662,
          0.13822987323301764,
          -0.1394527156991788,
          -0.11424244202971694,
          -0.16092363966249992,
          0.27690427363061537,
          -0.3128509968383782,
          0.019743827687389685,
          0.046183993167808385,
          0.13996404568312193,
          -0.3026993110660609,
          0.010068274749649062,
          0.1789917698588935,
          0.0951357297985166,
          -0.1574166010261772,
          -0.07999283583559241,
          0.12466459936278015,
          0.18896072235819564,
          -0.3091700562189115,
          0.24527887202734316,
          -0.19988091483436224,
          0.10150965830328373,
          0.17912190287283397,
          0.10515095004803156,
          0.14167721295610444,
          0.19834963113371223,
          -0.06481484690383683,
          -0.0007412159807513206
        ],
        [
          -0.319809112963015,
          -0.4280579237130374,
          0.17191008249579656,
          -0.1951447876829855,
          0.27341555742421747,
          0.15022747916228346,
          0.45772981123620027,
          0.4379242144004432,
          0.07664868522038709,
          -0.18217417635317668,
          -0.122149990738786,
          -0.2494246938511298,
          -0.27361531260657906,
          -0.04454176433759348,
          0.256862754485593,
          0.3833245064799941,
          0.424105673073919,
          -0.25454271946881113,
          0.09549451831564996,
          0.00740340061660326,
          0.08050456248320709,
          0.4687463832041513,
          0.29089586843094645,
          0.21865847486231912,
          -0.18778460348106818,
          -0.00025759908015251116,
          -0.1025800629873908,
          0.12158456807012162,
          0.0032439883692863105,
          0.17263245961577828,
          0.08869919305599179,
          0.1501495985311532,
          0.16741058097322153
        ],
        [
          -0.1123735189703706,
          0.24845363972478754,
          -0.10249997982544926,
          -0.17988906029138324,
          0.129265201278317,
          -0.2523064227533609,
          0.2571574100361545,
          0.5962260380646964,
          0.35937776760537404,
          -0.13552332535841444,
          0.3129918291269297,
          -0.7558808409574956,
          -0.13198693031376035,
          0.319278133414864,
          0.19336997309071888,
          -0.084239730019295,
          -0.142190339875673,
          -0.1905212721332257,
          0.27419466875980725,
          -0.0018380620937987716,
          0.22542413278779508,
          0.04986274713430066,
          0.13194361732345772,
          0.22994795379308605,
          0.14212454168781638,
          0.01577223048265175,
          -0.23923620281406244,
          -0.11319064400979476,
          -0.08960156286972548,
          0.1607463360253573,
          0.06181779238120007,
          0.33150324949134147,
          0.0603000499640799
        ],
        [
          -0.2496294785919525,
          -0.04318313603926049,
          0.02735404255803498,
          0.3286339524927821,
          -0.12050659396074527,
          0.07374180337944534,
          -0.16747227297567205,
          0.060788185888346745,
          -0.22870300816620118,
          0.31363701487506823,
          0.04989461960919112,
          0.1970078537686549,
          0.16634717376017574,
          -0.3163400956614921,
          -0.145033138481231,
          0.06313162614489704,
          0.32372657050244086,
          0.3034149704396681,
          0.28185179674890803,
          0.16348874151750062,
          0.09203677994863896,
          -0.16400155075321848,
          0.2357880345785488,
          -0.19254272699684882,
          -0.02001518905351294,
          0.26684420743108006,
          -0.23211455872265158,
          -0.12329559854816588,
          -0.2118528242838709,
          -0.29244700494248604,
          -0.07096418398315606,
          0.00014703326549807345,
          -0.06473837927520652
        ],
        [
          0.3193097724003572,
          -0.35247328603783,
          -0.27140281419670154,
          0.016921189129168693,
          -0.21603181146096068,
          0.2719987030495724,
          0.19052728713494946,
          0.0192807493700979,
          -0.12946813348395247,
          0.09613370766356237,
          0.15302055008393567,
          -0.29862259500652566,
          -0.006365376366718462,
          0.13016708695457396,
          0.29333336870176985,
          -0.06223418784948955,
          0.021479338723560653,
          -0.09617182884180218,
          -0.3218261384318683,
          -0.23768704800617665,
          0.11744708060795978,
          0.022327627196433886,
          0.2980205760339002,
          0.27793198693651755,
          0.1538411163584381,
          0.22028554215565357,
          -0.13010727239570963,
          0.27270178840172216,
          -0.1672615473612638,
          -0.07600192649622403,
          0.23100986493591497,
          -0.07032503477844616,
          0.3677845671757741
        ],
        [
          0.35790824748619887,
          -0.038478445016642784,
          0.1909211042206781,
          -0.1835686846087884,
          -0.22443507525973008,
          0.35075520947861505,
          -0.5681538755437351,
          -0.47755364184672905,
          -0.06858731936043096,
          -0.056460389816661974,
          0.33386626764940697,
          -0.5775922081966778,
          0.2701258402431616,
          -0.32942035254878343,
          -0.14055116438638107,
          -0.15744158003115688,
          -0.1406371810024653,
          0.1374552457433689,
          0.01641799972265708,
          -0.09502132187962317,
          -0.15432038060627473,
          0.04420565788501453,
          -0.020560049520871336,
          -0.20952073272388452,
          -0.08517875308482699,
          0.12069151553083665,
          -0.0703750144779616,
          -0.006413989797196879,
          -0.04990889957287851,
          0.11543546421972671,
          0.11190886912850216,
          0.0761253289430601,
          -0.0402183696815882
        ],
        [
          0.23590952000794727,
          -0.06051834563913133,
          -0.07454411495295883,
          -0.14341662822875711,
          -0.07320208328512132,
          0.15091559890100173,
          0.010204680208974502,
          0.28025879337657383,
          0.29271936984733093,
          0.1436719369054468,
          -0.1595863135393059,
          0.24155907682879083,
          -0.24320321131815173,
          0.28580000514359566,
          -0.062471280744306676,
          0.012628419676008269,
          -0.17140420190152553,
          -0.22822008136336988,
          -0.2882240631392996,
          0.12056287823251863,
          -0.07205591949395262,
          0.3357065772318765,
          0.037492699573485826,
          -0.20933579026952331,
          -0.2740105517894834,
          0.07743690950593164,
          -0.27566404237840497,
          0.07044908806424921,
          0.0014977164132192885,
          -0.044863702877629856,
          -0.24060681275664897,
          0.0371173561854626,
          -0.326126731525332
        ],
        [
          -0.24376289023120043,
          0.23764700588817794,
          0.11221149755723527,
          0.08855265521752197,
          0.15472273946501408,
          -0.2989451824065262,
          -0.2915880234582927,
          -0.1016294792675987,
          -0.15238803786911798,
          -0.23089913882068216,
          -0.034976885606403205,
          -0.19894782972686628,
          0.2406386161154637,
          -0.27694794804861733,
          -0.19387026665495374,
          -0.2214762976297319,
          0.11624471766841156,
          0.0012803979004525187,
          0.02296782777002394,
          0.27677464606054375,
          0.27418549854778945,
          0.12643785249814224,
          0.19782556193123288,
          0.0873663020760583,
          0.16578066564194058,
          0.15716756390961242,
          0.24863018941140785,
          0.2993402262862392,
          0.02929869867541105,
          0.2631418148234266,
          -0.1557083042014526,
          -0.2574980458967397,
          0.09231625060745688
        ],
        [
          0.2783613539687604,
          0.3168244668666588,
          0.06003469595473488,
          -0.3282265405028637,
          -0.9386209898907889,
          -0.3615647676749231,
          0.6861397075557799,
          0.44822103374410216,
          0.1618397904341835,
          -0.02063053318107919,
          -0.1421254045163082,
          0.4588938139614929,
          -0.3421694468397455,
          0.127733162520643,
          0.32156542855996734,
          0.04385360153138087,
          0.03664880010986446,
          -0.5233141502434908,
          0.1464649382174799,
          0.15242737121018615,
          0.2358030429963042,
          0.14221601079841564,
          0.25294943435660117,
          -0.046195703154743105,
          0.015970784009921274,
          -0.242467210705731,
          -0.4679265822431111,
          -0.09141305550575211,
          -0.2329059076928549,
          0.09413395892266234,
          0.12745025200439555,
          -0.24282021399724482,
          0.005111455825409895
        ],
        [
          0.2087013893602217,
          -0.1321940211592474,
          0.1305663051388984,
          0.19111131139884469,
          0.0049015983437889895,
          0.15733097130251575,
          -0.47617938400600807,
          -0.39470825562318607,
          -0.10698082362402088,
          -0.07651219153459915,
          0.12911209891294537,
          0.29706188156409136,
          0.45799905426436216,
          -0.3795860699509786,
          0.3055774243767388,
          -0.12214897270367424,
          0.10960307575379068,
          0.37727802268297655,
          -0.11953612715265871,
          0.07773199143734229,
          -0.07087631969026574,
          -0.02588995458362504,
          -0.26577040245755174,
          0.021174312812222738,
          -0.19685380287235377,
          0.010720950495286902,
          0.11560690957952266,
          0.12558864018717297,
          0.39234720794841643,
          0.17109217701325888,
          0.004052737257660806,
          -0.1329000651042546,
          -0.14043486183648085
        ],
        [
          0.10042322864996665,
          0.23419453061625614,
          0.143893731621236,
          -0.007347807272856858,
          -0.24239866315780767,
          -0.18214993154871123,
          -0.16445717479439598,
          -0.12136228917103252,
          0.19259980703399085,
          -0.06824802688529871,
          -0.19683120243957863,
          0.15108716865402144,
          0.163412334742812,
          -0.04857604170703528,
          0.3241651527035347,
          0.2728900518063715,
          -0.3179924175936725,
          0.2177582278867465,
          0.09434201793160492,
          -0.2701341152415088,
          -0.30067738436364605,
          -0.06403574517649818,
          -0.2770464904646797,
          0.005146887097002088,
          -0.09055272792805287,
          0.17373859579239476,
          0.06077332071664158,
          0.2861581503240781,
          0.3056909183815756,
          -0.2662250887876051,
          -0.17339815900338057,
          -0.29149781992576523,
          -0.11664875563184862
        ],
        [
          -0.06635038445374257,
          -0.22337657816309303,
          -0.10042165830104033,
          0.19852938784852114,
          -0.01010903175679644,
          0.1029311111580428,
          -0.7168570254043477,
          -0.2561136288000053,
          0.01607989332954332,
          -0.27782688629403735,
          0.16018939258048437,
          0.1921865957547683,
          0.195070838463075,
          -0.07150635979370067,
          -0.3340414912907313,
          0.07326207327923576,
          0.07029760854983685,
          0.6225021904697822,
          0.09855089126794903,
          -0.315303581371122,
          -0.15906105417978397,
          0.1136926296030664,
          0.04861920142991359,
          0.08635013438533796,
          0.4225909563784215,
          0.37638300098997124,
          0.3243137392784906,
          0.10123517234299106,
          0.27455534187765235,
          0.195293586464814,
          0.05823781498959539,
          0.6897272679155368,
          0.14812298297252816
        ],
        [
          -0.39648380958662444,
          -0.15301451119969997,
          0.31979713855822234,
          -0.03389070138623132,
          -0.5653989978265852,
          0.1501222080207708,
          0.39873413334723307,
          0.43490998749665893,
          0.25350918097273567,
          0.19138247106807185,
          -0.3478454994859025,
          -0.304695945649254,
          0.08201746234407373,
          0.1758222346171253,
          -0.17307681272924477,
          0.2094938954495816,
          -0.059055335758346,
          0.1000672262452994,
          -0.31045352940649856,
          0.25236549319362633,
          0.045955765334456285,
          -0.2735960761649811,
          0.006996461661708076,
          0.18941453459081883,
          -0.13684668764637437,
          -0.13731884059615046,
          -0.2728997966708258,
          -0.0662181484745211,
          -0.15178742165939274,
          -0.061098959068102116,
          -0.08492680622639014,
          0.19597205121016376,
          -0.20503823593917855
        ],
        [
          -0.2921932253462045,
          -0.14923363086608585,
          0.2099154924420678,
          -0.3016727451394123,
          0.5956830688922563,
          -0.21411003667701398,
          0.3505684373455805,
          0.17793902828609204,
          -0.11268502746266794,
          0.2140441404127155,
          -0.3185638591681476,
          0.3191844836667332,
          -0.3677650953253116,
          0.011565253778486871,
          -0.18792533878117162,
          0.1800079562035403,
          -0.14851831182286743,
          -0.046056966988758906,
          -0.08693320192851631,
          -0.016900991754699397,
          0.20998380804176184,
          0.24654823755315752,
          0.38633573551965444,
          0.3048651326132583,
          0.17243792116207568,
          0.3158349989227021,
          -0.3510321535913719,
          -0.24316068124517085,
          -0.30527583039716666,
          -0.047466587706729534,
          0.20623289637106426,
          0.39523640523904335,
          0.03877810895815667
        ],
        [
          -0.37636062504884427,
          -0.3681175493908504,
          0.04883640609528754,
          -0.09940050196948853,
          -0.0961718665404608,
          -0.03043747308252578,
          0.2673999196659541,
          0.18982801595910923,
          -0.061837256040311706,
          -0.18762202427751445,
          -0.10358122607049718,
          0.7553787857137333,
          -0.17870138607481723,
          0.3919058391894876,
          0.17386669181828546,
          -0.08185152787140051,
          -0.04595570156692895,
          -0.3207055226665435,
          -0.003922433174862417,
          0.36013214195366894,
          0.1984429068326366,
          4.875636411515698e-05,
          0.17833282336461717,
          0.28620402618509466,
          -0.35488210922685653,
          -0.20043833040879797,
          -0.15694129896132464,
          -0.11171163480589075,
          -0.23531361335431863,
          -0.019361673517487604,
          -0.2340701192585673,
          0.028335600283602377,
          -0.09865103571589444
        ],
        [
          -0.45662741366317805,
          -0.12188051057390602,
          -0.13783132680035295,
          -0.18672365531484786,
          0.14545600257462118,
          0.32820132874138636,
          0.36570950504874167,
          0.2823960095685628,
          0.30346134915523887,
          -0.01707199854927061,
          -0.25858291606735634,
          0.5785443893794853,
          -0.031195478919591218,
          -0.047824978575858317,
          -0.19089321602638568,
          0.09820748892885736,
          -0.16094723337801464,
          -0.17371384960611755,
          -0.12218116278136659,
          -0.26108548938860615,
          -0.24045955376329314,
          -0.038977675089981616,
          -0.21458686979489916,
          -0.23029020934648037,
          0.09519277742309498,
          -0.1659798205033239,
          0.2491664192120129,
          0.21800894165978335,
          -0.21571496273788685,
          -0.10124201099432739,
          0.20556154474909094,
          0.04237847356233776,
          0.2354853450506579
        ],
        [
          0.13255128196035143,
          0.25229186566906836,
          0.10007115816753848,
          -0.41759057604394456,
          -0.10741661014534012,
          -0.1281806792303035,
          0.0046696754555654845,
          -0.47143704868044356,
          -0.20901762518802386,
          -0.06556219961369343,
          -0.11370659321218293,
          -0.323465578547564,
          -0.5755287879476599,
          0.4452692307923779,
          -0.11943340806202701,
          0.2101607357904086,
          0.24294225598725364,
          -0.2690052412560613,
          0.15327054281535024,
          -0.01204488615731562,
          0.132543617113871,
          0.1572364791093555,
          0.2960489330160398,
          -0.0608156152697098,
          0.060067181423244555,
          -0.3746596250838891,
          -0.6182700454010922,
          0.06500895655509832,
          -0.10623108275519681,
          -0.08578618160415229,
          0.2596887327762267,
          -0.10859476084305443,
          -0.09489154297807702
        ],
        [
          -0.29521798015140227,
          -0.09209447809531894,
          -0.20038228301846692,
          -0.013939607084131838,
          0.038812582275367526,
          -0.05864407726872133,
          -0.25843231179972953,
          -0.2829175713355618,
          0.25745798982072665,
          0.268020577217788,
          -0.0732179946477121,
          -0.15320302177647732,
          -0.44600316354774816,
          0.31572113346407726,
          0.32798835607068616,
          0.05342290223240068,
          -0.1541311289646872,
          -0.3563351600673326,
          -0.1620684986561641,
          0.2290315264775827,
          0.12020181319579229,
          0.31241903701531626,
          0.2108732132169278,
          0.3868396247963277,
          -0.1210750290164909,
          -0.22215509843360873,
          -0.29864258148537004,
          0.139164154742445,
          -0.1538789634357896,
          0.08624855628332091,
          -0.11066303654051586,
          0.38054038271128043,
          0.1926095984494274
        ],
        [
          0.5214176526449805,
          0.3048992207016512,
          -0.10649624735458904,
          0.20551303659163903,
          0.46982490044592745,
          -0.03371319819974396,
          0.2189040809506029,
          0.29215835281944624,
          0.21576609332699898,
          0.2759283566107176,
          -0.09694113408578084,
          -0.6572558700662712,
          0.04109023240114573,
          -0.35351912384137635,
          -0.046453137693811035,
          -0.15773212676476636,
          -0.22471723798365315,
          0.2714058421773489,
          -0.1813863449830848,
          0.11907476851301417,
          -0.2271824453360418,
          0.08348596052350765,
          -0.19687385363192328,
          -0.005166790387474617,
          0.12220768016743135,
          -0.2433031288893103,
          0.29740551215898997,
          0.18494813031377952,
          0.06491971118810476,
          0.15479976988233515,
          0.010165252758720891,
          0.22073620844543831,
          0.18902503242818364
        ],
        [
          0.09230300016351638,
          -0.30446747919814404,
          0.3207911590115311,
          -0.06957695167874217,
          0.5417625673711572,
          -0.03284613163944868,
          0.34000310912282705,
          -0.027779813797209476,
          0.24150456721046545,
          -0.20033953860715353,
          0.20943883153924392,
          0.29187986556166506,
          -0.049533684129082975,
          0.14992516968201924,
          -0.1814535850135202,
          -0.17872577105789658,
          -0.13855970542555066,
          0.05522444670703428,
          0.20226606438950742,
          -0.06591499101301515,
          0.18391283913988085,
          -0.08098861202926587,
          0.30415148972878664,
          -0.31238177380179766,
          0.24220281320689163,
          0.11220548257511202,
          -0.08455987904382459,
          -0.25198692811983353,
          0.05232283421683712,
          -0.10573251944793931,
          0.159339952516336,
          0.23532257747286875,
          -0.24161822221224297
        ]
      ]
    }
  ]
}
