{
  "layers": [
    {
      "activation": 2,
      "biases": [
        0.4166916780538497,
        0.0,
        0.0,
        -0.47076546532522917,
        0.0,
        0.5414521725368707
      ],
      "cols": 6,
      "rows": 3,
      "weights": [
        [
          1.2562405863518562,
          -0.5783939638325467,
          -0.199006410343871,
          0.955362169041417,
          -0.4671758177512912,
          -0.29081607228633016
        ],
        [
          -1.236434683804524,
          0.14094239189255336,
          -0.33074316947510884,
          1.6185834809461246,
          -0.39284674493684835,
          -0.00963197432148689
        ],
        [
          0.8382458373621454,
          -0.6542973141158421,
          -0.09172641219577787,
          -0.04252355421958283,
          -0.3838887720173875,
          2.025572997687226
        ]
      ]
    },
    {
      "activation": 2,
      "biases": [
        0.29093790912854245,
        1.3839209969829467,
        0.1601800766510548,
        -0.04381865556210916,
        -0.34519521400953423,
        0.36519340339470513,
        0.3746830410134989,
        0.0,
        0.009689876338780032
      ],
      "cols": 9,
      "rows": 6,
      "weights": [
        [
          -0.7702828162832187,
          -0.8757707848537771,
          1.436544022731264,
          0.21934742648814765,
          0.3669574152149684,
          -0.6054735706811945,
          0.6118043492690173,
          -0.5673117386116481,
          -0.34311471198310367
        ],
        [
          -0.47617933575257526,
          -0.4210269662529202,
          0.5738020799840681,
          0.020632196283120588,
          -0.29191521964813155,
          0.532639030095621,
          0.07937946745659745,
          0.09121009372867116,
          -0.26359436798535774
        ],
        [
          -0.05379363939830465,
          -0.28772942006348634,
          0.20960584274131372,
          0.1796913759535012,
          0.37092089111131105,
          0.28857841245208754,
          -0.35046304802175166,
          -0.10416435185312559,
          -0.511996366041532
        ],
        [
          0.32567057162487006,
          -0.42466091996523947,
          -0.9616471753623246,
          -0.930730587223951,
          1.1920932813518508,
          0.9933630006323748,
          0.05897953828010071,
          -0.05334892626660734,
          0.21089013038745758
        ],
        [
          -0.13065548439004496,
          -0.3707955546991449,
          -0.4310828101271971,
          -0.19220960781490973,
          0.207441174971156,
          0.15888397534275375,
          -0.6266811210498664,
          0.18654066088263685,
          -0.21396975611844224
        ],
        [
          0.6394616479993316,
          1.3285709323254389,
          0.33292592142297406,
          0.6778634457906512,
          0.3553628318887319,
          0.6994646703521031,
          0.8986895231525742,
          -0.5256403684873576,
          -0.09607198761433938
        ]
      ]
    },
    {
      "activation": 2,
      "biases": [
        0.37404933548759806,
        0.9992937021021503,
        0.09076543569317508,
        0.03346477665576719,
        -0.3969920762849197,
        -0.006000812955800015,
        0.01601995125378854,
        -0.007439383119151532,
        -0.07029444656214039,
        0.0,
        0.47961405024379083,
        0.17612368599803646
      ],
      "cols": 12,
      "rows": 9,
      "weights": [
        [
          0.38961855903670284,
          0.5738408531405895,
          0.4689387628151848,
          -0.1338818419453246,
          0.42766649623470643,
          0.5065483163235279,
          0.20767501563787721,
          0.34121111134884946,
          0.4321416974555607,
          -0.39969445661809794,
          -0.713046357398992,
          0.5282184168423029
        ],
        [
          0.8437306260287868,
          1.3765650969668233,
          0.5112128569422003,
          -0.627763008004047,
          -0.7488749976313257,
          -0.02595701335276217,
          -0.31178279433115813,
          -0.4319027910254741,
          -0.11571772934254683,
          0.21384433032749514,
          -0.7618387006422384,
          0.6046774038175391
        ],
        [
          0.6426154661170309,
          0.17245402947655858,
          -0.3419290071739346,
          1.2180281867390657,
          0.5510210524182939,
          -0.19903736631784727,
          -0.5219358608011492,
          -0.5243301204584516,
          0.19256531527119622,
          -0.047521424071735444,
          0.6721792854781303,
          0.11989463191510341
        ],
        [
          0.5004565555943636,
          0.10694851593496746,
          -0.08007752714753254,
          0.5486130447654307,
          -0.3177581981408518,
          -0.179311928155605,
          -0.05870647587802694,
          0.6142339401377962,
          -0.14901736252198755,
          -0.1159835393338213,
          0.15241900653825874,
          -0.8151214619845084
        ],
        [
          -0.21850487053862575,
          -0.4606238073798356,
          0.5576575109735935,
          -0.3022402102643689,
          1.0626884626357074,
          -0.06987583962660274,
          -0.08851147976727745,
          0.3992970055642969,
          0.15599668603778102,
          -0.4663695581364088,
          0.4930953616644658,
          0.32365822149724804
        ],
        [
          -0.2750196887511884,
          0.29337856678327773,
          0.8589352123430373,
          -1.1619023631428995,
          -0.2020658660397519,
          0.09138199024603251,
          0.6723709195616764,
          0.0758974228997849,
          -0.44643106796169574,
          -0.03546079103950809,
          -0.0033410052262203885,
          -0.2445249841436302
        ],
        [
          0.05555569906203227,
          0.7366886913123983,
          0.8550572354109846,
          0.5505943251900528,
          0.575126723293754,
          -0.511235709270343,
          -0.3128797533964178,
          -0.2047716502883867,
          -0.3465248708074744,
          -0.5314680201304759,
          0.09524930390284722,
          -0.15336221203390896
        ],
        [
          0.46421479460366555,
          -0.3247763497959058,
          0.2512841512367103,
          0.18570543573945753,
          0.27415912091225964,
          -0.08646632788963894,
          0.17590708435843747,
          0.2997122077630026,
          0.055444090287433814,
          -0.5123096196844287,
          0.3485601490230521,
          -0.43062691118264884
        ],
        [
          0.18754480515557936,
          0.046863783492998454,
          -0.5471173178466445,
          -0.4623930886931955,
          0.27056081467382914,
          -0.40746483218034335,
          -0.4716692787955277,
          -0.036826803663673656,
          -0.35838632963616435,
          -0.29960858552794994,
          -0.10419769027785802,
          -0.07421714229643518
        ]
      ]
    },
    {
      "activation": 1,
      "biases": [
        -0.32742855541525234,
        -0.545552323566176,
        -0.2787286291976287,
        0.09990873929954928,
        -0.42519189571778376,
        0.666205832333557,
        0.653008199221225,
        0.4969385945239748,
        0.031168646956025385,
        -0.13826885792677746,
        -0.7386272801661756,
        -0.6737995683724433,
        -0.3694024486065373,
        -0.453569062529652,
        -0.6092428332552051,
        -0.6823891834993164
      ],
      "cols": 16,
      "rows": 12,
      "weights": [
        [
          0.15696791124322163,
          0.06353803106920242,
          -0.04155941918801867,
          -0.25342420807196986,
          -0.0337674282858503,
          -0.1590932467492989,
          0.43665750164698147,
          0.575865471285796,
          0.021655003165630526,
          -1.185504788380654,
          0.09656293297392105,
          -0.10371739926453645,
          -0.3421989365838152,
          -0.3045388692842714,
          -0.2985278575648269,
          -0.35410654325260593
        ],
        [
          -0.16146669803997843,
          -0.48148365290423834,
          0.28000657256742123,
          0.35431985351346185,
          -0.6602727631935191,
          0.8393903865555995,
          0.9370977574079041,
          0.6276076167229547,
          1.090649395891258,
          -1.0405022679618214,
          -0.4137620383699619,
          -0.5831880045067793,
          -0.22879382987813582,
          -0.014493458703408096,
          -0.6824007097642381,
          -0.765950001543616
        ],
        [
          -0.016446453950046545,
          0.21031734373508387,
          -0.4587104242129705,
          -0.3285364467297325,
          -0.6862548421755686,
          0.61667919811653,
          0.39904266314122233,
          0.4930004707262931,
          1.144598274115574,
          0.0869188200229481,
          -1.0826955896026118,
          -0.5340083938590484,
          0.8918452207353367,
          -0.13756544986735064,
          -0.25753332857843897,
          -0.40374477148916754
        ],
        [
          0.009600684319512389,
          0.3505900722748869,
          0.1288326836582175,
          0.29675072919133677,
          0.09696948538483002,
          0.045876285382847395,
          0.27075988158952746,
          -0.2301838772980992,
          -1.034598973641524,
          -1.1999377460977572,
          -0.16838994625024903,
          0.2977846860320159,
          0.8975826418868893,
          0.42866334189104305,
          -0.16141231305094178,
          -0.12629305900784465
        ],
        [
          0.3845641676044324,
          0.7196946984480512,
          0.38196406220189405,
          -0.20628574588982102,
          -0.2388544711036721,
          -0.10646902817700098,
          0.27147098420714677,
          0.346268766194259,
          -0.552701421377442,
          1.02230725069115,
          0.22245514964769694,
          -0.3665922557672843,
          -0.6003892552086936,
          0.278270926226705,
          -0.5185260465284672,
          -0.34673294744703975
        ],
        [
          -0.27319324218549706,
          -0.0016636502254997103,
          0.1863020309577166,
          0.3965165349995202,
          0.3745297712264465,
          0.21161475199598387,
          -0.26691434453068635,
          0.3375371066604614,
          0.36633725003263784,
          0.10547965792825577,
          -0.28751412697668816,
          -0.2629753519930235,
          -0.29333383993854373,
          -0.04391341277495974,
          0.24757017184310423,
          0.2885167775844266
        ],
        [
          -0.058126610137082695,
          -0.10707871735554247,
          -0.12842470209880152,
          -0.23346630906660004,
          0.0709177478834659,
          -0.3941971125713425,
          -0.42649394532568213,
          -0.4369804980991095,
          0.32899840582182144,
          -0.3034921311168937,
          -0.395022296969213,
          0.03749587583634007,
          -0.5908728835876753,
          -0.1271878042695529,
          0.2729207603811518,
          -0.34537030739993274
        ],
        [
          0.09530154694775583,
          0.35452173508121143,
          0.07390148926723099,
          0.08828153391010862,
          -0.1349370579266258,
          -0.43645690879530724,
          0.10984158071423158,
          -0.11153491685993483,
          0.3476089832882747,
          0.3164627207069056,
          0.14399172086259424,
          0.24090630728259868,
          -0.4289511516847275,
          -0.9194393130728892,
          -0.040339478008642404,
          -0.2651736626533763
        ],
        [
          -0.34729328693361955,
          -0.4239961825954428,
          0.021944121983494227,
          -0.3581021239017887,
          0.22988129943103935,
          0.15923482700826247,
          -0.4607878210861801,
          -0.2084220306374606,
          0.14370149646041097,
          0.03141995658774706,
          0.3563892943603641,
          -0.20203970839613422,
          0.3861015157792087,
          -0.12763738944845096,
          -0.4564666900375531,
          -0.016422144867099246
        ],
        [
          -0.3609739280341646,
          0.11294373308012345,
          -0.1677512931804768,
          0.31708165921361264,
          0.14303361123676742,
          -0.4021266490978597,
          0.4151064555960183,
          0.1331502932434415,
          0.12393104702984548,
          -0.3396672213722486,
          -0.045571880293177935,
          0.032419686288631434,
          0.021151564976511637,
          0.4001910642019404,
          -0.24546142684682923,
          -0.18137265499718594
        ],
        [
          -0.3120331090977714,
          0.15913485432365396,
          -0.49174486500906717,
          0.08327587722323641,
          -0.6009122588141166,
          0.41539190766472606,
          0.093127599938334,
          0.43768879600398874,
          -0.6359685927410049,
          0.45643800728473144,
          -0.7196741655561418,
          -0.8028010816790562,
          -0.13534228420845734,
          -0.4668107711138517,
          -0.3269361846233313,
          -0.014443833843506396
        ],
        [
          -0.17670306064798522,
          0.21519712114033596,
          -0.23772794914111348,
          0.45593794899943757,
          0.04928557786057889,
          0.05661110188950962,
          -0.06502872359825233,
          0.4511497127569969,
          0.44545373192983584,
          -0.20595991751613857,
          0.11647800761190157,
          0.003295128014334953,
          -0.17588336437924743,
          0.7969180066309185,
          -0.6055316382497222,
          -0.6295798842684469
        ]
      ]
    }
  ]
}
