{
  "layers": [
    {
      "activation": 2,
      "biases": [
        -0.007651595500111796,
        0.34105463366380206,
        0.3634097845508156,
        0.3251039230236905,
        0.44163274401839175,
        0.37187017952132867
      ],
      "cols": 6,
      "rows": 3,
      "weights": [
        [
          0.0037982713401469186,
          1.0192387703419787,
          -1.2555944072645362,
          0.6097301657970767,
          0.06399662230216963,
          -1.1464141598724484
        ],
        [
          -0.25528111471596965,
          -1.317050031737843,
          1.1707933250851057,
          1.0086751453848397,
          0.7835347495072498,
          0.7682078704659725
        ],
        [
          -0.6366588370295583,
          -0.2626249510062349,
          -0.306675595878461,
          -0.5346716885246129,
          -0.31253785771776504,
          1.5275436171039756
        ]
      ]
    },
    {
      "activation": 2,
      "biases": [
        0.27483435256955413,
        0.2207501348466873,
        0.40513823491159706,
        0.28421532884543477,
        0.24652090742096391,
        0.22486954018102687,
        -0.011386572334014073,
        0.07632391930488908,
        0.0009804209909232853
      ],
      "cols": 9,
      "rows": 6,
      "weights": [
        [
          -0.5218700580047628,
          -0.317028015230523,
          -0.32922984587484766,
          -0.10154986746039558,
          0.16624418634366073,
          -0.2321125000341311,
          0.16794655341957568,
          -0.2576281638059211,
          0.16790042430929314
        ],
        [
          1.1477643174875924,
          0.19068515291122978,
          0.34047933948238107,
          0.35389829314978233,
          0.33992886469800854,
          0.6591343115357747,
          -0.6039529346814653,
          -0.49008765436242996,
          -0.3100031976637586
        ],
        [
          0.25103257142357466,
          0.6950508041366962,
          0.7896345983699019,
          0.17224040893718773,
          -0.02899919842807162,
          -0.29814395916124947,
          -0.47772634849460494,
          -0.781019005799364,
          1.0644588526862013
        ],
        [
          -0.6813073793779548,
          0.6583470767021901,
          0.24990456485407922,
          0.2867899754265724,
          0.44902624682668724,
          -0.21726674354768466,
          -0.03671635074932095,
          0.368405134415842,
          -0.451715398347878
        ],
        [
          -0.264418341460161,
          0.2862653641095258,
          0.5857822979017695,
          0.3475268788099555,
          0.37384649489290595,
          0.19560826201038417,
          0.17392748241566502,
          0.5259907080384735,
          0.05334283259643035
        ],
        [
          0.7148216711250268,
          -0.9703007657049583,
          1.249928344633596,
          -0.6112098289709635,
          0.34932492915193303,
          -0.17029082785049424,
          -0.2201588134729294,
          0.7961189343340449,
          0.6570371874641472
        ]
      ]
    },
    {
      "activation": 2,
      "biases": [
        0.4150640595563687,
        0.18179912515048233,
        -0.07474136971901042,
        -0.024694271147714945,
        0.021461658480947176,
        0.0,
        0.004160052922156794,
        0.46199977845045725,
        0.0,
        0.0,
        0.01511037955078299,
        0.13669310151518285
      ],
      "cols": 12,
      "rows": 9,
      "weights": [
        [
          0.09013202136719552,
          -0.019232358034986092,
          0.05986464459628254,
          -0.93020840772363,
          -0.14039382021690291,
          -0.4845738424975306,
          0.3310347246189833,
          0.4389442052630117,
          -0.5167115681957064,
          -0.47934407899666354,
          -0.41520338522758143,
          0.8709682062179588
        ],
        [
          -0.7837982440640645,
          0.8492465022649672,
          0.642817482356825,
          -0.15190479039195737,
          0.6015336484596047,
          -0.24800730060077658,
          0.022691486061970127,
          0.4273368339533381,
          -0.5190544467439352,
          -0.013059488803058818,
          0.6755479312920792,
          0.004363654606981852
        ],
        [
          1.0915414506470098,
          -0.051740318651307564,
          0.43670362806617663,
          1.0372795526188439,
          -0.02100192457373075,
          -0.05237233108100285,
          -0.2725945109848032,
          0.5947973052658004,
          -0.3411504037857797,
          -0.3366099448210582,
          -0.37927454968948016,
          0.3653233194544505
        ],
        [
          -0.25009142288403247,
          0.43516594828241506,
          0.006655939179281598,
          -0.18068289942690144,
          -0.07082974320784485,
          -0.39776010271425133,
          0.1513660829040822,
          0.5700854910934471,
          -0.4266749222710143,
          -0.01737380532603331,
          0.014803906662552942,
          0.4391707742343052
        ],
        [
          0.2609974410401122,
          0.4165554675687711,
          -0.22059445757968835,
          0.24657754974574614,
          -0.3866121244431249,
          -0.4158636048626643,
          -0.3159403721268986,
          0.5010399379948629,
          0.02822438523434055,
          -0.15226994627462712,
          0.4367525962529871,
          0.0024928395627446752
        ],
        [
          0.3556628110875301,
          -0.3514350372817598,
          0.20335031866600406,
          -0.20879636402754445,
          -0.08813213244037882,
          -0.003608433076377223,
          0.07974542335925791,
          0.47142197699529753,
          -0.2887230029042947,
          0.09266551571856801,
          -0.4687801794473417,
          0.16604663905460867
        ],
        [
          0.042294661842967596,
          -0.46792595585058977,
          0.40916871258480464,
          -0.443481238301891,
          0.43114656486106717,
          0.28862844136103516,
          -0.16693665350333226,
          -0.02746970403506029,
          -0.17240165050432352,
          -0.16919518363685632,
          0.0376674608179812,
          -0.11584955827628472
        ],
        [
          0.3952210040441672,
          0.13158099498970513,
          -0.6300716814019546,
          0.40293267184143106,
          -0.12089585840035172,
          -0.3478492394089536,
          -0.530340317698269,
          -0.9916599647508817,
          -0.442677695485332,
          -0.003837436448607909,
          0.04371092756626594,
          -0.45807699594638857
        ],
        [
          -0.3560380321370531,
          -0.5171675033407972,
          0.6728892160201705,
          0.6390459063826454,
          0.46894542862965,
          0.30476132991279203,
          0.2672207083717924,
          0.25754560153765876,
          0.46894681992040366,
          -0.35309633277096575,
          0.35545702439354454,
          0.9784579855930113
        ]
      ]
    },
    {
      "activation": 1,
      "biases": [
        0.647695718157798,
        0.14915706681033672,
        0.3035745860567967,
        0.09147675536145168,
        -0.4100681558518992,
        0.2673764135415356,
        0.1421793662172408,
        0.17815094770832807,
        -0.011843281853230282,
        -0.19705392997140894,
        -0.23458639111678278,
        -0.1706184035852501,
        0.0017663909121202084,
        -0.1417125944708422,
        -0.39069196467964573,
        -0.6140315944826671
      ],
      "cols": 16,
      "rows": 12,
      "weights": [
        [
          0.2687395836996322,
          0.12076875620824085,
          0.4200404505048254,
          0.1636919786140476,
          -0.7600018326307655,
          0.10838195009011721,
          0.14260989699585977,
          -0.035137442004829544,
          0.07739039876899184,
          0.42812628571040295,
          -0.3383821713109396,
          -0.2569402513134942,
          1.2714007199749695,
          -0.20287527984005724,
          -0.7607503066736481,
          -0.2353989999827084
        ],
        [
          -0.48922156323689714,
          0.13890988657772488,
          0.6478116406630813,
          0.44252115573976014,
          -0.13039080474939563,
          -0.09482265316236659,
          0.24351408448226952,
          0.21195197760418838,
          -0.09649627094911697,
          -0.4442249924558826,
          -0.33185342740983526,
          -0.2434811209234823,
          -0.5723523969252852,
          0.12941691579389977,
          -0.44648707158791834,
          0.06485201215996426
        ],
        [
          -0.02836780132096015,
          0.21285578745692013,
          -0.5223374552905317,
          -0.08678732903917673,
          0.2937197902510949,
          -0.04928560591403889,
          -0.33348765971085564,
          -0.4366895020323138,
          0.49555886086296386,
          -0.8356957138273576,
          -0.3097582542568424,
          0.22783088320471992,
          -0.07386168356349872,
          -0.11339645422631145,
          -0.2114873490199225,
          -0.009859628276460074
        ],
        [
          -0.656614572886942,
          -0.5212628748558612,
          -0.4555490840523078,
          -0.19334345453167684,
          -0.751890771880091,
          0.4420728213121609,
          0.01698181523306322,
          0.09425058144211682,
          0.65101116242881,
          0.5641623821960629,
          -0.5503895569350014,
          -0.08615203821666022,
          0.54549866309552,
          0.2363861253433043,
          -0.17063555636292338,
          -0.5328403105397882
        ],
        [
          0.24976659299252396,
          -0.026872910029778114,
          0.20179035547775237,
          0.2618342640766044,
          -0.2647665537106504,
          -0.34156165613493344,
          0.3866070540478191,
          0.252292410375976,
          -0.09673372301064483,
          0.27756266977081245,
          -0.02033842774593541,
          -0.4495167134771351,
          0.22753640773040432,
          -0.3729820807093298,
          -0.15670159946174325,
          -0.06401485834550734
        ],
        [
          -0.22768018504119958,
          0.07440939993212746,
          0.45876826135743276,
          0.42339165538403806,
          0.2892379636091415,
          -0.3036675378226281,
          -0.21965870695514647,
          0.42858595655072923,
          0.06785767751211193,
          -0.19691997483193027,
          0.18831662634573404,
          -0.367871651137078,
          0.012146960632416236,
          -0.18562081168871805,
          0.3064777101318519,
          -0.4453495696783851
        ],
        [
          -0.20628209468393863,
          -0.1840961969972201,
          0.2883511234457733,
          0.09028186182909625,
          -0.2590199648532215,
          0.30601891024293887,
          0.36674755050393815,
          0.363845925459097,
          -0.12633987483863007,
          0.17272303668994454,
          -0.3415039147160023,
          -0.19232146205490724,
          -0.45214201549962957,
          0.28472968522820796,
          -0.2922880661640512,
          0.2651521399701427
        ],
        [
          0.5645826883214613,
          -0.3366356158536709,
          -0.0920196775350689,
          -0.32219681684597334,
          -0.454438853378937,
          0.5435950916995178,
          0.2993356296974571,
          0.1738387575890281,
          0.03867938509531555,
          -0.965923637412577,
          -0.5701050807538479,
          -0.40730017020458936,
          -0.5401442697631847,
          0.16528335561283047,
          -0.33489938181418055,
          -0.9314055290430233
        ],
        [
          -0.28550878530823065,
          0.05821970436017542,
          0.4622371186197334,
          -0.40504201822059166,
          -0.09524344542802969,
          0.00867539422096096,
          -0.294563393803027,
          -0.10796147629349029,
          -0.4094702695253606,
          0.3464333778626092,
          0.2469628598127457,
          0.025002197141451677,
          0.10058853204243702,
          -0.2728320357712484,
          0.2955610397037142,
          -0.19368032521146317
        ],
        [
          -0.02057755429919468,
          -0.09327427811922792,
          0.26279545038054325,
          0.013993394086125724,
          -0.013634802153989859,
          0.4535950073998013,
          -0.3668861636425748,
          0.09886348950944412,
          -0.34601830336087563,
          0.02317426729718191,
          0.253277592469446,
          -0.11039794035981897,
          0.043955852559834835,
          0.09892896607485097,
          -0.45626107918600545,
          -0.0017550287702429953
        ],
        [
          0.25876509629730454,
          -0.24913718593688713,
          -0.297907410346639,
          -0.011688146159035046,
          0.4371141873140849,
          0.3700478148658833,
          -0.24764511869587422,
          -0.2301126832747105,
          -0.7632407286364727,
          -0.30402981068298346,
          -0.07635269584597114,
          -0.12054294277209215,
          0.0055005627012805385,
          -0.2936677134937771,
          0.18207684510616268,
          0.12016871927740434
        ],
        [
          0.03936739587809242,
          0.8079986185925754,
          -0.5999252578429838,
          0.24628192517586237,
          -0.4776545761766382,
          0.3714578646998029,
          -0.018289897236028196,
          0.159277689512744,
          -0.15911279748056262,
          -0.9883813923004139,
          0.05873035408655829,
          -0.2107519542449342,
          0.5350437172842031,
          -0.05061946807594564,
          -0.6657004458876686,
          -0.09227906735251142
        ]
      ]
    }
  ]
}
