{
  "layers": [
    {
      "activation": 2,
      "biases": [
        0.0,
        -0.14387089705418732,
        0.0,
        -0.14294565110678953,
        0.5896173022820241,
        -0.2945454326287601
      ],
      "cols": 6,
      "rows": 3,
      "weights": [
        [
          -0.5186633542390502,
          1.7098954445156156,
          -0.34406701992879113,
          -0.8022674271504476,
          -0.9796174312731956,
          0.24949398264295178
        ],
        [
          -0.2574967113137559,
          0.6767077661234323,
          -0.3056178130367136,
          -0.22705632821241925,
          1.5581055094704321,
          0.24955056871596557
        ],
        [
          -0.31534813334793677,
          -0.8496341973121697,
          -0.7550896726486505,
          0.3877092551638805,
          0.7750881540828494,
          -0.47376779460992074
        ]
      ]
    },
    {
      "activation": 2,
      "biases": [
        -0.1368809125740065,
        -0.6872727693107568,
        0.06954119681373691,
        0.949352509865424,
        0.8840547648358434,
        0.13953640877722503,
        -0.033163587659891684,
        0.06691957364748641,
        1.0533651161656354
      ],
      "cols": 9,
      "rows": 6,
      "weights": [
        [
          -0.5644804962153508,
          -0.4228084840957285,
          -0.5800658494681885,
          -0.2210369955715994,
          0.32711455278908624,
          0.4719908944127157,
          -0.5612656809752619,
          -0.14592346241370135,
          0.2987629595775064
        ],
        [
          -0.4327086670965877,
          1.0046024587922908,
          -1.4329542389758545,
          0.4311752396310983,
          0.46769475943686933,
          0.7336352209997531,
          0.3967230916982215,
          -0.2654952968737288,
          -0.6730521746634563
        ],
        [
          0.5975197235469363,
          -0.06205961783670785,
          0.21344848568635713,
          -0.41327850736651167,
          0.1363011762191694,
          -0.5430699566777564,
          0.11692655466800164,
          0.5117729348084841,
          0.5427507189669724
        ],
        [
          0.3801194671332658,
          0.49540149684424706,
          0.11990060111504841,
          -0.32883878791652654,
          0.11764363578619377,
          0.22147642695992822,
          -0.48718925555999587,
          -0.018759614862736494,
          -0.4977368109257447
        ],
        [
          1.0010086221628771,
          0.6626186160267118,
          1.0591875717729424,
          -0.7437033259790385,
          0.5699709394313552,
          -0.5421540920750741,
          -0.6686331013481971,
          0.7023242487242423,
          0.7338396520543576
        ],
        [
          0.20241248477429044,
          0.08215404996324112,
          -0.1909598808705183,
          -0.5782766497884395,
          -0.28688912940395345,
          -0.6292894385298199,
          -0.3603625341200733,
          -0.755871239524797,
          -0.328515879038934
        ]
      ]
    },
    {
      "activation": 2,
      "biases": [
        0.012383390826375889,
        0.16708218145326967,
        -0.28589013180149525,
        0.0,
        1.2770594923079395,
        -0.019312902512507675,
        0.0,
        0.04748832089216373,
        0.0,
        0.3463695146201163,
        0.7675377677438002,
        0.0020949500250109577
      ],
      "cols": 12,
      "rows": 9,
      "weights": [
        [
          -0.22816682535469227,
          -0.3813657943838861,
          0.9178798451264242,
          -0.19941432664027822,
          -0.1274829218554084,
          -0.42202505397515006,
          0.44714811168339325,
          0.3220691267667669,
          -0.2468655777672917,
          0.6486043980086812,
          -0.19489256818728132,
          -0.08258039783381577
        ],
        [
          -0.1261827435566735,
          0.447464369961046,
          0.11418067016102616,
          -0.10061426135416947,
          -0.6865269718603354,
          0.671493599161009,
          -0.16780951458264048,
          0.28652914403147034,
          -0.10624608639510848,
          0.44025658277518875,
          -0.9593920504395878,
          0.4691613786253545
        ],
        [
          0.2018315819138919,
          0.2773609367320315,
          -0.3230990841055132,
          0.20524824229482366,
          -0.2814874637419945,
          0.5510873048382137,
          -0.23388693053627307,
          -0.9671305168946881,
          -0.3728780675934738,
          0.07350698499919985,
          1.4001224359794708,
          -0.045206973213797984
        ],
        [
          0.12216515455360051,
          0.5519921022952038,
          -0.8049773167199495,
          -0.20090235647176943,
          0.6602950849174666,
          -0.4591556774548572,
          -0.059295475203361994,
          -0.4482611060810169,
          -0.22008168098778244,
          -0.19066771630339674,
          0.6529977503811747,
          0.3382230926243905
        ],
        [
          -0.4587972761943821,
          0.4042002871259375,
          0.22194638572736436,
          -0.5218973832842021,
          1.0100216945690053,
          0.474611748317755,
          -0.22914189338710336,
          0.40900281921960613,
          -0.017224293706283603,
          0.022011823715907826,
          -0.09470837236085808,
          -0.5073000202955512
        ],
        [
          0.5336545512759711,
          0.5575201876800191,
          0.03598509966864822,
          -0.01536129181690851,
          0.15005190641259636,
          -0.2140658639397222,
          -0.4878286828358466,
          -0.7473242315774641,
          0.22248191155953187,
          0.33768090819562774,
          0.12841338349398032,
          0.38102639597072
        ],
        [
          0.35372765854568,
          0.6515722655888753,
          -0.051531926528363456,
          0.5316506044451306,
          -0.41785225930838527,
          -0.3704230352156904,
          -0.4308155165437976,
          0.16140599565368935,
          -0.26580925758976137,
          -0.39679305323950015,
          0.3136669376581485,
          -0.2171764286451763
        ],
        [
          0.0643570959405285,
          -0.47066095760540144,
          0.6097693481904093,
          0.37386929313775397,
          -0.20437254655965056,
          -0.18489004061307046,
          -0.07482066020452535,
          0.7365415977587662,
          0.08272749696702676,
          0.11785192237193681,
          0.31138940333453086,
          0.22801124807362466
        ],
        [
          -0.22379576795749734,
          -0.3785774436488495,
          0.6752586319395173,
          -0.22511007869056143,
          0.7676068042195029,
          -0.12707718533545345,
          -0.3139541014128625,
          0.09361260743592671,
          -0.4264613874376599,
          0.6808233526196976,
          0.8183307456149157,
          0.08199159663292513
        ]
      ]
    },
    {
      "activation": 1,
      "biases": [
        0.4665237849877132,
        0.48598334412077926,
        -0.36140903505998134,
        0.009451216077434077,
        -0.48800137255454373,
        0.34447996931729236,
        0.17464591644071142,
        0.045932827587619865,
        0.06177138611400272,
        -0.9605404631724245,
        -0.32536378456701665,
        -0.31978528918474874,
        0.0784064880323198,
        0.08533202314383533,
        -0.44596112205087546,
        -0.6077771793514198
      ],
      "cols": 16,
      "rows": 12,
      "weights": [
        [
          -0.022774185735710724,
          -0.2890177080207621,
          -0.24208313066935314,
          0.006066359640101944,
          -0.1694832213516476,
          -0.1984205202785851,
          0.08274834436866273,
          -0.44802492743508615,
          -0.30503487044926636,
          0.02894072877136737,
          -0.2799834737469511,
          -0.3456705258346898,
          -0.07718604460896399,
          -0.36932441734743604,
          0.42228613633076756,
          -0.08458444581648167
        ],
        [
          -0.009318077749372173,
          0.2132870790159443,
          -0.03610495354896489,
          0.07949622444407375,
          -0.016540691404466915,
          0.3731882603906477,
          0.18100987374527003,
          0.13706684271530678,
          0.16240459217603948,
          -0.45075936692706886,
          -0.09088814023844656,
          -0.17496858355813508,
          -1.2347821282890281,
          0.18227613820921487,
          -0.15812694042479927,
          -0.1906441883261395
        ],
        [
          -0.3458049443502598,
          0.0017253000018153724,
          -0.2785999643322111,
          -0.39060720927049614,
          0.27117305997392877,
          0.3769692385036434,
          -0.018498961819325213,
          -0.1452548845424847,
          1.0010651139789473,
          0.8688437873811181,
          0.41482816206098316,
          0.01347215584419543,
          0.6497970581442392,
          0.21719417098593405,
          -0.18013615568082628,
          0.26087358895417123
        ],
        [
          0.2763243057902555,
          -0.24917073403016562,
          0.007990252382886491,
          0.29110904712988117,
          -0.437289438793834,
          0.45282358709373205,
          -0.003681667093396883,
          0.26542292325807176,
          0.024690327254269628,
          -0.12651962137128556,
          -0.2441099692568176,
          -0.3103695192945739,
          0.28525561566462015,
          0.3575505361061581,
          -0.08887930615098,
          0.461777765222037
        ],
        [
          0.5210651511190759,
          0.04181672486211269,
          0.5246916191282452,
          -0.0671126478670821,
          -1.1332200403783674,
          0.6881928983850191,
          0.2530284933890043,
          0.11771238755068955,
          0.10013059595624116,
          -0.7506396909067408,
          -0.806011329595353,
          -0.5995776137831899,
          0.6606086175019574,
          -0.130732829874368,
          -1.094354069315337,
          -1.0214572957908639
        ],
        [
          -0.812870471292853,
          -0.8097342028240312,
          0.09869601344084941,
          -0.017509154396584913,
          -0.536691400806272,
          -0.2859432595747943,
          0.253626876366645,
          -0.16748019363878788,
          -0.3295335732350829,
          -0.20463617318800745,
          0.1664320523443396,
          0.025314469413851747,
          0.017443533705409065,
          -0.14932218983374684,
          0.08225868917228957,
          0.0734039323539411
        ],
        [
          0.42748465724104906,
          -0.3331238428212241,
          -0.11615711162770087,
          -0.3508780849635644,
          0.08091045902113372,
          0.43455279030942534,
          -0.4294778788110039,
          0.230394323100089,
          0.08143630168178063,
          0.41519353034002987,
          -0.23501868507332968,
          0.10595732112523627,
          0.3820913818308559,
          -0.19593720381559768,
          0.42079390123468086,
          -0.23233378461427673
        ],
        [
          0.0807480252398219,
          -0.46863787264920737,
          0.6358988026609677,
          0.2687925198029717,
          -0.33791068869665036,
          -0.16240666039281973,
          0.33210042249785954,
          0.26494748570413584,
          0.5819383585015614,
          1.2398018260873225,
          -0.48441826708420677,
          -0.47654656124099487,
          0.27783545265856513,
          -0.01934054956204522,
          -0.21258620728076325,
          -0.008411576822042282
        ],
        [
          -0.16057400476779368,
          -0.19528014202397323,
          -0.3005684945090923,
          -0.014299681418819578,
          -0.2851300605695425,
          -0.21918327585225822,
          0.043325326547908126,
          0.4472943257598499,
          -0.3996164016733309,
          -0.04241068218289163,
          0.032040570525391554,
          0.1961130458751645,
          -0.019598236973803793,
          0.09795156722713967,
          -0.2745150179444895,
          0.019319576581932837
        ],
        [
          -0.294712808627141,
          0.04999121974021321,
          -0.6518437263520098,
          0.24355393207957837,
          -0.2687447547782529,
          0.03252172662698001,
          -0.30319094729783413,
          0.13378504868262156,
          -0.0872500823666077,
          0.15294495360056637,
          -0.3153492021507258,
          0.2236097950058291,
          0.6933079658976923,
          0.053112214054827474,
          -0.5235859779732676,
          -0.45408397601429645
        ],
        [
          0.42149518511336714,
          0.2676008084511476,
          -0.7665367401734899,
          0.03508338620316767,
          0.19793276317794772,
          0.290732912527346,
          0.20050995219145143,
          0.08994590424631248,
          -0.03499446211231544,
          -1.7395664945910907,
          -0.14693666163473917,
          -0.18077300100129046,
          0.8917955473342709,
          -0.06460877372838705,
          0.15570688435035232,
          -0.1572213512374884
        ],
        [
          0.2399207777691431,
          -0.37241295835077626,
          -0.39659482450859784,
          0.0601545196091207,
          0.2534974487362944,
          -0.08882561510725528,
          -0.3886913805207203,
          0.08019814185420322,
          -0.3962868467386288,
          0.15751753186303127,
          0.05235005866141192,
          -0.39643388867315116,
          0.005719897679284706,
          0.35775384339370586,
          0.27794764302235264,
          0.3244081344083741
        ]
      ]
    }
  ]
}
