{
  "layers": [
    {
      "activation": 2,
      "biases": [
        0.0,
        -0.001697109203635553,
        0.0,
        0.0,
        -0.0003510314865960738,
        0.6514438888670556
      ],
      "cols": 6,
      "rows": 4,
      "weights": [
        [
          -0.15648558911352645,
          1.2289603058402443,
          -0.172401909863116,
          -0.7143121096629296,
          0.3200664102296387,
          -0.43858174121394605
        ],
        [
          0.47699251303881873,
          0.5597599245027036,
          -0.5673561062422541,
          -0.7444472003468383,
          -1.1287687374969244,
          1.0656270475991054
        ],
        [
          -0.2623600059264957,
          1.1576256259580906,
          -0.2690792509032739,
          -0.6386946408717423,
          0.5113283918984786,
          -0.17193089727490793
        ],
        [
          -0.48037828408997735,
          0.3810228428077378,
          -0.31961489954364897,
          -0.1801867828965348,
          0.29746169949377577,
          1.1318595658869919
        ]
      ]
    },
    {
      "activation": 2,
      "biases": [
        -0.18534854094793604,
        0.1376957542394271,
        0.027721415560707063,
        0.0,
        0.9404315528540216,
        -0.13070416402511173,
        -0.2767190826693409,
        0.06266378515058324,
        0.37777970322971827
      ],
      "cols": 9,
      "rows": 6,
      "weights": [
        [
          0.3125676302180583,
          0.25167762108231406,
          -0.06438655181316297,
          0.22875986919128574,
          0.5886160831237436,
          0.3696819432569554,
          0.4817070109224989,
          -0.3429869125720317,
          -0.6143883130765537
        ],
        [
          0.5650124555405615,
          0.37422404325336645,
          0.6483847522677181,
          -0.5625132668095996,
          0.12889853448371408,
          -0.0957273168517007,
          1.5183566681592517,
          -0.317030192621074,
          -0.6294907565100971
        ],
        [
          0.3717082914335786,
          0.2675882659946746,
          -0.03685197132109687,
          -0.2151824295525416,
          0.392216034540195,
          -0.09774300240674016,
          -0.39740418614658435,
          0.4483111171859611,
          -0.18864173745219168
        ],
        [
          -0.09449130449412914,
          0.5971538130603038,
          0.4353393993272669,
          -0.19036132100797976,
          0.5233376620862602,
          0.35283077340820995,
          -0.441738290025699,
          -0.31026210476669197,
          0.6303562578656721
        ],
        [
          0.7810579642717341,
          0.637431258823514,
          0.6242520427682443,
          -0.44264115478301047,
          -0.5504071579491322,
          0.09265129476557903,
          -0.35456218622220254,
          -0.6132436019960841,
          -0.5029001068261097
        ],
        [
          0.2847714035822234,
          -0.6239755297318731,
          -0.8648953773210599,
          -0.5279206579609299,
          1.0732068536660713,
          0.20058081928592952,
          0.46640208069380645,
          0.4672356582303069,
          0.7931624668474689
        ]
      ]
    },
    {
      "activation": 2,
      "biases": [
        -0.0023850916570663143,
        0.04468655205232844,
        0.8124882935418157,
        0.7932411733970566,
        0.00902250859914022,
        -0.20252488954836362,
        0.07391778749224504,
        -0.004326404349350184,
        -0.08488993434856647,
        0.33691515678978573,
        -0.11076992680893481,
        0.27705762504629694
      ],
      "cols": 12,
      "rows": 9,
      "weights": [
        [
          -0.1937267696557978,
          0.0316467239758891,
          -0.3048762195727894,
          -0.553594558279889,
          0.41918312064081154,
          -0.42555196186812866,
          0.44831310945823555,
          0.1637125325813565,
          -0.04715751796495027,
          0.6683802317649138,
          0.28759400402013546,
          -0.03294269562300911
        ],
        [
          0.41012550813738397,
          0.15563477141162613,
          -0.0002620687968345793,
          0.0845972622667266,
          0.7845008536970188,
          0.02021507263423842,
          -0.22797585727668085,
          -0.49185458302662477,
          0.5034881712740071,
          0.3264418359315559,
          0.41258588742747726,
          0.3895634392134972
        ],
        [
          0.21702938591290963,
          0.5878422913279993,
          0.2745006921339182,
          0.41128825266414737,
          0.630726878494561,
          0.17537348649214227,
          0.1564282275657282,
          0.47108945458879087,
          -0.43426931276816555,
          0.2616767463902579,
          0.17392963777166864,
          -0.5384655683762363
        ],
        [
          -0.47959961828318637,
          -0.37991364424281215,
          -0.4297682646516324,
          0.1535126842972375,
          0.5044606347495554,
          -0.3418733883485147,
          -0.45924804704060646,
          0.3076030886278417,
          -0.3943455500729521,
          0.24858669901018754,
          -0.0919694882198013,
          -0.20230462858036052
        ],
        [
          -0.03172840679338182,
          -0.13328579243314742,
          0.6133154449796094,
          0.8566138538603288,
          -0.26004782787231984,
          0.5366550597669276,
          -0.21283837131552438,
          -0.012096394657995405,
          0.202949794183731,
          0.490224686431559,
          0.05699728570990138,
          1.0397952381763107
        ],
        [
          0.1940046051380502,
          -0.3178156275630956,
          -0.5251437914323172,
          -0.49754093688348305,
          0.057220069048683174,
          -0.19533871783966827,
          0.37880047305613057,
          -0.10050869381020933,
          0.02790481323532456,
          -0.36089828866821555,
          0.33718260223484064,
          -0.3400395848171388
        ],
        [
          -0.3889526345712494,
          0.35384930841058315,
          -0.7040144924736912,
          -0.018435669927496328,
          0.011086184970124443,
          0.7199831063777553,
          0.5921648095929778,
          -0.37592346275408484,
          -0.521569694668988,
          1.2077286561426803,
          -0.23235337148252988,
          -0.14859468799497216
        ],
        [
          -0.28089687305545585,
          -0.14627731934606106,
          0.19996495224136998,
          -0.27735328922707236,
          0.3335072622119806,
          0.15944285095934893,
          -0.46539662073512716,
          -0.08768587734015487,
          -0.10068679529145201,
          0.44686906401263915,
          -0.5236481564285694,
          0.46608581774448765
        ],
        [
          -0.13116830198274979,
          -0.06706725202280622,
          0.28896807462840446,
          0.4885691470395244,
          0.7776411226543147,
          -0.04040814899579603,
          0.12453432822932531,
          0.09406533022790094,
          -0.22179656318170227,
          0.2383350901135471,
          0.19711302315052967,
          0.044915450384445506
        ]
      ]
    },
    {
      "activation": 1,
      "biases": [
        -0.7148604316000529,
        0.1310150353353741,
        0.9105146302077941,
        0.3572206996592444,
        0.5383532279451434,
        -0.045379706706214405,
        0.6302873850943159,
        0.5031896770220847,
        -0.24275537601690714,
        -0.2829398004532031,
        -0.4270630654667842,
        -0.5246085951836428,
        -0.1984637976490564,
        0.48875212403688656
      ],
      "cols": 14,
      "rows": 12,
      "weights": [
        [
          0.23640886351521365,
          -0.10304333575159406,
          -0.33215171054907894,
          0.2672633135154656,
          -0.0038232655120056043,
          0.1273222900675843,
          0.09345359684414846,
          -0.15400169995268106,
          0.23527492333755312,
          -0.11479536860352453,
          0.1340627022549575,
          0.08130429748163318,
          0.05960732100989518,
          -0.01236616771295533
        ],
        [
          0.28437673048777024,
          -0.22650139850007975,
          0.14847535901105474,
          0.5544788991083422,
          -0.49611079773316064,
          -0.019117065712015564,
          -0.277748307273333,
          0.31378677821037837,
          -0.2302650927009466,
          -0.050134106163305,
          0.1261130353225201,
          0.2872572983142032,
          -0.560794041951357,
          0.46807746287380375
        ],
        [
          -0.9831997932846893,
          0.0008691057623639597,
          0.6530024522370914,
          0.25098364405094814,
          0.046636175810724524,
          -0.1089032345705334,
          0.036249249605655495,
          0.5634804813569334,
          -0.2564609189426204,
          -0.2751628741207817,
          -0.368635747566455,
          0.018702523221136417,
          -0.4417754961242725,
          0.126526092572322
        ],
        [
          -0.12177946248090694,
          -0.2586056381968931,
          0.8148026486627014,
          0.08377227349215026,
          0.7454096703058134,
          0.07965815172848852,
          0.40019248670331353,
          0.17606908454864997,
          0.11585814733816276,
          -0.39203342701876115,
          -0.2811215310140909,
          -0.7329202626815391,
          0.27188538603323087,
          0.3228826546623457
        ],
        [
          0.02214498501305861,
          0.39553495394917487,
          0.4703780313901687,
          -0.2379791295989895,
          -0.456271203801508,
          0.5201968153752973,
          -0.012092308218462711,
          0.497569735000932,
          -0.1983652493290519,
          0.1067576862647752,
          0.18854245281837248,
          -0.3684943639429472,
          -0.7959171838629215,
          -0.27710881238288054
        ],
        [
          0.42059721061613903,
          -0.020968876190413537,
          -0.5105684848077464,
          -0.25768099770314895,
          0.21966204643235968,
          0.014427496906661107,
          0.22480694159797154,
          0.18852510206885348,
          -0.42711772605773907,
          0.005410946299190691,
          -0.4888692085392588,
          0.15776033868076436,
          0.13814986516045816,
          0.4138571550041578
        ],
        [
          0.6286642292446368,
          0.6081462020258326,
          -0.30105028364141817,
          0.4184373956500437,
          0.08367753937135089,
          0.016420854010581742,
          0.2990591624686618,
          0.09710333420772876,
          -0.01862910027362522,
          -0.3713973201082745,
          0.04680354637932614,
          0.19204651662649316,
          -0.16389136334631815,
          0.22849237169442219
        ],
        [
          -0.2967736133337971,
          0.08475331865314191,
          -0.04708099091198144,
          -0.26267278533445204,
          0.24440565928878621,
          0.20839646147457763,
          -0.3848006756974908,
          0.28324692472682717,
          -0.2504563694520792,
          -0.3138699174550528,
          0.07992996876127706,
          -0.001052369057755052,
          0.20477319555957435,
          0.21179634996579424
        ],
        [
          0.3106658644701326,
          0.035646036214954165,
          -0.4162227603007306,
          0.1410654173554584,
          0.040844290380753406,
          -0.013390964834920246,
          0.3747672609440745,
          0.08555395239734154,
          -0.030751480500464074,
          -0.03861335167401469,
          -0.28898999042668827,
          -0.23820179079236076,
          -0.45420094205669864,
          -0.3290617931728056
        ],
        [
          0.8461644826433175,
          0.5214895145740311,
          -0.15533218573707652,
          0.28213999514150695,
          0.2309513560908024,
          0.0019642367613814824,
          0.7976922533370006,
          0.7467373787391767,
          0.18448319133158006,
          0.09014008362003136,
          -0.7750743306654726,
          -0.7582659519481908,
          -0.010716280949522242,
          -0.3811446588719188
        ],
        [
          -0.027833500368205196,
          -0.26275109509775607,
          0.3275274388921192,
          0.024138259443471352,
          0.20140538210756243,
          -0.368319834326606,
          -0.341665153283776,
          0.0588451719788274,
          0.409872524068345,
          0.15035532356002232,
          0.09507420697576406,
          0.36286258498010837,
          -0.2872934753541444,
          0.1714276908146886
        ],
        [
          -0.039545078337689644,
          0.09414164805765515,
          -0.0026306841910601394,
          -0.5131651606510199,
          0.6678985823351673,
          -0.3019561032811014,
          0.656751696295797,
          0.5386336569009748,
          0.03864888462584229,
          0.15812234682768778,
          -0.3974619390478272,
          -0.5596042421001308,
          0.05866147512406584,
          0.2976963434647514
        ]
      ]
    }
  ]
}
