{
  "layers": [
    {
      "activation": 2,
      "biases": [
        0.0,
        0.2061131828442845,
        0.08354489420003137,
        0.23748276646331543,
        0.0
      ],
      "cols": 5,
      "rows": 4,
      "weights": [
        [
          -0.3280591333402251,
          0.6178260235845886,
          -0.03750053323841019,
          0.665563604074009,
          -0.34374249019809094
        ],
        [
          -0.7049396251566984,
          0.018644207551197327,
          1.3378230115502014,
          -0.38885506876308346,
          0.2497738852754189
        ],
        [
          -0.5548907473255364,
          0.09505210922472734,
          -0.19170818993518562,
          1.2207987585252373,
          -0.4757293064005873
        ],
        [
          -0.024842943804086196,
          -0.8662991064298257,
          0.23246051739908102,
          -0.43719497422550135,
          -0.4479322303775551
        ]
      ]
    },
    {
      "activation": 2,
      "biases": [
        0.0,
        0.25937807491385906,
        0.3700510253027397,
        -0.12199010431390077,
        -0.021779186498625522,
        1.1631615050563773,
        0.9411915632220769,
        0.09911864051804921
      ],
      "cols": 8,
      "rows": 5,
      "weights": [
        [
          -0.24838348906550115,
          0.49158339464275,
          0.026391049079426954,
          -0.40885552666819724,
          -0.6700023232435919,
          0.5303432071255327,
          -0.35905766297491587,
          0.025311608130504978
        ],
        [
          -0.5552420532400907,
          -0.4815359016675834,
          0.9716811630465773,
          -0.3391031885112096,
          0.44073299913349406,
          0.16229954656812834,
          -0.4085856659832415,
          0.4165263459073364
        ],
        [
          -0.17878420010461232,
          0.8285774374954417,
          -0.6148300247610033,
          0.6364164944386859,
          -0.37749102130143936,
          0.4581930713266104,
          -0.5497078643087748,
          -0.23742198898034267
        ],
        [
          -0.6686241657772585,
          -0.26191092183820125,
          0.3360753008355726,
          0.9391871770981151,
          -0.6526997825580028,
          -0.5891270970026852,
          0.8707696201849803,
          0.8064983582146014
        ],
        [
          0.5096650735581412,
          -0.32927297203760614,
          0.09084348236613093,
          0.15016688719019144,
          0.4804829678058382,
          0.49716460131636464,
          -0.06887693985252005,
          -0.6719075824341385
        ]
      ]
    },
    {
      "activation": 2,
      "biases": [
        -0.06899380584118599,
        -0.17641668172374877,
        -0.020856311392637664,
        0.6219647600005481,
        0.7388189559170943,
        -0.37935600493903343,
        -0.017171407775756205,
        -0.056793698123072923,
        1.0706107929499156,
        1.1283985088736437,
        0.21204659922987132
      ],
      "cols": 11,
      "rows": 8,
      "weights": [
        [
          -0.26917858383223403,
          0.13408928120786073,
          -0.4072503917800136,
          -0.21270817983494408,
          -0.48354958672329884,
          -0.391529438083697,
          0.03996866725851984,
          -0.2223310449553597,
          0.17935884410641836,
          0.03127255786833777,
          0.23309264624985554
        ],
        [
          -0.6206802299948729,
          0.20424656037196043,
          -0.08833072996858872,
          0.47768314198280637,
          0.07422092546325844,
          -0.47741048016433324,
          -0.3415925605409235,
          0.4120635422054905,
          0.1608325911187606,
          -0.35155646107299837,
          -0.4364608330653532
        ],
        [
          0.8297998773893557,
          -0.5366359869620906,
          -0.3462788924178709,
          -0.343211568118837,
          -0.02151013990812855,
          0.5283969131780408,
          -0.22092331527545267,
          -0.20668177128820966,
          -0.23468903312896877,
          0.10161162046561063,
          -0.5191222151003447
        ],
        [
          -0.12852952182805702,
          -0.266214063191101,
          -0.4470456274856355,
          0.7332313594436106,
          0.04630399925265641,
          0.2570867850223457,
          0.31512209952682374,
          -0.034745668311249825,
          -0.6851705348168143,
          0.33616771058996586,
          0.09424329110583995
        ],
        [
          0.3656411781412709,
          -0.35789954315856276,
          -0.17861740163110468,
          -0.028893501188468305,
          0.13040869442485883,
          0.5515073944001597,
          0.4926860255492939,
          0.54802059551068,
          -0.28271250564795064,
          -0.4004119695718779,
          -0.13493254143259867
        ],
        [
          0.2218680174827633,
          -0.12120285399324138,
          -0.07829695005714617,
          0.2418613827894208,
          0.300635339521898,
          -0.7379936461577753,
          -0.343826673183032,
          0.4997125357492997,
          0.8517983615443067,
          0.5836096901292906,
          0.18742876137027295
        ],
        [
          0.26818863125554876,
          0.5132204574152354,
          0.20142201940355312,
          0.17129923773183367,
          0.5618355337788556,
          0.5548951280611636,
          -0.5279043557644909,
          -0.21085431788209533,
          0.351786873451044,
          0.8729947397784312,
          0.8066707633421637
        ],
        [
          0.4906952014952812,
          -0.2995035685640549,
          -0.04337351087636106,
          0.02609029989976248,
          -0.3858867596481387,
          0.6358631761921851,
          -0.3984313827291863,
          -0.609036901590589,
          -0.19970375469236337,
          0.19074483368431158,
          -0.02011727733309226
        ]
      ]
    },
    {
      "activation": 1,
      "biases": [
        0.0357877844546973,
        0.34215213351727614,
        -0.20063358129445807,
        0.4192505468486887,
        0.5825276276358622,
        -0.952028134357697,
        -0.10461945345107022,
        1.1215805606276068,
        -0.5166372064388854,
        -0.8949207410530715,
        -1.2676023722964618,
        -0.9717281952952136,
        -0.35541012588054705,
        -0.5022125619227965
      ],
      "cols": 14,
      "rows": 11,
      "weights": [
        [
          -0.44581619587425675,
          0.23120070627296474,
          -0.879420936011639,
          -0.1566837015966334,
          -0.17657667180417574,
          0.03687273813142037,
          0.5197684058327963,
          -0.14374503546028897,
          0.0041184105255434155,
          -0.24038783649417608,
          -0.1240350113802355,
          0.5512118162742498,
          -0.011481669980054326,
          0.05817176139663002
        ],
        [
          0.391047641817842,
          0.27615188299096266,
          -0.43396601378917987,
          0.04313208182933864,
          0.10664981035794559,
          0.036868751674939415,
          0.08874059578066738,
          0.42043072719417374,
          -0.06034999091275239,
          0.05334344361549259,
          0.36150757508361325,
          0.15997924022101045,
          0.4205444318482181,
          0.41551492353812386
        ],
        [
          -0.2586429166744075,
          0.0915993651397597,
          -0.38213338285006654,
          -0.16284866526262792,
          -0.26813836623542925,
          0.3246759220825339,
          0.13788097080201378,
          -0.4826777717644201,
          -0.15187166059790852,
          0.35615835860973194,
          0.11735301464006562,
          -0.1504212602223114,
          -0.35947386502589396,
          0.0517179936026962
        ],
        [
          0.1174404471309123,
          0.5896562804232419,
          0.9841191528384692,
          0.3318597049324026,
          -0.009533024891269028,
          -0.5544469149176225,
          -0.04953175765695586,
          0.24354656582297599,
          0.09788450142984662,
          -0.3669094240059328,
          -0.7568693850748368,
          -0.04018109514629531,
          -0.11395828451281206,
          0.22604086802544993
        ],
        [
          0.06942809209539949,
          -0.298115287030202,
          -0.3047288283830419,
          0.20648349416153627,
          -0.15827395016754942,
          -0.16228397114035023,
          0.0046904942674545974,
          0.6916829592732875,
          -0.5323676099719383,
          -0.4424643879870286,
          -0.2445804259548959,
          -0.5908030263693289,
          -0.36625201376655936,
          0.06919290410136501
        ],
        [
          0.8670804279631055,
          0.15674833450521142,
          -0.06272785481402297,
          0.025244713164518203,
          -0.1407757304059597,
          0.7820816229325416,
          0.8512366061262446,
          0.5085603964131883,
          0.04606240387736073,
          -0.3771383007585823,
          0.223785510276024,
          0.16329657199563,
          -0.18850112740311817,
          0.2439598151604524
        ],
        [
          0.30779026711922464,
          0.21416846211891596,
          -0.471146890813415,
          -0.12771893398291126,
          -0.3099729887949485,
          0.22481447441249033,
          0.24398619916992467,
          -0.06986293836178785,
          -0.18326658790224573,
          0.3588454114705684,
          0.4691284552444071,
          0.04831615854905452,
          0.07373162504591169,
          0.19553309261869672
        ],
        [
          0.5766460518428573,
          0.46895866613577514,
          -0.20926366439955713,
          -0.37832295254698634,
          -0.07717931674225431,
          0.3646476147636792,
          0.22549393470639956,
          -0.33702992394030346,
          -0.14039452864196678,
          0.4550531738527849,
          0.2482534295525323,
          -0.19865548625741877,
          0.0913265559630016,
          -0.32951796287099244
        ],
        [
          0.23785464798903347,
          0.12430243452068819,
          -0.4749925178205767,
          -0.43117074979589204,
          0.274208257085991,
          -0.8731196900724228,
          -0.6214353548565612,
          -0.024116782185519298,
          0.08516402505960663,
          -0.6361073512315957,
          -0.6370653366212135,
          -0.7989914358136544,
          -0.20823007070416882,
          0.19255614296163923
        ],
        [
          -0.18287910714243605,
          -0.3041189971663489,
          0.07247625923911162,
          0.47714212512843435,
          0.4697366912869801,
          -0.4107451606988202,
          0.03431300048586579,
          1.0791076583846912,
          -0.11456876592353094,
          -0.67914346966007,
          -0.5439414622618455,
          -0.42927647113818984,
          0.23299523270391947,
          -0.5033005824868212
        ],
        [
          -0.7052710597287999,
          -0.735980489183696,
          0.4695221525282579,
          -0.43120381105167416,
          -0.3182892763281389,
          0.30282115578569485,
          -0.46293307427198205,
          0.015574294756934679,
          0.052035540391509476,
          -0.5110779143388784,
          -0.37733436079081695,
          -0.3487685671842941,
          -0.2772453123766293,
          0.23295070130951528
        ]
      ]
    }
  ]
}
