{
  "layers": [
    {
      "activation": 2,
      "biases": [
        0.6313479072783673,
        0.11444824512709789,
        0.49594940658375,
        0.0,
        0.44704406676129566,
        0.6589902055496605
      ],
      "cols": 6,
      "rows": 4,
      "weights": [
        [
          -0.50302245360571,
          1.6366779322315352,
          0.4805456157907098,
          -0.17159958896756566,
          -0.2592238583402088,
          0.4391137687853707
        ],
        [
          0.3576011282184862,
          0.05797941259283333,
          1.0675674154259323,
          0.5237044774075306,
          -0.2227805040906179,
          -0.4587376866692192
        ],
        [
          1.6093926004082162,
          -0.022435121584052788,
          -0.49596547271452646,
          -0.6153974718526863,
          -0.3388847668737612,
          -0.8722898084137148
        ],
        [
          0.8615263164416656,
          -0.5974831606177374,
          0.5252980647882465,
          -0.5705817158134759,
          -0.5644655635911197,
          0.24770946417052833
        ]
      ]
    },
    {
      "activation": 2,
      "biases": [
        -0.0010338787655555296,
        0.04774950757067266,
        0.014655664988436568,
        0.034845114276218433,
        -0.43376841075064987,
        0.3448504831584393,
        -0.26255161877535466,
        -0.34753955123740465,
        1.045062733135848
      ],
      "cols": 9,
      "rows": 6,
      "weights": [
        [
          -0.4343939645422251,
          -0.14774395725380612,
          -0.9464688892702001,
          0.042021340188721036,
          0.9017414982144977,
          0.7881073262102283,
          0.8613489739444337,
          -0.831155254338553,
          0.6363817325910471
        ],
        [
          -0.5132698281185285,
          0.9682119004251937,
          0.8727678769394736,
          -0.478441121120637,
          0.6517251110729017,
          -0.3841037521902194,
          0.09785579569283508,
          1.0265728495025246,
          0.5837302741111231
        ],
        [
          0.16672270306400283,
          -0.3572528828456688,
          0.1560208901809211,
          0.8366073953617675,
          -0.03248927752003186,
          -1.0696328437741962,
          0.486473155991696,
          0.8702271741099028,
          0.33507521194000395
        ],
        [
          0.0016933889477572987,
          -0.19197064647751771,
          0.47203400891805125,
          -0.3644940196013504,
          -0.4998629604587192,
          -0.3537589984265598,
          -0.06745255818951496,
          0.47164648080418936,
          0.10621862841848716
        ],
        [
          -0.6321664285919598,
          0.2889422318959844,
          -0.03932820655316558,
          -0.05743639583470857,
          0.16365324612219267,
          -0.5606671997968605,
          -0.42484798391978973,
          -0.35981109922896487,
          0.6540377718254857
        ],
        [
          0.43177282068566036,
          0.14295747356498026,
          -0.18129350354862375,
          0.085389134100258,
          -0.40567057186935807,
          -0.03241114238962614,
          -0.37338814696411066,
          0.7341396179896874,
          0.5573879361166851
        ]
      ]
    },
    {
      "activation": 2,
      "biases": [
        0.25036485149839244,
        0.02391256954754496,
        0.3274315718024905,
        0.604492130775791,
        -0.11551531018448963,
        0.3893749352173822,
        0.051942288874943114,
        0.2560882441994693,
        0.0,
        0.026383451579077025,
        0.0,
        0.5248959363633808
      ],
      "cols": 12,
      "rows": 9,
      "weights": [
        [
          0.40884155869059463,
          -0.07519991843109985,
          0.11776956924302544,
          0.2372656106741631,
          -0.39569815407768744,
          0.4914296300514009,
          0.5152490711856023,
          -0.1079545855823824,
          0.13820347341242317,
          0.1537127458256426,
          -0.2236936627231041,
          0.4650362492596576
        ],
        [
          0.5446233469391955,
          -0.2785920058884062,
          0.14240437934312652,
          -0.4330597546779899,
          -0.08409754246882273,
          0.2836605879398472,
          0.5813010333854931,
          0.04840509477247761,
          -0.2489370601960936,
          -0.43051009572300747,
          0.2117618367761301,
          -0.34078560562611243
        ],
        [
          0.5549644057627338,
          0.2515469789432296,
          0.09207382269142737,
          -0.5774501128942269,
          -0.08708612773946388,
          0.6837730684896313,
          -0.27851333887656515,
          -0.48069291037321,
          0.35683266517085344,
          0.1114733956785952,
          0.23049339057562807,
          0.36984781548420426
        ],
        [
          -0.14368320265128973,
          0.007852013635881087,
          0.0025123618021509163,
          0.15234437566338727,
          0.3420670839974539,
          -0.591928430866933,
          0.3245560794419005,
          0.3952840864387919,
          -0.05566498827074215,
          -0.5132393612873936,
          -0.3165473579239225,
          0.06774194189688479
        ],
        [
          -0.5727590846255664,
          0.7330941343810501,
          -0.5404653726062898,
          -0.8412095380776352,
          0.44133882697802124,
          0.47097887953384643,
          -0.02210517303872991,
          -0.1422080056364863,
          -0.14711117287828526,
          0.5482415408262338,
          0.42535936517944556,
          -0.13772275887777774
        ],
        [
          0.3273921347856457,
          -0.558649243430454,
          -0.25726625047025026,
          0.37856339745716483,
          0.601111393428293,
          0.0991495894138367,
          -0.787365608093386,
          0.7898251450538573,
          0.203527608410714,
          0.37066763845480327,
          0.3111518974139167,
          -0.84043488732327
        ],
        [
          -0.6559425652936657,
          0.4867547816552392,
          0.1508054325581298,
          -0.7570410741786746,
          -0.34361565813541156,
          -0.2349546057433192,
          0.09179760966089145,
          0.4215725739322449,
          -0.2553819201629256,
          -0.012520254284345219,
          -0.23804190662246788,
          -0.3374750232923946
        ],
        [
          0.5300690679708101,
          -0.6801020610727101,
          -1.066079831273589,
          -0.20927571110682863,
          0.04616998614935778,
          0.23082751131119483,
          -0.5406155834930538,
          0.25923461957101135,
          0.011612935245295658,
          -0.21787618060971967,
          -0.40405565864929455,
          -0.8002820713300295
        ],
        [
          0.13389282336541486,
          0.029507450302127116,
          0.6944897611654012,
          0.7158518651799838,
          -0.10889899673792836,
          0.7294088269915844,
          0.5667766309325752,
          0.744791429403507,
          -0.45662641220987404,
          0.09153130151776992,
          -0.38982040781418575,
          0.748542245784945
        ]
      ]
    },
    {
      "activation": 1,
      "biases": [
        0.3509798938655859,
        -0.07681549526803527,
        -0.28784984623714976,
        0.3041127702553564,
        -0.8167608364261834,
        -0.9753089604541906,
        0.5230723094036247,
        -0.052333433412554115,
        -0.1885983585880418,
        -0.34836036024746775,
        -0.3270778727292699,
        -0.4815237297002512,
        -0.4153634971289472,
        0.017068121490766256
      ],
      "cols": 14,
      "rows": 12,
      "weights": [
        [
          -0.8868128124810998,
          -0.8182106978078063,
          -0.1458256193784197,
          -0.2785526756963269,
          -0.1252971098758754,
          -0.13021551997979178,
          -0.22214024634223337,
          0.30654751418994614,
          -0.0439129448886531,
          -0.15618985504701471,
          0.08729218502822071,
          -0.04824594673895274,
          0.2812544088274929,
          -0.033129013777710284
        ],
        [
          -0.670922803355958,
          -0.7802002141042563,
          0.33160860393585395,
          0.4429053087345322,
          0.3138798991285013,
          0.20646380870561595,
          -0.38883760789576977,
          0.21274809963703026,
          -0.10319801536243767,
          -0.30715788082860523,
          -0.7362492155575687,
          -0.10978166850341456,
          -0.05524949138466621,
          -0.3097239242984172
        ],
        [
          -0.6593993249356869,
          -0.04930798782836642,
          -0.13429629072831,
          -0.0848013644914623,
          -0.2938427222180834,
          0.23322940903979666,
          0.572146828661117,
          0.5209333183356413,
          0.14201325072243604,
          -0.3824542754240296,
          -1.032873916890817,
          -0.4065083786180362,
          -0.07090660478856617,
          0.2509915000145009
        ],
        [
          0.8006315313504985,
          0.5873787433490892,
          0.18145002718575634,
          -0.7505125421715686,
          -0.19762110735984237,
          -0.16743309774539852,
          0.34299389299888206,
          -0.22550867629608143,
          -0.3126440212358431,
          -0.4851880204117884,
          -0.5212371725429337,
          -0.41601779538122263,
          -0.21040922031670226,
          -0.21175957482622604
        ],
        [
          0.1935038366917848,
          0.008746116536571272,
          0.017729370523527146,
          0.03266058948877333,
          0.3294139493854726,
          0.28571625662148964,
          0.4583998343327405,
          0.4651084744010468,
          -0.3145205594219374,
          0.16457184665928476,
          -0.20054352775573406,
          0.29928809605494755,
          -0.32046746566424994,
          0.12298721623239617
        ],
        [
          0.17676790084967006,
          -0.29628719273306364,
          -0.6070184095873715,
          0.27645233707013717,
          -0.44949649642453754,
          -0.6614994577578793,
          0.4228912015691166,
          -0.13302369865661978,
          0.4367410445413995,
          0.6836655480456223,
          0.09234732061489807,
          0.009620346857640448,
          -0.3751017929681303,
          0.38814414748457515
        ],
        [
          -0.1027200254094537,
          -0.9086696951478797,
          0.13564830433936467,
          0.391975724716368,
          -0.01695144912470838,
          -0.4470577360421372,
          0.11097202228404827,
          -0.25104755000449436,
          -0.10466804891048115,
          -0.7735198548584404,
          -0.40589178950577903,
          -0.3553496103150624,
          0.4393298654316149,
          0.3885106270566692
        ],
        [
          0.19514168571421656,
          0.6673890034222735,
          0.31027925262580847,
          0.6827525025544283,
          -0.8899495873203637,
          -0.6811433854455257,
          -0.10389624300737203,
          -0.09403776467602488,
          -0.39574529192727176,
          -0.30876237834773607,
          0.41207135140121354,
          0.17679233631788627,
          -0.020499011859944852,
          0.08344985011573955
        ],
        [
          -0.20325594664029045,
          0.014663998902790137,
          -0.39821305955481506,
          0.25897037558344593,
          -0.01323953616833201,
          0.06764920324050291,
          0.1578662477796974,
          0.19484963952253018,
          -0.2251128289571424,
          -0.24126003574198365,
          0.2699578972104387,
          0.14259768663606368,
          0.013446552018495784,
          0.18793242775360458
        ],
        [
          0.4347088489451584,
          -0.2430062654183664,
          0.13442932055221254,
          0.4778254758566205,
          0.34734873361807217,
          0.3283605923880838,
          -0.2086515000384643,
          -0.2658253954008474,
          0.2055065579635024,
          -0.24489447400384484,
          0.6126367505675376,
          -0.35007612489855644,
          -0.10149862700421002,
          -0.7308303407446851
        ],
        [
          0.3891156377907081,
          -0.1186575497327923,
          0.25806224003965555,
          0.3621693481339161,
          -0.20523014249799693,
          -0.45062100357932094,
          0.16299019295623912,
          -0.0656875142511376,
          0.03390594357626725,
          -0.13367650322278973,
          -0.20711483919690654,
          0.20585580043225693,
          -0.14143598624849293,
          -0.4441480663755457
        ],
        [
          -0.28063483656560134,
          -0.2790707235339288,
          0.02770975082027876,
          -0.5395443465205417,
          -0.5511354840941679,
          -0.363849596097284,
          0.2690996792312252,
          -0.16592975261740528,
          -0.03338958237332931,
          -0.7329599824034375,
          -0.6760440598568722,
          -0.6544826323865621,
          -0.04991857425606988,
          0.531125193826907
        ]
      ]
    }
  ]
}
