{
  "layers": [
    {
      "activation": 2,
      "biases": [
        0.0,
        -7.075015300156087e-05,
        0.12023928864139943,
        0.0,
        -0.10272993083547233,
        -0.002142010921131394
      ],
      "cols": 6,
      "rows": 4,
      "weights": [
        [
          -0.19088910677738843,
          0.6865772543993411,
          -1.1221414178377231,
          -0.40216739251836536,
          0.2056125741288168,
          0.6378450569709283
        ],
        [
          0.1061863906572961,
          -0.48277795078994634,
          0.48818804864515736,
          -0.09683025498137789,
          0.26076370928324516,
          -1.1658147974351436
        ],
        [
          0.003941844798492679,
          0.9288631929990606,
          -0.388859720733718,
          -0.7730900649026357,
          -0.11502230010479358,
          1.1421659818381622
        ],
        [
          -0.364728026500548,
          0.36599605158155757,
          0.9280329178530864,
          -0.2401909619552358,
          -0.5597673449047085,
          -0.6185142871548851
        ]
      ]
    },
    {
      "activation": 2,
      "biases": [
        -0.03780675276710445,
        -0.12251534702156687,
        -0.07914875892666534,
        0.4501286349587612,
        1.1004295802625785,
        0.048067718370531566,
        -0.1646846674835365,
        0.004977202279392737,
        0.17444347241442387
      ],
      "cols": 9,
      "rows": 6,
      "weights": [
        [
          0.09417127985247188,
          0.3537579811888217,
          -0.11281597471906378,
          -0.5122179483404399,
          -0.4790734101025476,
          -0.06215656347934565,
          0.14443573779076233,
          -0.036140113417559426,
          0.09952752955331444
        ],
        [
          0.7320454567439715,
          0.5227349737774667,
          0.06294256796458152,
          0.3497359186270174,
          -0.7200218777391011,
          0.36411174207831776,
          0.09723467729378545,
          -0.0006276232852342299,
          0.8582389177319572
        ],
        [
          0.203661403579587,
          -0.3860791088657909,
          -0.290584658255616,
          -0.2929866421114219,
          0.012837162707742617,
          -0.39982836318894993,
          1.3695940640232196,
          -0.23445404635370762,
          -0.3010507574300312
        ],
        [
          -0.5259597204680438,
          -0.29653043433405507,
          0.25801903519795394,
          0.38892680308783517,
          -0.4816919997448758,
          0.5641737787161248,
          -0.237855443585913,
          0.4657873510572829,
          -0.5859949836667067
        ],
        [
          -0.5903590773072805,
          -0.019979089635745816,
          0.4087358786278435,
          -0.367599602828229,
          -0.3666296810759598,
          0.2953626330413135,
          -0.5183198820757305,
          -0.032060018363842424,
          -0.19895734975612778
        ],
        [
          0.9979099853522655,
          0.15933820771779225,
          0.8164147601042838,
          -0.4677566194386244,
          -0.5639074819838977,
          -0.6157401561949126,
          0.687231437434551,
          0.9426212762777648,
          0.05302246052440902
        ]
      ]
    },
    {
      "activation": 2,
      "biases": [
        -0.09578704133564969,
        -0.16134772292332486,
        0.9838451611341555,
        -0.32637836003778325,
        0.1463089011745421,
        1.13586413285153,
        0.6029028275495993,
        -0.4243177967578175,
        -0.37164597464757454,
        0.3785575484444493,
        1.3345658271573946,
        0.13753734417406688
      ],
      "cols": 12,
      "rows": 9,
      "weights": [
        [
          -0.14647824784545277,
          0.1508783358649767,
          0.8690059109475183,
          -0.5485507986392392,
          0.2936936322983999,
          -0.4767038268090806,
          -0.27688596906841534,
          0.4191107887554071,
          0.7286226782714649,
          0.17410815776797153,
          -0.24376621976677987,
          -0.4158068175199052
        ],
        [
          0.26149300727203817,
          -0.22158131439663376,
          0.47334381141321874,
          0.33721497059767236,
          0.40373264456088276,
          -0.2368885216829537,
          0.3621377235528974,
          -0.5209162248447435,
          0.2326267078980606,
          0.2365754850525945,
          -0.5096871957555564,
          0.05510206476666175
        ],
        [
          -0.4000618344305345,
          -0.15491231679100476,
          0.08871792492049656,
          0.2390509244274578,
          0.277026124055917,
          -0.20017506757598588,
          -0.006700519173088761,
          0.048449877259350356,
          0.6563887651836355,
          -0.6125330025236077,
          -0.3225035996807586,
          -0.4677786403248707
        ],
        [
          0.20692785699264302,
          -0.026709960026037996,
          -0.4097576182416306,
          0.3903142620694864,
          0.32793992374777536,
          0.30842933576709314,
          0.016073230034196088,
          -0.10431602357645019,
          -0.4583721099441807,
          0.6634853993596181,
          0.28908544068277425,
          -0.27824105122920917
        ],
        [
          0.3873437945479778,
          0.218629818323307,
          -0.19017146252776657,
          -0.12919818607091124,
          0.6901023513826715,
          1.0013264247266438,
          0.5284020784334637,
          0.4369972085766085,
          0.471780042070151,
          -0.07667882814957401,
          0.7893124996375787,
          0.01367582429108809
        ],
        [
          -0.11507597361809936,
          0.2589793415448226,
          0.3820767402920549,
          0.12885647482126888,
          -0.5582444400099986,
          -0.5132743626504304,
          -0.03792554999014807,
          -0.5334507127889055,
          0.02462543042264992,
          0.391933216995454,
          0.24202614658683425,
          -0.1122055732577659
        ],
        [
          -0.5031031024220084,
          -0.3616817009659253,
          0.3068366790983655,
          0.32061746212907116,
          0.34454949951508856,
          -0.33546732543058144,
          -0.1297257809867687,
          0.6072834254539488,
          0.4372073469855182,
          -0.524115870887983,
          -0.30982093504624314,
          1.1365389996707016
        ],
        [
          -0.2894779800743705,
          -0.134007756293624,
          0.5117068215143443,
          -0.14500971298238674,
          0.5245363038609334,
          -0.4215334747374012,
          0.3031746809973214,
          -0.01327295003789893,
          0.5511656466044671,
          -0.42258424790847565,
          -0.2180299731385371,
          -0.5048451814203695
        ],
        [
          -0.033831456887882964,
          0.01496174957558134,
          0.7278069136530866,
          0.16107307132075607,
          -0.5063364348236551,
          -0.3360692784944733,
          0.12613384407738817,
          -0.05516006006385551,
          0.2230894160227382,
          0.5768380745762813,
          0.4201533016615075,
          -0.3316046531229678
        ]
      ]
    },
    {
      "activation": 1,
      "biases": [
        0.2367668295084693,
        0.21667327347977983,
        0.4691472440289334,
        0.34783727018904426,
        0.43235935227128475,
        -0.2189309073580319,
        -0.8761595401492802,
        -0.24876975982382502,
        0.7940656126749226,
        -0.1176513316708689,
        -0.5179992851859196,
        -1.0344431952034054,
        -0.2808400578438118,
        -0.2434309287810883
      ],
      "cols": 14,
      "rows": 12,
      "weights": [
        [
          0.21800748985093976,
          0.1447151427856189,
          -0.3729841098166149,
          0.05243520587688842,
          0.07710984802991178,
          0.29205620997160797,
          0.08223483345972217,
          0.29933009796128746,
          -0.31009519406250957,
          0.05163021231344249,
          -0.3463820186830871,
          0.2710081660909142,
          -0.3252409453283802,
          0.16984628894893736
        ],
        [
          0.2433897653440487,
          -0.22890399368210618,
          0.004480928440645506,
          -0.20995944551228124,
          -0.4374922518763179,
          -0.28174933133808755,
          -0.24145511539239342,
          -0.4563510413292325,
          -0.29968003282249905,
          0.2719717229539006,
          -0.4297362687328468,
          -0.1682642760595778,
          -0.054524215918113406,
          -0.36840069342763493
        ],
        [
          -0.5957858334964169,
          -0.24839703998642418,
          -0.10981876924511781,
          0.6793607666815616,
          -0.15419684579490017,
          -0.26604307334629745,
          -1.0524352959765406,
          0.040964812908238626,
          0.216312067637315,
          -0.39999316456713235,
          -0.26425149659106567,
          -0.6334557915058482,
          -0.4507852145160884,
          -0.39993072563709503
        ],
        [
          -0.014715634838058806,
          0.12282486337719235,
          -0.3756238036245717,
          -0.337621734005181,
          0.43546046367542673,
          0.2410613141613165,
          -0.3205913161301171,
          0.06949925864833596,
          -0.4594238782526603,
          0.4238074542596839,
          0.029780997646346036,
          0.07858641584488173,
          0.3804226623053401,
          -0.14532555143866552
        ],
        [
          -0.6377911267253984,
          -0.1593131246162591,
          -0.1814489231905612,
          -0.6981100115936932,
          0.4800644388830826,
          -0.12697679870914685,
          0.06461421157262791,
          0.004125502427348089,
          0.16519111878993104,
          0.03816523167982583,
          -0.2994804287607481,
          0.009352447461509539,
          0.2978742171830122,
          0.7152597694125147
        ],
        [
          0.4356304791925841,
          0.17647270690744057,
          -0.5656201407617587,
          -0.2896424589463052,
          0.7387312493616666,
          -0.25584547634908594,
          -0.5392395690679279,
          -0.6075012829169345,
          0.48615911281232094,
          -0.4761898052598756,
          -0.4135417395402747,
          -0.6727317242089372,
          0.013442908622001955,
          0.40549831165673494
        ],
        [
          0.3206643579686185,
          -0.1759954175919014,
          0.04074285313797624,
          -0.04673699271600958,
          0.5794100897341139,
          -0.2245462308681199,
          -0.7634136458696272,
          0.04778592830438819,
          0.570340258206171,
          -0.04269805285429451,
          0.028036770019088466,
          -0.0828767289292061,
          -0.42438341667795115,
          0.22785063975903316
        ],
        [
          -0.0035199334090296737,
          -0.1589028717629568,
          -0.6933504888339496,
          -0.4884146229638713,
          -0.39849542095650126,
          0.17183514735660985,
          0.025171599891022963,
          -0.32174281980793307,
          -0.2560395264555035,
          0.3136682220126031,
          -0.02309110924009471,
          -0.1465608400297799,
          -0.3278957722053656,
          -0.4032463865082526
        ],
        [
          -0.8320123230290771,
          -0.7179526146638809,
          -0.31250687166263114,
          -0.4506750896168246,
          -0.08797524250597359,
          -0.42249572607411573,
          0.03239608071271023,
          0.020744366245991,
          -0.784756513719302,
          -0.05842886315384876,
          0.1809336962952755,
          -0.1385309109754044,
          -0.0034092877284598025,
          0.7050980933120559
        ],
        [
          0.3385929951804034,
          -0.1009281352212747,
          0.7141860796456334,
          0.719563143652598,
          -0.16336661440510142,
          0.08422927827086384,
          0.06306498234470488,
          0.2881945561071904,
          0.07129564681224493,
          0.7089379197899751,
          -0.06174367530875919,
          -0.10172512222006587,
          -0.2612978530608585,
          -0.34015911801305715
        ],
        [
          0.7146970681827346,
          0.7521643198473787,
          0.644885868197172,
          0.4914499124156755,
          0.13426843558733273,
          0.07237337910802814,
          -0.3135991601135903,
          -0.1272248290973046,
          1.2156021785779916,
          0.0054583507205081625,
          -0.47676526705575517,
          -0.12461033505598262,
          -0.23653344872256662,
          -0.16247247430504985
        ],
        [
          0.08545886455899891,
          -0.39492892707779714,
          -0.2103591167615823,
          -0.3790981553003308,
          -0.8735171887757603,
          0.23052568578113133,
          -0.12138268440785178,
          0.5479633550977385,
          0.5396822690592832,
          0.6128239566102737,
          0.15063764437603094,
          0.18700166305529967,
          0.011482057253841103,
          -0.15356126761429947
        ]
      ]
    }
  ]
}
