{
  "layers": [
    {
      "activation": 2,
      "biases": [
        0.4978743566952178,
        -0.00620538639881619,
        0.5452378313907499,
        0.5863650420484567,
        0.0,
        -0.06609239781048874,
        -0.0024443531101153116,
        1.1339499104616346
      ],
      "cols": 8,
      "rows": 3,
      "weights": [
        [
          -1.0805699587002617,
          -0.21539367097981138,
          1.014143836177315,
          -0.5131551948342491,
          0.20625846578158633,
          0.07666978658459395,
          -0.8718710991942298,
          -1.9081543362336364
        ],
        [
          -0.7019327945911106,
          1.3507183007648884,
          -1.432143695200519,
          0.7970538431011694,
          -0.162717550806336,
          -0.2139581470041333,
          1.027668202652995,
          0.41824376642150757
        ],
        [
          0.8149698260606792,
          0.31122241961233366,
          0.529317064987352,
          -0.15839541260528903,
          -0.6856787691497552,
          -0.011910667506150004,
          -0.1572339622453233,
          0.7186474948067871
        ]
      ]
    },
    {
      "activation": 2,
      "biases": [
        0.0,
        0.35098633516550765,
        -0.059386453374826696,
        0.4466096392894382,
        -0.1272628727287486,
        -0.06903670760957661,
        0.0,
        -0.48264543465904536,
        0.7429012336863756,
        0.4901850484839537,
        0.07492337889288471,
        0.3772523195678103,
        -0.0759237765648156
      ],
      "cols": 13,
      "rows": 8,
      "weights": [
        [
          -0.4984158505473125,
          -0.18893483734256078,
          0.7079250266274919,
          0.9174132032149316,
          -0.5197446360580592,
          0.23509513818232217,
          -0.27945396796811484,
          0.018283658500247154,
          -0.18831202150114426,
          0.636989043993735,
          -0.03463431931278976,
          -0.3424022934763832,
          -0.5335553295934228
        ],
        [
          0.16116635434928803,
          -0.45304840385558315,
          0.238329078869314,
          -0.8046895558952254,
          0.06691487730165674,
          0.21650935727771087,
          -0.46829675498482387,
          0.4497005105906761,
          -0.8885732007742984,
          -0.487481266457012,
          0.09711137438157505,
          -0.11237430264003594,
          -0.35676215945311585
        ],
        [
          -0.23703047584998602,
          1.3089531688704081,
          -0.08237522886242689,
          -0.2733801212778474,
          0.23864074574727623,
          0.2558169515459337,
          -0.35450919286119237,
          0.03722662350110901,
          0.45880304369230074,
          0.45596021126983693,
          -0.05476886441110921,
          0.42222694104819286,
          0.03372080268961883
        ],
        [
          -0.5096581479423556,
          -0.39028359550254554,
          0.1490802347044741,
          0.4244291539577269,
          0.27311387772455586,
          -0.36672033080791955,
          -0.4483997062945258,
          0.3814963849020483,
          0.26279603315746897,
          -0.14883581116213798,
          0.5613031818300145,
          -0.07176341836404837,
          -0.41669901146519256
        ],
        [
          0.43283330985607366,
          0.3990361857353989,
          -0.19813620358204645,
          0.35930571829625113,
          -0.1552698825356246,
          0.010809447872169052,
          0.5131582382732726,
          -0.3853840509761102,
          -0.0016187233785627038,
          0.13541425287057623,
          -0.5265177367320051,
          0.10473447964894159,
          -0.40709560164046915
        ],
        [
          -0.22156610516075725,
          0.48204701262812466,
          0.001178580028638817,
          -0.18484556386854817,
          -0.08248622299990183,
          -0.06466520419276982,
          -0.4042883388672801,
          0.19116952163553336,
          -0.4755049457099091,
          -0.08791022386001678,
          0.3716731791976732,
          -0.4406602479737897,
          -0.16787025866591823
        ],
        [
          -0.3779071129507785,
          0.23966298598650532,
          0.5612319125803029,
          0.20341560308691506,
          0.6352444717801911,
          -0.5113914359517926,
          -0.024296960898088145,
          0.740419536526866,
          0.3671216331193857,
          -0.4372192658740824,
          0.1617405367861639,
          0.23262283715170257,
          0.04380942775112901
        ],
        [
          -0.28869455688207396,
          -0.8283830202959107,
          0.41036984378882796,
          1.3176543409192054,
          0.19058677060087412,
          0.17107755832793434,
          0.016155828017070422,
          0.5255249357182346,
          0.5241730830433912,
          0.21142896109198242,
          0.4161624823305007,
          0.572704836661538,
          -0.3078343177150142
        ]
      ]
    },
    {
      "activation": 2,
      "biases": [
        -0.09399165435327562,
        -0.007761058133327612,
        -0.053713030942472095,
        0.7807923328289177,
        0.1946632333903311,
        -0.0010200357787329133,
        -0.17829145388877113,
        0.0,
        -0.15471573367207578,
        0.01961081920720988,
        -0.08975838285013538,
        0.0,
        0.09788070766306971,
        0.14790684329275622,
        0.7276580470305042,
        0.4423532730708914,
        0.2707649729898063,
        0.0
      ],
      "cols": 18,
      "rows": 13,
      "weights": [
        [
          0.3957734871426183,
          -0.3994518533692475,
          0.25216214095635,
          0.02417162705011408,
          -0.2601745690319702,
          -0.42840311764105954,
          0.18354626152388193,
          0.017203623788487846,
          -0.3760590996956504,
          0.3043444268323941,
          0.33675229652354355,
          -0.049120153820310514,
          -0.2582849947864288,
          0.028010349072086396,
          0.388154388676826,
          0.3243223955430864,
          -0.21075367844174944,
          -0.31810877728119447
        ],
        [
          -0.17138518643265438,
          0.2612806776080205,
          -0.0968565808978476,
          -0.41365846072946677,
          0.2781647381352208,
          -0.0940217981894969,
          0.20278456414141868,
          -0.3401000390364914,
          -0.29098666629936687,
          0.9731234712698101,
          0.44794107787379667,
          -0.23246191778236283,
          0.39969824941997517,
          -0.06808617387031789,
          0.2132477205003962,
          0.008048814239786666,
          0.273446147469579,
          -0.286994546579766
        ],
        [
          0.2166142576011861,
          -0.5149970538526846,
          0.4790018968104176,
          0.3313805939145856,
          0.4946580753819704,
          0.003820757545744198,
          0.24852005133388416,
          -0.34340101404550993,
          0.168231287875208,
          -0.48781029089486283,
          0.04495416321262462,
          -0.3083079993202499,
          0.38582320684579524,
          -0.3754763199050612,
          -0.010281802978293376,
          -0.09230486028336943,
          -0.4669971957700441,
          -0.000437083774282749
        ],
        [
          -0.054755385016719005,
          -0.2630284703962937,
          0.12141368000428561,
          0.6890725955863173,
          -0.7944906287328847,
          -0.3820511021937168,
          0.9539445786601587,
          -0.39027851254807266,
          -0.44577177323143957,
          -0.0699207788358618,
          -0.7366336576943489,
          -0.10338241094334107,
          -0.20896965014153887,
          -0.1827079394640712,
          -0.5034645285416017,
          0.7265992862627094,
          0.39435256539522906,
          -0.30700547334525413
        ],
        [
          -0.03147340734967325,
          0.33077417911955437,
          -0.3817800394377911,
          -0.3808547683554159,
          0.37806290396775993,
          0.250657170293828,
          0.349453119424817,
          0.11449450967591232,
          -0.11073403111446883,
          -0.18741863922410815,
          -0.1488943728974921,
          0.2201322783029528,
          0.1495903314133257,
          0.032150541476098665,
          0.27993836409057266,
          -0.718249689019642,
          0.26745186476427596,
          -0.20889560239261148
        ],
        [
          -0.0716369705592648,
          0.037112012072348925,
          -0.05243436597486522,
          -0.3209578577713519,
          0.1866851638010096,
          0.36497432811372565,
          0.06076300763154875,
          0.0057808128601421205,
          0.21333313032831744,
          -0.15043863489382453,
          -0.26161343136048737,
          -0.14351055101540458,
          -0.02238430560467443,
          -0.301950071662318,
          0.2857513740097781,
          0.26786562028633876,
          -0.061631239916820534,
          -0.17645580142329587
        ],
        [
          -0.24676224030542576,
          0.1452745307302742,
          0.019655483615360687,
          -0.08326053207192832,
          -0.40123208000099597,
          -0.027742351357726843,
          0.017742486898624073,
          0.37102582631627157,
          -0.08714891345315823,
          -0.020902648056176226,
          -0.15995014953523048,
          -0.2233772747284678,
          0.20687252587938565,
          -0.4264025367958618,
          -0.4341205233567703,
          0.010511324392398982,
          -0.2653407309075285,
          0.39189390055801926
        ],
        [
          0.3091648233720856,
          -0.23320842544116768,
          0.3774146628661148,
          -0.4128042820464241,
          0.1475751892962927,
          0.07212649858801133,
          0.16761928056344425,
          0.1024379595920979,
          0.157519968903655,
          -0.6338259022917699,
          0.06495061718081295,
          0.15758241532862588,
          -0.38314410953706673,
          0.18708011470014596,
          -0.30274178670432456,
          -0.6815693157582383,
          -0.4478249080397641,
          -0.2410316204743577
        ],
        [
          -0.46501578738855787,
          0.39242527067716854,
          0.053877418935446356,
          0.8289699258544154,
          0.22068222066802268,
          -0.24974291896519651,
          0.08172301867517737,
          -0.2556377163402443,
          -0.4220497400026535,
          0.5141900028274875,
          0.4028748140232578,
          0.04075714257500709,
          0.5209548072306825,
          0.3486336943613183,
          0.13066924447318617,
          0.49043857067032054,
          0.3718866564157522,
          -0.03853996266712291
        ],
        [
          0.22848370081660435,
          0.19482852178736906,
          0.09082987975057688,
          0.5066443699845399,
          -0.394990188538685,
          0.35232698916852473,
          -0.23198153301769292,
          -0.03592263487730562,
          -0.05642450706520401,
          0.4652104646719216,
          0.10015527183251208,
          -0.4233203516614369,
          -0.3313528993765604,
          0.2683130693024484,
          0.45861655015685443,
          0.729358085837076,
          -0.2360031303768508,
          -0.1474926120382323
        ],
        [
          0.2975769745264027,
          0.19705296447949086,
          0.28217819677347056,
          0.5531197735182005,
          0.003509896124486003,
          -0.35201976515159716,
          0.1927400715068917,
          -0.15219895498586913,
          -0.025188124185141,
          -0.598598806374846,
          0.5936732701957803,
          -0.013717997793768609,
          0.3875758488525491,
          0.2884155447216759,
          0.3079426251450613,
          -0.5013395626989028,
          0.34972007130041716,
          -0.2787924356573957
        ],
        [
          -0.5344223821176947,
          -0.18670352597074072,
          0.21806980795175582,
          0.502318965062285,
          0.6745600752484626,
          -0.12292498199692968,
          0.2922312045787649,
          -0.18885624505906257,
          -0.06692744436328128,
          0.29883195884086183,
          0.618124292332031,
          -0.029124106301952626,
          -0.21049882050140706,
          0.023152809240797177,
          0.4163345973402189,
          0.22563125993607872,
          -0.19153371446118975,
          -0.28914116161204034
        ],
        [
          -0.06337955420244402,
          -0.24334657936356086,
          -0.17374459121684505,
          0.4177950155953149,
          0.10975337673973962,
          0.053567176668209114,
          0.041669565076594715,
          -0.3700474155366958,
          -0.19383055234298602,
          -0.21911568560552327,
          -0.10880935352275019,
          -0.2740789056830781,
          -0.2486926756562137,
          -0.11496476668038094,
          -0.3058333245327924,
          -0.2521357764838573,
          0.10175290043353435,
          -0.0034056359570176714
        ]
      ]
    },
    {
      "activation": 1,
      "biases": [
        -0.41456059317315436,
        -0.002399283908968688,
        0.3765686562832984,
        0.11324014138653773,
        -0.4380108897883473,
        0.45086373832564336,
        0.12280777340674656,
        0.18799353015756154,
        -0.38357083388341384,
        0.20377564719343913,
        -0.25808164502866915,
        -0.09323988323979143,
        -0.4691622484532274,
        -0.02098776455718646,
        0.20436006340751514,
        -0.23558929675208695,
        0.4905391835356398,
        -0.4714647353935225,
        0.12415490621131488,
        0.10276991605209293,
        0.02944548742004943,
        0.38650949552846353,
        0.06500367531020505,
        -0.20997594037813427,
        -0.5272789281829179,
        -0.5101444707594822
      ],
      "cols": 26,
      "rows": 18,
      "weights": [
        [
          -0.04514086632724783,
          -0.09019247253411013,
          0.08754999204439051,
          0.17364901929224222,
          -0.11681371098738635,
          -0.30588491655860117,
          0.050006730455335865,
          -0.38628005122810266,
          0.25691423637453037,
          0.11737353010144454,
          0.13467986188470782,
          0.027793433839026032,
          0.11979520648237964,
          0.18981544610479748,
          0.275317028832433,
          0.17815227777150155,
          0.02858561367523122,
          -0.03509441093592369,
          -0.07281999978872898,
          -0.2164522444713612,
          0.07521123021150936,
          -0.051233454137098275,
          0.0362104524825076,
          -0.06508924405369859,
          0.021806124961549163,
          -0.1306385532973448
        ],
        [
          0.36912441416696934,
          -0.25882795400732606,
          0.1467497697588623,
          -0.30337283367721934,
          0.18908310393504874,
          -0.04442826895855317,
          -0.3119183700848375,
          -0.05882632743880198,
          0.17071454043698112,
          0.2708559287038768,
          0.18734782296110708,
          -0.06707744601882194,
          0.11433484567078868,
          0.01600604340573748,
          0.2665823498893337,
          -0.3433003916331123,
          -0.07603954552838602,
          -0.14460798870553696,
          -0.12645629824174248,
          -0.36600293832229164,
          0.01994114844427197,
          0.05304355774786947,
          0.19519567546691752,
          -0.17053854830957335,
          -0.014733938280221725,
          0.17857206457505528
        ],
        [
          -0.5320367995702493,
          0.10116892431831392,
          0.5175476321783055,
          -0.25296172082913276,
          -0.18993429840084408,
          0.4381903053459111,
          0.0840307515471156,
          0.2620292799192909,
          -0.4119496088616009,
          0.26457433673247704,
          0.26244140818151546,
          0.15030880793374346,
          -0.3615804895253945,
          0.14599666828500205,
          0.1444788757659685,
          -0.29191093679858443,
          0.2251983586392932,
          -0.09339408802620705,
          -0.11343475438534872,
          -0.16625497969484296,
          0.1502561556869828,
          -0.08181510322340556,
          -0.5615438658319611,
          0.4871445919072469,
          0.045339749554986666,
          0.047968059889020996
        ],
        [
          -0.5684014476866729,
          -0.009769820448618583,
          0.962589328646507,
          -0.10522248186270816,
          -1.0373260747561677,
          0.8478394081088252,
          0.5641573653066834,
          0.04276342049406605,
          -0.11246155945537843,
          0.10831567345638177,
          -0.034486572810448285,
          -0.07530217575890567,
          -0.976223985378092,
          0.12380174430047879,
          0.25209394880911146,
          -0.8008404347387719,
          0.9229156905054858,
          -1.030893120605893,
          0.09879141874148223,
          0.53136762851099,
          -0.2266559186328678,
          0.6537408557441451,
          0.0407478136554737,
          -0.061910050301862855,
          -0.08280524741175299,
          -0.525108657475963
        ],
        [
          -0.45065523631736304,
          0.2821020927430178,
          0.5669310778416384,
          0.24575978795773348,
          -0.6834462355338907,
          0.07310169552936882,
          -0.5188720199060991,
          0.12601706300469892,
          -0.24750847674994797,
          0.062205109025052205,
          -0.3723126096857479,
          -0.024730837336686635,
          -0.40743916461106744,
          -0.22707553896346694,
          -0.09436571658446244,
          0.5672169095922656,
          0.16271933829539253,
          -0.7128249233655478,
          0.12945535810333014,
          -0.32274384898381486,
          -0.13143129421426875,
          0.5769953706580011,
          -1.1433412970937469,
          0.020399422211746378,
          0.3431026233552968,
          0.056154840977197154
        ],
        [
          0.03619422320168008,
          0.2949528437042451,
          0.2063322774450172,
          -0.08610889532556064,
          -0.3279541944927827,
          -0.20193474458838936,
          -0.06556060256560196,
          -0.06297396704745155,
          0.2421461130080594,
          -0.20904729537132002,
          -0.3109100299506927,
          0.2890682656434321,
          0.3679392495882834,
          0.34071770459461165,
          -0.21088728515680275,
          -0.11487777460091703,
          0.04585162849907365,
          -0.23309817089081816,
          -0.02759526991991619,
          -0.2936685878021607,
          -0.17123074641139369,
          0.2887650275156853,
          0.3178231321311358,
          0.254948361588335,
          0.36839702641518446,
          -0.15277028043190644
        ],
        [
          -0.48398041106799383,
          0.02011231570031272,
          0.5365099481526641,
          0.2941959131336419,
          -0.3920076564783437,
          -0.05534429611300827,
          0.19870745951315116,
          -0.12045604231708995,
          0.306189564003358,
          -0.17546441516454112,
          -0.235741245347075,
          0.015980344070219782,
          -0.18698988600878022,
          -0.20379833951973725,
          -0.1823708231149462,
          -0.47212198174919773,
          0.6171480697609,
          0.023676095762503457,
          0.061533779406531326,
          0.2918049698225801,
          0.19406424408519315,
          -0.250349487853264,
          -0.4378072032466506,
          -0.013210317170113135,
          0.1397471939311157,
          0.6127538242637399
        ],
        [
          -0.12914193028830445,
          0.29185741142227645,
          -0.134979687776982,
          -0.26505761845013864,
          -0.3389414314643416,
          0.24303867818948974,
          0.020285935117085197,
          -0.20057402826661214,
          -0.34230245351103816,
          -0.009755246098403846,
          -0.05990774560431046,
          0.011560446111883413,
          -0.14848357119888078,
          -0.13926821296194836,
          0.0048342086793187935,
          0.18493165054397567,
          0.32078521208004346,
          -0.2644709784508029,
          -0.051660151101354225,
          -0.20485768879295627,
          -0.15302770711124372,
          -0.3181318415541219,
          -0.30914925852193803,
          0.23690730029256846,
          -0.10742580737480885,
          -0.3376005276072665
        ],
        [
          0.10300485790407837,
          -0.18992959137544438,
          0.222179614855163,
          0.09533740926418321,
          -0.16499031293701186,
          -0.15829408137958642,
          -0.28254044714494014,
          -0.30862554947128823,
          0.21267214946462373,
          0.002972064385167534,
          -0.23145217122980868,
          0.056717170701947435,
          -0.011314336121190477,
          -0.21687179305441617,
          0.0048798066176638545,
          0.3222910055163286,
          0.034716681441753085,
          0.357145692525759,
          0.28239335072296434,
          0.055120452247615644,
          -0.3100281582602773,
          0.25750840890845056,
          -0.1829083074001739,
          0.16309551213277562,
          0.23378191360555928,
          0.20756747774375944
        ],
        [
          0.248581961109903,
          -0.14949151626873722,
          0.10510961885729993,
          -0.12309463387579124,
          -0.17803148192267756,
          0.08393459353912465,
          -0.594574140981161,
          0.016329314186063433,
          -0.0785604527373974,
          -0.09732078854405643,
          0.23162616858930182,
          0.0400362197122503,
          0.09593418754383752,
          -0.029740684158933398,
          -0.3790474595996701,
          -0.631208624491784,
          0.1442321882064803,
          0.23316057349812927,
          -0.03610798827078948,
          -0.8962868469157078,
          -0.22682920343861862,
          0.03752816571093023,
          0.025097738827277543,
          -0.9205561792408352,
          0.08000396914746533,
          -0.3593093641667033
        ],
        [
          -0.571968435748603,
          -0.13605775424181846,
          -0.031201189003590528,
          -0.19517900574125485,
          -0.026310753850353124,
          0.42149140213372477,
          -0.5017886609001936,
          0.008282313748016936,
          -0.31161556067083096,
          -0.2764406235590214,
          0.0044540348048858,
          -0.22591625293986428,
          0.06483635392026392,
          -0.08973272261611083,
          0.32309186774321297,
          0.5023538229084894,
          0.18251630201494118,
          -0.3432366143375566,
          0.16146139521501068,
          -0.21635977630019382,
          -0.07738657031522853,
          -0.026167187230719913,
          -1.1891890844491664,
          0.08214392476728542,
          -0.09265923094823099,
          0.33431642519221183
        ],
        [
          0.1407430381711705,
          -0.31050318466948534,
          -0.038896247771443196,
          -0.15625374167346884,
          -0.1507795834553276,
          -0.20714811933081434,
          -0.2640667839565758,
          0.32986836371830286,
          -0.3576989835270605,
          0.0215393731343518,
          -0.17072872307221001,
          -0.1151392778371617,
          -0.21848764614526714,
          -0.06216457646609411,
          -0.027546580319016946,
          -0.36648779907276413,
          -0.29971994816231506,
          -0.2699297289933745,
          -0.0791609044102336,
          0.01569746426396842,
          0.06643982348883039,
          0.3342610183913084,
          -0.006157530638709697,
          0.3119306890796179,
          0.30048328824527176,
          0.015477822777715625
        ],
        [
          -0.16814696551727193,
          0.004989674720996306,
          -0.0060021784376993416,
          0.12297157861933011,
          -0.2850263275325629,
          0.06105816064363951,
          -0.23021905743508872,
          -0.09660413193865788,
          -0.07328225116768076,
          0.07201039875765065,
          -0.15889656186007445,
          -0.13393452710142378,
          -0.15192375367643304,
          0.3320930092898529,
          0.15785509120416252,
          0.08346125100798275,
          0.3335562339011947,
          0.12072745630494774,
          -0.32671351549865635,
          0.20732047980933394,
          0.02985573786811241,
          -0.17378990273566658,
          -0.3688850049206367,
          -0.35885635644498015,
          0.051930030936609826,
          0.23970798610003013
        ],
        [
          -0.4844437344346961,
          -0.1917736796046971,
          0.14513538101184195,
          -0.2019333413960144,
          -0.29717831703202174,
          0.3441499835675756,
          0.18041534409829613,
          0.03094184619759823,
          -0.02228193517687716,
          0.077686664822387,
          -0.23012038759822206,
          -0.048667089621027615,
          -0.21751176097520078,
          -0.25724373199365264,
          -0.10925506163354146,
          -0.15054842308578367,
          0.07513072607788061,
          -0.16255371185134762,
          0.0960127737794736,
          0.12726953559476162,
          0.20474331829236989,
          0.232866100939298,
          -0.07521556086953937,
          -0.316335748013636,
          0.21590097105949038,
          -0.11609538987819476
        ],
        [
          -0.28706055650097134,
          0.4740832391141717,
          0.4300294377339154,
          0.4263327870494021,
          -0.36664966104057545,
          0.528300084218241,
          -0.020910973283132656,
          -0.007249951134191344,
          0.01169809180682737,
          0.36705917212051054,
          -0.32186333500716663,
          0.310887730846194,
          -0.8232030455701101,
          0.2707310106720989,
          0.4608503490181355,
          0.3043083049740964,
          0.7780322507751856,
          -0.48014331498055873,
          0.08691721479381151,
          -0.32796572319528294,
          0.3650401363025241,
          0.5463105524796247,
          -0.4202171798284421,
          0.049802298852834395,
          -0.7602961528626355,
          -0.3767488783749377
        ],
        [
          -0.46060525663000873,
          -0.13072824662696458,
          0.02293769373390508,
          0.03357133456558218,
          -0.2595661260579682,
          0.058171589103205947,
          -0.10131890747615747,
          -0.05091361908005981,
          0.04054739596816979,
          -0.10088523496556906,
          0.02705991290359242,
          -0.027586011554124094,
          -0.10647093381742337,
          -0.07384789694723704,
          -0.1872846430311394,
          -0.7851024574067001,
          0.17069118206779613,
          -0.4014769211239836,
          -0.10190944628982056,
          0.21748269390763003,
          0.050267452873543915,
          -0.4104596572852924,
          0.7695683817864205,
          0.44746500230636804,
          -0.9090343611421989,
          -0.7297053959037528
        ],
        [
          -0.11792499629380425,
          0.044477639333731854,
          -0.3309113815361965,
          0.3063115853988034,
          -0.3190057084491425,
          -0.2336918433302772,
          0.399281361187356,
          0.23451369030144192,
          -0.07684646306785416,
          0.11270035162888432,
          -0.17351875914841214,
          0.16190428246679056,
          0.1941715379809691,
          -0.24558651584591232,
          0.19422189341800924,
          -0.24175378231296113,
          0.09351853038205797,
          -0.30957087413555373,
          0.2140549980799783,
          0.2126668574285808,
          0.3245442004306145,
          0.0444033352785071,
          0.18806308434765925,
          -0.33468245184605366,
          -0.363338770526662,
          -0.19285214002623716
        ],
        [
          0.0025006207610548314,
          0.04605706962818552,
          -0.3493788349363777,
          -0.15385072756215276,
          0.0180421458049383,
          -0.29660891488652885,
          0.15615158453022993,
          -0.3605375842269392,
          -0.2944982174067979,
          0.15139062240877801,
          -0.1349466871984912,
          0.24244077776932635,
          -0.306886534355796,
          0.21406403924348838,
          -0.16881541036276188,
          -0.3221884028266473,
          0.1791538354854541,
          0.3217447029710958,
          -0.036792710573968476,
          -0.3650291869848871,
          0.1954990533768597,
          -0.0841031179685907,
          0.13472600227821513,
          -0.11394454072176369,
          -0.16272920621199422,
          -0.3216217067239648
        ]
      ]
    }
  ]
}
