{
  "layers": [
    {
      "activation": 2,
      "biases": [
        0.6484790380687171,
        -0.4536959187518979,
        0.13093111259054394,
        0.6145020883853403,
        0.8569880859072967,
        0.0,
        0.0,
        -0.18811094581215673
      ],
      "cols": 8,
      "rows": 3,
      "weights": [
        [
          -0.4984202239008495,
          1.7285832025260097,
          -0.3482646305769477,
          -0.09607915233753792,
          1.1183638043735158,
          -0.5913251628880286,
          -0.13749656464858862,
          0.6930015962186484
        ],
        [
          -0.09154210314876182,
          0.6164987833867893,
          0.39935645141628356,
          1.7503935188719786,
          -0.21118531713230138,
          -0.4873969516900261,
          -0.7236593487115137,
          0.7570938922012702
        ],
        [
          -0.7203061876063696,
          1.1756911212767034,
          -0.03279126515143136,
          -1.3944673006084891,
          0.3703171226365997,
          0.3043406022831263,
          -0.11863310850338092,
          0.05314880625022084
        ]
      ]
    },
    {
      "activation": 2,
      "biases": [
        0.0,
        0.6259358847834696,
        0.021526676027840936,
        0.0,
        0.0,
        0.6105666972249418,
        0.9628918941929343,
        0.49689693623251263,
        -0.0011407456670089087,
        0.0,
        -0.5382035517519796,
        0.10415057374781328,
        0.3525747904796528
      ],
      "cols": 13,
      "rows": 8,
      "weights": [
        [
          0.4177400934979357,
          0.7594080479318528,
          0.504175198522681,
          0.23258856590950117,
          0.047301339514633944,
          0.34371078378045045,
          -0.5423847219574461,
          0.4064573331177899,
          0.07538197257506293,
          0.4754009187960312,
          -0.41038220148531773,
          0.274892023417049,
          0.5943235995742318
        ],
        [
          -0.5295961034084745,
          -0.628687839061776,
          -0.4612349162182643,
          -0.3814194539582703,
          -0.37584270892297694,
          -0.8210749203338483,
          -0.9309997559501996,
          -0.1637197254756011,
          0.12640178251727457,
          0.02115399105603678,
          1.1142173651752847,
          0.9150616846324662,
          1.096820352711542
        ],
        [
          -0.05330933484900127,
          0.15925329442738337,
          -0.3234651999399074,
          -0.5231366490621415,
          0.1983049735899456,
          0.47995658556491955,
          -0.25286124574520064,
          0.4639823236687064,
          0.19879154275669011,
          -0.4568465485395126,
          0.21009913590093707,
          -0.3989027333391419,
          -0.0599874757191638
        ],
        [
          -0.11030791671780642,
          0.6591299330947539,
          0.16525498830651456,
          -0.5318468362992342,
          -0.3705180055410797,
          0.5920038033397298,
          0.7398460419863848,
          0.26151954481937895,
          -0.02197088353375135,
          -0.33898364346101834,
          1.3915991648978396,
          -1.008242349928984,
          -0.9646551092635292
        ],
        [
          -0.2211823715966068,
          -0.1598036397581496,
          -0.44713788592342285,
          -0.46480316210730416,
          -0.10918256943822151,
          0.22455053526828178,
          0.6946834332048927,
          0.5758722426860347,
          -0.44415697857734987,
          -0.35746304409704033,
          0.05031751077243204,
          0.9577767187811326,
          0.8761361280635129
        ],
        [
          -0.3427669061722851,
          0.3948910031215213,
          -0.4727815878431966,
          -0.4351669211201741,
          0.5187649063415308,
          -0.25931097632972017,
          0.4867819412018589,
          0.056726728010457125,
          -0.34888775468549493,
          0.15133605234354053,
          -0.11235181334500277,
          0.37449295208819705,
          -0.03199628536716774
        ],
        [
          0.19993862662496795,
          0.301930294086662,
          0.17109765959665252,
          -0.513819575185352,
          -0.24897526882623458,
          0.25675393421049986,
          -0.05705164349222585,
          -0.1819934717766868,
          -0.04484544052244299,
          0.2470536992543443,
          -0.3635140200955868,
          -0.43372377509141075,
          -0.03194943819053563
        ],
        [
          0.3601643628360161,
          -0.4214772560781226,
          -0.08947555865201946,
          -0.02035146595516084,
          -0.28533978160853,
          -0.7047507740004991,
          0.0458014404656181,
          -0.22882519443863683,
          -0.040618896811429786,
          0.06086901634038962,
          0.6734222841993825,
          0.19390828789812523,
          -0.5130968071465837
        ]
      ]
    },
    {
      "activation": 2,
      "biases": [
        0.28732527865319063,
        -0.0037568972671467287,
        0.09583519754239482,
        0.0,
        0.0,
        -0.1749690822859547,
        -0.09302652598428007,
        0.3367545658005363,
        0.3156874850972061,
        -0.5108895867326111,
        0.0,
        -0.06548297631899694,
        -0.701396668152351,
        0.005286913774043885,
        0.31716664349275275,
        0.3721299090202486,
        0.23117920890803662,
        0.9142328585108428
      ],
      "cols": 18,
      "rows": 13,
      "weights": [
        [
          0.1774840792938736,
          -0.2064385943421343,
          0.24423919814389242,
          0.054181278413338765,
          -0.07382144867548802,
          -0.35824043076490997,
          -0.3847287922394883,
          -0.003919576174562924,
          -0.026272223559975202,
          -0.11984184927879532,
          -0.3527472470884204,
          0.4105908998667578,
          0.10902941485490994,
          -0.122101622798539,
          0.2508238257108714,
          0.33735161489773263,
          -0.2375098921774936,
          -0.34962145467678
        ],
        [
          -0.055659231074804215,
          -0.24177986315725136,
          0.7271600355226336,
          -0.05383798961889065,
          -0.08249480827871786,
          -0.0020799238662072366,
          0.12071742237958809,
          -0.024689129723261698,
          0.44093440859025046,
          -0.4484201262462444,
          0.026584268188949864,
          -0.12132926400988289,
          -0.47164840102257233,
          -0.2639293620781449,
          0.6703384916757252,
          -0.3348514094319859,
          0.258950808413093,
          -0.619410282886766
        ],
        [
          -0.06545224601807481,
          -0.0743009039325675,
          -0.3903647646937163,
          -0.33568607298766956,
          0.2048769015054129,
          0.3563527941905347,
          -0.20092665744683288,
          0.40978708209048886,
          -0.24621680742435625,
          -0.3651238664627644,
          -0.17861113340401294,
          -0.03825310438539718,
          -0.3493983216927391,
          -0.19492616539897867,
          0.22475910154692885,
          -0.4306328418097394,
          0.2814355478126754,
          0.05006231438443158
        ],
        [
          -0.42311576457419087,
          0.31783383837653795,
          0.1823224535881651,
          -0.06801960225921046,
          0.3851171301415429,
          -0.32059531233000416,
          0.01543300280370948,
          0.35728666426335676,
          -0.3019344161428652,
          -0.0171054908207972,
          0.2424195958985486,
          0.274321078285318,
          -0.0005187747948966409,
          -0.32080651364515667,
          -0.024187981725274626,
          0.42492783275382545,
          -0.3538883777898969,
          -0.40200439548711114
        ],
        [
          -0.09475358296212982,
          0.06550982665812964,
          -0.33793225994993453,
          -0.2378406941225533,
          0.2465377064637244,
          0.15618001422543287,
          -0.18291546584938206,
          -0.2823938501791637,
          -0.32825814426902217,
          0.22965544675665797,
          -0.39058971641661466,
          -0.07093353000718934,
          0.07977892345344789,
          0.12605027096926077,
          -0.021606017499268937,
          -0.2457106764028459,
          0.20501975129186456,
          0.13130254195497743
        ],
        [
          -0.2666863833129895,
          0.28449077367375875,
          0.34455968624735556,
          -0.08148486570509955,
          0.19164472250038142,
          0.10073192682816723,
          0.02933398922291356,
          -0.2090165635656952,
          0.1832202621411197,
          -0.30211470531458434,
          0.16338723185814724,
          0.04700387445899707,
          -0.9545335687937352,
          -0.2197973190202008,
          0.7875675570345362,
          -0.3618374641284771,
          0.19426339060926096,
          0.17281244711472726
        ],
        [
          0.6117945889953265,
          0.22652626002170145,
          -0.6414419643680317,
          -0.418672066253656,
          -0.27767749513506873,
          0.1627311248416244,
          -0.12500174043964105,
          0.4176172504130765,
          -0.47459634537569734,
          -0.07021731307090147,
          -0.06467004998075042,
          0.11924443925956965,
          -0.8876171023064412,
          -0.017981269397114568,
          0.6776535655689124,
          0.09144544291824303,
          0.23584477491708883,
          0.8081425010524362
        ],
        [
          0.24618672764466112,
          -0.2713863628557108,
          0.4758348960759162,
          -0.19954457062348896,
          -0.02787229555348293,
          -0.19138463791202057,
          -0.040151763836692625,
          0.42203718604757745,
          0.40245621695164546,
          0.019489989021453498,
          -0.2544077182443831,
          -0.07647298714972313,
          -0.20263136855411046,
          -0.37850189238301174,
          0.27264518557904827,
          0.4358755858388695,
          0.009403386630745027,
          0.5748757134563222
        ],
        [
          0.3460794730123117,
          -0.058079965665505474,
          0.21542639315921833,
          0.3672162994135137,
          -0.3520802192282195,
          0.37905943155744815,
          -0.32093869495200544,
          -0.08426575950287271,
          0.03866467225831757,
          0.007855709224712034,
          0.3993534893153561,
          0.17671741763485888,
          0.11177670077121168,
          -0.027716313235252327,
          0.41055187825755507,
          -0.3111388452120039,
          0.1921426418660378,
          -0.11726840717145118
        ],
        [
          0.21094970796447496,
          -0.3600795880654043,
          0.2902453308132106,
          0.3071556842924918,
          -0.20115345708053836,
          -0.37869303168455765,
          -0.3357555729820102,
          -0.23227900772798682,
          0.09790329853173368,
          0.04850142051770978,
          0.18893462589276844,
          -0.39432368345817104,
          0.08146643821949623,
          0.1018477125804716,
          0.10536189001280691,
          0.03245957789180241,
          0.11841242788893007,
          -0.03131895607164042
        ],
        [
          0.7214455672536314,
          -0.028261174380427405,
          -0.03602361580672006,
          0.09384292223156915,
          -0.27685768037205516,
          0.3446350737867821,
          -0.37185209247500256,
          0.31901018689082594,
          0.11027102875847872,
          1.6203975700743958,
          -0.07237129262555736,
          -0.1352044023608861,
          0.8430751561822516,
          0.4699562973179152,
          -0.20675480674215407,
          0.04221969396618276,
          -0.39207123176890757,
          -0.20795822226391641
        ],
        [
          -0.09939019905282791,
          0.11588567113963734,
          0.004057733550921607,
          -0.4116694537361892,
          -0.32736861563401404,
          -0.31320419657252585,
          -0.33705775791277026,
          -0.21545359991399007,
          0.1344016750889713,
          -0.8284651857289506,
          -0.3464374006810851,
          -0.11804668458115157,
          1.0808283995961292,
          -0.38960833983501386,
          -0.5382875334331836,
          0.7847051677791077,
          -0.14024964876065837,
          -0.0865037645513896
        ],
        [
          -0.5631913336311458,
          -0.37010265659500613,
          0.6115518046313058,
          -0.4109164667260241,
          -0.1778615897421305,
          -0.3713684649720862,
          0.26008363500027887,
          -0.1932882359692348,
          0.4472038081281393,
          -0.7816551710408398,
          -0.3896326692285195,
          0.18389554200916874,
          0.8512102656883642,
          0.0800148787888343,
          -0.46796403060834935,
          0.7793621338006375,
          0.3125146512991666,
          0.5505384502522103
        ]
      ]
    },
    {
      "activation": 1,
      "biases": [
        -0.42413272139024694,
        -0.16798508973463874,
        0.24153460478928915,
        0.09835082255284694,
        -0.34696331907482425,
        0.26240704972943035,
        -0.5782499540881239,
        0.2903480244201288,
        -0.17478091244894844,
        -0.24903391268261968,
        0.0369951084317146,
        -0.06659186468941328,
        -0.4528536876594663,
        -0.04938642499352163,
        0.12771883937228473,
        -0.288820537163201,
        0.4416115617532297,
        -0.4636450164393563,
        -0.22205760244485576,
        0.2350234617347089,
        -0.07040738969127795,
        0.16373807158436698,
        0.35524266922382425,
        -0.07944622124064603,
        0.3456550255818871,
        -0.46675948278935553
      ],
      "cols": 26,
      "rows": 18,
      "weights": [
        [
          -0.00414830656384519,
          0.28834738845794466,
          -0.04705978550941059,
          -0.27713522428575393,
          -0.22799651292139525,
          0.2616304591543725,
          -0.12069327655752404,
          -0.05230908772657922,
          -0.12296700071498134,
          -0.1275544455186407,
          0.13701829563442505,
          -0.10756952862064847,
          -0.5019537009631105,
          -0.3466477849615267,
          -0.39166647656738635,
          0.5029115446657519,
          0.41552542342821763,
          -0.2253071740120542,
          0.007799614641972116,
          0.11931448244389486,
          0.29481221250472656,
          0.04326643345689104,
          0.12889709905522673,
          0.6966432704677593,
          0.18444200099129657,
          -0.19047025268357654
        ],
        [
          0.03260691180862582,
          -0.14940234753253026,
          -0.09118820840876428,
          -0.0535390060795193,
          -0.3594958070248555,
          -0.18090424238162486,
          -0.20766864896941378,
          -0.361984757113611,
          0.16236300167569728,
          -0.0009483050279003476,
          -0.31117793307930913,
          0.14550110656810622,
          0.16128977051275195,
          0.10030841446318867,
          0.022629917776132838,
          0.014427801354988699,
          -0.34383517327882196,
          0.203802547512703,
          0.22298444979546475,
          -0.19420617936143603,
          -0.02341482466905718,
          0.11792579858379428,
          -0.20285315702592902,
          0.3169319049464551,
          0.2572489288943729,
          -0.22091112314137745
        ],
        [
          -0.6585984382164073,
          0.23045172820044738,
          -0.6727964257887084,
          0.5351072774690867,
          -0.11735551530435633,
          0.17122470924791391,
          -0.7358535707436067,
          -0.24080329559061683,
          -0.1984072939392271,
          -0.34488591677040464,
          0.11029508262644792,
          0.0971469511235259,
          -0.30969884740385456,
          -0.1373325678940641,
          0.45482776514637613,
          -0.3377209352801935,
          0.36109494401061737,
          -0.21429843557682432,
          0.022027350793005225,
          -0.12123768629777987,
          -0.29689398223192615,
          -0.23628861160125714,
          0.1401500531922153,
          -0.6120036589507576,
          0.011759181230337723,
          0.05796105317089341
        ],
        [
          -0.11867307694443904,
          -0.06750185980163605,
          -0.10668216976112102,
          0.13069906056905758,
          -0.3595468140452295,
          0.04967439642003051,
          0.008700805462539233,
          0.30383855489698475,
          -0.34409333708696915,
          -0.20010975652807697,
          -0.1283841753630731,
          0.023709802569083095,
          -0.14293761550304976,
          -0.10734871981730801,
          0.056077712001112626,
          0.18907843446815226,
          0.23858715444083942,
          -0.1313498948030418,
          0.12541018617540348,
          -0.003682321829434536,
          -0.2497111667328759,
          -0.3377315986030572,
          0.22803345863051086,
          0.13979433447575923,
          -0.1974823992869575,
          -0.17254371361956422
        ],
        [
          0.28229860587922095,
          -0.09257682056621776,
          0.1896134117585288,
          0.21454594893763315,
          -0.0958285007695498,
          0.3172717915762768,
          0.0017461254494269595,
          0.28718036698347466,
          -0.3384702116382742,
          0.10722155189756562,
          0.2871845224921443,
          -0.32577899445893244,
          0.14721717485908145,
          0.06514080556338597,
          0.1096506649281834,
          -0.13486599817721578,
          0.35207752640349643,
          -0.07488273137013725,
          -0.04969248008773446,
          0.1493284662776912,
          0.2780801338418962,
          0.23222028132608769,
          0.2278590524509557,
          0.199182702541038,
          -0.04772204916704905,
          0.33951565102209785
        ],
        [
          0.15028963042052135,
          0.18058795510603312,
          -0.03472383971452844,
          0.281404369920013,
          0.17772354805157806,
          0.049253454328594556,
          -0.20107110673550915,
          0.20405538564518907,
          -0.3599291156460262,
          0.027838467789915337,
          0.2950351701092081,
          0.22552920364050583,
          0.1326915009501394,
          0.2918298003923009,
          0.24477405295975802,
          -0.12703278913442007,
          0.12046639252459482,
          -0.07177543816941505,
          0.1106948067414399,
          0.17790957913345,
          0.1567040423337677,
          -0.3024749819941557,
          0.2423819945551893,
          -0.18431141332673243,
          -0.010979191384465539,
          0.2010989883768365
        ],
        [
          0.01653488072259316,
          0.27938137702756777,
          0.3029679689461582,
          0.04687420576751273,
          -0.3428541013503997,
          -0.2952344044769547,
          0.2615339405318589,
          0.20591838373964988,
          -0.1288140541762334,
          0.20026179425815155,
          -0.25870102492846614,
          0.35473240100682896,
          -0.015528729297276984,
          -0.3278316451896555,
          0.10096036354149042,
          0.19624859787556428,
          -0.22767258982654223,
          -0.015830365643029375,
          0.2907455075692746,
          -0.32090391436961874,
          0.08994900131605463,
          0.15699651883693905,
          -0.27057837603067725,
          -0.3035707439487412,
          -0.29444055785740025,
          -0.13291082273534474
        ],
        [
          -0.4954062317748338,
          0.11346030447133444,
          0.236025142085564,
          -0.27139692897186635,
          -0.055684202514604944,
          -0.04216010362684525,
          -0.39135552831281933,
          0.3599399315716226,
          0.12935990410989712,
          -0.418984673462247,
          0.10331914915693718,
          -0.03598838371086001,
          -0.04533202972816255,
          -0.019203675293403662,
          -0.4714441086611174,
          -0.23426574493426747,
          -0.12212801021571537,
          -0.5605857992980101,
          -0.09579369827878258,
          0.18868941162442965,
          -0.028355792443912314,
          0.09191148397396541,
          -0.15447957151176867,
          0.5437754759979515,
          -0.036547380031888545,
          -0.13265392786394756
        ],
        [
          -0.24422463322039856,
          0.36545162679313553,
          -0.36856402176224773,
          0.23707253487357738,
          -0.4580689539927891,
          -0.22394422933274796,
          -0.2969394903907538,
          0.4680645569585174,
          -0.11867292446761624,
          0.2689015583746893,
          0.13463123143852446,
          0.18641477406785636,
          -0.5386721073095684,
          -0.21827158653853504,
          0.30337717894948835,
          -0.5451486543938727,
          0.6446084846553611,
          -0.42023878102052653,
          -0.08277609696897065,
          0.35816134794739063,
          0.2763403811994382,
          0.07183853464613559,
          0.09643308732589753,
          -0.312163776066846,
          0.434446580127549,
          -0.39934953776586446
        ],
        [
          -0.21341873767289785,
          -0.06378890732229367,
          1.4165396766921854,
          0.2790453063281087,
          -0.028343383518947746,
          -0.006741082684096129,
          0.13237816773179997,
          -0.06059646964209237,
          -0.007926002092025273,
          0.046379468013655216,
          -0.10710756417059324,
          0.047920685092309845,
          0.34546657175862894,
          0.158132664027007,
          1.0233310040648167,
          -0.5694871487108923,
          -0.19500384608860294,
          -0.10904495381335906,
          -0.060721707654243465,
          -0.09949255618207119,
          -0.3099427554584951,
          0.004105867532468515,
          -0.05353950813841947,
          -1.1485966118497988,
          -0.055647776804851536,
          0.12380216076373905
        ],
        [
          -0.049488323313709684,
          0.04510750477298712,
          0.29816064022031086,
          -0.21253712212106815,
          -0.11553237389389169,
          -0.2837937120204763,
          -0.3179539621905847,
          0.1809298987903348,
          -0.03290441180750049,
          0.3289447787882821,
          -0.052563530416431796,
          0.3099047477440232,
          -0.29504907697358534,
          -0.2011819138757778,
          -0.3069496459502647,
          -0.29860089887585,
          -0.3629334934260972,
          0.30242897113948464,
          0.23411409447532228,
          -0.333294739676486,
          0.1888590904672094,
          -0.36021890351862595,
          -0.02102178824523656,
          -0.08423684879257395,
          -0.19002002878052796,
          -0.024455062079558623
        ],
        [
          -0.14568565806907707,
          -0.3592171714980325,
          0.19128149137772776,
          0.25284367193763074,
          -0.10319898190763906,
          -0.1838950872825615,
          0.28578138428706484,
          0.25765492030923887,
          0.16102260693559564,
          -0.17864446281242308,
          -0.11956425780118847,
          0.3153571770058549,
          -0.27336379887207096,
          -0.1518461911898032,
          -0.05845814789337555,
          -0.18872786466158673,
          -0.14646571949673373,
          0.2282439442695807,
          -0.2202627728568003,
          0.21813617714546277,
          -0.15390451989764486,
          -0.3190885170893009,
          -0.2933049536108202,
          -0.10877623160962639,
          -0.17881929696606483,
          0.35565013201275325
        ],
        [
          -0.0955763272297602,
          -0.08314217974222653,
          -2.3747160751637946,
          -0.17802265811719198,
          0.11007700218379639,
          -0.1103920797698745,
          0.20003829450756958,
          -0.11688714768759921,
          0.0379448999158237,
          0.09918043772752246,
          -0.014088410444839503,
          0.008085980969342625,
          0.20476979089849667,
          0.03735559823438001,
          -0.3436199601146552,
          0.05368343759727774,
          -0.11360504362058639,
          0.08738973282901903,
          -0.07896678321186748,
          -0.10153112820092594,
          -0.08603152931123281,
          0.05463840319346844,
          0.10242280981502083,
          0.022293470640765447,
          -0.0220282291523364,
          -0.03012577773484687
        ],
        [
          -0.2683966495526799,
          -0.18900495393557634,
          -0.3332569757965571,
          0.35149798628616025,
          0.3084090994722816,
          -0.2109402618921618,
          -0.27198897261630944,
          -0.013331040464787438,
          0.3492029629902759,
          0.14114562308903916,
          -0.016125845664358013,
          -0.2591824381573911,
          0.3243957339238883,
          0.24376459407970957,
          0.21459604866855375,
          -0.3562375818831083,
          -0.15039425146391508,
          -0.0066914245368923046,
          0.31086652362860157,
          -0.038349129576849154,
          0.18949419549510177,
          0.10659847463361243,
          0.15027328701327639,
          0.2906698045187716,
          0.029927296156539253,
          -0.15679119855876966
        ],
        [
          -0.14860604281281853,
          -0.15612165061866987,
          -1.3474700379650568,
          -0.32660570080896967,
          0.0031706763614670745,
          0.10438264693640982,
          -0.1550749910359094,
          0.06386404182340298,
          0.13320586645029883,
          -0.012211121221576906,
          -0.1289614425421709,
          -0.1739918246010648,
          0.10343047803936037,
          0.048364733209946435,
          0.09264331657801754,
          -0.6651279631145368,
          -0.0661902985050979,
          0.06293408164183285,
          0.07267121255552544,
          0.048583342894853436,
          -0.06232819341271872,
          0.09965772140182769,
          -0.15142664012159207,
          -0.3978399768087098,
          -0.094600726954686,
          0.11499842014453797
        ],
        [
          -0.28836669651835717,
          -0.03265516271217019,
          0.5793237759837552,
          1.3823140390898285,
          -0.01153856815275412,
          0.32627138430985486,
          -0.2648577489499676,
          0.20461059018187186,
          0.0953340787860368,
          -0.3278372377395846,
          -0.017716200359223586,
          -0.22300429021933355,
          -0.44627319440631363,
          0.06957701743467726,
          0.5854372043273002,
          -0.00015861246335049906,
          0.3471122872467747,
          -0.33132724387766316,
          0.14257102748840125,
          0.15817378487527042,
          0.15769466668631663,
          0.05488200612472252,
          -0.28404280671042786,
          0.1990822977351657,
          -0.12106248247294103,
          0.12881381339557363
        ],
        [
          -0.4425214261329442,
          -0.22135097519572294,
          -0.048879537356608216,
          -0.03537004396216467,
          0.06702590539754709,
          0.17752424171029688,
          0.08793279500103146,
          0.1313756348832172,
          0.09194165841132557,
          -0.3175107057906837,
          0.23261187819130394,
          -0.1997914146089724,
          0.14906743854482954,
          0.19650640394362934,
          0.4937287539896191,
          -0.15339829679318737,
          0.21743042524024392,
          -0.2626231018878091,
          -0.1629788735256075,
          0.02930062440911236,
          0.08250337211299112,
          0.3387697708005006,
          0.13561940449779597,
          -0.4932971261520271,
          0.11397503494768779,
          -0.3134776382798474
        ],
        [
          -0.6543146196045985,
          -0.3156430742970235,
          1.1621270340408345,
          0.2727341029315187,
          -0.34697650004198,
          -0.04679646485604715,
          -0.7894572633274757,
          -0.10071730504344113,
          -0.07718108964075461,
          0.18718686111788657,
          0.07032572714944997,
          -0.14130476475066173,
          -0.815736783446381,
          -0.02642910792175276,
          -0.13767439515193453,
          -0.06470152817414919,
          0.73522635591841,
          -0.8096230069686852,
          -0.1496523669835064,
          0.10641641902964331,
          -0.09300071356030702,
          0.25295142169171897,
          0.5086854260948603,
          0.2061396058105609,
          0.2774300619281243,
          -0.3246988252761092
        ]
      ]
    }
  ]
}
