{
  "layers": [
    {
      "activation": 2,
      "biases": [
        -1.1892541664156082,
        -0.009253930585350602,
        -0.06849616850725798,
        0.5583177620158329,
        0.19037829059995673,
        0.04368822101396341,
        0.0,
        -0.5034692386683027
      ],
      "cols": 8,
      "rows": 3,
      "weights": [
        [
          1.1631819722330465,
          -0.2647108735279534,
          0.3846531937085601,
          1.017400074184063,
          0.05648738834267213,
          0.8310335242277656,
          0.2757641716703072,
          0.6264729727621682
        ],
        [
          1.6942722166373183,
          0.01896510287832733,
          -0.5463672444429247,
          -0.21335235979897807,
          1.4879838317377234,
          -0.5405126972619357,
          -0.3647510548999647,
          0.9851723413463209
        ],
        [
          -0.4387922219737016,
          -0.05543224849469105,
          -0.08560373158319626,
          1.1914090184467327,
          -0.5169796510393171,
          0.05679202953240347,
          -0.41472893293636925,
          1.1256718823047003
        ]
      ]
    },
    {
      "activation": 2,
      "biases": [
        0.0,
        -0.2411985673364058,
        0.0,
        0.0,
        -0.40247835708493335,
        -0.4290816073763716,
        0.0,
        0.40677820764557093,
        -0.4870834271443351,
        0.0735625482436843,
        0.6527617783241138,
        0.9245732369497587,
        0.3098078719205181
      ],
      "cols": 13,
      "rows": 8,
      "weights": [
        [
          0.14385910983789318,
          -0.8568608179049758,
          0.29077186322347887,
          -0.05302074178446192,
          -0.00482213574217168,
          -1.6076943289698813,
          0.01736885457717981,
          0.7287478200756481,
          0.9969242743188963,
          0.02320786459710857,
          0.1575643144947037,
          -0.5616830532801901,
          0.6149675807083694
        ],
        [
          -0.33965777814600134,
          -0.473269446700965,
          0.398158070241395,
          0.4638958483958539,
          0.28756648288294095,
          0.20439355785632868,
          0.06906271029400128,
          0.4596940404476129,
          0.16143598516654517,
          0.13024659550600515,
          -0.06767704422819025,
          0.14188053668988573,
          0.10837832075454584
        ],
        [
          0.07184994954068122,
          -0.4201692849351356,
          -0.37881093998098503,
          0.15257491987119495,
          -0.12302125954621415,
          0.39377360086302193,
          -0.24586295629111063,
          0.1440817916637358,
          0.27055915859169993,
          -0.35120414470239086,
          -0.5091832070663158,
          -0.2730437059731867,
          -0.2704467570616385
        ],
        [
          -0.43871151392917124,
          0.5572163476879756,
          -0.5126859064660654,
          -0.3121991164504334,
          -0.1244500235959527,
          0.4689290639479054,
          -0.35990641861558564,
          1.1688324437055562,
          -0.13141402421300435,
          0.6936460837924195,
          -0.5224275030503681,
          0.36596946368772276,
          0.436461805470725
        ],
        [
          -0.22127272761685837,
          0.06994838960189739,
          -0.20959071859762687,
          -0.2578489577177708,
          0.2295062359982211,
          0.3619038930600573,
          -0.2907507101595993,
          -0.10342793511105386,
          0.3497521167702683,
          -1.1770183467305657,
          0.5873524532991432,
          0.45743699691683776,
          -0.9201136230172583
        ],
        [
          0.2767093967591405,
          -0.003201098560940149,
          -0.08803906456109119,
          0.24086648930054497,
          -0.2723284631089304,
          -0.27453428887681025,
          -0.04263852561708637,
          0.5836565089770337,
          0.29206048548618857,
          0.38298188726698357,
          -0.1582656547158457,
          -0.5726635030271744,
          -0.03582151000921226
        ],
        [
          0.3092220546901717,
          -0.0923020983948861,
          -0.11432285107821226,
          -0.23020681514659427,
          -0.3494922453519155,
          0.5002293738212983,
          -0.3655717210732817,
          -0.18407505930865384,
          0.24146136968977921,
          -0.12564147065128187,
          0.09845925787562965,
          0.4341147040425827,
          -0.27796277154904625
        ],
        [
          0.46748543253515573,
          0.254754877540314,
          -0.35035120500721834,
          -0.2122042445547469,
          0.5874220573280649,
          1.0960572185796007,
          -0.3624869958332019,
          0.3024568702352416,
          0.45471860236619965,
          -0.49508734322729686,
          -0.7452403383961834,
          -0.21207174840196186,
          -0.4059849381181575
        ]
      ]
    },
    {
      "activation": 2,
      "biases": [
        0.0,
        0.2897585508642079,
        0.0,
        -0.1490926005184649,
        0.0,
        0.05773317348726649,
        0.5408081450100325,
        0.0,
        0.0,
        -0.09896921571964583,
        0.556995806104138,
        0.0,
        0.43856299900864537,
        -0.15715906978057642,
        0.7038017261865276,
        0.0,
        0.0,
        0.0
      ],
      "cols": 18,
      "rows": 13,
      "weights": [
        [
          -0.36372703545004137,
          0.41303414189919596,
          -0.20892039745028287,
          0.1463705123506814,
          0.33565892609525966,
          0.28788202330042384,
          0.35348901289684626,
          0.048692923373154666,
          -0.05383837845010434,
          0.28167679338567486,
          0.041574443251268876,
          -0.31400481746799824,
          -0.20842349205522664,
          -0.1406735827571058,
          0.28332522549315176,
          -0.23908718865922296,
          -0.3236893893897688,
          -0.0033661538143225996
        ],
        [
          0.2646462013310704,
          -0.5385953451262537,
          0.2866963544212918,
          0.06216801695179545,
          -0.3882382184739791,
          -0.03890873545559256,
          0.22498797559094116,
          0.09106131345881396,
          -0.3422211591968551,
          0.6563164887996813,
          0.18192781164837887,
          0.05740820381600699,
          -0.41146990413441564,
          0.026902634064636697,
          -0.34874635484666366,
          0.0858660195620465,
          0.06710558832037455,
          -0.2624549891204085
        ],
        [
          0.10170717365602776,
          0.017805979471198895,
          0.2680176170683249,
          0.3212583912384263,
          0.09029209796949873,
          -0.38212015886311196,
          -0.204367733791532,
          0.3514971694864566,
          0.08212274597445357,
          -0.2616772947342156,
          0.0585503432661117,
          -0.3716295349185482,
          -0.4228098039859882,
          0.07541440206677516,
          0.04966452161680766,
          0.14257896919885404,
          -0.1659858437143375,
          -0.2290765344412347
        ],
        [
          -0.21959928207811621,
          0.10498232887938164,
          -0.42728338863570325,
          0.4295949180893312,
          -0.25834989764039207,
          -0.029754767176168647,
          0.2535204259010131,
          0.08054603868059074,
          -0.2989492183785823,
          -0.3566073376186011,
          0.34677171030161447,
          0.30962384348133876,
          -0.23177011780921972,
          -0.4211009383300058,
          -0.2970581178988247,
          0.4041701062702255,
          0.3839350893977087,
          0.277337646820812
        ],
        [
          0.30275120056272103,
          0.3444792488621898,
          0.2506040254487404,
          -0.0101307500899602,
          0.13434614020087168,
          -0.31500393709481916,
          -0.31219388960460176,
          -0.4021880024876352,
          -0.3093526572690811,
          0.2270236699673347,
          -0.1833455500980142,
          0.2217079731606417,
          -0.034613246435951324,
          0.44851455896293924,
          -0.23120073816327522,
          0.19260829459583034,
          -0.2626018923391019,
          -0.4046621813900671
        ],
        [
          -0.022169153264761054,
          -0.9189578764240841,
          -0.09658192632982751,
          -0.7300456637310285,
          0.17659548729548782,
          -0.014328537202139608,
          -0.08347503582227382,
          -0.31493224546911686,
          -0.06329475438750935,
          0.906187519193464,
          0.8291378762669771,
          -0.057287781682850564,
          -0.7467033656471791,
          -0.9775868016586928,
          -0.2811642814327882,
          0.07919029076740856,
          -0.05843086063766881,
          0.3359120675072181
        ],
        [
          -0.4065809966442812,
          0.10362415374163668,
          0.13112746096997124,
          -0.22065566273490958,
          0.19604117311658392,
          -0.1647245244242692,
          0.33072662427434996,
          0.3080142113205918,
          -0.01676462597309342,
          0.0940331930370038,
          -0.26692464530471016,
          -0.24408374350658804,
          -0.4395976195003031,
          0.11561936846714421,
          -0.08658824670441419,
          -0.3112932360086269,
          -0.0983925543179803,
          0.34677873179846347
        ],
        [
          -0.23783906545651054,
          0.5182689476331075,
          -0.24690224863300786,
          0.582659191525403,
          -0.2966779593829868,
          -0.369869134474284,
          0.7587722485182049,
          -0.43489904866994056,
          -0.2006078887830335,
          0.36622495835694063,
          0.5576052740542398,
          -0.30237573793154127,
          0.44938941053564635,
          1.1182612739273077,
          -0.2852868508002454,
          -0.12294209519288445,
          -0.3840856715578859,
          -0.03279407188961965
        ],
        [
          -0.05411187552436983,
          -0.020710757753484216,
          -0.15932613075037771,
          0.5733975430770003,
          0.028741606194558903,
          0.3202150644936135,
          -0.2370768430101676,
          -0.16280410140010496,
          0.09368179450998096,
          -0.5528833004835428,
          -0.6450190310035898,
          0.17339076460582384,
          0.5067165626441266,
          0.7233200487210689,
          -0.45365767710270294,
          -0.3232374859836788,
          0.37141559662498924,
          -0.36340222863492827
        ],
        [
          0.34040965439226667,
          0.6378094225118316,
          -0.31125346173036245,
          0.316490203645216,
          0.004578431613911258,
          -0.3878265695465566,
          -0.6280071216586387,
          0.18663406688776815,
          0.39978769004344766,
          -0.3368081281163003,
          -0.45400848717770786,
          0.007111025748137559,
          -0.1755907868467222,
          0.8230371404146976,
          -0.44455692294242394,
          -0.2566980766783643,
          -0.38575398281481266,
          -0.43550448796035923
        ],
        [
          0.2678101577926614,
          -0.477889203906813,
          -0.33433849052997583,
          -0.7160391748601153,
          0.3999060938598929,
          0.017929684444170126,
          -0.30184942337533655,
          -0.023028124027533816,
          -0.4323979482251172,
          -0.40007520203067,
          0.3338305860041336,
          -0.14903610847555115,
          0.2907247310376255,
          0.4213170156388921,
          0.8545924908348225,
          -0.25974503509789804,
          -0.3915283045701039,
          0.22017002606996003
        ],
        [
          -0.3945206742011572,
          0.35418025725407726,
          -0.29615117913111494,
          0.29472489760588233,
          -0.2021503854857249,
          0.42659854688761256,
          0.8431034303979348,
          0.11470312561176171,
          -0.36117805140410614,
          0.03519749155174281,
          0.5759125377345835,
          0.1761436461679484,
          -0.032795709862621626,
          -0.5439164752422873,
          0.7164373918515914,
          -0.436779164770342,
          0.22642455847148277,
          -0.3889665210528454
        ],
        [
          0.08698150666060009,
          0.6804557604402358,
          0.08351039812379972,
          0.44489716707565413,
          -0.31446227390827125,
          0.23218901416970647,
          0.068396425003298,
          -0.007541913830957303,
          -0.008830754913920756,
          -0.5643660979132976,
          -0.31766509089697315,
          -0.35899113641343317,
          0.4414947946978795,
          0.6872355162552946,
          0.18588189693945847,
          -0.08613855623550584,
          0.024919426093126102,
          0.16806831675625647
        ]
      ]
    },
    {
      "activation": 1,
      "biases": [
        -0.4300952919867342,
        -0.1430677018695207,
        -0.1979792143090305,
        -0.3525222468867158,
        -0.2973477562351619,
        0.28961183255496603,
        -0.5443608304282168,
        0.24284310406257187,
        -0.27569456310796103,
        -0.24099128371378062,
        0.2579486778140407,
        -0.2931619104092081,
        -0.39462181895615644,
        -0.4217711372752177,
        -0.0376975680374122,
        -0.361835300235489,
        0.42325653637497973,
        -0.4346686489571726,
        -0.07299349018109039,
        0.306388837196804,
        0.2846195470152714,
        0.3440960991808228,
        0.2639536743536027,
        0.22858192780900252,
        0.1877376627190264,
        -0.39214956714893734
      ],
      "cols": 26,
      "rows": 18,
      "weights": [
        [
          0.2524532432512388,
          0.20788151450808745,
          -0.2036570762567098,
          0.28368405102524175,
          -0.16878794576234404,
          0.24609003040949626,
          -0.22183059071470548,
          0.16322240177657701,
          0.11667692059467924,
          -0.0043143677166397,
          -0.07054775342414159,
          0.27251756574096886,
          0.3087295641832823,
          0.15736971224491192,
          0.12117067281295861,
          0.32818360157828935,
          -0.2309802707295766,
          0.12673786242555546,
          -0.1558375617884334,
          -0.2996847069863748,
          0.3510712071977056,
          0.2822744425059586,
          6.439937914255235e-05,
          -0.3544962006230035,
          0.2480762799825668,
          0.031704129084447225
        ],
        [
          -0.3621752763026623,
          -0.4730615937128565,
          1.1146840556949351,
          0.17522900794073049,
          -0.15598137619265404,
          0.33648117751069756,
          -0.5780991299406285,
          0.46221757687644516,
          0.07671638958566017,
          -0.33500495039587086,
          0.13014979589771108,
          -0.30780326108786393,
          -0.5350627698497791,
          0.20669109148758613,
          0.6315775136177783,
          -0.16242560485208662,
          0.07480141998962749,
          -0.25300636407606547,
          -0.07679858238145015,
          0.1444101793374801,
          0.047609537628991346,
          0.21048848270763262,
          0.33504711956258926,
          0.10817450509264441,
          0.24558288865170635,
          -0.018214613991398246
        ],
        [
          -0.1242936839134528,
          -0.098750555900388,
          -0.035371374255203133,
          -0.15290254558375316,
          0.142724459540466,
          -0.11223867500825896,
          -0.0059924830374809175,
          -0.10420870872103057,
          0.2173685232612804,
          -0.322976997864801,
          0.2056849362865748,
          0.27357735182674264,
          -0.19154546913772208,
          0.3012600234211005,
          -0.35961255451566204,
          -0.3484677433576308,
          -0.20197889662401544,
          -0.09656675819804952,
          0.16686219782302944,
          -0.2982841574966263,
          0.3462336052943291,
          0.13120212060895045,
          0.031572859994392445,
          0.007212240215050982,
          0.19744484976257803,
          -0.2049028711369513
        ],
        [
          0.21405158896059936,
          -0.319251972429889,
          0.8590341980546814,
          0.998677733280739,
          -0.006182081665511806,
          -0.08678228579034136,
          -0.4030915285357154,
          -0.2589061600431489,
          -0.25710104176262,
          0.02857814454006843,
          0.010803649773782316,
          -0.10602140411961898,
          -0.0419838373440788,
          -0.06489720806279979,
          0.5503794129732064,
          -0.20866117842895507,
          -0.19354288947660633,
          0.22591474303227863,
          0.27500007575129254,
          -0.018333023131376348,
          -0.06583278525625985,
          -0.0644786717560038,
          0.3090870740182447,
          0.16042130193480433,
          0.07278403717623684,
          -0.026915719050295106
        ],
        [
          0.10365330364749095,
          0.35551457090711036,
          -0.04973901573195412,
          -0.33587795697589284,
          0.2562145721922286,
          0.08866473088497363,
          0.19659397952795976,
          -0.1578125928981418,
          0.2701402020855509,
          0.25919853556366357,
          0.2627253250228647,
          0.18232166025450727,
          0.1751430556545073,
          -0.09478526552832842,
          0.20457881712172302,
          -0.055346741071179754,
          -0.11361032956070662,
          -0.15904993369296433,
          -0.2609554669520258,
          0.2766340880149875,
          -0.053231640121035304,
          0.30081154763664936,
          -0.146876514285289,
          0.20743381149761464,
          0.2290368727976745,
          -0.23699267685693473
        ],
        [
          -0.13700299580250805,
          0.2504155619555915,
          0.05730497226101368,
          0.34498873182720147,
          -0.2613302425166197,
          -0.22428173811896812,
          -0.12092190922346858,
          -0.23250956366508146,
          -0.30050246935388636,
          -0.33885773909453376,
          -0.217606199569228,
          0.0625003271907055,
          -0.2314356047449923,
          0.013963069332966545,
          -0.32909550131082577,
          0.3350103989220335,
          -0.2956254351499041,
          -0.34789770205055875,
          0.34153532398401126,
          0.19193010340773614,
          -0.3118787945992187,
          -0.41464463994303447,
          -0.3291770119888057,
          -0.4235079458024953,
          0.1030438975504801,
          -0.10559055844935109
        ],
        [
          -0.8597692989175277,
          0.09220372763514145,
          -0.4202695092027703,
          0.37113617628315493,
          -0.5373402433794482,
          -0.066308990185035,
          -0.5864701164553477,
          -0.14211832708179062,
          -0.034893704867412174,
          -0.015825906792195324,
          -0.024831026193181883,
          0.10951052050392769,
          -0.7272619688786541,
          -0.1475078545998612,
          0.20006713404941914,
          -0.5090577299245206,
          0.412410620669732,
          -0.716571057635829,
          -0.1306702466111221,
          0.4651652137531639,
          0.25454899912764267,
          0.015326679312541377,
          -0.23225709040418616,
          0.6971976498317284,
          0.4086393625959586,
          -0.26331265307023494
        ],
        [
          -0.21105322859664274,
          0.30684101016162985,
          -0.22632908894139683,
          -0.3428122019836553,
          -0.18989027084706456,
          0.3523977306492926,
          0.2746383275098423,
          -0.22799248510180176,
          -0.025904909871901666,
          -0.17366288533928975,
          0.2656355240744282,
          0.24894591001913086,
          -0.07398155482200737,
          -0.05255385234232169,
          0.040081922762083735,
          0.3248575390422513,
          -0.08789369160706648,
          -0.20046013610170427,
          -0.06916001162274579,
          -0.24055447947732422,
          0.32692135386888665,
          0.3324227386991978,
          -0.13582879992500596,
          0.042834906501952624,
          0.304294742257278,
          -0.1015660844650255
        ],
        [
          0.0789740186359506,
          -0.2104312655699173,
          0.352622369200924,
          -0.2243519606462322,
          -0.21578699643380808,
          0.3246620430457509,
          -0.08454126705778214,
          -0.27776590131277135,
          0.36005784978664995,
          -0.006679795504815411,
          0.007875298515918746,
          0.15413130401336414,
          0.308432961699753,
          0.03194295029121622,
          0.10023722343233883,
          -0.21169817812410982,
          -0.13138308797317827,
          0.1267836249518831,
          0.10372546532973936,
          -0.18220685018405944,
          -0.2369628430353611,
          -0.09380623449525144,
          -0.01984863687027138,
          -0.1589486507782314,
          -0.16971707320479712,
          -0.23456768425579408
        ],
        [
          0.09993302671237714,
          -0.07047338750874084,
          -1.304853256997962,
          0.6230525901241425,
          0.12271734361793384,
          -0.0006009205278652162,
          0.06553847433978392,
          -0.030939661260794282,
          -0.015625085874869386,
          0.03989979355106188,
          -0.0009284314198295369,
          -0.14754404608600852,
          -0.04067968435611037,
          0.054505223952444344,
          -0.22518445009915547,
          0.623637371815401,
          0.10989324489372582,
          0.11713276617263146,
          0.3676572648668648,
          -0.20223837650601953,
          0.11400598532736174,
          -0.0019319364417291185,
          0.07567527677526975,
          -0.12245628578219356,
          -0.02377558351554758,
          0.21171110800736925
        ],
        [
          -0.40167244346143377,
          0.07172875977306262,
          -1.4755563368170121,
          0.19926673654275948,
          -0.049042286597677426,
          0.2994082369158076,
          -0.6518519372602813,
          0.45287826430012257,
          0.07696403803869553,
          -0.31612850366525747,
          0.14484696738073513,
          -0.18568281999938493,
          -0.2634309355647839,
          -0.005436241331363004,
          -0.10796535879021071,
          0.087601763439273,
          0.7570612258830727,
          -0.6301840972454896,
          -0.2963760077516734,
          0.018392244984354305,
          -0.19539292629277985,
          0.2351171702526012,
          0.3764115436935711,
          0.06428060779128451,
          -0.0037489679287848942,
          -0.20521433792055008
        ],
        [
          0.08927456304541548,
          -0.15505426405227737,
          -0.012452306039152518,
          -0.18553347880197044,
          0.14894791791059225,
          0.11552483324313524,
          -0.29997817056999276,
          -0.31988802080332496,
          0.10903882465592141,
          0.2539243985578694,
          -0.20660899960048695,
          0.2470836557623535,
          0.05612514629170766,
          0.020935339014186413,
          0.02118713952222095,
          0.257089071702206,
          -0.018041211391543025,
          0.2345500765645859,
          -0.29470898316949307,
          0.302845910385866,
          0.08343287462368376,
          0.033766919736223866,
          -0.007555854319295731,
          0.18579487656440657,
          -0.041860437139569544,
          0.12951553056787113
        ],
        [
          -0.5267207140768536,
          0.7706914594099581,
          0.320177013221944,
          -0.21305950138956156,
          -0.2541587720048046,
          0.2418391689757551,
          0.046128425010711106,
          0.38076361163762595,
          0.09793650675998598,
          -0.36874169990985106,
          0.1382674502191962,
          -0.28537110374342795,
          -0.026624842276415064,
          -0.07354648861521638,
          0.3693065465334979,
          -0.8158852714191376,
          0.5287244178530697,
          -0.5092272202869905,
          0.10995341221323007,
          -0.13963406855722293,
          -0.008360075437577778,
          0.3016046089176256,
          0.30930815385779703,
          -0.11097202745615399,
          0.24001251264909293,
          0.09885463685131496
        ],
        [
          -0.06725181995213511,
          0.03259101037568008,
          1.3811462075639345,
          0.5780973777424103,
          0.1262175408803361,
          -0.12396654712429815,
          -0.5840099097542183,
          -0.14837640236648134,
          0.05415047281838194,
          0.24408104863081098,
          -0.07367239883158017,
          0.2093274815230533,
          -0.45107647735528966,
          0.10540195187932444,
          0.565592441838221,
          -0.39609770180534387,
          0.5281862024635026,
          -0.4778311831881361,
          -0.11835086798816526,
          0.004870982442086159,
          -0.17033834770026607,
          -0.09785236180725647,
          -0.3057430900943285,
          -1.0837653863181058,
          -0.2741167044546025,
          -0.15219585502273672
        ],
        [
          -0.5817623534396046,
          -0.3647141552806829,
          -0.461185233341441,
          -0.8542516617601067,
          -0.31267988861711205,
          0.08907174176091476,
          -0.1662345716151512,
          -0.04493486401793893,
          -0.07468592767701959,
          0.08375047293565185,
          0.0931784763876651,
          -0.1685864979205427,
          -0.3407107297145971,
          -0.0773964050664479,
          -0.3248580194460736,
          -0.5435738332698236,
          0.20942147906291878,
          -0.10821531908374461,
          0.11287337090369805,
          0.18905560402814264,
          -0.06220811900807903,
          0.17771827644347046,
          0.2378613481783098,
          -0.9617954608258067,
          0.08371626838147843,
          -0.3891150615580667
        ],
        [
          -0.13591305051607225,
          0.13820723108840302,
          -0.07072596432044032,
          0.2100202072470029,
          0.2699799658363281,
          -0.2865296806323613,
          0.34349413323406064,
          -0.25714019274716166,
          -0.20122610953150222,
          0.22590335788638924,
          -0.09471081510071905,
          -0.16222078627781877,
          0.05194421036612992,
          -0.23710392535759167,
          -0.09095296450241609,
          -0.1776384590734888,
          -0.10981321399672284,
          -0.24121920163244537,
          0.19015828447644423,
          -0.17883483012265242,
          0.1489891270201537,
          -0.30732060909993986,
          -0.05041376090657934,
          0.0030295922873084043,
          -0.29809030747086934,
          -0.2800990400798044
        ],
        [
          0.041249570830773,
          0.11249812278028243,
          -0.36602841916202983,
          0.2842108589907041,
          -0.09143765095539547,
          -0.3652152765990633,
          -0.1312126478058699,
          0.23321176478471373,
          -0.19159972977041625,
          -0.12239475195340642,
          -0.23169103501282529,
          0.27795320287866077,
          0.06148959811801211,
          0.20443846183295492,
          0.14984357120545438,
          -0.3547424173489674,
          0.0031281011945159705,
          -0.27595792316480255,
          0.2889983901614213,
          0.21721984388645418,
          -0.3592176377800529,
          0.27385031402967586,
          -0.18843863711112133,
          -0.04151969265084575,
          0.3122511598584952,
          -0.11358560767167174
        ],
        [
          -0.21592322475873973,
          0.07064812565552125,
          0.27307829081480733,
          -0.20267486918104707,
          0.12775676061711969,
          -0.09286462505067504,
          0.01618071247005076,
          0.11087497277121044,
          -0.14325423204161747,
          -0.22978181625150287,
          0.33736614357444905,
          0.2373981159746722,
          0.22570028891124905,
          0.26753181133848275,
          -0.031004187076032332,
          0.14983167282480025,
          0.13702161903396096,
          0.06256547042099303,
          -0.24047358342002967,
          0.1664767345859149,
          0.26679436692185876,
          -0.034802802447457,
          -0.19029401034352875,
          0.10727947005195985,
          -0.12356565310133977,
          0.11571695166364912
        ]
      ]
    }
  ]
}
