{
  "layers": [
    {
      "activation": 2,
      "biases": [
        0.004575124385245351,
        0.0,
        -0.0093824654648125,
        0.8066862071617085,
        0.5452621443235293,
        -0.011603274156236493,
        0.5461754851792086,
        0.6567767025965242
      ],
      "cols": 8,
      "rows": 3,
      "weights": [
        [
          0.43577551473993187,
          -0.38766610964368436,
          0.4280898945531514,
          0.43839733775640255,
          0.021367482320849972,
          -0.7140984714326124,
          0.4729831989315356,
          -0.020417750682725923
        ],
        [
          -0.043667175605465694,
          -0.025504263362876114,
          -0.44519747273641747,
          -0.6506073997078935,
          -0.5111035178598111,
          -0.4326388829759147,
          -0.8451280659926383,
          1.5244866317341301
        ],
        [
          0.1358582995125232,
          -0.2917657317804341,
          0.7953401895097798,
          -0.5991900083507256,
          0.6315688065018309,
          0.3910784097519582,
          0.1818280219224659,
          0.3332934427116291
        ]
      ]
    },
    {
      "activation": 2,
      "biases": [
        0.0,
        0.0,
        -0.17689755654200376,
        -0.035971169082828464,
        0.24716160442496457,
        0.3735271247431248,
        -0.01391150301047421,
        0.6313674295003717,
        0.016126985110416287,
        0.012785198757564521,
        0.49382434480404763,
        0.8176315820770937,
        -0.021395969128665527
      ],
      "cols": 13,
      "rows": 8,
      "weights": [
        [
          -0.4332565523375452,
          0.13790200591180046,
          -0.056155523796203574,
          -0.12316336584350225,
          0.32018347275443904,
          -0.45529475960423327,
          -0.020909341923553048,
          0.25581167299151636,
          -0.08683949300186306,
          -0.3090576389699108,
          -0.5693442514195041,
          -0.3625695566987685,
          0.57574016836633
        ],
        [
          -0.47760047503174957,
          0.02952349508695799,
          0.11668941058400373,
          -0.323957939984606,
          0.525776409258963,
          -0.416418899173585,
          0.29248464759447435,
          -0.22055424378015492,
          0.4047061825683276,
          0.030663204765252913,
          0.07841621411559703,
          0.35213613191950077,
          0.4679097502923963
        ],
        [
          0.42747822296431986,
          0.1645169370429582,
          -0.53385468846504,
          -0.03694806738046933,
          -0.10661673122694643,
          0.2448654314212776,
          0.320710867020283,
          -0.4876268012993932,
          -0.43614643211647747,
          0.09971866504728609,
          -0.24331482618692252,
          0.030324010783789577,
          0.42175553008746913
        ],
        [
          -0.42473421229262154,
          0.4858745388797203,
          0.4791731559698303,
          -0.4567756826957521,
          -0.12992323696072341,
          0.0796975190316348,
          0.06281512012107786,
          0.47561111503090236,
          0.42937891615604934,
          -0.5791307321829469,
          0.34929014368158945,
          0.5530080623852354,
          -0.4268532530829419
        ],
        [
          -0.49465700505882254,
          -0.34113292458077776,
          0.281183156999734,
          -0.39460390260981887,
          -0.26067847871919675,
          0.13922169097571102,
          -0.48317374602361796,
          0.3640734271089746,
          0.13971341847337812,
          0.23490275210990652,
          0.05673890997058248,
          0.5722226454992467,
          0.546564389317037
        ],
        [
          0.26242938806795657,
          -0.13290192380427407,
          0.15023498837507412,
          -0.1309141739956739,
          -0.13513791283355966,
          -0.27822463848575274,
          0.1733928516557738,
          -0.43029607184274055,
          0.05653834815853216,
          0.08743813704438061,
          -0.3817549006710089,
          -0.24715191449575752,
          0.1914981463661057
        ],
        [
          -0.22881126450718572,
          -0.4476959582161745,
          -0.07796307614573877,
          -0.2579833876497906,
          0.25076705280875355,
          -0.5387053938296112,
          -0.002924034485928012,
          0.5629198835571639,
          -0.14393297756720663,
          -0.015378314772560756,
          0.40057854163856405,
          0.5751396555615396,
          0.5883804161223679
        ],
        [
          -0.2761739363080309,
          -0.48748742067332357,
          0.043478270181393726,
          1.1840024955888087,
          0.8659313658350837,
          0.43625749226741317,
          0.007259533666576631,
          0.47069730514115554,
          -0.08882328544008716,
          0.5008997582759802,
          -0.1019714860239473,
          0.5455710359609275,
          0.03830716815591935
        ]
      ]
    },
    {
      "activation": 2,
      "biases": [
        -0.06436561162285517,
        0.2527977253344573,
        0.0521060828239055,
        -0.04120896106003577,
        0.08445577853025006,
        -0.04581902635085735,
        0.13490413734521262,
        0.10328651059221622,
        0.28742640086681964,
        0.025744542918556195,
        0.0,
        0.2296200593899983,
        0.790595698041312,
        -0.10608574611565864,
        -0.12787897149124264,
        -0.06667959033063492,
        0.2849907353312271,
        -0.0673214409117992
      ],
      "cols": 18,
      "rows": 13,
      "weights": [
        [
          0.044798643967349734,
          -0.33003982789107206,
          0.026502439090233743,
          -0.18473228440740658,
          -0.4330705024872262,
          -0.2953289576299039,
          0.3621143348414971,
          -0.28555677166957877,
          -0.30506976544392633,
          -0.00975386930595813,
          0.13073306893723788,
          -0.1987800825678345,
          0.29520511837101243,
          -0.02241958228195136,
          0.13670889581097673,
          0.24549916041712203,
          -0.4042389740553324,
          0.21675619618140626
        ],
        [
          -0.2487735904231437,
          -0.19890879758167151,
          0.2058525847303103,
          0.3105094268521139,
          -0.22632256300447515,
          -0.1755358730707927,
          -0.09294193516271151,
          0.40741319828322053,
          -0.23111243951642252,
          -0.27510106140824425,
          0.1636123782421716,
          0.017726698876328294,
          -0.1460651708604387,
          -0.21612803792157742,
          0.29270797056551356,
          0.3344551198174573,
          0.4096962213692361,
          0.30705209047926213
        ],
        [
          0.07703846641749391,
          -0.31636128130456825,
          0.08264001648504345,
          0.13886720865303315,
          -0.025544292218989125,
          0.0039049144305298277,
          -0.2496996667392165,
          0.16470837655234913,
          0.39483074985746186,
          0.16298409894466045,
          0.19983446580400938,
          -0.30911505307186216,
          0.06841259421358618,
          -0.32163161095631393,
          0.10873584206370891,
          -0.4186998237685756,
          -0.1611740599359747,
          0.09539327511332274
        ],
        [
          0.1455902693686333,
          0.6201921111307261,
          0.08332914405924859,
          0.2606574497299667,
          0.7506393750651357,
          0.10189943188297332,
          0.26930398499120284,
          -0.02297241198857585,
          -0.5609438730335583,
          0.1876724527233936,
          0.10563854895269544,
          0.14529090135488054,
          -0.34295432387910385,
          0.298138498691431,
          0.10087196317315197,
          0.17448122959032686,
          -0.419480314337561,
          0.02294785731460311
        ],
        [
          0.14838926635202915,
          0.575365898042252,
          0.3768673652899829,
          -0.2012409540437469,
          0.16658485652032945,
          -0.12143048979903541,
          0.370257903150589,
          -0.05614943574321028,
          -0.44255263090307656,
          0.22551560315714209,
          -0.1361764305927292,
          -0.023461317158924296,
          0.22852610689842415,
          0.31927614873251126,
          -0.3843626416127384,
          -0.30458772282366836,
          0.2538219577049919,
          0.24961866254405754
        ],
        [
          0.3676111688455416,
          0.22567940588616417,
          -0.16625226077330327,
          -0.2938845581950321,
          0.4921041013269523,
          -0.237423612982897,
          0.18666583599554318,
          0.07261631100832773,
          0.20840926713993504,
          0.28799012416230846,
          -0.14239194876014075,
          0.14535954210927857,
          0.4957410111182541,
          0.20034289881349815,
          0.27365203286891854,
          0.2523624125225586,
          -0.17937444058378502,
          -0.311925408336867
        ],
        [
          -0.21822297150966824,
          0.3488288382331227,
          0.051269030997518325,
          -0.2591065884331929,
          0.08906808992377807,
          -0.11220032501380581,
          -0.2952252165398899,
          -0.13524503772250826,
          0.39556334066040927,
          -0.009414976947959,
          0.09943433680057558,
          0.034175575076318694,
          0.1398178701081212,
          -0.23991063403466847,
          0.28347616903281325,
          0.3167167570253734,
          0.16925521149271508,
          0.14769024739582784
        ],
        [
          0.005307453044301322,
          0.4956051003077866,
          -0.06012741915531498,
          -0.2565171152211552,
          0.1298907021842958,
          0.34866539878001873,
          0.22740322798232976,
          0.32971538810977286,
          0.4970755296864524,
          -0.21469885552388807,
          0.29567005397353574,
          -0.024645883820983698,
          0.8408292388578643,
          -0.0467823939713004,
          -0.292663411870972,
          0.4374314168615068,
          0.1650917612329091,
          0.3945433381881206
        ],
        [
          -0.3231611622871602,
          -0.0668658775966344,
          0.07757101150470634,
          -0.06777705762457634,
          -0.3069101492499578,
          -0.39032375013024007,
          0.3683347856729663,
          0.329913090447002,
          0.2965707960568504,
          -0.0034650460067119147,
          -0.25083671040547434,
          0.26789533566100443,
          0.004619495811419887,
          0.18567562415600178,
          -0.3716655954285079,
          0.35135620150258984,
          -0.3127094757445217,
          -0.11869068107776772
        ],
        [
          0.1507566103119202,
          0.35977674214138344,
          -0.3990689362258418,
          0.3063210721551424,
          -0.014761138304537359,
          0.22294888315973752,
          0.01888132651346692,
          0.04663606126592897,
          -0.20245511781859277,
          -0.1507050657348391,
          -0.2946233809858118,
          -0.17129075278733522,
          -0.2724611999867159,
          0.4742263276015372,
          -0.31532269613525277,
          0.014470464978096204,
          -0.4701396366308334,
          -0.14808025886170226
        ],
        [
          -0.48481110227159163,
          0.22316597339313968,
          0.4487060492439169,
          -0.1709952278631923,
          -0.3537326457846725,
          0.044465561376243606,
          -0.3479394534040478,
          0.3796880879999037,
          0.482524721404289,
          -0.30901466816991285,
          0.2446158125185304,
          0.37765063402876936,
          0.07905988248427764,
          0.2002737023168169,
          0.4108762141706885,
          -0.315568229562883,
          0.4593889533987603,
          -0.32402469915465293
        ],
        [
          0.14544959579339628,
          0.39750137302457395,
          0.07983361089224598,
          0.12490244549955716,
          0.1876423331933213,
          -0.22834342207767847,
          0.42567363640628153,
          -0.03583766976119698,
          0.6273462941807993,
          -0.2680130854726009,
          -0.43384996976347373,
          0.06152920982908484,
          1.0432521853008896,
          0.08329602977905712,
          0.12557855756006908,
          0.18179408375383094,
          0.3847436449227771,
          -0.31269987280187655
        ],
        [
          -0.11374227283242781,
          -0.5312329465545141,
          -0.29605534252957516,
          0.029201946192942856,
          -0.5447128614318582,
          -0.008251389812334451,
          0.42318753499311695,
          -0.10558504406850171,
          -0.3253190901579013,
          0.2611494097556364,
          -0.1285887229747861,
          -0.4703002377481826,
          0.484829065315702,
          0.25502598733470166,
          0.2756592890310677,
          0.13845023115182006,
          -0.3199068413093948,
          -0.15116447709554323
        ]
      ]
    },
    {
      "activation": 1,
      "biases": [
        -0.2584879912197556,
        -0.04045205403081797,
        -0.30087903797223686,
        0.3033473379616856,
        -0.31195407450146473,
        0.3228149267434804,
        -0.35246584384216284,
        0.14663790300800086,
        -0.11922575077019303,
        -0.22290702171174312,
        0.14783415888235824,
        -0.17253243614099956,
        -0.12414031006935478,
        -0.32335789978409485,
        0.07867163967476018,
        -0.2718843412915702,
        0.2382762149530942,
        -0.3429665700473536,
        0.11938044928518221,
        0.12023500694839545,
        -0.16984948871576455,
        0.15551156543938252,
        0.27766862756528676,
        0.25380053355793,
        0.18728632486183977,
        -0.27276234728958765
      ],
      "cols": 26,
      "rows": 18,
      "weights": [
        [
          0.3443846334606446,
          0.20325268630862856,
          0.020627688376600752,
          0.019265120014126103,
          -0.3219268420355343,
          -0.2571934433512657,
          -0.3818426883696868,
          0.2533642614077546,
          0.16998957804850723,
          0.06511421141681797,
          0.06737950297858326,
          0.06493966259935474,
          -0.24481176338931832,
          0.4886472759075642,
          0.23580914666539815,
          0.2862308525816793,
          -0.3628565488065676,
          -0.16817928108159547,
          0.05296575065089899,
          -0.17586142501533836,
          0.19932505269032816,
          0.2787698695572993,
          -0.11533089974212828,
          0.26978547410588344,
          -0.24099449065668108,
          0.11172393516156806
        ],
        [
          -0.24154995257176556,
          0.023076628621129098,
          -0.017296171236919133,
          0.4699832457681462,
          -0.03459749611999622,
          0.02720332304645813,
          -0.18315181963582883,
          0.3166336171862134,
          -0.23834153323009635,
          -0.43182011629203737,
          0.2734298908806754,
          0.1701987917107923,
          -0.4655222736381726,
          0.18751342335570512,
          0.21375417484625264,
          -0.33002263785634334,
          -0.6679994447466818,
          -0.5582755126518446,
          -0.013816016298014495,
          0.10624283123178316,
          -0.3363099707880974,
          0.21427152062126098,
          0.21454005555797487,
          0.38952856493869753,
          0.13986826222964824,
          -0.03118950359789553
        ],
        [
          -0.2927851414680256,
          -0.21290683827826126,
          -0.1266966347831747,
          -0.0999229620400928,
          0.21485462628078297,
          -0.05326341329445684,
          -0.09590221586277686,
          0.29231318609964735,
          0.003582933180037284,
          -0.2484341958758853,
          0.15899602479725003,
          -0.016143009345576737,
          -0.03374159366624814,
          -0.1418698108379682,
          0.2176884165248827,
          0.1783292886486277,
          -0.03784930889797586,
          0.31575297390684604,
          0.17842695129037678,
          0.30493093690615697,
          -0.3145571728474338,
          -0.009331164210824642,
          -0.06349140389181025,
          -0.07243719510163013,
          0.07223988294595561,
          0.14410919707259465
        ],
        [
          -0.29796980446280436,
          0.3347419060143498,
          0.3138938213558151,
          -0.03899411254723791,
          0.08763011450673173,
          -0.05679928197497953,
          0.2698623025797066,
          0.21170958562689365,
          -0.2192715404490379,
          0.0978775521557505,
          0.20499847538066662,
          0.32756897107493155,
          0.12181208980022667,
          -0.022743573108426528,
          -0.3459708034480391,
          -0.24666154165298407,
          0.2355462353685878,
          0.3167616651267282,
          -0.1430975129072051,
          -0.35701689780054074,
          -0.29292644646115734,
          0.2810565946243904,
          0.07263887282055702,
          0.3702112734926404,
          0.012066306132178796,
          0.13704807917735315
        ],
        [
          -0.3210517329931506,
          -0.02232014410480341,
          -0.12302404419726183,
          0.38043783604420384,
          -0.1964849853298333,
          0.08327752762041567,
          0.18338854103295077,
          -0.17574760311283616,
          0.087618104914861,
          -0.36763677595398203,
          -0.2560055734136929,
          -0.38572480530784026,
          -0.4737860108283055,
          0.32643125027788794,
          -0.291039739462484,
          0.1420170087774678,
          -0.7988140078274352,
          0.00463659133450531,
          0.11022125159361501,
          0.010233372479592438,
          -0.5236934589494061,
          0.032252548251561465,
          -0.031714282130676605,
          0.0891500775221598,
          -0.028613760236654528,
          0.09789004251587365
        ],
        [
          -0.09941413231579521,
          0.04294808112880289,
          0.15120923808678519,
          -0.13942272706878756,
          -0.1649094708585021,
          0.1380473590523888,
          -0.11277068394340184,
          0.2629491274578807,
          -0.0688199736580414,
          0.03424119225873115,
          -0.09969593440495801,
          0.24678222810504405,
          0.3406841304801056,
          -0.08078807236940232,
          -0.17206384080168907,
          0.033062389912410346,
          0.11538368794387212,
          0.3206305782822084,
          -0.011250774452003849,
          -0.07767502634489099,
          -0.1083423086520698,
          0.1334451114886941,
          0.12780272423578345,
          -0.11137126258843244,
          -0.1564496801888241,
          0.08313033978759422
        ],
        [
          -0.29795212392449727,
          0.14428102866500336,
          -0.5353424294519403,
          0.1947231072905125,
          0.18263329804741033,
          0.16215406918153427,
          -0.36730383578000153,
          -0.33572133071807253,
          0.1289554011890656,
          -0.08068479918097007,
          -0.15551720991592854,
          -0.032128671475578165,
          -0.0918780471221418,
          0.1006086598038049,
          -0.2479161682339992,
          -0.3613817453786948,
          -0.17504428983228,
          -0.5287107425312682,
          0.12270695607031885,
          -0.10228060138896235,
          0.5225187403703278,
          -0.04728565334520168,
          -0.004324850105731904,
          -0.26711365066310044,
          0.28068614849083845,
          -0.10182047555723472
        ],
        [
          0.07169113491219115,
          0.14753471354059755,
          -0.25341253183992607,
          0.051304536248755875,
          0.07135507694338161,
          0.37217578540280816,
          -0.231160200843169,
          0.018664359214255268,
          -0.048536198315286945,
          -0.3349400551820286,
          0.1152028424950712,
          -0.16531703717303073,
          0.3982048448880696,
          0.0547216574790578,
          0.17479590969846082,
          -0.209469992473213,
          0.06875141041518339,
          0.08089643550219633,
          -0.08849872738186458,
          -0.19369660316775797,
          -0.15856685889294442,
          -0.20547288574867065,
          0.22313654107833716,
          -0.34290313167317393,
          0.12469165817496507,
          0.16426506194848262
        ],
        [
          -0.49518206232251816,
          -0.1058494228865556,
          -0.17594069667278636,
          0.0306138575964178,
          -0.3917922174723725,
          0.0632716058994008,
          0.142181220370782,
          0.0012416236541424573,
          0.05551913529601267,
          0.0497427128362913,
          -0.1120286364659429,
          0.06731453245572554,
          0.19903782266750983,
          -0.6675446791508568,
          -0.2703387784615365,
          -0.37479941300903025,
          0.7194818392891247,
          -0.018131354729381,
          0.004468255746190575,
          0.0035778572705706196,
          -0.3751102775422431,
          0.11921245878647407,
          -0.015296665150011423,
          0.4676310291543596,
          -0.015103175464137728,
          -0.2922400117404186
        ],
        [
          -0.22183509026988682,
          -0.27300072327496766,
          0.03867610602881367,
          -0.18271961445368154,
          0.2302725676359697,
          0.3019660491413983,
          -0.023228897492751612,
          0.17745505501516853,
          -0.0515272920501728,
          0.3313831207855566,
          -0.1995990104367598,
          -0.2643585948770675,
          -0.250799829786651,
          -0.11687662374476003,
          -0.002772658585585645,
          0.27998081363886335,
          -0.17697542366409313,
          -0.008169011328242425,
          0.13965200733814864,
          0.34722328230120025,
          -0.3148183160221277,
          -0.27509811120932826,
          -0.3155258529426861,
          -0.07468928633073109,
          0.026468686660196958,
          -0.3367135502569979
        ],
        [
          0.2902351865409311,
          -0.12777249638631438,
          -0.0773783597086478,
          -0.27985493188844734,
          0.3599661675654552,
          -0.1698777675470058,
          -0.22932659460074745,
          0.1245728891809296,
          -0.08634387086709491,
          0.014530268441732847,
          -0.36882335039407327,
          0.3376609745587515,
          -0.11971137392951649,
          -0.29582957318912373,
          0.03553067953016717,
          0.07899552733972524,
          0.12358771034739094,
          -0.31448201045118757,
          -0.2622399534938885,
          0.2525116934400543,
          -0.2700071408614501,
          0.07413788833909556,
          0.3331303499820754,
          0.025383345901820842,
          -0.36015249860701576,
          0.2832476490174078
        ],
        [
          -0.1426313763578786,
          0.3142312987623863,
          0.055516455910981706,
          0.3268175543358667,
          -0.25801382056516703,
          0.13215985968059799,
          0.15225565862519833,
          -0.08910192362409121,
          0.03424925102804503,
          -0.2656622778085708,
          -0.16135067849481757,
          -0.034577282676718696,
          -0.18950564574454135,
          -0.1460084954598392,
          -0.24092790942917527,
          -0.2633643268655159,
          0.3133907132330568,
          0.2599865476819405,
          0.19743803832798043,
          0.26296883084724576,
          -0.5514638646698935,
          0.16584457175956413,
          -0.015379368570299472,
          -0.24955575201585367,
          0.14539355311724483,
          -0.19100320916134098
        ],
        [
          -0.1901944058712419,
          -0.04237064235360542,
          -0.5875770224111428,
          0.5034013164510592,
          -0.2377157020758921,
          0.8272011210442586,
          -0.793762477932431,
          0.3128674903843345,
          -0.07133660730947843,
          -0.5400062855973893,
          -0.004739758249372302,
          -0.2349861368177321,
          0.0878739017050627,
          -0.37110543151214875,
          0.051124027801508674,
          -0.6416255776731841,
          0.5580552764715121,
          -0.40009484167823717,
          0.06410568346382223,
          0.30045363447232587,
          0.3061034583585123,
          0.28542512562384653,
          0.09562436500684719,
          0.2589433071194775,
          -0.012080972100614538,
          -0.4852726913349326
        ],
        [
          -0.059925166891161105,
          0.21110353618313563,
          -0.1521223049037686,
          0.26980976748263874,
          0.025432976905362583,
          0.017781359947638988,
          -0.11279757186920547,
          0.1088477531720093,
          0.29526618979419555,
          -0.3415871993583204,
          0.10666233551996628,
          0.18864652161086334,
          -0.1964812197638839,
          -0.010848583922382282,
          0.05164078152573071,
          0.20010837651273658,
          -0.35211805448331673,
          0.21222311468580302,
          0.008057891738147133,
          0.1086449400791441,
          0.1600076350981532,
          -0.1878807436868484,
          0.07719457187576573,
          -0.17411690066003618,
          0.009918600489139024,
          -0.1620289862795543
        ],
        [
          -0.02225737754435704,
          -0.2647317616923446,
          0.04026398578606871,
          0.30689105128829236,
          0.060495710157141995,
          0.17068353349963195,
          0.2953944422296682,
          0.10921624092140457,
          -0.06949093662170873,
          0.2401577019947766,
          -0.30968251330364877,
          0.172733360345052,
          -0.042550446588873636,
          -0.08453410750252822,
          -0.04106361979795179,
          0.007722976149130256,
          0.029293921277752658,
          0.17112691249520684,
          0.13546433813964354,
          0.36336931649590276,
          -0.23369630238038813,
          0.33011974096425795,
          -0.2559610635969196,
          -0.19125760475084488,
          0.056396630375054456,
          0.04577078939209956
        ],
        [
          0.2626857768058995,
          0.02615565751698466,
          0.020454585176543756,
          0.02656463842230027,
          -0.16862553206366207,
          0.15276454870878597,
          0.10107733669117568,
          -0.17348020374537984,
          -0.35884217199296004,
          0.027306744392238555,
          0.23804791695932195,
          0.04448644508678136,
          0.16081960999238915,
          -0.09742995669486448,
          -0.001986282809094104,
          0.017603223720210726,
          -0.13141136288418795,
          -0.4127802108015335,
          -0.15353632475902795,
          -0.15469549571886834,
          0.4019797855034573,
          -0.15896270252411174,
          -0.056979489085276884,
          -0.11751524722596945,
          -0.0020905410698945142,
          -0.25368631811520076
        ],
        [
          0.2459740167424278,
          -0.07134760508602785,
          0.0006121495418564065,
          -0.15927407022932968,
          0.20418618505011324,
          -0.06979637753450685,
          0.20222459089504546,
          0.14784703824137418,
          0.17404912860900584,
          -0.005451608455676706,
          0.25878416524319503,
          -0.17255687259054162,
          0.217586659993643,
          -0.4813949046675794,
          0.23959873656210234,
          -0.3176317126894912,
          0.6117155179789985,
          -0.231207186578106,
          -0.19036781085997181,
          -5.859199896785228e-05,
          -0.3434116267451875,
          0.0985912317356859,
          0.19053990268096185,
          -0.13086412220691984,
          0.27668429967255853,
          0.28271462985971213
        ],
        [
          0.05799586422573223,
          -0.23307609093614812,
          0.34283491998838284,
          0.07829594750461565,
          0.24875600890328164,
          -0.0683852332974323,
          0.3299284326193128,
          -0.12024272947350084,
          -0.1549001343342744,
          0.09226625125514286,
          0.3170869456401478,
          -0.2316174314734118,
          0.1999992237320157,
          -0.06609908678085072,
          0.09336704740801208,
          0.02316006597040854,
          0.22796859276669112,
          -0.14305726475488587,
          0.1436362659055709,
          0.17014424361570507,
          -0.32849483760612674,
          0.12270424842593516,
          -0.1784966344108133,
          -0.24928344640727876,
          0.0575846842207869,
          0.18915220987030165
        ]
      ]
    }
  ]
}
