{
  "layers": [
    {
      "activation": 2,
      "biases": [
        -0.07048164522278505,
        0.12194738836075832,
        0.49902867920278915,
        1.0884639435523848,
        -0.7792742144633296,
        -0.8126318078376508
      ],
      "cols": 6,
      "rows": 4,
      "weights": [
        [
          -0.3725194972843403,
          -0.086496557314948,
          -0.4532081572583113,
          -0.5963094503267856,
          0.8857816879361868,
          0.550083454689962
        ],
        [
          0.8240255436039248,
          0.5577759701755751,
          0.4777061167949087,
          -0.9739458232366752,
          0.3689103849912842,
          -0.04864681732568371
        ],
        [
          -0.9646954897348828,
          -0.43771898926475916,
          -1.218562357792319,
          0.23923182403261972,
          0.652854682634451,
          1.3515694801041798
        ],
        [
          0.3608587481014162,
          0.1472497672203637,
          0.0316326878463069,
          -1.9721194220687772,
          0.4608632815092991,
          0.11956877668470293
        ]
      ]
    },
    {
      "activation": 2,
      "biases": [
        0.003230116081191949,
        -0.07984812848678856,
        -0.0004849915372055919,
        -0.026061487251996307,
        0.5559557682691806,
        -0.5083319622978345,
        0.0,
        -0.3808753136683479,
        -0.04274387452750351
      ],
      "cols": 9,
      "rows": 6,
      "weights": [
        [
          0.13380307118029186,
          0.03706965371782538,
          0.6158234862772688,
          -0.019256832414543092,
          0.16009374689077735,
          0.9074606161716398,
          -0.5692149727489978,
          -0.015488302584367548,
          -0.09384068441709935
        ],
        [
          0.311781017622689,
          -0.5714252691596358,
          0.4896170004529055,
          0.04356371936495307,
          0.7134076004019209,
          0.10751635838181393,
          -0.2736694510236411,
          -0.048756481858240004,
          -0.16971556527528533
        ],
        [
          0.9070048288737047,
          -0.48454050875285437,
          0.7405689135843214,
          0.2670368644620756,
          -0.4747928886898978,
          0.7509339853552797,
          -0.3458344054442733,
          -0.020056049408587618,
          0.590491707201812
        ],
        [
          1.0258637478599173,
          0.20849012003163472,
          0.41811362976072575,
          0.751893253924082,
          0.006086998232660133,
          1.5274783961641587,
          -0.17251291242110572,
          0.9989027554034701,
          -0.5267766142054945
        ],
        [
          -0.2336303141239976,
          -0.302848916410748,
          -0.07076569847546502,
          0.5930849421454829,
          0.16885037904710115,
          0.9362652710726417,
          -0.2483602191539488,
          0.704056928949305,
          -0.42043458848123383
        ],
        [
          -0.199379102059186,
          -0.46318434157527955,
          -0.6270140376006462,
          -0.3254401544750797,
          -0.3402560144899924,
          1.0575066799839214,
          0.016308101843785842,
          0.6865466994133096,
          -0.4925316915611085
        ]
      ]
    },
    {
      "activation": 2,
      "biases": [
        -0.4988823792650946,
        -0.3957026462017745,
        -0.08363277799845162,
        -0.09782795850369824,
        -0.11014469215583053,
        0.39670659753242193,
        1.2806386848887719,
        -0.03429875860253969,
        0.48259699940475076,
        -0.07805398940157417,
        -0.1482082289322947,
        -0.08687661281088617
      ],
      "cols": 12,
      "rows": 9,
      "weights": [
        [
          0.27713185104138405,
          -0.3009654692112321,
          0.8936671163455026,
          0.11092397448364634,
          -0.09491121897757149,
          -0.3821071802332292,
          -0.6615348935586151,
          -0.30051664899269964,
          -0.2283087971957795,
          -0.00443121751812944,
          0.047132273467098806,
          0.49516646964090916
        ],
        [
          -0.24714335828382622,
          0.26316251656325945,
          -0.2996448455804916,
          0.5279948238968236,
          -0.07936520495350297,
          -0.18487711098950357,
          0.0571731166910013,
          0.32976593402592375,
          -0.22213744151856346,
          -0.17205098913726527,
          -0.05645698014939675,
          -0.3542938114236921
        ],
        [
          1.060654509248621,
          0.2767262812211735,
          0.468004847958761,
          -0.16362016801203041,
          0.2444047297369551,
          0.4897735017780343,
          0.11159869461246431,
          0.43295016121238084,
          -0.4840112240721389,
          0.029711565728191787,
          0.30671783712948086,
          0.789556521044903
        ],
        [
          0.13648055763895398,
          0.22935659095927202,
          0.3787103400828321,
          0.2771870797791345,
          -0.20453306686142586,
          0.09518131146930478,
          0.46099557584105383,
          -0.4455219685816376,
          -0.2924753859517907,
          0.15873406768815265,
          0.031147804270830137,
          0.5760052442215459
        ],
        [
          0.1477510546236918,
          0.2884374759508543,
          0.01848536079393893,
          0.05178357160983146,
          -0.3894108032148211,
          -0.017579622361635086,
          0.875052820625214,
          0.04412329831219278,
          0.028241957364736843,
          -0.06395398486315806,
          -0.2914894496464484,
          -0.08123266634385201
        ],
        [
          1.2169116896042118,
          -0.438832268935377,
          0.9087546078977071,
          0.2736401753194083,
          0.38246160045728106,
          -0.3952106032667348,
          -1.0999405189878673,
          -0.2617147905001153,
          0.33326313094482785,
          -0.08297923812040847,
          -0.28578506799616143,
          1.2203573885356802
        ],
        [
          -0.23118640033286128,
          -0.0730572851042202,
          -0.32629296802409474,
          -0.06521175001243935,
          0.1757868451302496,
          0.4521753962766261,
          -0.3522966193171009,
          -0.2342393999596245,
          0.29103663146254016,
          0.062252957983994966,
          0.2842321962916493,
          -0.24766218735799908
        ],
        [
          0.6906161340669076,
          0.3951561685003583,
          0.3497935870501326,
          -0.3638633118497145,
          -0.40755946953446404,
          -0.12701549694938358,
          0.0547692726110917,
          0.42759248547543427,
          -0.6050484421940818,
          -0.32077260733966395,
          -0.47619426515790003,
          0.9779749618332282
        ],
        [
          -0.34338970872757785,
          0.2522693845178771,
          0.08667305054580818,
          -0.04727337694820765,
          0.2937232935358303,
          0.24096861120294916,
          -0.138786596031664,
          0.31501889993953486,
          -0.29049158811395137,
          0.28868043529004883,
          0.3054125923470549,
          0.4182811213492518
        ]
      ]
    },
    {
      "activation": 1,
      "biases": [
        0.0569768844600204,
        0.17206483323893101,
        0.4588143860061247,
        0.03605728327144113,
        -1.225910560785228,
        -0.3083231785956475,
        0.0817611902500181,
        0.41162974144121756,
        -0.008034533508386643,
        0.10159311435995363,
        -0.12968112302074186,
        -0.4301296216243491,
        0.15909986101471071,
        -0.522764742564975,
        -0.00832682218491698,
        -0.5026799837833686
      ],
      "cols": 16,
      "rows": 12,
      "weights": [
        [
          -0.1732015522342839,
          0.011443285921925254,
          -0.46356847064616097,
          0.1844374112924557,
          0.509128754243784,
          0.49250122233145527,
          0.5748922894433566,
          0.5347616276718552,
          0.6501670372338215,
          -0.7619860214838534,
          -0.6682213898288513,
          -0.5024840449116772,
          0.21320546145558744,
          0.20042110235971222,
          -0.30076867975603233,
          -0.5624664327976631
        ],
        [
          0.2554432448201629,
          -0.3316398925959422,
          -0.22083876675823932,
          0.4287604943871232,
          0.16490339247246288,
          0.5056690727606677,
          -0.28906133830341546,
          -0.3786817167298243,
          0.04621546385265101,
          0.015590672470932472,
          0.33606624994227435,
          -0.2432256176573771,
          -0.3617072215463747,
          -0.1367347129520414,
          0.2658779785098995,
          0.29816297905661593
        ],
        [
          0.22121641531794198,
          0.5269991990934614,
          -0.16905509962950455,
          -0.03282281721138648,
          -0.2761508836321932,
          -0.03145630999054843,
          -0.012876356780149138,
          0.34091435994651836,
          0.061270446406463265,
          -0.3760524836153345,
          -0.9808032211387105,
          -0.839882007448155,
          0.4303700672614315,
          -0.0235091817296643,
          -0.47897437620726263,
          -0.451601156545865
        ],
        [
          0.09987446132245599,
          -0.13506989370228858,
          -0.13701850643488458,
          -0.1356278583492752,
          0.4203782632242122,
          -0.059014081232076805,
          0.20483232119327038,
          -0.054223896550764095,
          0.16660852022504066,
          0.5059647153078386,
          0.42664426305215053,
          -0.12357709611326083,
          0.18223089492585104,
          -0.44860594291935435,
          -0.17079482962166295,
          -0.21729107361517355
        ],
        [
          0.38876055629428546,
          -0.27686437720658763,
          -0.2913327890767809,
          0.4723403801538163,
          -0.006335169828458477,
          -0.11495609013238159,
          -0.25481586991478317,
          0.0029104260787778144,
          0.07501985572818244,
          -0.3070343642323061,
          0.2743345777621592,
          0.1408110616712447,
          -0.08675328610580575,
          -0.2715371881368991,
          0.20497774851869044,
          -0.2658156288899353
        ],
        [
          0.3423247517600365,
          0.09654466967267568,
          0.3765554308376161,
          -0.4073285625249596,
          -0.21161949211187064,
          0.1775071414184256,
          0.031028905069822515,
          -0.16747807221073088,
          0.4529815583197703,
          0.26634620110227086,
          -0.5381225075009346,
          0.441381942650415,
          0.26230980924505165,
          -0.004697036321530968,
          0.037518923717400086,
          -0.0046867525990558065
        ],
        [
          0.1120599336056175,
          0.10140076564862745,
          0.4975486253016481,
          -0.1757580921360804,
          -1.1846619518319168,
          -0.17228666203225573,
          0.19598864634636823,
          -0.123766703033821,
          0.009723936624430477,
          0.9123913877588572,
          -0.3021895983661398,
          0.8795852569560031,
          0.12032581971502666,
          -0.18013860315002392,
          1.0475126043885121,
          0.6161646613007764
        ],
        [
          0.009499887256275362,
          0.4619317004622728,
          -0.3450008306237448,
          -0.2924820385196928,
          0.32417421142851116,
          -0.07944513252074688,
          -0.22870405500999288,
          0.12184095971810975,
          0.38906489022026874,
          -0.20062986693801457,
          0.12159234979732846,
          0.3977982220187421,
          0.3445412407039474,
          -0.16437206610071872,
          0.13041112718392578,
          0.07362025962347067
        ],
        [
          0.36932430219313894,
          0.24890914333147163,
          -0.12202036809091507,
          0.3760384378301249,
          -0.42972076367244905,
          -0.2219706384475264,
          0.2965951632721525,
          0.19230642020320937,
          0.08434618943247468,
          0.1231332427207368,
          -0.40761727190882385,
          0.05046478574545932,
          -0.18250227737807892,
          -0.2361258529476309,
          0.25140538342018626,
          0.1887576687258094
        ],
        [
          -0.20306004547606324,
          0.09559619958834888,
          0.28557312732997553,
          -0.42535342443869384,
          -0.3868600421849933,
          0.4198691273400412,
          -0.39519692518973487,
          0.030988747122450637,
          -0.13596110994736477,
          0.31877131468314873,
          -0.05847667378243924,
          0.07118558253272987,
          0.22763318887588876,
          -0.12262745155419219,
          -0.4071168248003151,
          0.3388652113561199
        ],
        [
          0.262577772450667,
          0.0381853692206468,
          0.04372873503026498,
          0.3419117854983227,
          0.3528070501844955,
          0.13002112704406932,
          -0.3614690299331222,
          -0.09098292496864123,
          -0.34117493167597,
          -0.2588828477522923,
          0.29046045898704237,
          -0.043593675673333256,
          -0.18447786085782739,
          -0.3231052033711785,
          0.31286879637786075,
          -0.3778544188557415
        ],
        [
          0.09507128173163394,
          -0.3228459470125758,
          0.15966184859486,
          0.09054206780050764,
          -0.2778212850923302,
          0.05429259079165968,
          0.03364053171501432,
          0.5290565705337288,
          0.7052403179632764,
          -0.47791231380726673,
          -0.3622845996673173,
          -0.9097423548986,
          -0.1980288093171364,
          -0.11228964669177159,
          -0.9450393246407218,
          -1.241131918746238
        ]
      ]
    }
  ]
}
