{
  "layers": [
    {
      "activation": 2,
      "biases": [
        0.3537809889763482,
        -0.023338090256842966,
        -3.596838230249307e-05,
        -0.1164217988308473,
        -5.5148772076244966e-05,
        0.0
      ],
      "cols": 6,
      "rows": 4,
      "weights": [
        [
          -1.0181142340543419,
          0.6974474434052134,
          0.34595206944294205,
          -0.18683696302040323,
          -0.6123511891783211,
          -0.3104753683553548
        ],
        [
          1.320761345504486,
          -0.06026447735879267,
          0.1618768421141462,
          0.8983730552917687,
          -0.28349518663295026,
          -0.4763519378162099
        ],
        [
          0.32305205932066056,
          0.9643884011798548,
          0.9353181636843801,
          0.484216863551911,
          -0.24302710820868018,
          0.1841544029336258
        ],
        [
          0.9490810991844496,
          -0.6021070084554055,
          0.0649662286540447,
          0.09821774436493724,
          0.8778197073568602,
          -0.20524018351937748
        ]
      ]
    },
    {
      "activation": 2,
      "biases": [
        1.132418890709169,
        -0.03603716241728605,
        -0.00012630758688315317,
        0.0,
        0.17843280192106215,
        -0.0313997113802627,
        -0.3793770296860267,
        0.5503953051506041,
        0.08660249247648383
      ],
      "cols": 9,
      "rows": 6,
      "weights": [
        [
          0.6734281921552575,
          -0.5539448573502681,
          -0.334104365841529,
          -0.3587948488689522,
          -0.2919334616702162,
          -0.20253488265853467,
          1.3374592178652527,
          0.6358675951476737,
          -0.6673122587818204
        ],
        [
          -0.3446412660577636,
          -0.05236641154003155,
          0.156096871577304,
          -0.4339825314130091,
          0.1523074052018572,
          0.2043169466559547,
          0.7370460909779052,
          -0.4986985511347917,
          0.8856029312440225
        ],
        [
          -0.647001419019936,
          -0.3534734823212724,
          -0.19181486597103983,
          -0.467210046092499,
          0.6398749996674729,
          -0.2747621988068234,
          0.20595690768395433,
          0.12280778023097907,
          0.7559659518367627
        ],
        [
          -0.630385131560667,
          0.5879938135366807,
          0.343356173725164,
          0.1686410534893531,
          -0.6201902835532299,
          0.02218572776851017,
          0.15498020162091272,
          0.5847627650539409,
          -0.1975766557021496
        ],
        [
          -0.04272017221227043,
          0.07961381382139097,
          -0.33385805618484354,
          -0.31550857937777843,
          0.11861866804839544,
          0.04699473571565949,
          0.46220049440638133,
          -0.2526136179720957,
          -0.34555392116602474
        ],
        [
          0.5539635226297598,
          -0.2065368871412474,
          -0.006870095893318143,
          -0.24551303198314667,
          0.5358462381409285,
          0.5360191950623079,
          -0.6268420713852276,
          0.41849583078310154,
          -0.26846710933366846
        ]
      ]
    },
    {
      "activation": 2,
      "biases": [
        -0.2260814153658146,
        -0.1371697600289474,
        0.09343808087421053,
        1.057948710885235,
        0.32797576036891263,
        0.17756470104122574,
        0.6630186272450384,
        0.006867759570009275,
        0.0,
        0.0,
        -0.14976984547569983,
        0.36162853336723233
      ],
      "cols": 12,
      "rows": 9,
      "weights": [
        [
          -0.09887006113689542,
          -0.24852163993153562,
          -0.19118649745793584,
          1.0075753146024349,
          0.4853768663131191,
          -0.3768024271806815,
          0.784801898853989,
          0.2688315193650668,
          -0.5012218757577414,
          0.1201060654889941,
          -0.3720077065303287,
          0.6567775934290836
        ],
        [
          -0.5105659438282081,
          -0.15662452649741482,
          -0.14071218526228593,
          -0.4448235621868568,
          -0.5206558579337092,
          0.4881758560221741,
          0.24778369744434434,
          -0.4890383502024044,
          0.03827921925724563,
          0.2657437508938456,
          0.5078533914615758,
          -0.2717804646057028
        ],
        [
          -0.12161446336403951,
          -0.42146527625609403,
          -0.390716807770076,
          -0.20519528127442488,
          -0.53047638589716,
          -0.28968178517361204,
          0.03401423674505843,
          0.2916498980519218,
          -0.20623246859034772,
          -0.11465356757319259,
          -0.3289864762837907,
          0.3918138630637682
        ],
        [
          0.35504755805031707,
          0.13104813543523894,
          0.30967268335029347,
          -0.5063654424647693,
          0.5125334408248278,
          0.4828701108533225,
          -0.4526135427771951,
          0.37739538622539437,
          -0.3053144776546774,
          0.5055664697564343,
          -0.1226420122906261,
          0.2364575773830367
        ],
        [
          -0.020615081634372985,
          0.2933790963975128,
          -0.42090762460498105,
          0.1713404488804016,
          -0.20477302505811246,
          0.6552912118150274,
          0.25962566805285314,
          0.09621421617114954,
          -0.004581223614971855,
          0.28625431659327033,
          -0.15377089460320273,
          0.6774443011509149
        ],
        [
          -0.5260903718622727,
          0.3838097934863827,
          -0.19363035019918393,
          -0.028937421589423317,
          -0.13636672567526376,
          -0.3729567589733569,
          -0.31349969431139374,
          0.4743578650255946,
          -0.02538762605380434,
          0.37394455945471283,
          0.35357415772657147,
          -0.17969872392484745
        ],
        [
          0.9435021802827892,
          0.01817322662344008,
          0.9781193661284858,
          0.30629846919406206,
          0.023571130538520575,
          0.2130668001295297,
          -0.8863931582463384,
          -0.1815802172119898,
          -0.140888994060412,
          -0.029154057214594933,
          0.21813969230807317,
          0.5459682221101546
        ],
        [
          0.6630573210653012,
          0.18390300268337098,
          -0.33049541383789827,
          0.9623865655434127,
          0.08704279536461253,
          -0.5497217528504217,
          0.30925652955265387,
          0.5818145950712744,
          0.013280170735587666,
          -0.36964442213531734,
          -0.23928511654312346,
          -0.20104248926575644
        ],
        [
          0.3752493940877266,
          -0.3502336578346899,
          0.7490216894378084,
          0.04740277318579407,
          -0.07725546417375789,
          0.7396191896975671,
          0.007299920115210206,
          0.16634381593686554,
          -0.23056868576573242,
          -0.39349581588549765,
          -0.06699722777103127,
          0.47678174107186
        ]
      ]
    },
    {
      "activation": 1,
      "biases": [
        -1.226037669845331,
        0.82298067477845,
        0.6040875324454212,
        0.5331443414272232,
        0.4320825071124336,
        -0.6409955595690685,
        -0.7691133747446601,
        0.6573786798694896,
        0.1363424789105708,
        0.988195844300836,
        -0.6257743635950009,
        -0.5916137598279145,
        -0.9827675181361791,
        0.05137784542150479
      ],
      "cols": 14,
      "rows": 12,
      "weights": [
        [
          0.11168793892548858,
          -0.8519793791159663,
          0.014468146633080804,
          -0.0004269039216609964,
          -0.36900194786477764,
          0.4330937528801311,
          -0.5930551453134097,
          0.6895617635810628,
          -0.5045679563150913,
          -0.3556948157985221,
          -0.36421139095154625,
          -0.04796413923626569,
          -0.10040141800564091,
          0.3181915563867037
        ],
        [
          -0.3399225947421131,
          0.36463825248159754,
          -0.24322291807462723,
          0.08429305754069533,
          -0.32250185334294484,
          0.10874809742551025,
          -0.21315882392581767,
          -0.4562442932165765,
          0.2560333053484106,
          -0.4402690884604024,
          -0.017515028025853734,
          0.13725012438267398,
          -0.12967885766928766,
          -0.3971924347413972
        ],
        [
          0.20335005177175824,
          -0.03067809392068387,
          -0.6419596931282638,
          0.29543616554492647,
          0.30364564729909593,
          1.0329712639512256,
          0.19879490142165596,
          0.2597797232787653,
          -0.4521102227801695,
          -0.03392551346819544,
          -0.1516835718045959,
          -0.435236649514658,
          -0.38432176133247914,
          -0.11640349351032223
        ],
        [
          -0.06028838901202441,
          0.018420713234753156,
          0.1775197382563098,
          0.3407252454660056,
          0.10514664003188119,
          -0.955552034370277,
          -0.9118539936724156,
          0.8202334987254863,
          0.07924201403725589,
          0.017653851583762096,
          -0.7928836157600146,
          -0.8024459478783059,
          -0.43233452598546734,
          0.1262280905564405
        ],
        [
          0.19222377985882286,
          0.44979758825991556,
          -0.37178269945809905,
          0.06212700933363508,
          -0.41809177246309137,
          -0.45229527685933146,
          0.017486043495879507,
          0.2678738457904666,
          -0.13721149506642946,
          0.1336858622806732,
          0.07498496540930208,
          0.0996839386321409,
          -0.5686027143155513,
          -0.06823448000353959
        ],
        [
          0.571767802508808,
          0.06502667449035682,
          0.4253647187310033,
          -0.7597919248011603,
          0.3181643015516396,
          0.1832084102846916,
          -0.4449211035915215,
          -0.3486228428435866,
          -0.45897234317295105,
          -0.21996983254462407,
          -0.3261803037050634,
          -0.37863838124070837,
          0.15509409943144875,
          0.3714092346088298
        ],
        [
          -0.5851282616140143,
          0.3824133675921176,
          0.6322110490165322,
          0.117422922862967,
          0.2605214208931707,
          -0.593332355609045,
          0.020683147574572,
          0.11951281895599224,
          0.14674952185780898,
          0.7125388788728052,
          -0.10823032470762797,
          -0.460196889677644,
          -0.25315104421109363,
          -0.09318090345154847
        ],
        [
          -0.05565387925370968,
          -0.34134444517593565,
          -0.15379300671914567,
          0.2797671548681717,
          -0.22167679556804393,
          -0.5588059893499618,
          0.04003365725582564,
          0.12790928947188548,
          0.008983484806579286,
          0.13738078659604055,
          -0.07868720769784684,
          0.38008240638547275,
          0.02911121321038379,
          -0.30219770506482946
        ],
        [
          -0.09457174930903775,
          -0.2960494078473263,
          0.244789374666624,
          -0.24441233922684855,
          -0.2994019174151211,
          0.41578027035653664,
          0.336977010866374,
          -0.14402722459550701,
          0.06796615426205829,
          0.47936625961396157,
          -0.3524764173478643,
          0.02003656433685186,
          -0.3198817194840924,
          0.45462519189946154
        ],
        [
          -0.3555922753128292,
          0.11985364926516755,
          0.16249246165119471,
          0.40972863767196754,
          0.4595917903374962,
          0.3466281359182673,
          -0.1601784547846406,
          0.47212175623153046,
          -0.047094563077858705,
          -0.29946152491251665,
          0.030031807448979774,
          -0.4753551040442886,
          0.21083279046503162,
          -0.10964301689747899
        ],
        [
          -0.4562012979191733,
          -0.3523290259994752,
          -0.4547453864785899,
          0.47770383239500536,
          -0.22228025441904092,
          -0.32283005744060367,
          -0.0454314989332797,
          -0.039493277092075535,
          0.1545980058183574,
          0.4182035530713197,
          0.3403225788175626,
          0.4607110206503011,
          0.1501226966006723,
          -0.01490110888765003
        ],
        [
          0.09930453945383093,
          -0.01427198769052267,
          0.396680628167564,
          -0.36931857731805057,
          0.613152385827302,
          0.227401136769372,
          -0.49361824085695016,
          0.5101039374257533,
          0.1509299898374142,
          -0.24044364128873233,
          -0.7054118402718145,
          -0.47195280010540613,
          -0.3375326901136327,
          -0.06316091404479025
        ]
      ]
    }
  ]
}
