{
  "layers": [
    {
      "activation": 2,
      "biases": [
        0.4630461038033641,
        0.02514346437652925,
        0.31379163621807216,
        -0.008129237844464135,
        0.04480218140716638
      ],
      "cols": 5,
      "rows": 3,
      "weights": [
        [
          -0.9929532103559151,
          0.5566615162780764,
          0.8389321531804655,
          -0.7307806409590241,
          -0.34957468314836626
        ],
        [
          1.198070067818056,
          -0.23901103024623296,
          0.20742472686987679,
          1.439439843340822,
          0.5356179694245303
        ],
        [
          0.30971842965761875,
          -0.09934573010785316,
          0.40953401601591766,
          -0.8204384205525092,
          0.273802944266425
        ]
      ]
    },
    {
      "activation": 2,
      "biases": [
        0.0,
        -0.039028869343589796,
        0.547341724026039,
        -0.2342840962383948,
        -0.016887536462734505,
        -0.014672437523813874,
        0.0,
        0.06294553492363428
      ],
      "cols": 8,
      "rows": 5,
      "weights": [
        [
          -0.24342362297268114,
          -0.7659456259535558,
          1.0719764813890083,
          0.9042706301165663,
          0.12211179159109592,
          0.2505145127765946,
          -0.38383123774976924,
          -0.33493026281783617
        ],
        [
          -0.07745153059797154,
          0.6760334470287401,
          0.28261266567422605,
          0.19296661450574076,
          0.17022140179132686,
          0.49073983837588203,
          0.21001688187680487,
          0.19735404802329715
        ],
        [
          -0.06219630748041815,
          0.7467438224453571,
          0.419782590352528,
          -0.6779555566895138,
          -0.5794207833930407,
          -0.5905026996879095,
          -0.2331479457317277,
          0.29966395307359883
        ],
        [
          -0.46809271475432807,
          1.261321304779928,
          -0.5209257671531538,
          0.5554141739459011,
          -0.2898007722519301,
          -0.38379137257644214,
          0.06683585446909833,
          0.22243107079592972
        ],
        [
          -0.17342363934011423,
          -0.07855395539755577,
          0.2930899705319207,
          0.6821328365020872,
          0.674833387216648,
          0.5816292256124738,
          -0.36152262296052484,
          -0.539215277864706
        ]
      ]
    },
    {
      "activation": 2,
      "biases": [
        0.9195139936086749,
        0.17882570336576667,
        -0.09927959447154332,
        -0.027570760476465783,
        -0.016106756647043717,
        0.0,
        -0.0011163112608499805,
        -0.0634667952279341,
        0.13936569677684754,
        -0.07593600943103024,
        1.0045991725110073
      ],
      "cols": 11,
      "rows": 8,
      "weights": [
        [
          -0.06501797572161502,
          0.5200068285642641,
          0.2622966037284097,
          0.028780865103637487,
          -0.025330047956571216,
          0.5539367374768769,
          -0.1347480278688646,
          -0.2538343030019543,
          -0.23207577296401272,
          0.5145446368344644,
          -0.2546785612706002
        ],
        [
          -0.29138739131154007,
          0.32375330197124497,
          0.37681201189852737,
          0.4225492614132832,
          0.23696588211055103,
          -0.39748899743247884,
          -0.04561371401968297,
          0.03598514145955288,
          -1.139701845243691,
          -0.5065021514871711,
          -0.971830815755623
        ],
        [
          0.958493744679702,
          -0.3990829439240959,
          -0.5147197022835375,
          -0.514486906886908,
          -0.23366653091734937,
          -0.11830299776590364,
          -0.09884524050235434,
          -0.11001620786381835,
          1.20005804519183,
          -0.05740969296335622,
          0.041729884687656614
        ],
        [
          -0.369510715833166,
          0.45409862723852823,
          0.3442939295984762,
          0.07592238130356298,
          -0.3164164327362535,
          -0.13412262592286056,
          -0.1633653545986463,
          0.6628595114425342,
          -0.8640060055755301,
          0.4423955678431708,
          -0.376321295667301
        ],
        [
          -0.5263542695396364,
          -0.11883923934136402,
          0.3346604811880379,
          -0.37521602260056036,
          -0.45450394664184707,
          0.3503917539361279,
          0.0748407435481508,
          -0.08234801187767245,
          0.2653326642867905,
          0.3568747306272691,
          -0.3208210263378647
        ],
        [
          -0.19551727224264073,
          0.06483975642952602,
          -0.49567703230177207,
          -0.036138038410232075,
          0.3206477397826919,
          -0.21737482118829587,
          0.24670728885902427,
          -0.4093149493000953,
          -0.20091175930515498,
          -0.042578540022838306,
          -0.03298349872535765
        ],
        [
          0.5343082367247173,
          0.0633054218698785,
          -0.4750393636651626,
          0.08573203894093955,
          -0.529979398954237,
          0.38994843081523106,
          0.3707725359099739,
          0.20317495130403843,
          -0.5194050520498756,
          -0.5214127521353478,
          -0.1622961289727245
        ],
        [
          0.3046017963473823,
          -0.3614333427053442,
          0.19493900895779076,
          0.04683999577880456,
          -0.432690081951371,
          0.38503591216023103,
          -0.46797922565844197,
          0.19662230646280995,
          -0.555455208697555,
          -0.31576052344809635,
          0.06446203770285826
        ]
      ]
    },
    {
      "activation": 1,
      "biases": [
        -0.1755243232804011,
        -0.04830086997056621,
        -0.7425169377985759,
        1.0854933746592847,
        -1.2663027192855594,
        -1.6354287322755137,
        -1.3321991415410523,
        1.3973667643382512,
        0.25848082870798655,
        -1.3311895096953756,
        -0.48676129195525203,
        -1.6192297548103867,
        -0.759050823415473,
        0.20968041738289347
      ],
      "cols": 14,
      "rows": 11,
      "weights": [
        [
          -0.08053655440399728,
          -0.14375289379578382,
          0.03462802648981708,
          0.7217272423579463,
          -1.4722728035288106,
          -1.1589376516909424,
          -1.3447017407367678,
          0.8110626566136138,
          -0.09592421443521155,
          -1.3916066823093183,
          -0.030629021444439884,
          -1.2862998936403232,
          -0.20513371253556253,
          0.32475585893388886
        ],
        [
          0.347387356698499,
          0.317797095820815,
          0.3686219818598287,
          -0.29287579661737567,
          -0.19717454314450275,
          0.20362487319202882,
          -0.4398688552224859,
          0.39921114208047426,
          -0.17871733742705292,
          0.17038073421503905,
          0.4523917017642001,
          -0.4251357334976014,
          -0.17488170595533215,
          0.22106508552324228
        ],
        [
          0.026973243755335982,
          -0.04186865450492068,
          -0.20331959152672213,
          0.21236277082101213,
          0.3957064933729502,
          -0.006034966168977449,
          -0.032256814084675324,
          0.4203400600200597,
          -0.1436864251025294,
          -0.22867487846053802,
          -0.04706854433084455,
          0.4126158097919892,
          0.14559217903762364,
          -0.03391383538494165
        ],
        [
          -0.14394293712713208,
          0.014313763277050065,
          -0.1834833559260319,
          -0.12163618563036603,
          0.03397103538676133,
          0.27379578344402167,
          0.3908305350802344,
          -0.4673088481869402,
          -0.1797303114065799,
          0.14192769938205868,
          0.23671091165137734,
          -0.16107808197946194,
          -0.04777917129627457,
          0.0914376878745721
        ],
        [
          -0.39292275008764155,
          -0.4736851672848305,
          0.3396126257836514,
          -0.13737024851037208,
          -0.3213972922143714,
          -0.39489898594750356,
          0.14039314131520608,
          -0.4526653061690445,
          -0.3250976948680086,
          0.46009370306389014,
          0.3173967408483933,
          -0.11706453625333899,
          0.39643219408581554,
          -0.08472891970571728
        ],
        [
          0.0855990973376272,
          -0.431787297853009,
          -0.054939710243841436,
          0.3392984881552641,
          0.36946951023010827,
          -0.42916579666941,
          -0.2610193187494296,
          -0.31195369438116893,
          0.2615450983409381,
          -0.25136013619224806,
          -0.007869804526497621,
          0.4037739314363142,
          -0.269163781433926,
          -0.46996616859589413
        ],
        [
          0.3236523558278418,
          0.29909474683561016,
          -0.40397382991270525,
          0.17756985035635747,
          -0.27233862851555873,
          0.2678487638753056,
          -0.40546000936234433,
          -0.11789484653269915,
          0.42407371074705413,
          0.2700982037303169,
          0.004640244246211024,
          0.16208108356048218,
          -0.11801866473757155,
          0.39312712236598457
        ],
        [
          -0.2596295363711308,
          -0.3857487522897761,
          0.6544695849709616,
          -0.22315757104850764,
          0.3043688948848582,
          -0.45553641163702974,
          -0.13885684429143452,
          -0.17529109684691482,
          0.14323271066090695,
          0.09316241230965737,
          -0.0321087738189541,
          0.1695225272570905,
          0.007741307230761544,
          -0.6922709909046776
        ],
        [
          0.49438002497350214,
          0.106688729491299,
          0.6388372176693806,
          -0.5297716451051612,
          -0.1893744271071738,
          -0.5672278300286183,
          -0.26577454143408197,
          0.08226199848406263,
          0.22858896947335897,
          0.29139881140699947,
          -1.333394134365813,
          -0.07575340942363674,
          -0.5704559308761908,
          0.0016119368627576652
        ],
        [
          -0.060291171031339415,
          0.40299108892392926,
          -0.009807935548691998,
          -0.18184546382262706,
          -0.20785431961749684,
          -0.2702866938450975,
          0.3362307269224437,
          0.07355185162001997,
          -0.37684399989569817,
          0.38045999664708485,
          -0.31367226681290983,
          0.38120908009115345,
          0.44273730606315526,
          0.2345147317211055
        ],
        [
          -0.30822032866387955,
          0.1228154738694587,
          0.01898731149110145,
          -0.48615897328764035,
          -0.002526501548871603,
          0.30189647411069304,
          -0.014840459371164384,
          0.32855696488499136,
          0.1870770146870714,
          -0.18603815256747516,
          -0.9420421920722587,
          -0.22378633985513846,
          -1.0058447902073817,
          -0.5247110171004506
        ]
      ]
    }
  ]
}
