{
  "layers": [
    {
      "activation": 2,
      "biases": [
        1.7034945356413456,
        -0.017552746401267614,
        0.0,
        0.30936424018859515,
        0.0,
        0.0,
        -0.009957932544144926,
        -0.385360748259585,
        0.6891157908589738,
        0.0
      ],
      "cols": 10,
      "rows": 3,
      "weights": [
        [
          -0.22412933191061116,
          -0.34403053452289356,
          -0.1959720394886858,
          1.1177990221007645,
          0.009353100378765,
          -0.010047323985961054,
          -0.21963940440739618,
          1.2286435709280632,
          -1.1870366722739962,
          0.30239626083268517
        ],
        [
          -1.595566865150691,
          -0.7125969906964561,
          -0.1346307665415498,
          -0.33547770420371564,
          -0.4154050870235854,
          -0.3825515513311731,
          1.8866892972825975,
          1.1419595868979966,
          0.7107303965017748,
          -0.6441058669785752
        ],
        [
          0.08909854321974925,
          0.8666862775540232,
          -0.44977904292485893,
          1.1861580999230597,
          -0.5460158834806393,
          -0.022012536352416553,
          0.3211741345886551,
          0.24978192232228597,
          0.19299817464064736,
          -0.4659490729205243
        ]
      ]
    },
    {
      "activation": 2,
      "biases": [
        0.048756021542203806,
        -0.08005606989542588,
        0.7380111541288148,
        0.040437805370911975,
        0.09261564657317568,
        0.29565240846360613,
        0.6519549553662863,
        0.38165837398276076,
        -0.19384373716971748,
        0.18055579217048476,
        -0.1519727012658824,
        0.0,
        -0.08886056872185716,
        -0.4039271917815067,
        0.58472337985225,
        0.3315485600172202,
        -0.07170726635807603
      ],
      "cols": 17,
      "rows": 10,
      "weights": [
        [
          0.26561338245855287,
          0.28406706245533525,
          0.8110058177361538,
          0.18838356551093538,
          0.6398107402991562,
          -0.44553276768914757,
          0.8014527946913645,
          -0.21281841763248052,
          -0.14064084034487553,
          0.5981604436463827,
          -0.6988596775223838,
          -0.3765394993760649,
          0.23236644774700865,
          -1.22325327693477,
          1.022937511065848,
          0.0578727580983914,
          -0.07915589608387325
        ],
        [
          -0.3178345788973075,
          0.5170396782853058,
          -0.5256788812904304,
          0.13606232896275183,
          -0.4791372580189063,
          -0.4527298550506897,
          -0.4824247121655776,
          -0.47145068712233873,
          0.5351081908891997,
          0.3370788722267873,
          -0.17339468728233498,
          -0.36507891471372605,
          -0.21283205897275706,
          -0.34710749047793643,
          -0.21687246272545166,
          -0.3435556459945912,
          0.41259764851971786
        ],
        [
          0.12363475854256212,
          -0.4153867681606882,
          0.018222051887338497,
          -0.47060705368454064,
          -0.3284117908900498,
          -0.17692935719123304,
          -0.15777191856248798,
          -0.012251973183503571,
          -0.27720639659602786,
          0.39791406023989756,
          -0.3710546292414628,
          -0.08007697752497259,
          -0.3633404278956193,
          0.14798728577077835,
          0.22732432334478148,
          -0.3566502830165009,
          0.14887011605061187
        ],
        [
          0.06596412428620992,
          0.10613846535022983,
          -0.6675202950514915,
          -0.27853490566292405,
          -0.592287065361802,
          -0.10334206748529416,
          0.5524125851575066,
          -0.6609527654122423,
          0.3310386294703526,
          0.561704975832246,
          0.527680801593761,
          -0.46525892460969914,
          -0.1311797924831188,
          0.63862508644679,
          0.7905622236261584,
          0.16671630241882754,
          -0.19031422279206098
        ],
        [
          0.41191233606724703,
          0.14435192252166848,
          0.42513204677161215,
          -0.17342531122931348,
          -0.4712802898817803,
          -0.24071264163863357,
          -0.3324119210642417,
          0.28184164421617136,
          0.27118885571142115,
          -0.4466813598842238,
          0.19428763729632267,
          0.05144496642020738,
          -0.028301773204856544,
          0.10708515441052424,
          0.44140954250797315,
          -0.07179932813201464,
          0.10466221462608301
        ],
        [
          -0.03616005486949073,
          0.2750978310328351,
          -0.35541605997248926,
          0.4063507406681029,
          -0.26907371216665,
          -0.06377059188006252,
          0.23922308859592722,
          0.23988943290537285,
          0.33219093416165446,
          0.21478254382097048,
          0.4446090406107673,
          0.07965949367297223,
          0.45066374491809547,
          -0.04227020247800142,
          -0.1941672777507207,
          0.06426531027102476,
          -0.22383037155308494
        ],
        [
          0.6676284024189852,
          0.12242168009150277,
          0.3139309749686562,
          0.06918729417877292,
          0.20360737443099453,
          0.7921861897212628,
          -0.7282281026963383,
          0.9351234699659323,
          -0.12877502355303796,
          -0.427069777200098,
          0.18716636715570067,
          0.04827111511377373,
          -0.22231098865650836,
          1.02359632971766,
          -0.5325539180820896,
          -0.23620472436696122,
          -0.12387230715535404
        ],
        [
          0.40632793651858723,
          -0.24241137089259177,
          -0.3312169828816739,
          0.7688146634763545,
          -0.2829824268329433,
          0.5745749652554725,
          0.37337301282183155,
          0.14145274458584756,
          -0.5649536256242149,
          -0.2631102325472897,
          0.48893027827700447,
          -0.4659530849611155,
          -0.4524810026752695,
          1.1028665129001753,
          0.12076537066794386,
          0.7017842582008953,
          0.22399927952035692
        ],
        [
          -0.4140049017524403,
          0.13633566564635488,
          0.4123026144814824,
          -0.5141296160850174,
          0.31738286827645884,
          0.7049057335221709,
          0.24309217228129845,
          0.9848448633134981,
          0.42664518962537307,
          0.05728781922750826,
          0.33138970438702736,
          -0.30159956084973194,
          -0.37235845456330996,
          -0.21295360839943805,
          0.18954111394852438,
          -0.3181618455491298,
          -0.1711537306829247
        ],
        [
          0.33496838865027273,
          -0.22565120628874555,
          -0.25717928452866545,
          -0.1892452550706415,
          0.04418833716476176,
          0.3568378018091176,
          -0.1824273841670514,
          0.36075217631744017,
          -0.2295341317845599,
          -0.3456344016068087,
          -0.3219585666174116,
          -0.4424116562716822,
          -0.2016371437179504,
          0.12926609907349015,
          0.17041731216214423,
          0.21630267747549328,
          -0.37393618864109995
        ]
      ]
    },
    {
      "activation": 2,
      "biases": [
        0.016911304131856455,
        0.04721227002750603,
        0.4223750344512118,
        0.10027798350289027,
        -0.4055334718944582,
        0.38127448071283665,
        -0.06470137429676871,
        0.33782673766468485,
        -0.04906766816921414,
        0.0,
        0.037186265121638515,
        -0.31415322896896775,
        0.26810474713244836,
        0.0,
        -0.047086323389003946,
        -0.1765380926418503,
        0.0,
        0.4378548670254344,
        -0.10499994825293361,
        0.23870608474306157,
        0.14351045091614587,
        -0.02390622043584975,
        -0.09584179267041112,
        0.24303745557092415
      ],
      "cols": 24,
      "rows": 17,
      "weights": [
        [
          0.020953786221187244,
          -0.42200703884301655,
          -0.02022362668462532,
          0.4555611280218901,
          0.5146948435525076,
          0.3858258594976598,
          -0.13701648689380205,
          0.19618025435549166,
          -0.420967695075658,
          -0.2392964838631318,
          -0.46916302644503927,
          0.16710564774632852,
          0.07946179735416259,
          -0.27260358703702825,
          0.08882790613309244,
          -0.37414261687927175,
          -0.019181782533528546,
          0.13253838403745163,
          0.03662802721295529,
          -0.07724313216209397,
          0.3985636437161149,
          0.20567897495388646,
          -0.08225146667269204,
          0.30855629332187445
        ],
        [
          0.3684962023694439,
          -0.4247106903469293,
          -0.37479182419986345,
          0.036130508529744434,
          0.1790835030630723,
          -0.2280559363794186,
          0.01964049157461844,
          0.2586418498138105,
          -0.23654963614397134,
          0.2329324011072425,
          0.4326167438820973,
          -0.01539229700039704,
          0.3834870463561462,
          -0.27725794341049903,
          0.06701979916814059,
          -0.19703065876257775,
          -0.28446360141547966,
          -0.3623553321834083,
          0.04294709252047592,
          -0.19900098795528937,
          0.4003196727238467,
          -0.2139780301509198,
          -0.0746986651521043,
          0.2743997376109488
        ],
        [
          0.3004014422919922,
          0.49331651097773993,
          0.22087587196067446,
          -0.015155707986236335,
          -0.9904797452856512,
          0.10325061224720408,
          -0.3907481255995877,
          -0.2115934827644234,
          -0.3472736001191823,
          -0.08118348469801284,
          -0.11679680404137038,
          -0.16718869574136203,
          0.6558959070728938,
          0.3014562222946782,
          0.2830618487301463,
          0.03302858927432602,
          0.08050692939406486,
          -0.005075156497480015,
          -0.11461311616456447,
          0.6578400397245171,
          0.1992886954640564,
          0.4141702385128804,
          -0.00626881571899757,
          -0.0025440535518410135
        ],
        [
          0.05561257825939226,
          -0.011347114246775798,
          -0.09311683822616257,
          0.49005726567747393,
          0.35204065375457233,
          0.12368665641194451,
          -0.25871563347708754,
          0.2353586744940796,
          -0.28415642427185583,
          -0.29169204918353664,
          -0.38666289656343944,
          0.1606293225172821,
          -0.6005424813014153,
          0.13513542014577676,
          0.13217137592173508,
          -0.17481835013157268,
          -0.36788416480606023,
          -0.3024231965070655,
          0.11827358321776722,
          0.257365150222283,
          0.25721699758906924,
          -0.09634639668006373,
          -0.13967440614468532,
          0.17278897974804364
        ],
        [
          -0.196205976861946,
          0.020115238993248227,
          -0.20683692917878208,
          0.2182869118110381,
          -0.4400345009743477,
          0.38498076981721174,
          0.15322020767795386,
          -0.0650844203819659,
          -0.3413889687369324,
          0.24162214414554792,
          0.1574106762562592,
          -0.42168971636420854,
          0.04413021265941308,
          -0.33730691199199103,
          0.17209823057191131,
          0.3385891033890055,
          -0.3202559776502058,
          -0.23329939224860594,
          0.5075260570514096,
          0.3330334781836884,
          -0.36185214467252746,
          0.37150795932068714,
          0.3467272840412016,
          -0.14338459948463514
        ],
        [
          -0.2682917174908986,
          0.20612381533167237,
          -0.37480631102947104,
          -0.2537856961496965,
          0.47750771293019334,
          -0.14519506769454799,
          -0.08847888400943572,
          0.5593461696649862,
          -0.3043106370060268,
          -0.16525487401473957,
          0.1834284884609142,
          0.010551259498636759,
          0.7361893694821146,
          0.21486270981043384,
          -0.14277682712037915,
          0.004979270564970524,
          -0.1196046863075283,
          0.30613701894213163,
          -0.8609172692099414,
          -0.41147051987838545,
          0.07474774742865664,
          0.17829535953462633,
          0.057518407834954745,
          0.04701956537685196
        ],
        [
          -0.32697601013291583,
          -0.1661352343560361,
          0.6855641581274877,
          0.170043917830577,
          -0.3186871119226826,
          0.07947807401189451,
          0.029630997919159772,
          0.014116002884324564,
          0.07989125359600174,
          -0.15450546182686276,
          -0.19587213662120842,
          -0.520161371289107,
          -0.4073406927082393,
          -0.03693900678658036,
          -0.5471073525264253,
          -0.2515741579249615,
          -0.2991325097608627,
          0.4274115329258551,
          0.587017772221865,
          0.5095016843472486,
          0.19075232125384964,
          -0.3699331592875544,
          -0.38440202674214596,
          0.14775478363808459
        ],
        [
          0.34339318260591806,
          0.19359845043144713,
          0.09447169133381392,
          -0.40476304790742285,
          0.03968479362598649,
          -0.40828286614144055,
          -0.11980620957314957,
          0.4152357509237348,
          0.04123362379853525,
          -0.050859959717980525,
          -0.17830652660619203,
          -0.0935477005158086,
          0.9995123006627596,
          -0.3442299088152838,
          0.43650082794483436,
          0.07968743951270883,
          -0.10019370378453706,
          0.5798209054332696,
          -0.4640218771622675,
          -0.5066427166900692,
          -0.19250732946663715,
          0.4755584710251995,
          0.20299259823728916,
          0.15552191316983874
        ],
        [
          -0.0064746933442025745,
          -0.13839405703575972,
          -0.2435249161727568,
          -0.13644544984663654,
          -0.14754456754644443,
          -0.26451459049608,
          0.47261983985053596,
          -0.286749707193333,
          -0.2715279917199085,
          -0.19551678999998187,
          0.2810836290559519,
          -0.10461575802327286,
          0.31427022451696945,
          0.1540475634813797,
          0.11943941385354354,
          0.0436524465955747,
          0.01203503617476369,
          0.08508614540443929,
          -0.29079239996867046,
          -0.2642230140229429,
          0.5371969735892271,
          0.2745798655345525,
          -0.2626790661547234,
          -0.3385540121299167
        ],
        [
          0.2519188830987845,
          -0.22313413924687273,
          0.14126290677905445,
          -0.4729771452585771,
          -0.25430269825192053,
          -0.13269355983795586,
          0.07068052847961732,
          0.30793244161361644,
          0.1865170942879339,
          0.01968959875063893,
          0.2932846726338183,
          -0.44509311848604,
          0.2140774293759192,
          0.0058830239444912415,
          0.15301836173469743,
          -0.0566114614661496,
          0.2885502907880147,
          -0.09622340197527364,
          0.6101058016025933,
          0.0915797865698803,
          0.4194155992578366,
          -0.008143184644566837,
          -0.26590361188193273,
          0.05762587132875023
        ],
        [
          -0.017175860010958447,
          -0.07458882649484641,
          -0.4707023245712746,
          0.062279310234602064,
          0.6676543833388302,
          0.13864350930367686,
          0.2632798576593127,
          0.2743833606722735,
          0.35100716004942606,
          -0.361773905721847,
          -0.025505329466540997,
          0.5085902021197486,
          -0.024759301286411284,
          0.17910825285992463,
          0.13427898789007967,
          0.24414071666333045,
          -0.2538036560385411,
          0.3844612982611179,
          0.11252298877733775,
          -0.645748617343409,
          -0.0052760733147103785,
          -0.09421500907058078,
          -0.1826363774325319,
          -0.07380572297985323
        ],
        [
          -0.21365987297709751,
          0.14952332718888114,
          -0.36327817045674304,
          0.3053534873263507,
          -0.21097557756053395,
          -0.29750850034919196,
          0.27054508824673135,
          -0.362090823693584,
          0.1526992048527842,
          -0.147467009862766,
          0.14840794095436852,
          0.11358027886554097,
          0.18824500794295554,
          -0.36483326833053464,
          0.10492904011295279,
          0.04454642757590167,
          -0.28983664602677695,
          -0.22671165048813427,
          0.07216633249480334,
          -0.3446826240902269,
          0.09796909307004768,
          0.32200086255153915,
          -0.162757864227707,
          -0.36845978205576563
        ],
        [
          0.36062421709424486,
          -0.28884283215338524,
          -0.18327043665412776,
          -0.15592210984897945,
          0.33514599839275067,
          -0.3468275863780915,
          0.10894932457993423,
          -0.11829082175649953,
          0.29678122342003277,
          -0.3448664289252034,
          0.09213348369152981,
          0.03906798151280022,
          0.17819827696951412,
          -0.30500664378456416,
          0.0051492443165737515,
          -0.3333142386309764,
          0.0566087170894401,
          -0.1820869159442972,
          0.2293096868598009,
          0.20082627459700875,
          0.08623027150835469,
          0.37238710732896585,
          -0.2673250333501624,
          -0.046027976062732595
        ],
        [
          -0.03599703226720887,
          -0.2196873053968248,
          -0.5280401707370174,
          0.872267382996314,
          0.8933513886178377,
          0.44754696590830406,
          -0.030070190087427166,
          0.18682037250786337,
          0.3384673292241728,
          0.16734285552681274,
          -0.4230885690510634,
          0.796728561652111,
          -0.5008230581647052,
          -0.12988905793002137,
          -0.30122599219317875,
          -0.15503730485376305,
          -0.3518091387314527,
          0.18136630330173578,
          -0.8100979273297546,
          -0.8806866600759072,
          -0.2487590447416613,
          0.19541305906937598,
          -0.4112368932683303,
          -0.3240968042504275
        ],
        [
          -0.39602095205098314,
          -0.2897580660785588,
          0.7165773993380341,
          0.13352291280162293,
          -0.6765202084151863,
          0.4192940724641041,
          0.27350093150351035,
          -0.08582004696164876,
          -0.025475725081731473,
          0.05297617414350875,
          0.19695037778891547,
          0.1196807174649185,
          -0.6493936580656432,
          -0.23776178622436372,
          -0.47235436090173116,
          -0.022295550190935647,
          -0.22478839535163303,
          -0.013393519019380351,
          0.4981650242338565,
          0.4429461000101922,
          0.2917205181564987,
          -0.44861681795316316,
          -0.06330826848499925,
          0.20508295601892856
        ],
        [
          -0.18596368264253874,
          -0.19519236472299725,
          0.318451663529217,
          0.33699116979057325,
          0.19948487281268018,
          0.3286396875741261,
          -0.39837613626478974,
          -0.2380550669419321,
          -0.13202527546840587,
          -0.19659397691910874,
          -0.27148668435324536,
          -0.14896410567329493,
          -0.4321413607816311,
          0.013465722898180602,
          0.15608256437949247,
          -0.16586561730276078,
          0.006010253220242094,
          -0.010605446469696507,
          0.2475227221429108,
          -0.00818218525534747,
          -0.2557425066664723,
          -0.060004724826165645,
          0.31235472454367397,
          0.09149814524867027
        ],
        [
          -0.2529440494186014,
          0.3178205430119569,
          0.2971004350731111,
          0.08795172220381242,
          -0.07794776352402481,
          -0.27306217936410276,
          -0.1476130005088439,
          -0.27617168333743064,
          0.3702738512205096,
          0.2776183852088413,
          0.01930742318462041,
          0.044666736234025256,
          0.2846797829839176,
          -0.14884373037591478,
          -0.26801254524623636,
          -0.16998113391305644,
          0.022174523375739445,
          -0.3316007243342039,
          0.25776119683347226,
          -0.0483648342650501,
          0.27133980921678885,
          0.2400020809095788,
          0.15834151475270464,
          0.23026822263075059
        ]
      ]
    },
    {
      "activation": 1,
      "biases": [
        0.06921513325493138,
        -0.08603557268173485,
        -0.16702835455133908,
        0.11875613631669851,
        0.24034410341830542,
        -0.37329192203680794,
        -0.27207225440852617,
        0.42662667268292387,
        -0.4525172848773286,
        -0.23314295496512777,
        -0.5159505859355465,
        -0.02274652130449263,
        0.32217961909261617,
        0.5188599287015325,
        0.05246251695327265,
        0.14152933296894502,
        0.32634181521824424,
        -0.10866292965033121,
        0.12575797851575315,
        -0.6465351478591593,
        -0.19093879046846327,
        -0.7861810837252858,
        -0.5467388762701414,
        0.048876050837751046,
        0.16627869375455223,
        -0.29784594030758516,
        -0.34152237083887466,
        0.13431060482120846,
        -0.11380567192783499,
        -0.05124094801380654,
        0.3248941393681032,
        0.13686632999584014,
        -0.24884575955352597,
        -0.16570409493032406,
        -0.10789916472849277
      ],
      "cols": 35,
      "rows": 24,
      "weights": [
        [
          -0.27845691118913984,
          -0.019557449809518398,
          -0.31607813823022674,
          0.11030974204556408,
          0.20089148708663435,
          -0.19535790857712934,
          -0.30218095049971394,
          -0.2019771365945731,
          0.16768673491059233,
          -0.2632924533770652,
          0.08831225430415245,
          0.10224376436604331,
          0.2850372619040665,
          0.07436128408161102,
          -0.030270366963804595,
          0.024628809041691648,
          0.25658840646492126,
          -0.33505479377903313,
          -0.11458672194104372,
          -0.05136729213470031,
          0.062061201149542125,
          0.20779057140150856,
          0.21597732198606712,
          -0.2232877343553769,
          0.11934507482517365,
          -0.11593266935904999,
          -0.05596316937950051,
          0.13806933078203196,
          -0.26496059760254415,
          -0.2243982110749496,
          0.27018527136624637,
          -0.16970925016624142,
          -0.2746800010694825,
          -0.26459893956357405,
          0.03175343739879785
        ],
        [
          -0.5301981767096258,
          0.08253263395948604,
          -0.28783034498311805,
          0.14531361237049015,
          -0.2625306718940198,
          0.14903130168780376,
          -0.4226943454918961,
          -0.2192156015820043,
          0.11389769763267006,
          0.06327258966382379,
          -0.11252137105644751,
          -0.2561667672823232,
          0.021941572187382994,
          0.09477511317543527,
          -0.03468600477547352,
          -0.09158030128592912,
          -0.03386321224310074,
          0.16692738044991398,
          0.25975646439498296,
          -0.10335435753333574,
          -0.00816888194903314,
          0.22588581009997624,
          -0.2787955064796943,
          -0.22806337822770978,
          0.07108347762463717,
          -0.04523145887148764,
          0.06132748618994737,
          0.12044903211877898,
          0.10521347355513257,
          0.12659662754197254,
          -0.14421071623292098,
          -0.2747164999145736,
          -0.17166958795475917,
          0.12341569712758038,
          0.2644007076341073
        ],
        [
          0.2055489853123589,
          -0.2981849679241955,
          -0.5307454730257305,
          -0.18478267698811235,
          0.28858911790230074,
          -0.5112685400400425,
          -0.010575921118660353,
          -0.11138929748610586,
          -0.27105248783951646,
          0.16020341432325047,
          -0.553719441316492,
          -0.25780699994393774,
          0.05272707657742916,
          -0.3070217801311442,
          -0.22650376616986478,
          0.18865222392518888,
          0.03910389049124362,
          0.0004167706983187034,
          -0.03662112041663475,
          0.0033749963978552673,
          -0.1740758938883125,
          -0.15703699149151523,
          -0.49625888418874314,
          -0.31454655384400865,
          -0.12589612296773445,
          0.5043014875005174,
          -0.13851022186195858,
          0.18441962048306812,
          0.05858854996618729,
          -0.17373661767734294,
          0.30946472060079216,
          0.007705967868463193,
          -0.35895856653458086,
          -0.21904062790742995,
          -0.8316545280098361
        ],
        [
          -0.09070668815163924,
          0.5017692670473815,
          0.5207531527889989,
          0.5332399442689477,
          0.08158045787819974,
          0.10760532733602221,
          -0.12654997086713732,
          0.5020732109075379,
          0.6673244610250492,
          -0.10079742681621569,
          0.7999135068845498,
          -0.10638602854014166,
          0.2839556845392345,
          -0.13509877800356226,
          -0.08589156083945959,
          0.04442983227771284,
          -0.009113915124747091,
          0.0880878218133485,
          -0.10450374043386108,
          0.3478958659109421,
          0.03159850780435024,
          0.1170877430150426,
          0.12886242701777825,
          0.19584459243240163,
          -0.050301171864325214,
          0.12644086177770752,
          0.07483645490238967,
          -0.013278056006747321,
          -0.141639262836731,
          -0.18631680802035108,
          -0.03878319279990022,
          -0.03686611347161501,
          -0.08935351459756807,
          -0.07057309070715075,
          -0.343638419814508
        ],
        [
          -0.04104120062510317,
          0.10605448617645309,
          0.4220428137479457,
          0.32306446507818465,
          -0.08237339823163214,
          1.0060650641393967,
          -0.021169339283978347,
          -0.41248956217926186,
          0.6505551324784,
          0.06231002026081363,
          1.090158614019432,
          0.041211527345827184,
          -0.039182044944999335,
          0.7263022637576595,
          0.10690671134817538,
          0.09146390516253768,
          0.1342603192130429,
          0.1268499297915421,
          0.07021070438412232,
          -0.008066318575191451,
          -0.21074443314680086,
          -0.011372604101059029,
          -0.2730344690346405,
          -0.14995228879914213,
          -0.026765799816519865,
          -0.8472925858735888,
          -0.14657629347607762,
          0.11890652283833636,
          0.12882132586065234,
          0.2705093722565332,
          -0.20674781304001402,
          -0.4749351853810334,
          0.39875898120038916,
          0.07880772854264823,
          0.5810379765947479
        ],
        [
          -0.16258188909992427,
          0.6845572484939579,
          0.38897331883957437,
          0.4215537587436205,
          -0.20175073815676947,
          -0.3101560686655165,
          0.24535456808505668,
          0.3445399625781967,
          0.43198043778518713,
          -0.18727451794220834,
          0.46022214724740235,
          0.0768088249208568,
          -0.15708054021816145,
          0.0663037699020154,
          0.17494128625331729,
          -0.07775814338958945,
          -0.017658510347990236,
          0.02532260859862907,
          0.12607155339357592,
          -0.18636519477846375,
          0.010011237217151765,
          0.0512037853355757,
          -0.19627283237400317,
          0.0817286143403291,
          0.2236514444044552,
          -0.1230464107197909,
          -0.10300354723498474,
          -0.05460626837358985,
          -0.08099837701765063,
          -0.11967413925267863,
          0.15697931106665944,
          0.3788729742649579,
          -0.10554687226260022,
          0.22992046844520525,
          -0.26317671834525447
        ],
        [
          -0.22768469577260536,
          -0.022178719628692497,
          0.017816393254542574,
          -0.12734451095969557,
          0.023434913634577347,
          0.22099477646484778,
          -0.514312687040142,
          -0.3653348647214388,
          0.2949876163383949,
          0.0039017892951376614,
          0.017053613732900114,
          0.1976025808596783,
          0.232296992806883,
          -0.08946080464595964,
          -0.04933742769679948,
          -0.03652417875051976,
          0.28607130980953566,
          0.2661165699258253,
          -0.08594057904891848,
          0.2962894220616722,
          0.21897489711085216,
          -0.3128236648518794,
          -0.0015105330582062153,
          -0.04762109098309202,
          0.010913122436609975,
          -0.2786780107161213,
          0.050722876329629164,
          0.06487052846061304,
          -0.20163486041624717,
          -0.2672601706309937,
          -0.028865679384819584,
          0.0792606050890502,
          -0.13109801129805942,
          0.04244489233188899,
          -0.159322035309724
        ],
        [
          -0.19289539736662462,
          -0.04225096806236558,
          -0.1390700485180248,
          -0.279147608397568,
          -0.005388736174800656,
          0.3325980040759088,
          0.05433312642810434,
          0.12960688010448018,
          -0.20292029473853299,
          -0.20641656100086653,
          -0.2050779601067872,
          -0.1775836005511146,
          0.10402870150543515,
          0.8724118084472601,
          -0.027398391024282015,
          0.20977421623144507,
          -0.07190585697273565,
          -0.0667966699763916,
          0.3498128166727375,
          -0.3824331152031034,
          0.22287711994784165,
          -0.14833391647535368,
          -0.2667675911541167,
          0.21922881674908543,
          0.22445244262379188,
          -0.8225313855531352,
          0.09048258961922004,
          -0.18727744443494942,
          -0.11874739143455217,
          0.011678041249790924,
          -0.06873854524611088,
          0.08742508155859202,
          0.06758062567330732,
          0.010551028927632013,
          0.05272851151843416
        ],
        [
          0.27200223528742773,
          -0.22503480771785014,
          -0.07268665898470035,
          0.12205831339288266,
          0.14222164182861427,
          -0.15780171724818343,
          -0.1348337317768983,
          0.20998840763493037,
          -0.24368130597417428,
          0.21938628922332015,
          0.2122315352006516,
          0.034452913772985726,
          -0.07423446357632917,
          -0.038011790634318615,
          -0.006389724799346774,
          0.22566785786105092,
          -0.06742479938643503,
          -0.2125706397620574,
          -0.21551451124643375,
          -0.16795480994016462,
          -0.19668630943665819,
          -0.0975189991983775,
          0.2560765452324166,
          -0.08838067449712335,
          -0.14491586222812966,
          -0.10338442274417402,
          0.26856472275260584,
          -0.052135582865013734,
          -0.27153789371289994,
          -0.15622957174759708,
          -0.3348047146977163,
          0.19240912048047948,
          0.1761595636710254,
          -0.12283505617796521,
          -0.07995371244462474
        ],
        [
          -0.16054212448297997,
          0.19844389986300076,
          -0.11493799389261022,
          -0.1989370441234296,
          0.30943173336891067,
          -0.21141900748536635,
          -0.006371536411944331,
          0.20785026034623175,
          -0.09849252034841595,
          0.19238593255023106,
          0.11721080805766823,
          0.19209681374736984,
          -0.13054053741640326,
          0.3127554432501528,
          0.3069126229823818,
          0.1321615880079994,
          0.17905875289716255,
          -0.14500572391782168,
          -0.13494171370893243,
          0.2253028394141469,
          0.002565944930527965,
          0.11423846810995988,
          0.10048401867123913,
          -0.2186311120616475,
          0.12518580565605453,
          0.07030844277872969,
          -0.08529179154363262,
          -0.2820806118224911,
          -0.25733050635606874,
          -0.19559585932876702,
          0.1599389950972548,
          0.1074425369765106,
          0.3091477733764662,
          -0.024250879185318815,
          -0.29209958624013244
        ],
        [
          0.13516434387969006,
          0.5667213686310436,
          0.23153145074346215,
          0.029318484456299615,
          0.06857577912918249,
          -0.03573043197037973,
          -0.3719093292178364,
          -0.24978520298062326,
          -0.4465225017705788,
          -0.13215452912654876,
          -0.4914669766644972,
          0.024839608045114293,
          0.13565834626743722,
          -0.04665888235625091,
          -0.05385779806699265,
          -0.04312980690657965,
          -0.1447188656501044,
          -0.14545925586731848,
          0.16574114410202592,
          0.09452449839995279,
          -0.2505308943818084,
          0.06632880927089131,
          -0.05809871049496059,
          -0.1976726496467985,
          0.04028729462611275,
          -0.1275572138771043,
          0.1469935402245787,
          -0.025127589462802743,
          -0.12153927521702398,
          -0.11022380715620778,
          -0.2314747395651632,
          0.11971120595266688,
          -0.16505719109126482,
          -0.040407036577646896,
          -0.22461575583715138
        ],
        [
          -0.2738070777267032,
          -0.11007853068790616,
          0.3915140661786269,
          0.30020532848643067,
          -0.07673957966058045,
          0.6170638297913744,
          0.2918062751250758,
          -0.3843153625472337,
          0.40888155780615715,
          0.30978503958014786,
          0.5078007017975514,
          -0.10743624193379861,
          -0.39130671244019666,
          0.3202110008522948,
          -0.3083766668880962,
          -0.19129939015529437,
          -0.21370511745684256,
          -0.17090916440711926,
          -0.37399916181365184,
          0.025647193882840744,
          0.00971586380270255,
          0.2376613413970384,
          0.2893729019371564,
          -0.2201156297899623,
          -0.014087565658204229,
          0.2012810601663777,
          0.18694460708141963,
          0.006441295571610011,
          0.30661184828758575,
          0.2555790138832651,
          0.2764244514052343,
          0.05534480363527755,
          -0.10635575874636924,
          -0.29505795181929423,
          0.15278024710655472
        ],
        [
          0.3930124994145356,
          -0.9720951711798621,
          -1.0458495322673553,
          -0.8565968366140898,
          -0.02611844559873055,
          -0.528072773552082,
          0.34996342710608863,
          0.2830826302902868,
          -0.16283136766656434,
          0.0031541214607087122,
          -0.5550284936415513,
          -0.0949041297907603,
          -0.06752565501533701,
          -0.27299639911669193,
          -0.08947871215344558,
          -0.02588516222011942,
          -0.012005440278577596,
          0.15689607403397,
          -0.14020437102374997,
          0.26870877064868365,
          -0.18668682839771464,
          0.10290342742183253,
          -0.04821034301621867,
          -0.02485870983867222,
          0.07826579708778321,
          0.04138763064303889,
          -0.02303256784566125,
          0.0818926408680646,
          -0.0025670464780518597,
          -0.005723205601288331,
          0.06182775067312312,
          -0.12747156787656846,
          0.0416969181974853,
          0.055226658654942355,
          0.056737272777096316
        ],
        [
          -0.23910931294630938,
          -0.13028486564356595,
          -0.011697481297378532,
          0.2197981291254666,
          0.12813589530101085,
          -0.11954439223724762,
          -0.3088641632446246,
          -0.19747974462870022,
          -0.1779552180100252,
          -0.20111813956940153,
          -0.15622099528659109,
          0.26333871178949825,
          0.24080519955243535,
          -0.2729589294666261,
          0.07674727968895183,
          -0.2314869080115943,
          0.20962218342236866,
          -0.23326143841050886,
          0.15178582846242245,
          -0.0930902464524838,
          0.11722707538771758,
          0.06334285509151515,
          -0.09000659767089951,
          0.06903796943989586,
          0.2737422379537887,
          0.06354445201754699,
          -0.008762439816279268,
          -0.19730976553791063,
          -0.312790306057336,
          0.14723818680036543,
          0.28477133418061956,
          0.12322600119930073,
          -0.20286785332815413,
          0.004745738348585857,
          -0.07932690883187804
        ],
        [
          -0.19297463961098713,
          -0.2944626394349267,
          -0.3139603217045365,
          -0.06380848725107245,
          -0.627291578220196,
          -0.37633232755598,
          -0.41558655603155487,
          0.07224164236623411,
          -0.3354652631298661,
          0.03799564788861222,
          -0.21301864305231147,
          0.19960461506639618,
          -0.21355828407389932,
          0.03531484551492348,
          0.08847501294467315,
          -0.008303986881143338,
          -0.05770298985485403,
          0.028925077689857474,
          -0.0007413001922694756,
          -0.11123081733352183,
          0.09709465868846702,
          0.08693900951966081,
          -0.00538138057462961,
          0.20650133547527308,
          -0.1017695422016941,
          -0.3244310387508114,
          -0.06434778549370214,
          -0.12565752638824884,
          0.14055643970580595,
          0.08514883559209406,
          0.15463158447281952,
          0.11275955256369227,
          0.09838719859288332,
          -0.005088148903962545,
          -0.047556126936278524
        ],
        [
          -0.01104770013891048,
          0.24237275000301894,
          -0.059034747171597256,
          0.0638737795159489,
          0.21941513685887373,
          0.28878256754071296,
          -0.006435112981776257,
          -0.02055202056972336,
          0.20827669784649874,
          -0.00944113079169481,
          0.031750531873379846,
          -0.11059592006764735,
          -0.15638337928398788,
          -0.12394453275394954,
          0.029546059579870214,
          0.03942918781359866,
          -0.268819600195007,
          0.25696336605902637,
          -0.19250673706112928,
          -0.2861361095450741,
          0.3047668299450475,
          0.18216769239322916,
          0.1302420503172317,
          0.012024875132913448,
          -0.23309326160289326,
          -0.2814674589025816,
          0.09210306194088755,
          -0.09874671340302497,
          -0.03469706109732361,
          -0.057580139274313304,
          0.18036329501971787,
          -0.15585225826668733,
          -0.30424063015675906,
          -0.11454638901951804,
          0.06860152237804333
        ],
        [
          0.019014976776829545,
          0.22470513197677908,
          -0.29831323676922933,
          -0.19327830369492063,
          -0.18708635610601973,
          -0.04863600549715224,
          -0.3152136502712174,
          0.011023191809416376,
          -0.2864699311669335,
          0.17576999492172907,
          0.2416154030536977,
          0.21024405975289107,
          0.10656644919962299,
          0.2658659161921634,
          0.015720650434297306,
          0.1305327534634837,
          -0.19163241686146493,
          0.1464733410333846,
          -0.12039909426504602,
          0.24781027812643724,
          -0.08976994489066262,
          0.1959832972768917,
          0.2662882493199718,
          0.25412528101500526,
          -0.28641175124945556,
          0.08465153891859517,
          0.05216050358590209,
          -0.0920144289597595,
          -0.1755179750045558,
          0.29677657267383106,
          0.11156041290341957,
          0.2645243727407043,
          -0.047386909294540494,
          -0.009678751464646704,
          0.016375125278933342
        ],
        [
          0.4614992718342586,
          -0.011575013789309493,
          -0.3847635742001311,
          -0.223614777964593,
          0.254223323792112,
          0.06546509101939263,
          0.07812331490085171,
          0.5059991055878708,
          0.03987846386209375,
          -0.21203791320895532,
          0.04191920995787442,
          0.28190989205209016,
          0.3329214066263986,
          0.6794513148812894,
          0.23319743167984433,
          -0.12160202059816079,
          0.18260835299823747,
          -0.03851411237450894,
          0.21946916805641006,
          -0.14808489555103904,
          0.21079641458226206,
          -0.7523160642106904,
          -0.006071839140653861,
          -0.010148421332259452,
          -0.17277354558963098,
          -0.8622894983774779,
          -0.16838251908353424,
          0.08801712233116855,
          -0.09424015458116217,
          -0.1951968701465327,
          -0.07712995490268727,
          -0.058879529621887194,
          0.018928156610160028,
          0.05814370161137408,
          -0.14015301867918786
        ],
        [
          0.030353418700646884,
          -0.450075458680443,
          -0.039792976697853186,
          -0.142123402456971,
          -0.3831450579863586,
          0.7127670781861184,
          0.20627555713496884,
          -0.17093288633661294,
          0.3259958470590288,
          0.23771061011280745,
          0.646063878431331,
          0.12281001365764495,
          -0.2271992779573722,
          -0.35165681618776484,
          -0.28045384415874736,
          -0.06347692498543583,
          -0.16939193123056415,
          -0.255730763731567,
          -0.21168542167087492,
          0.26553173054182216,
          -0.6597751448638839,
          0.2991267914208346,
          -0.003931683543919502,
          -0.19439245434326927,
          -0.23984604577311439,
          0.36190948720384997,
          -0.15602493575101323,
          -0.22163615712952156,
          0.16862739380682693,
          0.4329030441817097,
          -0.3268678323577001,
          -0.23982216565453518,
          0.6357623400404754,
          -0.0005257181500683002,
          0.11862304402288908
        ],
        [
          -0.4469925290171558,
          0.3458755342381141,
          0.3881681765216656,
          0.26757604332785173,
          0.04803004699984384,
          0.5579018893077323,
          0.26178425867105,
          0.15037541890704473,
          -0.4132411165747635,
          0.12732395853904163,
          0.7576458781552254,
          -0.13577316783209792,
          -0.2616601765363348,
          -0.09460681798972885,
          -0.2453449611664394,
          0.10876898135151251,
          0.037928873401953486,
          -0.2586544776378915,
          -0.38079916024569893,
          0.08170090893741756,
          -0.47801773748571647,
          -0.06250699309361235,
          -0.25253250352916284,
          -0.3574192678198128,
          -0.32348244430638334,
          0.528912459573551,
          -0.23503272316969887,
          -0.3418971731566921,
          -0.04948207495481487,
          -0.08644224020461665,
          0.0958941075602433,
          0.0681854541033868,
          0.05585819301499922,
          -0.2769916924068381,
          -0.4221848287505672
        ],
        [
          -0.07654251093860676,
          0.3024406171854499,
          0.24393879314080513,
          0.5375151837586086,
          0.04182850196077614,
          -0.24245409878587143,
          -0.050255287960241896,
          -0.5389030719498166,
          0.22871723992841878,
          -0.06911495378162537,
          -0.8361577424270531,
          -0.16132957614641966,
          -0.16730630228767235,
          0.17119470012943294,
          0.11149381967188803,
          0.04793521509211766,
          0.0037448263882080396,
          -0.008970894389858406,
          -0.1447384928515768,
          -0.23285778128500514,
          -0.09411272226276435,
          -0.014641996394034042,
          -0.10312696725911318,
          0.04396335524675499,
          -0.10366085804856691,
          -0.020555483188857516,
          -0.07756073499562927,
          -0.06650907329495327,
          0.06853714740688337,
          -0.04713689098710204,
          0.4428634103135793,
          0.06364822028792258,
          -0.0039335035095490025,
          0.004902259019036669,
          -0.19995905797246075
        ],
        [
          -0.09495747646384449,
          -0.3370868469703018,
          -0.5814850032216683,
          -0.5177716762930858,
          -0.4537563292359377,
          -0.19653593576120204,
          -0.5262094128875745,
          -0.2814303829225917,
          0.3127063095511995,
          0.057783231954535434,
          0.10542977386431467,
          0.06665290209441231,
          0.004420577341121597,
          0.2604688169076757,
          0.10628623424311202,
          0.07764169450169932,
          -0.03977299185193718,
          -0.2000864991324479,
          -0.07979018782180146,
          -0.2018839198231264,
          0.09407610001982027,
          -0.002488127378199149,
          -0.011814337019049551,
          0.055699640998241956,
          -0.13764885587684808,
          0.056217926920833515,
          0.019220464936003177,
          -0.11361193797888694,
          0.20885380637722106,
          0.3238162130345975,
          -0.2621357486637578,
          -0.011977926997909845,
          0.4531584222471099,
          -0.1644948998227696,
          0.10711013198613564
        ],
        [
          0.14268995633476206,
          0.08184288017179395,
          -0.26916635420319523,
          0.2737060208605973,
          0.3142615524924391,
          -0.1548216703006712,
          -0.15471972552446842,
          0.13528661580864917,
          0.18730463611892967,
          0.22063855888466638,
          0.2739037278833959,
          0.023151529039910326,
          0.0522062660882518,
          0.1627392661697416,
          -0.1714316967877486,
          -0.284849015720735,
          -0.1862077883658673,
          -0.04752080176409998,
          0.18790984305259847,
          -0.14369760312469454,
          -0.04078912037020385,
          -0.11081190287227516,
          0.2332749526927936,
          0.04922259289859637,
          0.194114820939872,
          0.04803228024247033,
          0.1989146495719802,
          0.15281436280364294,
          -0.15772374753657248,
          0.23098664771583902,
          0.18143079026481926,
          0.27525973177744845,
          0.03786565897919335,
          0.21198993784149836,
          -0.12552792879399427
        ],
        [
          -0.32974276721560736,
          0.3266986409124683,
          0.23974747529218707,
          -0.16159738021850567,
          0.3395601073174256,
          0.035931523400562666,
          -0.029428459691557447,
          0.18767538614606843,
          -0.2266576948244914,
          0.12787314907823802,
          -0.13615863067007944,
          0.14977288151678733,
          -0.2137777398179038,
          -0.1125517876195995,
          0.25313034503980764,
          -0.18190707351296853,
          0.02457406320165891,
          0.020074151729368845,
          0.10150772543984807,
          -0.1863496212496207,
          0.13660680909386771,
          0.19808830592515106,
          -0.06578767047205678,
          -0.08594661856646016,
          0.3365481601727136,
          -0.027023504662464372,
          0.2225460991569607,
          0.061371527887098695,
          -0.051818088749895144,
          0.0033038562364904045,
          0.49458777835730666,
          0.042773918583780955,
          -0.5314215645983771,
          -0.24633396482095204,
          -0.1895734798445386
        ]
      ]
    }
  ]
}
