{
  "layers": [
    {
      "activation": 2,
      "biases": [
        0.0,
        0.0,
        0.06634967987370345,
        0.6403519131162393,
        0.0,
        0.12026002307033162,
        1.0089061580284644
      ],
      "cols": 7,
      "rows": 4,
      "weights": [
        [
          -0.027098532191193386,
          0.021785044241305077,
          0.6208244096203073,
          0.11230704279443644,
          -0.5830571602049875,
          0.9030665042598962,
          -0.23155776798799635
        ],
        [
          -0.49887987777299003,
          -0.17903859088010574,
          0.16750033220914126,
          1.0451616723534332,
          -0.3742776825059874,
          -0.8087837418301608,
          -0.6344472154066201
        ],
        [
          -0.6664721463319655,
          -0.25319142312720977,
          1.2279033053448605,
          -0.3025081529717831,
          0.47491109360684014,
          0.15395535002283192,
          -0.599027955206961
        ],
        [
          -0.5640502459820342,
          0.13077763847637391,
          -0.45015718082309125,
          1.1482183849202272,
          -0.4062567776062672,
          -0.3403113758770936,
          0.5166965030829631
        ]
      ]
    },
    {
      "activation": 2,
      "biases": [
        -0.07624260566076524,
        0.6712556996752376,
        0.707107588697968,
        0.0,
        0.47389190136441384,
        0.5349413848774351,
        0.2304219359500635,
        0.25501959666711954,
        0.0,
        -0.15999637851981907
      ],
      "cols": 10,
      "rows": 7,
      "weights": [
        [
          0.21250959277875797,
          -0.4025506586202213,
          0.526557326730612,
          -0.33608054488546607,
          -0.05359923678482158,
          -0.563722181174195,
          0.3086298988574859,
          0.48046299010759097,
          -0.5909055071846679,
          0.1559422308770387
        ],
        [
          -0.011491192874791778,
          -0.18878777903941282,
          0.3063102530696954,
          0.08798528330228605,
          -0.2041675509134849,
          0.04511024050539395,
          -0.43829706562748433,
          0.2902322549075012,
          -0.5650622138608292,
          -0.19750141746217598
        ],
        [
          0.4249002810937842,
          -0.8606356759722805,
          -0.3891688836038143,
          -0.5117727456297879,
          -0.11478096928944302,
          0.3156992593117902,
          0.47310438310393427,
          0.8191580710646555,
          0.0985448561118002,
          0.6504759738909481
        ],
        [
          -0.2781740846612048,
          0.6858996077118817,
          0.9524428469871545,
          -0.15085947007225187,
          -0.4261524924963502,
          0.05223812520631123,
          -0.39594495652090217,
          -0.6019150411821311,
          -0.07541322035591908,
          0.885095920121164
        ],
        [
          -0.10458206039080394,
          0.2682365040377881,
          0.18324388417766738,
          0.07471455033077641,
          -0.48279142874916164,
          -0.55373684667255,
          -0.2682154696857767,
          0.40511124309773805,
          0.3149195054014408,
          -0.03490805083650854
        ],
        [
          -0.4864836993120783,
          0.35781441658919594,
          -0.08917712181177406,
          -0.1756961022550462,
          -0.18478178266411419,
          0.5816820089977088,
          0.3095185228329283,
          0.863461870813142,
          -0.4766374712845204,
          0.37256294146318353
        ],
        [
          -0.29646476689116175,
          0.7383641023239552,
          0.6641996792751492,
          -0.30441744411887045,
          0.8700313290597268,
          0.1686335313687878,
          0.4947615865975402,
          -0.47836184417523736,
          -0.15629818044831528,
          -0.43847149427661386
        ]
      ]
    },
    {
      "activation": 2,
      "biases": [
        0.20425241252471524,
        0.3702871221875926,
        0.5994190009752114,
        -0.2859750886975509,
        0.0,
        -0.02065574083089238,
        0.27227803076112433,
        0.0,
        0.0030198226439484615,
        0.8613318610870582,
        0.05850082734216586,
        0.08615496201165421,
        0.15874610852628715
      ],
      "cols": 13,
      "rows": 10,
      "weights": [
        [
          -0.12281774880367897,
          -0.37117261400297574,
          -0.23907176507050953,
          -0.1727831103065923,
          -0.09165252752709614,
          -0.43603043883379505,
          -0.3529255413178992,
          -0.36712897225721197,
          -0.033212208140462274,
          0.4539541301717603,
          -0.3805915032533071,
          0.016885160897411506,
          -0.33505844247673144
        ],
        [
          -0.4987764221977048,
          0.3748943339060144,
          0.6243033630760207,
          0.05974612654917844,
          0.029787913126416696,
          -0.28981165737851305,
          0.11237883621229616,
          -0.42930178755158555,
          0.10693533082372762,
          0.7136154387697395,
          -0.33147678639413924,
          1.0270990269427844,
          0.398239189045366
        ],
        [
          -0.07163323069480548,
          1.0175184826913617,
          -0.035252849579856124,
          0.41527893591075604,
          0.10661582954111594,
          -0.118154294872492,
          0.7929299322161985,
          -0.3652912806484708,
          -0.3463940532633031,
          0.7986678635267094,
          -0.15240792230846797,
          -0.007500276338902534,
          0.2053157935100435
        ],
        [
          0.191787426520546,
          -0.4008931680959962,
          -0.23071755359550486,
          -0.29352922356671485,
          0.1675011565211525,
          -0.03919976510010679,
          0.2554742706603105,
          -0.18845402675276393,
          -0.2716906434043272,
          -0.3671699018549529,
          0.32405193749173605,
          0.0042987301218655105,
          -0.3246689348262957
        ],
        [
          -0.5082001153076044,
          0.1237212963103745,
          0.09069450290028969,
          -0.7772268096201741,
          -0.08366087432462663,
          0.04210381692993585,
          0.48008323151069277,
          0.34897462575214133,
          -0.16459303516213847,
          0.19264085650373441,
          -0.3385437204972773,
          -0.5597491516799812,
          0.2940446701792768
        ],
        [
          0.052707195814050097,
          -0.03805571657188932,
          0.5796531501870726,
          0.38805844527895106,
          -0.4935311851537957,
          -0.28340592706331547,
          -0.4127924177479814,
          -0.28146452384194043,
          -0.4025252009902227,
          0.8732496212896257,
          0.6508653387661664,
          -0.019378302718968246,
          -0.17215421480191706
        ],
        [
          0.30438408265414874,
          -0.3755975258644383,
          0.680295614444932,
          -0.3031819207095112,
          -0.13499316659719532,
          -0.41850353164643866,
          0.016315374759778158,
          0.02854052102432177,
          -0.0004782301675449564,
          -0.03416092152674876,
          0.5029119086636745,
          0.14142244622585207,
          -0.3920377581693807
        ],
        [
          0.6589401869784866,
          -0.2601703399254237,
          0.13363195594371746,
          0.3618578057247855,
          -0.06124522084497245,
          0.3633233584826768,
          0.03278926960845448,
          -0.4281464921579318,
          0.06466260093524333,
          -0.3210238791059546,
          0.39007150506900456,
          0.9490649130810952,
          -0.44224136870122727
        ],
        [
          -0.15143172267411015,
          0.27915672765497856,
          -0.20709514744873742,
          0.2647136850899589,
          0.33147286433054074,
          0.2465347518099677,
          -0.28152573629223154,
          -0.3568905008094808,
          -0.12249506360215885,
          -0.23748159380685246,
          0.5102948162780482,
          0.04425716880483881,
          0.3201462107083466
        ],
        [
          0.8565827633517484,
          -0.17464871600390325,
          -0.5023493052767514,
          0.5678730286894732,
          -0.23931170645945665,
          0.2664848191373405,
          -0.054400897854318425,
          0.03537123350260136,
          -0.43624258682938144,
          -0.19513878626815595,
          -0.023485090825352245,
          0.05246041100994606,
          0.7126988019575806
        ]
      ]
    },
    {
      "activation": 1,
      "biases": [
        -0.6272810456999269,
        -0.2125499628779706,
        -0.5524226870981119,
        0.18138535897883182,
        -0.16747588983419584,
        -0.15550223549114703,
        0.2021787415295746,
        0.5424260943893782,
        0.39553014311080564,
        -0.42890114780186284,
        -0.2327038130271344,
        -0.37126789968469986,
        -0.1844999042526662,
        0.08471507100263181,
        -0.31381740667401914,
        -0.06684441472082167
      ],
      "cols": 16,
      "rows": 13,
      "weights": [
        [
          -0.6530604452520029,
          -0.21874539976919283,
          0.009416624077292839,
          0.21509479756796598,
          0.25380526699005557,
          0.08683253718207568,
          -0.3811701513549478,
          -0.1938390374501109,
          0.07757502234936692,
          -0.2949045810931494,
          -0.0756733771852075,
          0.010539322447125698,
          -0.1464256669200828,
          -0.1757234078393743,
          0.12255541691866842,
          0.8491254144378115
        ],
        [
          0.328486603305382,
          0.24815563888865183,
          -0.33673157709277113,
          0.08754053344672219,
          -0.40113627507984645,
          -0.35484990658987975,
          0.39495080214420286,
          0.18622054905955163,
          0.4069657028411865,
          -0.12243418377491133,
          -0.10463503217670442,
          -0.27591818529981,
          -0.4206454946296624,
          0.13476321636557836,
          0.37308716359906147,
          -1.0281068842409091
        ],
        [
          -0.34621030025805644,
          -0.6173351104522344,
          -0.06106740164376245,
          0.21321079207619428,
          -0.2582136438720461,
          -0.3322154320188738,
          0.5866191820587248,
          0.6884711980887771,
          0.3651054927144439,
          -0.5545288608084656,
          -0.3238534704077304,
          -0.1850640105945603,
          -0.17046265995180718,
          -0.07812735426739455,
          0.01356335785998042,
          0.14966664527262377
        ],
        [
          0.6781382332596088,
          0.29117588077867984,
          0.45469355307008386,
          -0.19473414768419733,
          0.23191804663402577,
          -0.22546942933163855,
          -0.679145466061695,
          0.1528807760731107,
          -0.08571941047824501,
          -0.17315323631638443,
          -0.20014219768019442,
          -0.00945710684841349,
          0.30317848572623546,
          0.04371003543978649,
          -0.11090661398682908,
          0.38955702228156797
        ],
        [
          0.026145324081944896,
          -0.162723469426521,
          -0.1631895720572608,
          -0.049367426041457795,
          -0.325118876919251,
          0.05814067305928285,
          0.4062655922444492,
          -0.07550223819763585,
          0.2829851662235666,
          -0.25704349780941244,
          -0.3656570446558998,
          -0.04614830027255621,
          0.2527625165174208,
          -0.3821937422899178,
          -0.18616417470768212,
          0.2283498881833254
        ],
        [
          0.03405237657199937,
          -0.28626870605759225,
          0.06860270903962383,
          -0.05761655283645678,
          0.39749422844558496,
          0.13180245241682106,
          -0.23291579221856526,
          0.09481389078794106,
          0.13382566398150525,
          0.11413984625764008,
          0.4558535967509722,
          0.3735429770902079,
          -0.19955912487442642,
          -0.014441520917686412,
          -0.34263269329118845,
          -0.21539271265311372
        ],
        [
          -0.14719573043934642,
          0.44545707775653115,
          -0.5580996533241536,
          -0.4595154593709658,
          -0.0669883011276526,
          -0.04023335243383315,
          0.42141813237747017,
          0.08689854291346899,
          0.22064817385838933,
          -0.40679187226280467,
          -0.08902418694936683,
          -0.030053305041669358,
          0.33491870089341597,
          0.4235998980468151,
          0.3560944729394064,
          -0.5909722848043732
        ],
        [
          0.20444915752815146,
          0.17826710789669323,
          -0.22776356931490588,
          0.09289044651071261,
          -0.30406796706286704,
          0.2789547741270855,
          -0.18362847894684534,
          -0.1404262275762231,
          -0.25904713749605307,
          -0.11549161558764427,
          -0.2819069462485483,
          -0.30865728801046705,
          0.36391036541398014,
          -0.04794569025254041,
          -0.022958803943394644,
          0.22049660846032823
        ],
        [
          0.1733887459498882,
          0.43503287418976294,
          0.06953547924776561,
          0.13425874217894607,
          0.32341321119729094,
          -0.29190768374965886,
          0.42818401659574146,
          -0.33598129098744967,
          0.10347868504482757,
          0.26985173231749,
          -0.200547196057221,
          -0.39302219530625715,
          0.20971699678615555,
          0.1866302679846801,
          -0.14835338242303814,
          -0.30325307752040004
        ],
        [
          -0.49909861729775673,
          -0.3745083358876033,
          -0.2726408667022867,
          0.11530843403964731,
          -0.35714798910340034,
          0.10895008619823968,
          0.16927620883212902,
          0.7502503543806358,
          0.5041646935538903,
          -0.3155413996236418,
          -0.6839418736861659,
          -0.7621255822909319,
          -0.25922990146685815,
          -0.054632479021733904,
          -0.6813700774410432,
          -0.5099384747108741
        ],
        [
          0.7737637553282125,
          0.2937774907576125,
          0.027206251675675846,
          -0.06913053011021565,
          -0.23431412096410048,
          0.15516686156359735,
          0.4223942348324044,
          0.4530193704916586,
          0.1683017596692991,
          0.10509315499578367,
          0.5633391542468018,
          0.07549658968384772,
          0.18302474506948085,
          0.3095327658813072,
          0.11607648857186219,
          0.2813575533695704
        ],
        [
          0.8107301337785839,
          -0.16957666301181684,
          -0.6168255854396759,
          0.10600392663263457,
          -0.3466545930295568,
          0.2755163771079785,
          0.19507020285474325,
          0.39450114314053525,
          0.785753826413852,
          -0.5860791795682017,
          -0.38578905514933526,
          0.06711585358229653,
          0.4905820797643272,
          -0.5457606640508691,
          0.23726960228421864,
          0.07276620752665813
        ],
        [
          -0.02370190823548537,
          0.6415590497207284,
          0.42560233934716407,
          0.25630978953279515,
          -0.041176280537576625,
          0.25023662658540025,
          0.05916128537609077,
          -0.053784296022309365,
          0.21758470697993426,
          -0.4387928019215493,
          0.044769618309884344,
          -0.43061825894409267,
          0.45637416274450376,
          0.10290961403943728,
          -0.005413482620841067,
          -0.5095363326363461
        ]
      ]
    }
  ]
}
