{
  "layers": [
    {
      "activation": 2,
      "biases": [
        -0.01672771998762722,
        1.4352813382943461,
        0.8905299512049836,
        -0.5253291324694771,
        0.5466053151029951,
        0.0,
        0.0
      ],
      "cols": 7,
      "rows": 3,
      "weights": [
        [
          -0.13005347238542728,
          -0.24039383200719233,
          -0.22982916671371342,
          0.8392037739003381,
          -0.8774776318163404,
          -0.34721056563237374,
          0.20569167996851886
        ],
        [
          0.1208750379759301,
          1.071094568584718,
          0.6883268770257511,
          0.3431847586393702,
          0.6482092247951656,
          0.2433294820309623,
          -0.7394662630852336
        ],
        [
          -0.05188689480410888,
          -2.5942899260778027,
          -1.6447089074940253,
          2.305049246451443,
          -1.0327726169106448,
          -0.23180910064881852,
          -0.5805223631603815
        ]
      ]
    },
    {
      "activation": 2,
      "biases": [
        0.0,
        0.7060014321585465,
        -0.05328799149970477,
        0.0,
        0.09498490408919863,
        0.017761867174177333,
        0.19210975275993913,
        -0.06138096798545233,
        0.2755239754632018,
        0.11240266740251896,
        0.0
      ],
      "cols": 11,
      "rows": 7,
      "weights": [
        [
          -0.014692361029182375,
          0.32812350554597647,
          0.1844838981286129,
          0.04567815008304896,
          0.43072759474232825,
          0.3483406973251699,
          -0.5120728715709792,
          0.38235550336980434,
          -0.09512053512703764,
          -0.4294500266357963,
          0.02450960620486075
        ],
        [
          0.17140339569132115,
          1.245951543152854,
          -0.2918126122455419,
          -0.16318957639814657,
          -0.9104714617872351,
          -0.8642770896499145,
          0.3575865581214628,
          0.36874090161638434,
          1.0745121371199517,
          -0.9404176381531759,
          -0.29514071629806776
        ],
        [
          -0.2009718721973336,
          0.6777104957972976,
          -0.6652413850772193,
          -0.31343187292748337,
          -0.7775602339019382,
          -0.5096127304496484,
          0.6578653757589182,
          -0.0003616131534547541,
          0.2979834539704881,
          -0.30102571589516774,
          0.16349405563917727
        ],
        [
          -0.2351812612752316,
          -0.4347360499964415,
          1.3908007451051354,
          -0.10563220606681818,
          0.7903486905364108,
          0.3046330745125474,
          -0.15082335960784582,
          0.4063643977515435,
          0.09060217100085988,
          1.4498444308564742,
          -0.34268821496697
        ],
        [
          -0.1515153806391334,
          0.6601113127155502,
          -0.14351303757142547,
          0.568940662275287,
          -0.6965623483093214,
          0.37614640169325847,
          0.5478374102742269,
          0.07896924274219363,
          -0.2828696365858634,
          -0.6555569230454323,
          0.08545648584219194
        ],
        [
          -0.40431527566546155,
          -0.2812061411314541,
          -0.21941515042225945,
          0.11055254216591667,
          -0.10914942057902816,
          -0.46518690051634737,
          0.01632294986921498,
          -0.13990607174790312,
          -0.26787850108428746,
          0.3291798590111227,
          -0.18031219406917606
        ],
        [
          0.08583025248239926,
          -0.0423104100725014,
          0.4030864364146577,
          0.14340993034622151,
          0.3448438129043003,
          0.08110838766186791,
          -0.4789096823655607,
          -0.4310517268520717,
          -0.05656858291785768,
          0.3556110249453924,
          -0.572833013485621
        ]
      ]
    },
    {
      "activation": 2,
      "biases": [
        -0.3745798028019458,
        0.0,
        0.005094817648976178,
        0.1098447011085749,
        0.03054716808370621,
        0.7433070021593874,
        -0.254180036355445,
        -0.29893869495908243,
        0.0,
        -0.16402957305507385,
        0.06609960982108995,
        0.0274793035727604,
        -0.3638757002851029,
        0.0,
        0.14326576854275472,
        0.0
      ],
      "cols": 16,
      "rows": 11,
      "weights": [
        [
          0.23566651317275947,
          -0.45776299432889067,
          -0.015322256073177866,
          -0.2599478829107363,
          -0.17016840955785048,
          -0.02095515559847191,
          0.05928804492632321,
          0.09802809037216619,
          0.09192156783165874,
          0.29454552490972746,
          -0.3501148609744568,
          -0.21583631425493935,
          -0.45952722145667807,
          -0.21315055550365525,
          -0.12292621118878796,
          -0.37664044459053286
        ],
        [
          -0.6943191259285502,
          -0.3008663760288137,
          -0.14502308521018506,
          0.2434511325545718,
          0.6041820288793353,
          0.923203482992189,
          -0.5620781937007714,
          0.31554523919992233,
          -0.33822860631284984,
          -0.922980292868804,
          -0.29038201053225055,
          0.43765449694745145,
          -0.5432992945216228,
          0.25297166190692033,
          -0.39561934478081884,
          -0.1760470511128281
        ],
        [
          0.16920691053179676,
          -0.3762919116656394,
          0.10963494025090409,
          -0.13965748761689287,
          -0.40439821995914066,
          -1.3314419603720342,
          -0.22724966259043117,
          0.5146736662015658,
          -0.4124746018074542,
          0.4301094596155092,
          0.28009248241850687,
          -0.2236894781506848,
          0.7030184249867261,
          -0.3740558654955617,
          -0.19887248794240978,
          -0.28801556878710216
        ],
        [
          0.3855613646494846,
          0.024891568079249526,
          -0.14921612631100892,
          0.3323847402982066,
          -0.23717364759771842,
          0.3844453749303725,
          0.4285391953726414,
          -0.28978321595603596,
          0.014250175028670785,
          -0.0969911773605204,
          0.21748554107233325,
          0.37339855070938416,
          0.43645057504194923,
          -0.10624211470697054,
          -0.06202536946872501,
          -0.29604512251230386
        ],
        [
          0.6632163317879828,
          -0.2546297544895144,
          0.019800364169869026,
          0.08840906566512619,
          -0.12304986234593546,
          -0.3120063593379228,
          0.5347267914165588,
          0.1394287877366925,
          0.029195145026149085,
          0.4194252073033722,
          0.04237893838919425,
          0.3724610024053865,
          0.8962618407721752,
          0.06910287637403459,
          0.3688025544463244,
          -0.42706163574252004
        ],
        [
          0.6884371284498827,
          -0.15204396428383776,
          -0.2994466480792226,
          -0.1711279139318461,
          0.018458572805986548,
          0.19993221562740715,
          -0.025806149371824405,
          0.3230479143213266,
          0.4221008318153773,
          0.7861271717669834,
          0.5400923875166778,
          -0.29996867757010165,
          0.22454774314398337,
          -0.12869601070258388,
          -0.1799734915982484,
          -0.01967836028617731
        ],
        [
          -0.2823218898988391,
          -0.3904050310697895,
          -0.1996846295031792,
          0.41187899764466823,
          0.18124046833677265,
          0.30070691221601037,
          -0.17959542811925494,
          0.22433505391403488,
          -0.3893575839801892,
          -0.427866463920185,
          0.3275571746076122,
          -0.34001640711747144,
          -0.393226225786287,
          -0.18991048907404603,
          0.24085637762683815,
          0.191772265521787
        ],
        [
          -0.23104299151034463,
          0.4135722212079928,
          0.4571970615196826,
          0.30134572879119237,
          -0.34869506274452844,
          -0.14364664344053218,
          -0.3400600368006803,
          0.11537497074243433,
          0.10464366606146258,
          -0.13669317467601577,
          0.1662671087903469,
          -0.2841887281521779,
          0.10237019328338298,
          -0.416984112207541,
          -0.21189674336927897,
          -0.3476465444001867
        ],
        [
          -0.8306680119423201,
          -0.42274174181882374,
          -0.4444136588125769,
          0.16430651748594904,
          -0.2706702340522935,
          -0.016973790298109116,
          -0.11947154129953579,
          -0.25460559681849554,
          0.4072329444525943,
          -0.6424715361897388,
          -0.1910645932565784,
          -0.08091716950693362,
          -0.3260599030859462,
          -0.35236779266475676,
          0.4384159944197658,
          -0.30784104989206484
        ],
        [
          0.47262728012638044,
          -0.011517386540842068,
          0.0041946960576454,
          0.03663100356102745,
          -0.2184211610917039,
          -1.2360738806400882,
          0.5374385153553032,
          0.45651351288664,
          -0.42954447102804955,
          0.24701024981381461,
          0.42011194921784456,
          -0.09528852853455479,
          1.130219069139701,
          -0.46190113962695195,
          0.2045013906143119,
          0.25149466642992774
        ],
        [
          -0.45569676966534356,
          -0.2968620676092314,
          0.3379642129856025,
          -0.10227352003413218,
          -0.29074791561108065,
          -0.3369103240136221,
          0.2936695044191393,
          0.4311609576466693,
          -0.26509317456963893,
          0.33655644282926195,
          -0.29373261010519064,
          0.3182625676631863,
          0.24350097572155843,
          -0.08280532347154841,
          -0.2854960345722444,
          0.2579252754060919
        ]
      ]
    },
    {
      "activation": 1,
      "biases": [
        0.12361048897792927,
        -0.1448448707303409,
        -0.8375419995580496,
        0.41441922709990003,
        0.1656644996172969,
        0.09513479918981384,
        -0.15964242063093892,
        -0.28404544238504403,
        -0.5507135132070741,
        -0.5186579793787928,
        0.6215492240034596,
        -0.21179461640028674,
        0.2142794715654124,
        0.5346231537128282,
        0.19813538248164525,
        0.3744320843302712,
        0.5529200573292727,
        0.07915965963855694,
        0.3604369647966232,
        0.315461646731613,
        0.29245201384402,
        -0.7326707574439756
      ],
      "cols": 22,
      "rows": 16,
      "weights": [
        [
          -0.4625587121334782,
          -0.24516798953030058,
          0.401209950742588,
          0.4995936316606304,
          -0.43630179723306556,
          0.1331841184324376,
          0.6095301979467896,
          -0.5691134934712768,
          0.13731433253487688,
          -0.5362290302357605,
          -0.051478055296053114,
          -0.12467968361146835,
          0.17598431274824677,
          0.15911858493306422,
          -0.28129667092196453,
          -0.2795934038429389,
          0.28289951327875257,
          -0.26646224943184305,
          -0.1541845252437177,
          0.7007811208033687,
          -0.34583669456775606,
          -0.32990827026892605
        ],
        [
          0.19631352776894154,
          -0.2061987879229875,
          0.2570274610654764,
          -0.32898986866445945,
          -0.3419243714540013,
          -0.11801484230750908,
          0.2813534998434475,
          -0.15596608338570125,
          -0.065312097345535,
          0.009971034438758375,
          0.04156614820638948,
          -0.23134921994397684,
          -0.05132635539405937,
          0.043945838244968026,
          -0.27893862169267614,
          -0.2549028551421732,
          0.33904685354128156,
          -0.20972543352556106,
          0.22410994558649378,
          -0.1643632777430846,
          -0.3275964875145152,
          0.16140487065555403
        ],
        [
          -0.23807155858603554,
          0.18472643572563777,
          -0.2387568345135063,
          0.32897293187379995,
          -0.10816081200342291,
          0.1455111842675092,
          0.13125969365033596,
          -0.34493168385014833,
          -0.19389518914810716,
          -0.10366425899454529,
          0.04552779800111552,
          0.2738481356531956,
          -0.3654537813834075,
          0.3096786817744093,
          -0.07083304081543108,
          0.18120835079938546,
          0.22588325166968964,
          -0.27299921712979575,
          -0.35311690813745644,
          -0.00268838936285764,
          -0.0952348560148754,
          0.3504752863903536
        ],
        [
          -0.14154303826459352,
          0.03684856270540447,
          -0.2346587404510593,
          0.2367779600104931,
          -0.11412222688480571,
          -0.2829414186124393,
          -0.13339309236485983,
          -0.24628378958634914,
          -0.12587483734753419,
          -0.3846781704339628,
          0.3360423822219289,
          -0.11695303274890088,
          -0.20464619879917303,
          -0.09385875244789518,
          -0.040348766705066055,
          0.7716090878543119,
          -0.1869944570130383,
          0.3433673849711041,
          -0.055388358221579836,
          0.28866642670220743,
          0.06550608129475854,
          -0.3291330755376644
        ],
        [
          0.3222771428211895,
          -0.37963846253746,
          0.05769982379349622,
          0.25371121539531327,
          0.015030711275871194,
          -0.0046535047245571315,
          0.04760101052752185,
          0.34394478565300657,
          0.36994625640561823,
          0.37450891975136724,
          -0.44235191937574436,
          0.23010393880726432,
          -0.11206314945387164,
          -0.33584978439571705,
          -0.17378859665078267,
          -0.4260598063631063,
          -0.0125762329984908,
          -0.06878362067765209,
          0.12973338750446453,
          -0.40564222615504286,
          -0.13776909685257094,
          -0.16410712125681454
        ],
        [
          0.7565146665677299,
          -0.21281415597712888,
          -0.2270370283976644,
          0.7781795611668095,
          0.6617248293094847,
          0.12309458590527822,
          -0.901044045308832,
          0.5518841749430878,
          -0.012620957202725368,
          0.25372887198987704,
          -0.12441414944550204,
          -0.5796102788739002,
          -0.037070895703300584,
          -0.005382176764791305,
          0.8484880572811229,
          -0.8761857688083885,
          0.16767736644888626,
          -0.25190770300467086,
          0.08465029828078495,
          -0.2591071499291497,
          0.8724165093394933,
          -0.09613887491008491
        ],
        [
          -0.5602793306135535,
          -0.033171433957313465,
          -0.2814658695519777,
          0.08590863958455192,
          0.0911990524322582,
          -0.16786269086755806,
          0.07599619998971967,
          -0.11398971265018315,
          -0.0832812446469917,
          -0.31679226823240486,
          -0.382872609767979,
          -0.6024324361494547,
          0.2586090747028598,
          0.11565894630739086,
          -0.27762534744100886,
          -0.3592900902713946,
          0.24147197857175637,
          -0.013169020110086867,
          0.09067055080688186,
          0.4852403565883065,
          -0.4081977733272925,
          -0.05883713771036505
        ],
        [
          -0.2938361245919057,
          0.060101390331546316,
          -0.33548839409212744,
          -0.821576702766255,
          0.08435465098417227,
          -0.28485806852562917,
          0.04457963736187763,
          0.284564517045209,
          -0.5920769360938435,
          -0.26093786390411283,
          0.25695946811550646,
          0.4141616770286246,
          0.13249620558871558,
          0.35040956340969603,
          -0.2300319588894354,
          0.8068262708279301,
          0.17733628006286448,
          0.32279431006478293,
          0.2893373778681485,
          0.19073914621922547,
          -0.5453058779328561,
          0.19394136599149947
        ],
        [
          -0.16499587699359605,
          -0.03298438473439113,
          -0.13886436147329959,
          0.22772283675800847,
          -0.3782401970476991,
          0.1257068518717033,
          -0.0391029204015403,
          0.08294371037263633,
          -0.33146859167302767,
          -0.25454944785129413,
          0.26945331698250763,
          0.03723409358509572,
          -0.32789884956095816,
          -0.03406635192408644,
          -0.07580380093799198,
          -0.3198894545859356,
          0.1724307511441411,
          0.23102084678282908,
          -0.17393806243456805,
          0.035557901930417184,
          -0.1361253874311993,
          -0.17629805068299118
        ],
        [
          -0.5875813489872571,
          0.1563149903073609,
          0.17676643967893504,
          0.39931662310561156,
          -0.3799942185606418,
          0.6102575309551762,
          0.35466642867296627,
          -0.3746687713979668,
          0.04738753205022233,
          -0.37202725686985627,
          0.46761085291994936,
          0.05344535744592226,
          0.7997496600086097,
          0.09220774983596819,
          -0.09759123245883823,
          -0.34690063498473206,
          0.026789094863733803,
          -0.21625630873173493,
          0.5668054845585221,
          0.4421160213776398,
          0.2822553698933617,
          -0.5038226211657075
        ],
        [
          0.1101384230612321,
          -0.13521872285674352,
          -0.06682890702134892,
          -0.6296379305579897,
          -0.5319257782086052,
          -0.17505873846586,
          0.25423351964036245,
          0.28855257051945915,
          -0.616543269974865,
          0.1695041137563692,
          -0.07687511761571364,
          -0.26097532598781437,
          0.09997049472314584,
          0.056845267349296125,
          -0.32646672141507416,
          0.4004985658288417,
          0.2918898583489679,
          0.15491091354163827,
          -0.3754955836482404,
          -0.16532160397892576,
          -0.07193675709345981,
          -0.16621831517603833
        ],
        [
          -0.08965198079944012,
          0.3235138922780503,
          0.27081416718369383,
          -0.0010752158185814013,
          0.040074834322319404,
          0.3633191858552607,
          0.061845207737898165,
          0.06187314727256151,
          0.3932924292870617,
          0.3468848507626796,
          0.011628699127949524,
          0.1620079401016637,
          -0.10105612066950351,
          -0.22156344688795637,
          -0.08203782815433405,
          -0.29489393942857745,
          0.044988540676817165,
          -0.35741721387304337,
          -0.03199443411063878,
          -0.0001992695990652926,
          -0.10635221947486966,
          -0.14847249466491297
        ],
        [
          0.252007869315669,
          -0.03236235349296683,
          0.1498005563469884,
          0.1272039688446113,
          0.22764049688786636,
          -0.15084325494442224,
          -0.11923774513297807,
          0.2298573926619975,
          0.45438604641852454,
          0.25538410088273283,
          -0.3879276260446484,
          -0.028914607030743684,
          -0.4409317327700406,
          -0.3177097222254758,
          0.2059999736399711,
          -0.6669611471193585,
          -0.31187533228181685,
          -0.3457768849623367,
          -0.2786323945250067,
          -0.23737678442475896,
          0.14453345867589731,
          0.2297465485389489
        ],
        [
          -0.22949813502661984,
          0.2836952295749713,
          0.1723217262823786,
          0.34612983546779624,
          -0.2658708681446638,
          0.01305058618270159,
          -0.15095804027897816,
          -0.08148890684354498,
          0.0318044396444633,
          0.38098597371774623,
          0.2244243378706311,
          -0.37111151960961747,
          0.3242472453598753,
          0.29783194827099224,
          -0.009490008855808094,
          0.3513443151293139,
          -0.13220464570409787,
          -0.20776309037359544,
          0.23792539535641732,
          -0.05120699854613388,
          -0.309819198996559,
          -0.34033104958912497
        ],
        [
          0.5665477928913394,
          -0.21828410464747655,
          0.16865734646246786,
          -0.029570157532163903,
          0.2993733868134817,
          -0.06669487944581173,
          0.25500675506253245,
          -0.12672448669465405,
          -0.39739801851513173,
          0.1525795143763314,
          0.17286479793741297,
          -0.3051442954147372,
          0.0642414885528247,
          -0.3425568384771115,
          0.2714246014825949,
          0.415919279330249,
          0.059609825307641445,
          0.12333844442911857,
          -0.22647628893227187,
          -0.08389307613685404,
          -0.14218874803153358,
          -0.37077282116256244
        ],
        [
          -0.1672032390951913,
          -0.15933599062287734,
          -0.3916522634147271,
          0.23112940609644894,
          0.21731381532983038,
          0.25056578459120954,
          -0.08307521477046699,
          0.3603155951087777,
          0.19621526972566933,
          -0.013664345166170573,
          -0.3198696676796651,
          0.18032807225013026,
          0.3937681793527486,
          0.23991260462630454,
          0.07791490263452937,
          0.09967252082141859,
          -0.22234729853314686,
          -0.003992372303974646,
          -0.3695280112627421,
          -0.14887310549664312,
          -0.33450418316394176,
          0.380050202337418
        ]
      ]
    }
  ]
}
