{
  "layers": [
    {
      "activation": 2,
      "biases": [
        0.14884759892208496,
        0.46999792256321254,
        0.0,
        0.0,
        0.0,
        0.4390138249768143,
        -0.0673553419892997
      ],
      "cols": 7,
      "rows": 3,
      "weights": [
        [
          -1.111177328074082,
          -0.36234494049726274,
          -0.5883596588428287,
          0.007328633744154801,
          0.1678070309142877,
          0.1341527326730565,
          0.8991754025444196
        ],
        [
          0.5148112013495982,
          -0.3626607027031601,
          -0.0597066346444653,
          -0.7631197406286683,
          -0.7483008010501526,
          -1.269175084498093,
          1.7437747782709334
        ],
        [
          -0.0071880560490281565,
          2.8620739150495367,
          0.3878748674344064,
          0.018168554454219044,
          -0.3400414451908265,
          0.9089806493663223,
          0.08413315591951734
        ]
      ]
    },
    {
      "activation": 2,
      "biases": [
        0.6315245844417499,
        0.0,
        0.10945210870736338,
        0.29845742447446155,
        0.0,
        -0.39338305422630604,
        0.173298346276342,
        0.04114474701621982,
        0.3551014633771812,
        -0.042637266195789635,
        -0.09517205359504213
      ],
      "cols": 11,
      "rows": 7,
      "weights": [
        [
          -0.0770679616518234,
          -0.08017641598024597,
          0.13486814469567,
          -0.28015740519658705,
          -0.05299311137071972,
          -0.026971115072905255,
          0.3593434912571538,
          0.006727806949650627,
          0.03256280566772647,
          0.06295857587046118,
          -0.9611846481986508
        ],
        [
          -1.0822407504989695,
          0.010504908591996345,
          0.9905761654397535,
          -0.5131345760399152,
          -0.381107717283014,
          0.49147597954006056,
          0.8255522552418061,
          0.31741933142399587,
          -1.0946283222922215,
          1.3502361920912849,
          -1.2279067730320599
        ],
        [
          -0.4845574713632436,
          -0.11318366634343702,
          -0.3764279575469543,
          -0.35285379898109503,
          -0.15351798590802346,
          0.534563102351996,
          -0.2931229839336621,
          0.4611762043699065,
          0.5493923780328213,
          -0.050609900463724385,
          -0.1692506330426076
        ],
        [
          0.14547598682565838,
          -0.48609352351851964,
          -0.020432711741948134,
          0.12816564057116384,
          -0.5757864169031036,
          -0.32282789895855235,
          -0.5654942471727961,
          -0.5162472948963653,
          -0.5025078212465588,
          0.4136996916923942,
          -0.5679635190098608
        ],
        [
          0.5138708299652823,
          -0.26754074255574223,
          -0.46652634828516265,
          0.5634170022455048,
          0.30290326604365164,
          0.1693320477126852,
          0.07831916643607839,
          -0.14843994151727827,
          -0.16921398506873167,
          -0.5559238457836566,
          0.1464867825419407
        ],
        [
          -0.7227469525516925,
          -0.15336368555478988,
          -0.6163046526094492,
          -0.5075284343540474,
          -0.17948131846655202,
          -0.8173710570217876,
          0.4394665741100287,
          0.8755019592038991,
          -0.0909928448790035,
          0.49677187576156046,
          0.1768158750896625
        ],
        [
          0.9208063946080958,
          -0.291861456864617,
          0.6976533515766108,
          0.4659767933411268,
          -0.46471322073568877,
          0.8583486948222545,
          -0.7471296994297827,
          -0.4150487596006687,
          0.9087470220408529,
          0.4594308105906001,
          0.6940721156613308
        ]
      ]
    },
    {
      "activation": 2,
      "biases": [
        -0.08071254917690658,
        0.014159193764256494,
        -0.22463828007377679,
        0.0,
        0.03573527736492882,
        0.032788566764854706,
        0.0,
        -0.3555120356074628,
        0.41357405648246803,
        -0.06302091573623382,
        0.15150557723476935,
        0.0,
        -0.15897812557705898,
        -0.01421284190742136,
        -0.017659721176489254,
        0.47328745881656514
      ],
      "cols": 16,
      "rows": 11,
      "weights": [
        [
          0.326149680109488,
          0.25418848102357267,
          0.6546264242347625,
          0.2275367074609422,
          0.43471918946928356,
          -0.14268988226679774,
          0.3035886857564265,
          -1.187662239187909,
          0.0050607541370658584,
          -0.14100539383868965,
          -0.45137886054975335,
          -0.42703476712658184,
          0.8692370410965441,
          0.2636128652966807,
          -0.31008682530992443,
          0.33231874660151955
        ],
        [
          -0.22909139757999303,
          -0.3667530125620496,
          0.2953657899490361,
          0.17596963920587871,
          -0.23649029615683145,
          -0.0703456473257639,
          -0.06749153386608393,
          -0.1630222994369344,
          0.3636324015059035,
          0.2587779281033479,
          -0.07847863249046722,
          0.4319024677872613,
          0.1321390837845996,
          0.281740647196202,
          0.22007374962560441,
          -0.46295657749561586
        ],
        [
          -0.019230354842154507,
          0.059198812631255905,
          -0.14783879074469464,
          -0.07023730972967553,
          0.22204350306954215,
          0.06269689515201401,
          -0.13093266405069823,
          0.5352327095661772,
          0.8498185901993377,
          -0.007760724327757703,
          0.16258822597025782,
          0.29796496019516266,
          -0.6755582294036305,
          0.40490804986782336,
          0.2664220198754239,
          0.22483845899048363
        ],
        [
          0.0830368842721581,
          -0.6727025307920828,
          0.17304701789218296,
          -0.08154456591317909,
          0.20178310694939408,
          0.28939048687412783,
          -0.06898164754968165,
          -0.24864094172058043,
          0.34647135962713527,
          -0.2610092087253765,
          -0.5595625570175836,
          -0.30454288382171246,
          0.571628501809267,
          -0.32933508607387535,
          0.1461848740668481,
          -0.16026715533339284
        ],
        [
          -0.4318486747986165,
          0.20637518267233346,
          -0.09305873019574207,
          0.32482715751956187,
          -0.07407398169340564,
          -0.15704948030988566,
          0.28057077843862943,
          0.12831690901967494,
          -0.4221074247239646,
          0.4436119028093629,
          0.23027156553464562,
          0.05803835750113815,
          -0.3352162582177478,
          0.051202535991341086,
          0.15539330979919638,
          0.30632376861332217
        ],
        [
          -0.34589134665666743,
          -0.26070861314961524,
          -0.11474911930745112,
          -0.43712337045339805,
          -0.41861457262665075,
          0.4480221846872602,
          -0.37775277543635694,
          1.073709149344482,
          0.6236155131458927,
          -0.03647293040072242,
          0.016139643272222236,
          -0.35668351580656726,
          0.14415594205679533,
          -0.2343459194946186,
          0.13515378156222188,
          -0.31813077504848897
        ],
        [
          0.23908159460093556,
          0.5509130465179688,
          -0.07378668873305508,
          -0.36443520282291164,
          0.1066939974118466,
          -0.4090764330412578,
          -0.014810745236283937,
          -0.7584048946888957,
          -0.6776416901851642,
          0.3638781828207085,
          0.5736621963268478,
          -0.3999637822170966,
          0.35620812225924187,
          0.3689512235852723,
          -0.23762850213638975,
          -0.08816466768577054
        ],
        [
          -0.007829995718841734,
          0.6549525545724773,
          0.1663232662814767,
          0.36788931398894575,
          -0.016782588178962336,
          -0.5211835402898685,
          -0.02260820855945892,
          -0.3994167703828939,
          -0.48934795062943626,
          0.06795267864869592,
          0.41084084271146226,
          0.037178757369363526,
          -0.06125310544880266,
          0.24057066221539797,
          0.06400612051948827,
          0.2842861428397073
        ],
        [
          0.5765199915898231,
          0.07437142086557477,
          0.563273210198909,
          0.17400551703901548,
          -0.08486883411488177,
          -0.09186045147260426,
          -0.024117501254286366,
          -1.0684153906273601,
          -0.4717903558622452,
          0.2906070320595346,
          -0.4999082688971762,
          -0.21901946201468164,
          0.28372147380007406,
          -0.08310130366662107,
          0.2478316204868911,
          0.37176460611056994
        ],
        [
          -0.3537076037868747,
          0.6042120949132282,
          -0.8394421155944065,
          -0.08292211282785615,
          -0.34522865167400124,
          0.08986803370009207,
          0.06504429949667262,
          0.5783992181110856,
          0.1861425897949005,
          -0.00044777452777507317,
          0.6722923688215326,
          -0.3335997443792884,
          -0.08965187512267128,
          -0.42186361209506656,
          0.34436569274345014,
          0.38499769473264595
        ],
        [
          0.5928509001889632,
          -0.1525016259232797,
          0.828719947113125,
          -0.2001868394889085,
          0.07183867549208459,
          0.2266815351204851,
          -0.4589465946175205,
          -0.04982939956328266,
          -1.1078708609808432,
          -0.2444778751339729,
          0.30939445129705917,
          0.07446650583048249,
          -0.04614310667775949,
          -0.04252509695926117,
          -0.42783363244603223,
          -0.555901181176234
        ]
      ]
    },
    {
      "activation": 1,
      "biases": [
        0.544704520842793,
        -0.4929574140646451,
        -0.05309837461343614,
        0.03420171281256118,
        0.14437340308066798,
        0.31025450052873554,
        -0.49912502248167867,
        -0.20658835979964105,
        -0.200380958930494,
        -0.48204963834999115,
        0.285673109398012,
        0.3553615251449575,
        -0.6382752714735935,
        -0.5716036837099208,
        -0.4795666352349439,
        -0.4274706311271682,
        0.737206706039549,
        -0.11067757145291965,
        0.5236041538347249,
        0.3462204653395622,
        0.38822136600257784,
        -0.8004453513692593
      ],
      "cols": 22,
      "rows": 16,
      "weights": [
        [
          -0.3369804480773873,
          0.41980917394059003,
          0.18802812708568634,
          0.27031175106264205,
          -0.008502035615242164,
          -0.45857169701137457,
          0.17342591534573631,
          -0.38970226366987815,
          -0.3777535318005122,
          -0.27238372926090987,
          0.06678354232369112,
          -0.3516032617053386,
          0.08633363182816634,
          0.3639901020408887,
          0.17524084216331387,
          -0.2660072578660184,
          -0.08436037365001076,
          -0.19238011058845453,
          -0.5255084441252933,
          -0.2065092722414389,
          -0.2735073858296752,
          0.3314886945102802
        ],
        [
          -0.04580064149890725,
          0.12833158395926078,
          0.013258823009275986,
          -0.05209092010725671,
          -0.29233737605059307,
          -0.13468409382541768,
          0.041575623214190865,
          -0.6614255304310764,
          -0.3690293570993375,
          0.36748367942309196,
          0.2925847162215765,
          -0.1605274696677829,
          0.08306190417622532,
          -0.7262463166167183,
          -0.26952358610581495,
          -0.09095274326357426,
          0.32493135056270717,
          0.11194621883554472,
          -0.06922926021923685,
          -0.02763120551889695,
          0.17816642414334075,
          -0.6524264773705216
        ],
        [
          -0.5415670552475533,
          0.1495642257733866,
          0.6213744775826301,
          -0.23872915689439853,
          -0.548263745743373,
          -0.7045738048305855,
          -0.21173150126544119,
          -0.013923059215152111,
          -0.3075410298903599,
          -0.10731815549373655,
          -0.1309132414036667,
          -0.6390533099756313,
          0.49534388048545436,
          0.3652129685623402,
          0.12293169691457101,
          0.04737398666093227,
          0.05868519978167768,
          -0.6006958965491798,
          -0.16298162202519448,
          -0.03419301181115456,
          0.07418443565011427,
          -0.5950066629438335
        ],
        [
          -0.027584672792700823,
          0.33404423714200127,
          0.22259432955372344,
          0.10059532864734697,
          -0.2293399223020808,
          0.24900957520286743,
          -0.09142627915402626,
          0.24783550830586246,
          -0.041729335042681004,
          -0.29050603310973794,
          -0.24429002132603614,
          -0.22262329234727185,
          -0.041969664094368565,
          0.3046952936135404,
          -0.1170890902041384,
          -0.2861243887295763,
          0.13486747857032963,
          -0.0018522012337100083,
          -0.20836969146185447,
          0.13357419175132348,
          0.392924716029177,
          0.11995025805128738
        ],
        [
          -0.33644128664089273,
          0.4201490626290704,
          -0.36590119294390094,
          0.33824508882197435,
          -0.1591915279643744,
          0.08149518973321318,
          0.368627209394217,
          0.25942316216382694,
          0.40010180496244085,
          0.22619701792179656,
          -0.29038160676302227,
          -0.0806074050859998,
          0.35708773440779434,
          -0.1445674393509043,
          -0.20467341293545224,
          -0.05127754651338648,
          0.06453554193413154,
          -0.12536774343759186,
          0.2472987022927399,
          -0.1893759951061824,
          -0.21142638222455007,
          -0.18550421935228195
        ],
        [
          -0.41187813680629387,
          -0.05456430445745374,
          0.07954058251822206,
          0.417288000334688,
          -0.03844057782757749,
          -0.07307499326012604,
          -0.5348135343985646,
          0.351549795270447,
          -0.027922319842877567,
          -0.5693414519403337,
          0.21313950202276005,
          0.4441659088894196,
          -0.1426839872578948,
          0.44851532262713867,
          0.02920056650208579,
          0.3286876210418542,
          -0.12319920905916064,
          0.14385628750095228,
          -0.1857370135353435,
          0.20619592752434687,
          0.18408820278938842,
          -0.08433753140739855
        ],
        [
          -0.23172877009450402,
          0.3276055335072,
          -0.1681394145920312,
          -0.017545962715860865,
          0.056614530068311464,
          -0.357626873991103,
          -0.2651455467289922,
          -0.303383951446101,
          0.15363233014437255,
          -0.13743615450975674,
          -0.09037467695335813,
          0.2163542865614973,
          -0.18834599363946564,
          -0.03796509113543435,
          0.2139408698174152,
          0.05250343947230963,
          -0.37523073620412095,
          0.181995415159469,
          -0.32357138047784795,
          -0.34687320853120046,
          0.38701845107140753,
          0.2718995337766489
        ],
        [
          -0.7103437604501055,
          0.8029087917396831,
          0.33561419281410654,
          -0.07984926389571624,
          0.5850027939043948,
          -0.46973579333755877,
          -0.3507799749016953,
          -0.25068926427088534,
          0.2847062971799474,
          0.42379632006204676,
          -0.6818309467551736,
          -0.32845338521448847,
          0.281135030155059,
          0.4324266684111954,
          0.3211094704453931,
          0.22551231675849354,
          -0.7768268683153553,
          0.2165847528075062,
          -0.21147150187354083,
          -0.8399111049161065,
          -0.1595138210227988,
          1.0059483754914218
        ],
        [
          0.6412145076978545,
          -0.7533592394810842,
          -0.13521254780643935,
          0.15962735791525276,
          0.4810963606247351,
          0.19266392741521257,
          -0.3233265036340215,
          0.6624151484894883,
          0.6153552934352065,
          -0.2560560789046575,
          0.5313907718153439,
          0.12145802780508848,
          -0.3778971782685058,
          0.4659396844789612,
          0.17413508195334104,
          0.6788317064552898,
          -0.027180452004369172,
          -0.21554365846068457,
          0.46292800047603255,
          0.5495118003083793,
          -0.06355905312188305,
          -0.010954420779631107
        ],
        [
          -0.11499089209140782,
          0.3174001310932849,
          -0.33546895366482715,
          -0.386501316381802,
          -0.3177882995481086,
          -0.09917903449242328,
          -0.21027112715011656,
          0.05390767044898191,
          -0.20592710502292041,
          -0.09410453959568012,
          0.3282945440048279,
          0.0005140744512154827,
          -0.38564711892782955,
          0.15144704453534616,
          0.05823900082972447,
          0.1711579127183595,
          0.0680717592777038,
          0.2785612508350864,
          -0.37980405355029995,
          0.3131985114695142,
          0.323354532415612,
          -0.32487196676572405
        ],
        [
          -0.06601839176061419,
          0.4131508333263552,
          0.29803514057909725,
          -0.39760179995922484,
          -0.044477411774830944,
          -0.18640411308741506,
          0.32648835603133963,
          -0.36204173902001974,
          -0.6111422441258572,
          -0.15998573018831608,
          -0.559847343567485,
          -0.11791890729066734,
          0.38169942858150807,
          -0.19845001502068885,
          -0.0010598176736467994,
          -0.7191633907233522,
          -0.13961628549412364,
          -0.010519104330248554,
          -0.20538252880691338,
          -0.27447347181218124,
          -0.06396765469680299,
          -0.24725272304778978
        ],
        [
          0.2950199564443777,
          0.32638641131984164,
          -0.07007439209452909,
          0.16974248003166625,
          0.39168963531037737,
          0.01024606829113306,
          0.04592560762625524,
          -0.22347672794890258,
          -0.02771169194133571,
          0.33614354581575634,
          0.037296562892458626,
          0.0785490691317689,
          0.027835190243365917,
          0.0053625156442862225,
          -0.2908027771225143,
          -0.13885264172439032,
          0.2876627455678812,
          -0.3387277021560999,
          -0.04114063128293717,
          0.3218694963387912,
          -0.22875226658076295,
          -0.0215064618102558
        ],
        [
          -0.07640987888323714,
          -0.6189294202210003,
          0.32640452915676105,
          -0.26277216841464834,
          -0.718367541878885,
          -0.48012991016681206,
          -0.006283975791642433,
          -0.2810828939898501,
          -0.2770859029208092,
          -0.33971131658419373,
          -0.41085735981115146,
          0.10063974639122515,
          -0.1941160700041506,
          0.12756301505100948,
          -0.2617839052841377,
          0.10257749716229882,
          -0.24555003972476716,
          0.19798206654049033,
          -0.1983428698042304,
          0.1967245678410698,
          0.39234022156443016,
          -0.4549696926341969
        ],
        [
          0.2388337844780165,
          0.10048431092372705,
          0.12511260020680637,
          -0.28676480429043355,
          -0.10763314896256565,
          -0.11901202705001303,
          0.32159109876718056,
          0.05680557713860687,
          -0.06845629981277114,
          0.1865538192467765,
          -0.17538396839189546,
          -0.02677963141689377,
          0.25629402789693845,
          -0.1861153344801216,
          -0.07797438021237987,
          -0.40376810080517306,
          -0.31343174473504115,
          -0.28710949240256417,
          -0.2525142031952851,
          -0.1226859900633322,
          0.3434391535446803,
          0.26017494789067885
        ],
        [
          0.2655428702791356,
          -0.31238167991357496,
          -0.09758548336143946,
          0.26304894184859545,
          0.2361802677351148,
          -0.008163301930009055,
          -0.3565814733384511,
          -0.05565766604417803,
          0.2817653431739809,
          -0.49973165481977017,
          0.38834357633543964,
          0.1951678118411,
          -0.12074894325873085,
          0.06532875063866374,
          -0.22401076751243906,
          -0.4490993555266128,
          0.41383243169878164,
          0.0011478226146958053,
          -0.07410329521773384,
          -0.26436007599918854,
          -0.26114131277326796,
          0.2961060023185061
        ],
        [
          0.16475784351862122,
          -0.12258284750947629,
          -0.1695492686426388,
          0.1449582827053545,
          -0.4049273266181483,
          0.36787359656056795,
          0.2699091546096073,
          0.22560598516023675,
          -0.3600100522107356,
          -0.03862416000638724,
          0.3704665649872223,
          0.13835829741875036,
          -0.21942978647065675,
          -0.15361491418622958,
          -0.253413936877505,
          -0.3834720514187542,
          0.5398577533647141,
          0.07688663940965007,
          0.14684869767353018,
          0.7291774197492846,
          0.39292800245170045,
          -0.17895827316360183
        ]
      ]
    }
  ]
}
