{
  "layers": [
    {
      "activation": 2,
      "biases": [
        0.8241152731032696,
        -0.10555106828509979,
        -0.017708113819440232,
        0.33447542734539853,
        -0.0032725705156259623,
        0.6820008307036268,
        0.155881374090529
      ],
      "cols": 7,
      "rows": 3,
      "weights": [
        [
          -0.3010190276614958,
          0.952506578244418,
          -0.7669385528201947,
          -0.6688814161778573,
          -0.26365750743521227,
          0.2617674476009333,
          -0.6384502628875568
        ],
        [
          -0.5054940463456524,
          0.7696310781041731,
          0.02056254412560887,
          0.8573568641104409,
          -0.524389371640738,
          -0.16023928958574385,
          1.4104714836131755
        ],
        [
          0.5675458469303659,
          1.00764762268186,
          -0.19130890566390168,
          1.0224637006154524,
          0.0014503911681690326,
          -0.12955353208746218,
          -0.7300000485097298
        ]
      ]
    },
    {
      "activation": 2,
      "biases": [
        -0.020505316950224523,
        0.18610872435546214,
        0.0,
        0.03327475293217163,
        0.38446758781023954,
        0.27164312161187065,
        0.13738973300003837,
        -0.007128977667637667,
        0.0,
        -0.0019711123441466167,
        1.3002793038874074
      ],
      "cols": 11,
      "rows": 7,
      "weights": [
        [
          0.2595041099794474,
          0.5148770314775776,
          -0.48726774703432196,
          0.4742833713206623,
          -0.31985933534030936,
          0.05156310592948126,
          -0.26749264556726754,
          -0.2548554012304561,
          0.1134892973364527,
          -0.32207731338380297,
          0.6571068344008415
        ],
        [
          -0.5556355102226332,
          0.40820240014452464,
          -0.3728062201978563,
          0.29664324732428576,
          0.7063002143220636,
          -0.8245890669888113,
          -0.07247533984388958,
          -0.2417049469035276,
          -0.15066906876387376,
          0.13213647563187897,
          -1.1194398458789654
        ],
        [
          -0.3618273732776257,
          0.17086899258901614,
          -0.3490216195530367,
          -0.5571454884665018,
          -0.400348848304852,
          0.4199726895215739,
          0.307348544007519,
          -0.09854858938222803,
          -0.036758048727380456,
          -0.14135471173466982,
          -0.28747365453126356
        ],
        [
          -0.4231201134310068,
          0.7702937979409222,
          -0.1276248612899406,
          -0.5242439230000984,
          0.7588120093154342,
          0.12034736267945416,
          0.7719102458260871,
          -0.4655697112594434,
          -0.027736928183719534,
          -0.5306402199101289,
          -0.028714648079864777
        ],
        [
          -0.3173239042067104,
          0.3793125760483457,
          0.4425566086168964,
          -0.009647964787698558,
          -0.3272138337875546,
          0.5526749066782557,
          0.38071428707672084,
          0.5754114587211603,
          0.32446552144364377,
          0.05002322639308551,
          -0.4472789592613164
        ],
        [
          0.2910419734426455,
          0.15009109036585014,
          -0.5319472149606564,
          -0.45169509555087106,
          -0.3181532243223329,
          0.3945528534300079,
          -0.7609501802269614,
          0.32327045704033586,
          -0.3586238618839578,
          0.11684337317489385,
          0.5785837227180636
        ],
        [
          -0.009118439972094357,
          -0.7691597547349355,
          0.40942682679054193,
          0.20996792328603792,
          1.2535903978298375,
          0.7437916074726862,
          0.1852191559414408,
          -0.1647443566214142,
          0.14556365601445206,
          -0.03782645199354963,
          0.06912383268238821
        ]
      ]
    },
    {
      "activation": 2,
      "biases": [
        -0.01583322798119104,
        -0.1359965354689107,
        0.12629364633806028,
        -0.107560620902787,
        -0.160775535224856,
        -0.0033751772730937924,
        0.0,
        0.011642347727458856,
        -0.12415422574877259,
        -0.13857851117637918,
        -0.4084626381185372,
        0.5279530741084225,
        0.8688168371397499,
        0.09550654833685948,
        -0.16498474005510191,
        0.4393252704054742
      ],
      "cols": 16,
      "rows": 11,
      "weights": [
        [
          0.23728990583121015,
          -0.23183679126565462,
          0.20998359678733727,
          0.4372786240656033,
          0.15406864012440372,
          -0.0711196463525513,
          0.4369670952074029,
          -0.3625210602329606,
          -0.20987388037478635,
          -0.2990075502994995,
          0.025487900326870486,
          0.18162103429318094,
          -0.0379105008955504,
          -0.37130060705610246,
          -0.3535522433538616,
          -0.3370484913145688
        ],
        [
          -0.4196897715302081,
          0.26757383815339947,
          0.47332749836436294,
          -0.49732514044606274,
          -0.18688933917087902,
          -0.05693426138913423,
          -0.37646477345264995,
          -0.6759191444458077,
          -0.28076081618725224,
          -0.3494303597313959,
          0.5929534445388998,
          0.2951197128359071,
          0.12730346522352706,
          0.2719125014889868,
          0.32507721610072193,
          0.8835505656955747
        ],
        [
          0.0059973145680938525,
          -0.26534195863592114,
          0.0016263369078598755,
          -0.4062737432051641,
          -0.35397318412550083,
          -0.3639496342493476,
          -0.051969361460891116,
          -0.078196723635418,
          0.04251633129282622,
          0.2457621839992386,
          0.08505715144125242,
          -0.400249151504022,
          0.017859233814971228,
          0.13925612267771215,
          0.32968395619542135,
          0.39251031664230135
        ],
        [
          -0.08370150332662435,
          -0.15833112088145623,
          0.003075126586620429,
          -0.41972313329856636,
          -0.14862357023803016,
          0.043558955641477465,
          -0.40788556820672445,
          0.029522503584094657,
          -0.07615502510573183,
          0.07659966402435749,
          0.26071375614448705,
          -0.04104865654789534,
          0.3579966154025451,
          0.456107147279163,
          0.13815193860676264,
          0.09800895295190616
        ],
        [
          -0.09474068616619244,
          0.37463814796859246,
          0.717974802773283,
          -0.2309257465712657,
          0.33789109871989575,
          -0.45161046643982145,
          -0.16820350723525976,
          0.4587460190468247,
          1.0581521801756504,
          0.7027622029475418,
          -0.0047434049518604625,
          0.0006364285152390495,
          0.8791446061485644,
          -0.04541128167725706,
          0.2801698988036404,
          -0.39790910343868774
        ],
        [
          -0.002441415403423089,
          -0.2959863329498048,
          0.5158369052522497,
          0.026938858720373843,
          0.46382222842198056,
          0.3988792931622159,
          -0.45483943998498966,
          -0.13374957477362875,
          0.2387418851703819,
          -0.5493835852749115,
          0.13886936082558324,
          0.16210739919810102,
          -0.6713805376650853,
          0.3989113015722414,
          -0.08504049423541672,
          -0.4119132379598397
        ],
        [
          0.10443117776375965,
          -0.5461222483708654,
          0.4417062084995497,
          -0.2778845269259564,
          0.5194582506629405,
          -0.3037398693316908,
          -0.19075868035177326,
          0.5918634569060197,
          0.42789544976830945,
          -0.3798283966722177,
          0.2663395839602938,
          0.6513587342783053,
          -0.32937767274109864,
          0.3909861804811014,
          -0.37826991507615615,
          0.005149471850794173
        ],
        [
          0.3250862185041413,
          -0.15048849093585173,
          -0.1317880145820498,
          -0.15618944985702046,
          -0.21148060077834818,
          0.0582799888116954,
          0.4124097483442779,
          -0.1328966171911377,
          -0.3728636905184043,
          -0.3007236053355352,
          0.18776598322479854,
          -0.2130613642157089,
          0.14514299355444735,
          -0.23879899261899615,
          0.4086725956266405,
          -0.24386921191195302
        ],
        [
          0.3714743459983761,
          0.2965914058163244,
          -0.3669768026690939,
          -0.25332599792602084,
          0.035629482681319186,
          0.45733759784510836,
          -0.16143328905131918,
          -0.07882562354315192,
          0.1316528531542899,
          0.13763704710111546,
          0.2010178840237586,
          -0.31203075615191744,
          0.18778953058126663,
          -0.08680517749607662,
          0.19644677161424767,
          0.3894012331882579
        ],
        [
          0.08785983828222076,
          0.18035525416582307,
          0.07762630237107461,
          0.07558464196566202,
          0.14097284189202985,
          -0.24910903582605914,
          0.19513258765700978,
          -0.17555011271660126,
          -0.08331744293592311,
          -0.3875345143837717,
          0.42278079877652136,
          -0.39702876230776774,
          -0.34602912433428046,
          -0.4090340582487871,
          -0.036372503698683036,
          -0.3138404676318034
        ],
        [
          0.25028526815537017,
          0.01974122100616919,
          -0.35513096751885415,
          0.23286965348047764,
          0.1891339881529274,
          0.2791017680546421,
          -0.43925491263448496,
          -0.5052494219579652,
          -0.7422084996671767,
          -0.714379193676103,
          -0.5369301482967463,
          0.8963623508835802,
          0.7778483266974735,
          0.8893793472482784,
          -0.5350503542709308,
          0.5267260104508519
        ]
      ]
    },
    {
      "activation": 1,
      "biases": [
        -0.004905006764188078,
        0.4525963383988866,
        -0.20849433242239404,
        0.5015413011699126,
        -0.5990970249716155,
        0.2214283290473112,
        0.5674285492215566,
        0.292746305935474,
        -0.21920905958892783,
        -0.266989879607935,
        0.2404466526669351,
        -0.6736610404113536,
        0.6415434539282997,
        0.5207344253033992,
        -0.12199304245895726,
        0.562931891718835,
        0.5266912299824096,
        -0.5397955624247971,
        0.4176315066008459,
        0.3790481058076924,
        0.5629109198598178,
        0.3905112305463565
      ],
      "cols": 22,
      "rows": 16,
      "weights": [
        [
          0.19579229414941365,
          -0.21683750285539996,
          -0.10531249586931825,
          -0.12396355604256272,
          -0.04869250116603109,
          0.27947393928051445,
          0.2560798971437035,
          0.3546819369326115,
          -0.1583266107195655,
          0.3470023687727821,
          -0.3711876748989685,
          0.23835274539144888,
          -0.26089863103274463,
          0.3211442768738141,
          -0.02260549467108387,
          -0.09530331918078568,
          -0.12693485899601042,
          -0.09426147436926915,
          -0.29082112871972804,
          -0.06939962568834755,
          -0.12332617315420431,
          0.051195841397548285
        ],
        [
          0.18236101257228618,
          -0.21713124277658194,
          -0.148626932196232,
          0.10371318103655668,
          0.260352652230077,
          -0.07379138067135056,
          0.13039662113594017,
          -0.2650990894258194,
          -0.31055722165690325,
          0.2693388116738438,
          0.33125992740772653,
          0.2367856495847297,
          -0.12136967706186329,
          0.18437722196463988,
          -0.22640296422486775,
          -0.12691145310315585,
          0.19964097772371855,
          -0.06872231585565716,
          -0.6796783750004647,
          -0.42250124290460284,
          -0.1512229093035783,
          0.23648501640439423
        ],
        [
          0.001381171918927328,
          0.08679348825723521,
          -0.01846814190554384,
          -0.17137691559712312,
          -0.015138365968798865,
          0.10492903924782673,
          0.014275024724495539,
          0.25560140756670796,
          0.30972949000524486,
          0.1309203736635581,
          0.30433059869753704,
          -0.8297522348470185,
          0.3748590402748681,
          0.44161436692293354,
          0.5306265333668423,
          -0.04886293723434067,
          -0.3205206196096117,
          -0.05062691004486944,
          -0.4878745553353788,
          0.19892968850523285,
          -0.038973130603963665,
          -0.6755610502741944
        ],
        [
          -0.2849501809761717,
          -0.0631833391836551,
          0.2624894269271962,
          -0.05916027520075916,
          -0.33433693031463774,
          0.24828760895238589,
          -0.1835814542373439,
          0.20886124046503,
          -0.2333448760473838,
          0.1192741428605104,
          0.16457042814802705,
          0.3111381533521414,
          -0.09223487191598585,
          -0.27294671212459226,
          0.13394562347653705,
          0.051052794462850354,
          0.2886285469807096,
          0.3745798041154645,
          -0.3431675190068183,
          0.15414744115513962,
          0.26372394136167987,
          -0.17462023501324575
        ],
        [
          -0.09278760678362635,
          -0.03884446262184405,
          -0.2627041828319915,
          -0.02337566052326035,
          0.022594213986853476,
          0.06094791726884791,
          -0.3162832236237817,
          -0.06845240016583816,
          0.33568253304360446,
          0.4966167165654097,
          0.06890027278065101,
          0.22619338369379996,
          -0.058678032697073106,
          0.19496339473684948,
          0.5674591943071052,
          -0.3630668325016362,
          -0.4161473550130224,
          0.2646333984327902,
          0.05540308869763133,
          -0.007741735833781046,
          0.1322153062111148,
          -0.0670109742718689
        ],
        [
          0.2520169224904946,
          0.10393539422071149,
          -0.31731456670628105,
          0.020073184815744955,
          0.1773170513802302,
          0.2434722596869891,
          -0.32085873645813434,
          -0.17389169504293386,
          0.3726269975376004,
          -0.39817500340007167,
          0.13886048264794518,
          0.22389703515202478,
          -0.145064050440758,
          -0.24460206025725886,
          -0.40972969788645264,
          -0.07315236190889789,
          0.044876590383198446,
          0.19223112679826693,
          0.2658967266185051,
          -0.3794923171550558,
          0.2880843615035571,
          -0.35444758307101826
        ],
        [
          0.01747457434984565,
          0.08977650569112464,
          -0.28835724569813465,
          -0.07550126458854806,
          0.2640335135668828,
          0.3962406711215513,
          0.07953842924809441,
          -0.22260477293097622,
          -0.21142365434103788,
          0.04760354712185393,
          0.19987306482888048,
          0.004325352837439808,
          -0.38477313976485955,
          0.3599140816699239,
          -0.3600581828827193,
          0.01945528148867924,
          0.3520958452771053,
          0.26453581188741715,
          -0.19931015606292307,
          0.057646551121665675,
          0.010930014393184173,
          0.04704851492717391
        ],
        [
          -0.7040090875092223,
          -0.1766808652066037,
          -0.19147999314256622,
          0.09626145900755928,
          0.013142616227397118,
          -0.10024862026542188,
          -0.011805098990808973,
          0.2050453396456883,
          -0.3081944307355792,
          -0.396230684284943,
          0.08115096835031238,
          0.29425655957680097,
          -0.16066530711046234,
          -0.28842597576621043,
          0.18710959152697107,
          0.3814216888971671,
          0.20532568095853224,
          0.29174504748520974,
          -0.012299084378213905,
          -0.06889580189205569,
          0.5263540837510968,
          -0.37205856196761483
        ],
        [
          -0.516527418821879,
          0.024136197529920796,
          0.0766832244591682,
          0.18044311346500252,
          0.2414593546650622,
          -0.1453956497244886,
          0.0715179017821835,
          -0.09493156201467345,
          0.3177961046308997,
          -0.27415662549365927,
          -0.5875666376246081,
          0.12353956696720489,
          0.08171478167530101,
          -0.007223424481582488,
          -0.23397382058927696,
          -0.48926765409077766,
          0.15901973871079272,
          -0.09027260174795972,
          -0.1503235548432248,
          -0.19082979075997836,
          0.07586544071420437,
          -1.1160963657523688
        ],
        [
          0.046908049159030366,
          -0.15286050071171534,
          0.16247841728694776,
          -0.24614044818896402,
          -0.027244383969971517,
          -0.28670579534781904,
          0.1035218478038958,
          0.03792865544165274,
          -0.4654684592056654,
          -0.12403773158150612,
          0.21907734745369298,
          -0.25797460881281664,
          -0.25371208024693215,
          -0.22335832244941767,
          -0.4790105067606716,
          -0.1363695972032564,
          -0.21796812239107635,
          -0.06127109164657373,
          0.8090798036483062,
          -0.5831687888037612,
          -0.13989019966990413,
          -0.554090128065717
        ],
        [
          0.35461123946686074,
          -0.33574670871017853,
          0.24778956741507802,
          -0.1953563162366086,
          0.10207300612722923,
          -0.058419380808773444,
          -0.15972334549322537,
          -0.19951996298799543,
          -0.08861509587066708,
          -0.07232873821993005,
          -0.5054635365939721,
          -0.10300628539352656,
          -0.09362606579654338,
          0.40743501121135667,
          0.5971502405032065,
          0.07622866527316575,
          -0.08667382630615747,
          0.2736813306714527,
          0.10339299574943313,
          0.2568204841386215,
          -0.19537541214380064,
          -0.0015505869083032205
        ],
        [
          -0.0040107745850688865,
          0.3501585156810909,
          0.006922034206326979,
          0.2216138162018215,
          -0.12036688728499922,
          0.01587560324597614,
          0.20723140538363574,
          -0.02402988096183171,
          -0.7146394090932692,
          -0.36597197011612503,
          0.23553106783863487,
          -0.23850626901983954,
          0.16980148531451905,
          0.3435030913398593,
          0.3510193040324525,
          0.35436126728156214,
          0.19901297031578274,
          -0.171405593707264,
          0.48560709129382756,
          0.8372341362078889,
          -0.08446462433628521,
          -0.21179208441627945
        ],
        [
          -0.2653085969972203,
          0.057736341609034285,
          0.0003456232283045599,
          0.061353414921465003,
          -0.5905294708327535,
          0.16132794333517297,
          -0.03862564421270498,
          0.37486236470842904,
          -0.4793362657669721,
          0.11359529654072523,
          0.40358919193942844,
          -0.7486153301141081,
          0.7136736164198243,
          0.8449256654896806,
          -0.23467384307879618,
          0.518093374299559,
          0.26518484745070886,
          -0.036201212809521204,
          -0.19329268983359513,
          0.2170206461720728,
          0.5637142514632801,
          0.07381998195007045
        ],
        [
          0.13687938939369418,
          -0.45124022580315565,
          0.13417102097872532,
          -0.2094999937202184,
          0.04019212957702736,
          -0.13438792153851595,
          0.1981042433928182,
          0.01904061630164339,
          0.22494020333952638,
          -0.04761124902919888,
          -0.22487185186760025,
          -0.5069083452650066,
          0.5388768788228683,
          0.22849832163494257,
          0.31103433656539586,
          -0.13165789111518963,
          0.10757828494347532,
          -0.14329752275257834,
          0.5438121323564518,
          0.6041036381115924,
          -0.2634137719762844,
          0.26042697868827863
        ],
        [
          0.3880850173348995,
          0.18465141876694185,
          -0.298222732778322,
          0.22781371467488376,
          -0.20390314806271084,
          0.026228551845115005,
          0.09324897081009804,
          -0.32688400855168126,
          -0.08119567614630671,
          -0.48278598980750753,
          -0.11506331401450415,
          0.29439002372885115,
          0.18839256640955812,
          -0.2494870294231162,
          -0.05396106336273287,
          0.12301814970426903,
          -0.04335764759494104,
          -0.08245110957991039,
          0.2910345719750188,
          0.23365758407159876,
          -0.3150060994674979,
          0.1616292542226271
        ],
        [
          0.019320634819311826,
          0.028610560209855324,
          -0.15519604734148718,
          0.10895548677989063,
          0.08974988928663218,
          0.039439316975886554,
          -0.11751165430381826,
          0.1716954272768278,
          0.044344119803623364,
          -0.09150928778006169,
          -0.030335879423052523,
          -0.5856953725481269,
          0.477805617213395,
          0.20433417196352105,
          0.40297487501663637,
          -0.18029983996780952,
          0.12949650081065936,
          0.1409009150941546,
          0.5249064873547333,
          0.5393669017594563,
          0.008289457165616564,
          0.7737110186756484
        ]
      ]
    }
  ]
}
