{
  "layers": [
    {
      "activation": 2,
      "biases": [
        0.0,
        0.0,
        0.5558201752875517,
        0.3946596014532153,
        0.0,
        0.6894701379640651,
        0.0
      ],
      "cols": 7,
      "rows": 3,
      "weights": [
        [
          -0.7745845446823622,
          -0.06405894017134187,
          -1.1234965965196777,
          1.5572628090704363,
          0.5127293094659862,
          0.4538906260949166,
          -0.1806116972218885
        ],
        [
          -0.5708192040913065,
          0.050762785919422446,
          1.1310492568747852,
          -1.111018083379135,
          -0.7210377859150433,
          1.1057382224966459,
          -0.6710451201484322
        ],
        [
          0.39598206242533784,
          -0.4353865563823551,
          1.1178586050761252,
          0.7717117800979633,
          -0.6917742603660973,
          -1.5012575673569262,
          -0.12783017870137894
        ]
      ]
    },
    {
      "activation": 2,
      "biases": [
        0.15054270837598308,
        0.17087723280791195,
        0.2049908698292798,
        0.2073856967570597,
        0.0,
        0.374491857454567,
        0.1326136383505972,
        0.3692945201445262,
        0.26063321822980684,
        0.2377539227347107,
        -0.06146812247182335
      ],
      "cols": 11,
      "rows": 7,
      "weights": [
        [
          0.2156665515172179,
          -0.09699558786837512,
          -0.19833803156275062,
          0.2571060846512891,
          -0.07342578412946577,
          -0.015568385094538981,
          -0.20896276026899138,
          0.0008164827355564156,
          -0.5195182662321985,
          0.42521516129491105,
          -0.22364028590454985
        ],
        [
          0.102741377409959,
          0.23231488772202802,
          0.15315782574959985,
          0.29255011905745787,
          0.3077216634888873,
          0.45917392817301206,
          0.5619259087450946,
          -0.13378112405483575,
          0.3019706593391098,
          0.1495838543836188,
          -0.17203277330579644
        ],
        [
          1.183053656110438,
          0.9746800857489009,
          0.25241709776207594,
          0.20134788298112036,
          -0.025713142937850143,
          1.282752345911005,
          0.11472406013180302,
          -0.5556905191733835,
          0.1431335562174237,
          0.18830591501307506,
          -0.019669912137738242
        ],
        [
          0.05041135434094629,
          0.4867777376929267,
          0.8098589575941522,
          -0.6016278446134662,
          -0.3027920026078449,
          -0.8603646445660071,
          -0.8054275067693846,
          1.2133625223164668,
          1.0204175546092222,
          0.4054265258243919,
          0.18555309679051746
        ],
        [
          0.031094673976645445,
          -0.2742956561063622,
          -0.155493509411985,
          0.1519986798609739,
          -0.2599151926871465,
          0.46725314357745495,
          -0.47258094662285804,
          0.034349331514521096,
          -0.43259080249073323,
          0.5767242817694854,
          0.3995050937284327
        ],
        [
          -0.6973001220278999,
          -1.0425857479367462,
          -0.41294887567517635,
          0.9629152047553451,
          -0.16250680416386956,
          0.20533730446537357,
          0.942261704316528,
          -0.06035839338194019,
          -0.5859446182420255,
          1.0007894615664996,
          -0.14590278876292478
        ],
        [
          0.17773030863326325,
          0.2726038792323024,
          0.5572010752865105,
          -0.262451923745634,
          -0.3850843152258463,
          0.01881233918936425,
          -0.49219217233689666,
          0.5091997900994097,
          0.21760943774667607,
          -0.3080800175152299,
          0.3943425192376372
        ]
      ]
    },
    {
      "activation": 2,
      "biases": [
        0.0,
        -0.35421963224128655,
        -0.0029408965058520635,
        -0.16129622493471252,
        0.5156780731516266,
        -0.01892281829356585,
        0.0,
        0.18621163983829794,
        -0.00762446968925131,
        0.23549456861953078,
        -0.035043420846445246,
        -0.05891717372956394,
        0.14834426315821858,
        0.2707509390940073,
        0.043354762301059356,
        -0.013500888770830666
      ],
      "cols": 16,
      "rows": 11,
      "weights": [
        [
          -0.217489761464572,
          -0.11751080897521442,
          -0.38713601095550243,
          0.03892731263544057,
          -0.05679478677041155,
          -0.2848812590190557,
          -0.4446521432268942,
          -0.5149843835122007,
          0.24417490500561884,
          0.24266863686760268,
          -0.47010438286051054,
          -0.5017805262074586,
          0.9885300613875542,
          0.09789213649509641,
          0.44735462447683155,
          -0.12110556109807986
        ],
        [
          -0.07976672140204923,
          0.35540160609889737,
          -0.21275865703848137,
          -0.4170456029454648,
          -0.5045625645005823,
          -0.1704130417205228,
          0.3787014066053994,
          -0.6323966587218657,
          0.388029816358072,
          -0.0013139123683032453,
          -0.14098223591147832,
          0.31330133414135075,
          0.9059025331502957,
          0.056218845135299636,
          0.38457684227276107,
          0.7242733676331828
        ],
        [
          0.0351705254523054,
          0.10109663468420359,
          -0.46946457858118207,
          0.08187542088036495,
          0.5822569764413188,
          0.11457089065024464,
          -0.06929890356169839,
          -0.23389255968644532,
          -0.3836579725075925,
          0.25221890462375773,
          0.17493701943801943,
          -0.03502122328008848,
          0.023869288600176848,
          0.5613757687118693,
          0.0366970118747773,
          0.4697777822246667
        ],
        [
          -0.030247795056394626,
          0.012939541822458704,
          -0.08468834641923412,
          -0.08224139949485684,
          0.0233110831620164,
          -0.35714839567517065,
          -0.33750580761688664,
          0.27879517977398044,
          0.6327262656925473,
          0.42488173858586303,
          0.33709544203171843,
          -0.03457965780701425,
          -0.4299690125630489,
          -0.12778188694050344,
          -0.19866108415789066,
          -0.6725532306859999
        ],
        [
          -0.20061810009202227,
          0.3683908303153522,
          -0.4460653108140247,
          -0.10585356730066439,
          -0.33769555799732714,
          0.14260339509495865,
          0.4218945822608262,
          -0.04213669662789525,
          -0.02709413648070384,
          0.19064225670718243,
          -0.05653209411104884,
          -0.40993914793765307,
          -0.04681288596011908,
          -0.27198253530893024,
          0.17205721223318196,
          -0.27007066733171076
        ],
        [
          -0.30327554915982396,
          0.02608370811743206,
          0.19303604465279275,
          -0.009325120136230016,
          0.11021041839123435,
          0.10838498609969394,
          -0.08455768099311843,
          -0.5492776134482017,
          0.4263770407982466,
          0.7741435904197048,
          0.14954521712535745,
          0.1887228083889398,
          0.9642479738118809,
          0.41702818372192424,
          0.04438690340698256,
          -0.883984975331142
        ],
        [
          -0.32647593652669005,
          0.24363538663926526,
          0.40970046581369357,
          -0.31540516844908995,
          0.025223620357264057,
          0.2743361113192669,
          -0.3477187871717758,
          -0.012354016918645851,
          0.43358492349750194,
          0.7194853596211328,
          0.4526688747222713,
          -0.01057023472007822,
          -0.5279474481433248,
          -0.4581838758049314,
          -0.5577637156528297,
          -0.4458241873071194
        ],
        [
          0.06755680352938952,
          -0.35270263871717605,
          -0.24521444487282495,
          0.039676824842531294,
          0.160883354342368,
          -0.24096699808308492,
          0.363592771175454,
          0.7388119075028478,
          -0.026596690211166278,
          0.12245278043550567,
          0.3803927414637681,
          0.11668602267490372,
          -0.581476201343129,
          0.40134482558195705,
          0.5182265434357667,
          0.847102002690258
        ],
        [
          0.2851108536454646,
          -0.3250302934220009,
          -0.3008542223703983,
          0.25823256037627673,
          -0.1460761425809577,
          -0.0222203091609489,
          -0.3845023890797222,
          0.42455578761943974,
          0.06145912749773015,
          -0.2973076372703553,
          0.29403991878007607,
          0.11731525817806597,
          -0.06837507920287465,
          0.3280024371417634,
          0.43977762234930834,
          0.9274015699568804
        ],
        [
          -0.44024114230465405,
          0.04309687587132411,
          -0.17673412327124333,
          0.09372928763353962,
          0.8041895107100018,
          -0.11860722455083694,
          -0.3184822594282406,
          0.5143923812402744,
          0.0349573407638437,
          0.05123994011052125,
          0.3332077592230451,
          -0.31179656114959103,
          -0.25456224097201274,
          -0.2539325451134267,
          0.24790090473305867,
          -0.5875352323767801
        ],
        [
          0.03247962171229288,
          -0.34793738587276885,
          0.3648582952789743,
          0.42671910873784125,
          -0.3519368328727411,
          -0.2797782675381077,
          -0.4044051490656436,
          -0.2774414510797473,
          0.4379141471832788,
          0.028513065416923996,
          0.2344763298742045,
          0.392128057041035,
          0.35813012629832186,
          -0.48938983589046087,
          -0.39350812937389773,
          -0.20308109527361476
        ]
      ]
    },
    {
      "activation": 1,
      "biases": [
        0.06587256116746038,
        0.10108592132563915,
        0.1810909549344819,
        0.3967514783240791,
        -0.01843141303615441,
        0.11122496552742739,
        -0.2851473691989314,
        0.3708494853411365,
        0.05846250753993021,
        -0.10119747354708758,
        0.3033728317635766,
        -0.1678496734046532,
        0.1982756588807291,
        0.16850729332295822,
        -0.2184051140593332,
        -0.12282462762357696,
        0.3191175440329444,
        -0.16063155292084208,
        0.4128173698560841,
        -0.12514486363032506,
        -0.27789017081292156,
        0.44679180989253403
      ],
      "cols": 22,
      "rows": 16,
      "weights": [
        [
          0.15272041866145739,
          0.26094986847794344,
          -0.21695226353694627,
          0.1899352451036898,
          -0.10351855539415601,
          0.38663311783596427,
          0.15419437405658654,
          -0.003424385436576278,
          0.12640276937030828,
          0.17782938100095944,
          0.03369065864378351,
          0.08552092234819783,
          -0.18785557826873944,
          -0.37380796519977255,
          0.04975106297271165,
          0.3290336945820547,
          -0.23417098236046477,
          0.1697095848736002,
          -0.0219501924721295,
          -0.006879818456415777,
          0.2589486057973129,
          0.15869830623959374
        ],
        [
          -0.17162930992358294,
          -0.2681408208261827,
          -0.14508299955226991,
          -0.1408523235777503,
          -0.19246539581035058,
          -0.2811820895767751,
          -0.035140199747457544,
          -0.3315513608670589,
          0.16692954606201715,
          -0.1629714771421616,
          -0.3918919376980177,
          -0.298878108055806,
          0.13087769076000413,
          -0.3271103639726569,
          0.11852963619977434,
          -0.38248475596599374,
          -0.25170748883877475,
          0.05593847299211015,
          -0.16435516546992923,
          -0.3959634122941016,
          0.26257985606871254,
          0.15903116484426627
        ],
        [
          0.22005427189428936,
          0.3878017777489974,
          0.15891824743525143,
          -0.28977496421251203,
          0.13639860230872608,
          0.1351411580975544,
          0.2519319419997356,
          -0.2677183176801865,
          0.030720358521904984,
          -0.3571636252614563,
          0.28312242749801825,
          0.04195669213522295,
          -0.3047326399713256,
          -0.004566451940307802,
          0.09265465285487587,
          0.07429682212333925,
          -0.101297868913658,
          0.29548223615418434,
          -0.31392757271851757,
          -0.18594407305221766,
          0.17982283144051314,
          -0.004271725140556145
        ],
        [
          0.2155972021428392,
          -0.22713293745215005,
          -0.3137888927413376,
          0.025829678520413457,
          0.14891467841328349,
          -0.06884166426258223,
          -0.37909223767514766,
          0.31979057931144433,
          -0.20090779199923872,
          -0.0057676162447770005,
          -0.36835377321075036,
          0.38724532618916446,
          -0.22207556065715553,
          0.18322637048685808,
          -0.09812976690664028,
          0.19914863244886163,
          0.31899733937040253,
          0.22629801876640174,
          -0.19289325135410593,
          0.14223787840911914,
          -0.0932401974763685,
          -0.16528031721041617
        ],
        [
          -0.028518060734442862,
          -0.3580505562544681,
          0.20802969433690632,
          -0.026866863589295374,
          0.07457703727877302,
          0.18259981513819795,
          -0.440332009223158,
          0.5594483033019115,
          0.38527117001903005,
          -0.013605090576601255,
          -0.260496680313947,
          -0.3322624061118717,
          0.021727174322631083,
          0.16091566336065372,
          -0.15834474730869721,
          -0.15029670207529666,
          0.5296665711314229,
          0.6008318943556649,
          0.10468706049385032,
          -0.03989920548157066,
          0.31711527197222505,
          0.6123164901723339
        ],
        [
          -0.17309245335000378,
          -0.3165369903049369,
          0.02080486446302952,
          0.07002423887060756,
          0.18168763191611254,
          0.01809436498551074,
          0.16442849257072023,
          0.1961020115133632,
          -0.10175601357027683,
          0.01590762119947052,
          -0.008209624886236914,
          0.2686210480107353,
          0.0373831995787703,
          -0.19851007469852222,
          -0.21164981369939806,
          -0.3547294932611332,
          -0.1946686851224814,
          0.15876492728895894,
          0.021787867563217295,
          -0.24885723872160467,
          0.10463045287407788,
          -0.09663226948711028
        ],
        [
          -0.24320999071299443,
          -0.22298980751987646,
          0.042844393157507106,
          0.0143713777191975,
          0.17544847269172478,
          0.26165239246736044,
          0.16516359607798167,
          -0.050523749286016426,
          0.14789858185931976,
          -0.042525772452799544,
          0.06053613109810544,
          0.3768975388111638,
          -0.39252831362800006,
          -0.11153264877873217,
          0.12160128753199188,
          -0.04638570278643223,
          -0.3414629514429893,
          -0.08816599111113803,
          0.1341648106236571,
          0.36833303984786836,
          -0.3613265595454661,
          -0.23790360415067127
        ],
        [
          -0.4988614025992343,
          -0.2784176862771344,
          -0.48248466508790105,
          -0.10102010476529548,
          0.6306810530437286,
          0.06755482874590701,
          0.26911789009193915,
          -0.49896299486363366,
          -0.28820985796463583,
          -0.09974726541716152,
          0.0058771572354998055,
          0.13721781536393277,
          -0.14837803006024466,
          -0.1479593859622087,
          -0.07865360989352393,
          0.3293018992636124,
          -0.5894403126995928,
          0.8057519728297461,
          0.2918269095433871,
          0.07698075476465624,
          0.6657826678971692,
          0.042512966098289216
        ],
        [
          -0.18876191501373757,
          0.21535350253170413,
          0.08412263801962679,
          -0.11781700911423781,
          -0.23782693343121894,
          -0.2651308762616807,
          -0.08459742912413089,
          0.19907386484054154,
          -0.2580306098828477,
          -0.22089940124155139,
          0.2891477459828141,
          -0.3332519550353448,
          0.042425662426291214,
          0.13324143443204628,
          0.16674635793826523,
          0.11830464264933378,
          0.18734154796138952,
          -0.16576324377947246,
          -0.10634557519984071,
          0.07922039397674996,
          -0.7580156389818548,
          -0.18458012456273762
        ],
        [
          0.48168475469674743,
          0.33639582168475607,
          0.4759822291152241,
          0.050299095980666446,
          0.25014218328819005,
          -0.021198845269079326,
          -0.15454940386367572,
          0.42989253646622966,
          0.0048876809200265325,
          0.18591944314573697,
          0.08639968212202452,
          -0.46761008314495006,
          0.19420879758375484,
          0.3999942395460665,
          -0.28819682925891277,
          -0.5641022165630525,
          0.24114453417133358,
          -0.25406404238574865,
          0.16578734352174204,
          0.2162979241830452,
          -0.5135727524614603,
          0.21520844175791465
        ],
        [
          -0.17323953400951217,
          0.08125615836953147,
          -0.22884069756989125,
          -0.17235459172470396,
          -0.051403066382128104,
          0.04678609521059048,
          0.2738179045170271,
          -0.12116374173863294,
          0.129729399820368,
          0.24085974636673832,
          -0.6279738338317905,
          -0.0016361685491402698,
          -0.08264908862161234,
          -0.014556681173485466,
          -0.2716463902589106,
          -0.23246162336282988,
          0.12236690812954976,
          0.36879199856394235,
          -0.5309790911878942,
          -0.2197071124511077,
          -0.3317655654833755,
          0.5078664597922145
        ],
        [
          0.2541064747895093,
          0.2007590309703667,
          -0.26850731153262114,
          -0.04219413101200388,
          -0.03188788175843797,
          0.33235060502268465,
          0.1552510572109776,
          0.03506347229279781,
          0.21905259110408026,
          0.06184712700715889,
          -0.2997497315626324,
          0.31625933794660577,
          0.14882895294832257,
          0.14400314215906052,
          0.12859154042960408,
          0.3788640642493403,
          -0.3142599419823914,
          -0.035899343623576926,
          -0.09289790613982579,
          0.08392425046665819,
          0.015204655753053048,
          0.3789767890386264
        ],
        [
          -0.23902206235967996,
          0.25046083363250665,
          -0.406008064985632,
          0.361901623337815,
          0.09619115439312077,
          -0.18068790693081277,
          0.09232039102420737,
          -0.2622758846175252,
          0.05545404510645439,
          0.06531224439874546,
          1.0190208587692262,
          0.2752831214720495,
          -0.12118670576731558,
          0.7629645193144641,
          -0.12610592415520513,
          0.7158028542312336,
          0.6731734356867926,
          -0.8046609210353909,
          0.36410785015340297,
          -0.06127457779946703,
          0.41015574935692356,
          0.009357168115406536
        ],
        [
          -0.008520797654658555,
          0.04459886167167916,
          0.07965079997029721,
          0.08073314410926252,
          0.025791942438138964,
          0.44585724024573314,
          0.44238666417140504,
          -0.39820077160975054,
          -0.3237904008082772,
          -0.15354758914406275,
          -0.01323935726951051,
          0.48860407436522824,
          0.10386442628585346,
          -0.3419824745408276,
          0.41021242390908147,
          0.10098168452408017,
          -0.34294128085737796,
          -0.29365169598115,
          0.23759288429286932,
          -0.07169398141322877,
          0.15242442987393512,
          -0.46568734814141566
        ],
        [
          0.10845653340327174,
          -0.49987545909583264,
          -0.10382873613658071,
          0.11114097635496654,
          -0.13846757023047018,
          0.0010813477403483387,
          0.05121827284847714,
          -0.28340267017574394,
          -0.372591602382945,
          -0.40316977302797635,
          0.1347529310164758,
          0.5422046646375516,
          -0.491078485566526,
          -0.27018249961635166,
          -0.0008455609829204661,
          0.25808941960030424,
          -0.4035892760145957,
          -0.32511840135734127,
          0.18442639807008324,
          -0.13524013110060695,
          0.43846800511736944,
          0.03663766048639465
        ],
        [
          -0.08143339404350593,
          -0.0800226714365711,
          0.6364402804814544,
          -0.3074063319359466,
          -0.43227340882596715,
          0.2169729501445816,
          -0.6656850044023085,
          0.30099768034537466,
          -0.3044381880315441,
          0.29221108859914774,
          -0.07846154468255272,
          -0.46087990304686266,
          0.17021212067577352,
          -0.6757925781552089,
          -0.2209140592701032,
          -0.7157118161921118,
          -0.8697592039483546,
          0.3531223420177708,
          -0.007767190815719695,
          -0.6402665151454807,
          -0.48335277740637506,
          -0.5164956349367942
        ]
      ]
    }
  ]
}
