{
  "layers": [
    {
      "activation": 2,
      "biases": [
        0.0,
        0.37263388451878066,
        0.0,
        0.37204592686223165,
        0.0,
        0.0,
        -0.08399547519979457,
        -0.6042140932695048,
        -0.01507863036668215
      ],
      "cols": 9,
      "rows": 4,
      "weights": [
        [
          0.5215211410743786,
          0.9518643503177321,
          -0.40978563751396835,
          -0.37559206329750977,
          -0.22158578361292153,
          -0.40574807906561555,
          0.6008109363125411,
          0.44123962917084236,
          -0.02215949451331709
        ],
        [
          0.022841316938037263,
          -0.2036566746565597,
          0.14753359747993172,
          -0.7158649364358316,
          0.09335552603196665,
          0.0701563902706227,
          -0.06486188658931458,
          0.9831515944228753,
          0.4663261451717765
        ],
        [
          -0.6272670179114113,
          0.9744518312357571,
          -0.08953193145194803,
          0.5311379023135969,
          -0.3096433051452507,
          -0.2613074866540431,
          -0.4725554726364923,
          0.9059913219515788,
          -0.47992083605533525
        ],
        [
          -0.07176052358751331,
          -1.0123590792337227,
          -0.6463597552091365,
          -0.24229803876814812,
          -0.22978064766619832,
          -0.3716789681020754,
          -0.4228926709927946,
          1.1146186633891835,
          -0.2297141809692023
        ]
      ]
    },
    {
      "activation": 2,
      "biases": [
        0.27063872392939226,
        0.44998780986980624,
        -0.003115441269625046,
        0.0,
        -0.48272430871768585,
        0.14526563174240528,
        -0.03436282579023723,
        0.07819691948342204,
        -0.03401595677455783,
        0.0,
        0.19962164687325837,
        0.0,
        0.14315131257601602,
        0.04425550706916889,
        -0.12046063918826393,
        0.0
      ],
      "cols": 16,
      "rows": 9,
      "weights": [
        [
          -0.24236634938789525,
          -0.4722358507953071,
          0.40363143540593827,
          0.44754459994182655,
          -0.047608270820253804,
          0.3139833085608361,
          0.4774864132750292,
          -0.2917914883957314,
          0.309942468566925,
          -0.42795787318925294,
          0.12076199373049082,
          0.17640519206358748,
          -0.13182070869817838,
          -0.2949018062887607,
          -0.41046687806633614,
          0.3282112199611438
        ],
        [
          -0.3785371402217247,
          0.6783274362520354,
          -0.2732567446852293,
          -0.011010916304535663,
          0.7047181338788732,
          -0.1299026704416039,
          -0.39879582394575225,
          -0.21654061126077123,
          -0.37172141621193777,
          -0.006293983249513258,
          1.31880419040156,
          -0.02032165204359435,
          -0.2837028025228956,
          0.4743258412790413,
          0.0590312647444053,
          -0.004926860772209112
        ],
        [
          -0.24686278904644435,
          -0.05827077064749239,
          -0.32273815474665296,
          0.12095422407745159,
          0.05774476110446234,
          0.29008648409521137,
          -0.2795841299901342,
          -0.4525098998027566,
          -0.24791908915458127,
          0.03498041366352648,
          0.1124057041756163,
          0.4027621958418042,
          0.31673426560727597,
          -0.3938915499022569,
          -0.4217695131980086,
          0.4769022561097446
        ],
        [
          0.37206202401262983,
          0.6276852338005786,
          -0.11008040792696307,
          -0.19884244030890474,
          -0.6453123484472801,
          -0.08485732292580798,
          0.130649811063016,
          -0.16312869042239603,
          0.2958190016952117,
          0.03827417492662436,
          0.19675483529332083,
          -0.18562764238722418,
          0.11255410809919122,
          0.42866329004918746,
          0.030173439322710268,
          -0.414015847193108
        ],
        [
          -0.2224954454424617,
          0.35180927991238636,
          -0.26676227861227475,
          0.13891078160592824,
          0.03954826832586841,
          -0.4290077227922078,
          0.10876910526901065,
          0.4517998487419501,
          0.34557953868482844,
          -0.4518464116438002,
          0.05153403559022869,
          -0.1736491934212881,
          0.4609714660917323,
          0.22856900396158106,
          -0.19461049645673667,
          0.1461175238856627
        ],
        [
          0.39998772990230935,
          -0.2096715911138491,
          0.0724085538264346,
          -0.18011637008867248,
          0.38612751007246415,
          -0.014790112073434343,
          -0.21679175710197054,
          -0.0181448218960701,
          -0.0747714115611268,
          0.21535802761518724,
          -0.007036883158925893,
          0.28998366884614757,
          0.301272129109027,
          -0.22046299884405282,
          -0.25990938427390164,
          0.4287057804755486
        ],
        [
          0.21335933403609508,
          0.37453954789783683,
          0.06405994620364024,
          0.3534899996897191,
          0.4524520085754062,
          0.2856902401722984,
          0.24187975143689605,
          -0.2434976050232522,
          0.39502188846904573,
          0.15632619202871184,
          0.28339665528474944,
          0.2507300557918461,
          -0.10472910138868084,
          0.26155599024921217,
          -0.3690921291595298,
          -0.1609749184511707
        ],
        [
          0.5569174536506999,
          -0.8451361296667419,
          -0.1404292815281235,
          -0.37589530976745605,
          0.7399484143776843,
          1.236835117478437,
          0.019178763828921724,
          0.21515480723238387,
          0.0157748740716532,
          -0.43828663123316974,
          -0.09801110672764754,
          -0.08210579062291558,
          0.299753475277909,
          -0.44555255110550446,
          0.6204994618707798,
          -0.2889824790839179
        ],
        [
          -0.30542884204929277,
          0.21344894453305718,
          0.48638139504687083,
          0.05147332473851364,
          -0.07267249648400588,
          0.11721326313595162,
          0.016585815215791153,
          -0.3503899815227843,
          0.47138630469547177,
          -0.17785663831135,
          0.34271512181241887,
          -0.39939986385623366,
          -0.13945522542811392,
          -0.22574999586485703,
          -0.2674902009392959,
          -0.0802639729233709
        ]
      ]
    },
    {
      "activation": 2,
      "biases": [
        0.37386331644600795,
        0.4015657143509733,
        -0.01627982598978794,
        -0.19382076129610762,
        0.1809218561966554,
        -0.16178022225224947,
        0.21615318347111323,
        -0.036450191903353406,
        -0.22768133751487257,
        0.05160016031008948,
        -0.0262185987283726,
        -0.06550593716437753,
        0.980394987404778,
        0.0,
        -0.05887332170107078,
        0.09640412890678916,
        0.0,
        -0.49752327872327906,
        0.0,
        -0.33634665364290267,
        -0.04683643879529954,
        0.0
      ],
      "cols": 22,
      "rows": 16,
      "weights": [
        [
          0.2057150966516014,
          -0.07864115773806983,
          0.17234407563893203,
          -0.08882086182854448,
          0.39577089630877027,
          -0.09217698245484178,
          -0.13592425223378382,
          0.10004789732174534,
          0.2562859790731371,
          0.4783619680054387,
          0.3808265275554465,
          0.26845494311429163,
          -0.05426820635213683,
          -0.3433824634256961,
          0.21363625488093738,
          0.4447785492091528,
          -0.25847980843954205,
          0.27359800167466514,
          -0.016260765628489892,
          0.1631953297924596,
          0.387480883298217,
          0.0384840181842989
        ],
        [
          -0.12740095259130926,
          0.39534724918173847,
          -0.20132103600925483,
          0.16987711329287095,
          -0.5908296426321806,
          -0.37578071383796563,
          -0.3435331425885351,
          -0.14470663393360605,
          -0.225125790537241,
          -0.11456247390624945,
          0.33802995163565286,
          0.12201448889372929,
          0.9132999051819941,
          0.023323408134126082,
          -0.2392623029900627,
          -0.04313354626995707,
          -0.3338222128659712,
          -0.06850570281895081,
          0.08879058019507845,
          -0.14869559303408414,
          0.09938395169637122,
          -0.10070956705619433
        ],
        [
          0.04716131127042999,
          0.08320264099617408,
          0.17021611568547543,
          0.3211532052682484,
          0.17717047668727354,
          0.011898906482635278,
          0.2421595475403062,
          0.26631997481438124,
          0.24362157326906808,
          0.30943873921381043,
          -0.07790041106082837,
          0.3213442998083721,
          0.1532353537645237,
          0.19984929041765265,
          0.37822460044478207,
          -0.2961899917068826,
          0.1691328891473467,
          -0.06864172337038986,
          -0.17977860220853706,
          0.03948012615820161,
          -0.18428844729262525,
          0.12665881566775425
        ],
        [
          -0.18285013823485816,
          -0.3193818379884877,
          -0.1676349347084598,
          -0.15006170023421556,
          0.1598464123514229,
          0.15288586958641054,
          -0.24573439406025696,
          0.18007571111039813,
          0.08109324791312983,
          0.09304318632432702,
          -0.369333447665864,
          -0.29411159504360235,
          -0.25903082833457025,
          0.3827794753628172,
          -0.13973482251837088,
          -0.06565076696611945,
          -0.09487683354019025,
          -0.3844178869345631,
          -0.015754382104500763,
          -0.04823054869255229,
          0.28954414773522674,
          -0.29859581840512284
        ],
        [
          0.37116624860110775,
          -0.3597519019426678,
          -0.05004152858853711,
          0.21486709625190448,
          0.8245752195846247,
          0.4433886750938975,
          0.3968617729094956,
          0.23715832955428431,
          -0.11064435765365929,
          -0.2978383221911504,
          0.15874429593380618,
          -0.0013285568088458029,
          -0.3503497683524723,
          0.12098415795036493,
          -0.09679562155063483,
          -0.2847530765121485,
          -0.38779634649095646,
          0.4451245021568492,
          -0.1423350887488125,
          0.11142989487927366,
          0.29927629222542806,
          0.15318098455075788
        ],
        [
          0.6270288992085769,
          -0.0594552750777558,
          -0.22625250269541827,
          0.017972527732158867,
          0.44781441955461293,
          0.10557282547023836,
          0.30662537870133605,
          -0.2912586026832045,
          0.2982485526457757,
          0.560128402854251,
          -0.3799904404961632,
          -0.13777067962546252,
          -0.6781509505749955,
          -0.3062383658846219,
          -0.05875134451196274,
          0.6661057805735046,
          -0.1992792992507787,
          0.14240858591669103,
          -0.12039974182240176,
          -0.1771790657571137,
          -0.320680854930773,
          -0.37809478985764194
        ],
        [
          -0.2704351919953789,
          0.06607978845309351,
          0.3826679967926942,
          0.11660854837155589,
          0.1897723835007989,
          0.2108521490813115,
          0.1904375188357211,
          0.08455604569734598,
          -0.389513526815644,
          0.1092502366209266,
          -0.019309418372301223,
          -0.09139407301494942,
          0.008554911287751182,
          -0.34528881090595737,
          -0.1951758675148011,
          0.1419273112201364,
          -0.33957090458027517,
          0.1800476146447409,
          -0.20283215654603257,
          -0.1634009924360169,
          0.2628229402215897,
          -0.06269688213479123
        ],
        [
          0.13745116741213753,
          0.37289307240672115,
          -0.33165322968842736,
          0.01062842698455981,
          0.32745977677764243,
          0.11551525479015533,
          -0.33100425686388046,
          0.17514737591483623,
          0.0999449455749544,
          0.056950869993306036,
          -0.28784595947972696,
          0.21487021990115956,
          0.1805430913106067,
          -0.2278821230558079,
          -0.13029382244112042,
          0.15750022078130224,
          -0.288079630236982,
          0.0911439065715542,
          0.34623201625376454,
          0.15711756966654092,
          0.0329813271144139,
          0.0514452415128613
        ],
        [
          -0.0824787960161497,
          0.006366004665648437,
          -0.20453615535369662,
          -0.3882508019722467,
          0.017297265949414206,
          0.28471328022213066,
          0.18375657086555136,
          0.061236659299658394,
          0.2239052010750041,
          -0.2626373900760172,
          -0.039360030650425065,
          0.05411276353162349,
          0.08794314845670714,
          -0.26198498109662605,
          -0.24332864276032135,
          -0.02688062289368641,
          -0.32367384880825717,
          0.3230739838866274,
          0.1859461188692961,
          -0.2622621388884345,
          0.33323798241581704,
          -0.014548585400066509
        ],
        [
          -0.06402749385054933,
          -0.29368050671531154,
          0.33725735568425097,
          0.01646383491575705,
          0.09395742702823541,
          -0.026232864943862226,
          0.0505860968403277,
          0.04289140981920848,
          0.29265258936891536,
          -0.03392356816072472,
          -0.31748249482435914,
          -0.2344938300054622,
          -0.09244039362711357,
          0.3586970074503088,
          0.024797168502330658,
          0.20988415287601997,
          -0.13198645424373784,
          0.257536738537379,
          0.35968304840821547,
          -0.1310982231742539,
          -0.12946200722820755,
          0.25550476670256034
        ],
        [
          -0.015319984613312696,
          0.43672214016542193,
          0.5150986939249038,
          0.11733778917085638,
          0.1583206308544442,
          0.5028831657608591,
          0.16785569811791756,
          0.03945234425472837,
          -0.03618817632984145,
          -0.7159851565057596,
          -0.205306215468541,
          -0.12327445463411701,
          0.6336857063283385,
          -0.12087219991326208,
          0.37114546808786275,
          -0.5237906810827463,
          -0.23445133337954277,
          0.33915944087680583,
          -0.23758951939475845,
          0.3571210719194251,
          0.06686050577531279,
          -0.3951005777667837
        ],
        [
          0.04084291287567796,
          0.02149968249672304,
          0.049668094374201915,
          0.17466329207286335,
          0.15213945232664627,
          -0.37396211418492065,
          -0.20339236528079094,
          0.35172246900548343,
          -0.16052973636569365,
          0.18456155870943683,
          -0.023464176125840237,
          -0.1332785612793747,
          -0.39336515380760656,
          -0.1962411472450803,
          0.16011591069575545,
          -0.045799049954992274,
          -0.20470431288285784,
          -0.15332081663527594,
          0.2980040834014712,
          -0.16260994609343035,
          -0.188607622443852,
          0.22001485496978052
        ],
        [
          -0.1519140537799026,
          -0.2593216382737153,
          0.2727618584776623,
          -0.1375419725380882,
          0.428823602671071,
          0.16957743136931877,
          -0.35116131076123636,
          0.2765334652825296,
          0.06143804986588143,
          0.3001950092836096,
          -0.18157767551706555,
          0.2887329598482503,
          -0.07830046392646452,
          -0.139392656105736,
          0.1283527644050597,
          0.4500009312613809,
          -0.1250423814469975,
          -0.409220809035568,
          0.2328811941838593,
          0.005986701328796619,
          0.20743298565461052,
          -0.03976697708791277
        ],
        [
          0.15920210842719565,
          0.15863410012082188,
          -0.22655049956416085,
          0.14073291645180783,
          0.317753586193431,
          0.15525858670927206,
          -0.3945972107139673,
          0.165625732984144,
          0.050249929453097725,
          0.2275479041551691,
          -0.08620271149471916,
          -0.060111177421293016,
          0.6534503634513954,
          0.06046200754423487,
          -0.3036068879533814,
          0.1972741860419559,
          -0.3491737317010537,
          -0.059927572200524956,
          0.04111552091877226,
          -0.20371235271111698,
          -0.10500859329615224,
          -0.004556541528575727
        ],
        [
          0.1304789545703356,
          -0.37092698273702057,
          0.3429527172657294,
          -0.4026776524536095,
          0.23761055752047597,
          0.3622882436937965,
          0.028026272385711943,
          -0.25914621906545066,
          -0.2662479729831369,
          0.4490748939463653,
          0.1456877506003181,
          -0.22236404215976419,
          -0.06272215159849688,
          -0.26117001575860044,
          0.17151580759211282,
          0.3969100948383273,
          -0.3547539586397898,
          0.2401240915669437,
          -0.3773303061473425,
          0.39207143699680136,
          -0.3927412246093065,
          -0.2887297038259236
        ],
        [
          -0.37729077563299923,
          -0.36653850718759456,
          -0.20569376588676988,
          0.1330813705551005,
          0.2670698851654953,
          0.2448364253371354,
          0.20597952140908674,
          0.2479761293797605,
          0.059966507040736534,
          0.362840651259636,
          0.10399713185341178,
          0.35922853538490884,
          0.09686658519142849,
          -0.24913001265538465,
          -0.13063418935836818,
          0.11692048739243602,
          -0.3647372377718456,
          -0.24635594745944878,
          0.07047020904486224,
          -0.14996503719292625,
          -0.03891328576786664,
          -0.12338885880426069
        ]
      ]
    },
    {
      "activation": 1,
      "biases": [
        0.4876471031958623,
        -0.5892717685491647,
        -0.6681202791105474,
        -0.4845981380126942,
        0.6573496237039063,
        -0.09063269161452094,
        0.3565947351559361,
        0.5323896008874679,
        -0.3283173721786697,
        -0.5158453907120647,
        0.4607854303334912,
        -1.0356486221277854,
        -0.041388289168546526,
        -0.16918399949868565,
        0.6483792316275864,
        -0.0958248909101282,
        -0.033021447388087946,
        -0.23662487300602128,
        0.25046125803182534,
        0.08054835457349238,
        -0.3999935092327897,
        0.7799665046248017,
        -0.4504336800840456,
        0.22458509813748584,
        0.28024694197260847,
        0.1369066736879549,
        -0.01386738618918385,
        0.4627753567590508,
        0.6693522656027425,
        -0.449385667223248,
        0.11683568098867014,
        0.37154882344976087,
        -0.301221614734363
      ],
      "cols": 33,
      "rows": 22,
      "weights": [
        [
          -0.46146496859291136,
          -0.4078204933860649,
          -0.025578630136553968,
          0.11917881306562954,
          -0.154184330962137,
          -0.12181843422397001,
          0.2010111534915632,
          0.18367735967286458,
          -0.275492077059644,
          -0.25793779542274786,
          0.4680694988299393,
          -0.34840939227380274,
          0.008853330072278363,
          0.1261945052607461,
          0.12847012634132296,
          -0.3957646396047928,
          -0.10401165514867383,
          -0.028233515802083428,
          -0.11714151224816101,
          -0.2046947142129455,
          -0.12999012730019807,
          0.4722223048148513,
          0.141543392769458,
          0.42939039779414945,
          0.39793533065131625,
          -0.12707980335662983,
          0.16893605450595703,
          0.07313643994325295,
          -0.10312713778422339,
          -0.08703978844926132,
          0.20239190221629877,
          0.07549094960979337,
          0.048054026723160545
        ],
        [
          0.32974311307931253,
          -0.31394827927407565,
          -0.33883712765403246,
          -0.2885705266391162,
          0.23915253880906712,
          0.09495635594360814,
          0.3939667335346351,
          0.24245605835895825,
          -0.05806533650183795,
          0.2315396382087421,
          0.3354589599087038,
          -0.4055164995779731,
          0.4195781530622869,
          -0.16689887573005394,
          -0.13602163983800755,
          -0.3084752639022133,
          -0.037277075509084774,
          0.010286467355851687,
          -0.05065095284466411,
          0.15027667897408042,
          0.17574256861905035,
          0.061274132747293666,
          0.07319703322252356,
          -0.043021808438544175,
          0.3434991163417111,
          0.16282786816430253,
          -0.09256298177967939,
          0.29527013765776333,
          0.20474870635565343,
          0.17391302774224404,
          -0.28013902942754737,
          -0.1139647839269098,
          -0.09811255302408715
        ],
        [
          0.3125823712992748,
          -0.06253202106347433,
          0.19905371573743705,
          -0.2948129544026624,
          -0.1748174070092231,
          0.16372706571359166,
          -0.2360657966316183,
          -0.32230820880670047,
          0.09580577152533037,
          -0.1340153335055978,
          -0.05670316619299886,
          0.1470967079610248,
          0.11452527900512491,
          -0.023228061158784587,
          0.020225275666921717,
          0.00639689582205204,
          -0.0007245061153487518,
          -0.17810070708721262,
          -0.12140239986285735,
          0.09123965030019808,
          -0.16953249068237852,
          0.28756739591493513,
          0.0875653021571479,
          0.10031350380013447,
          -0.2040357786863447,
          -0.020024685801879185,
          -0.0382424579530791,
          -0.19483995920597189,
          -0.03816265848880496,
          -0.05934428714815457,
          -0.15202342638951452,
          0.305002730546276,
          -0.2818481837671603
        ],
        [
          -0.20194211204275056,
          0.06040825140572429,
          0.03089980716364515,
          -0.0612247887436255,
          0.2604338722919801,
          0.16626864465892274,
          -0.051626564422540766,
          0.2574503243714685,
          0.2360758037021087,
          0.0797447404504585,
          0.14822477594799793,
          -0.0344072535632151,
          0.18517399151533986,
          -0.06545907310918014,
          0.31870091662801664,
          0.11052523068931425,
          0.18693945719618,
          -0.27343981734432227,
          -0.21410979508588068,
          0.04140682377174876,
          -0.31944828236388756,
          -0.06218961927031189,
          -0.14733467232893108,
          -0.29939674082933615,
          -0.14675986842306094,
          0.12405005975548862,
          0.17097677446223136,
          -0.15479338435034531,
          -0.014615225568462332,
          0.22670489076713274,
          0.036355397293006346,
          -0.33311609885810894,
          0.08663787720517369
        ],
        [
          -0.7155852477861064,
          0.08192839546673156,
          -0.15896344365180648,
          0.2757249359641222,
          -0.5850399364491364,
          -0.08229381482121075,
          -0.05159684019863265,
          0.08973383144425115,
          -0.2712239826650474,
          -0.12432786531416459,
          0.034128048607874203,
          -0.06932363095440222,
          -0.8262978600210931,
          0.04665545758671903,
          0.0417416372419253,
          -0.037581911916918696,
          -0.15809289804494114,
          0.006595206513355722,
          -0.07117071551509153,
          -0.38513845047047635,
          -0.37794544095327304,
          -0.11418244316678605,
          -0.005503711669063067,
          0.125007381666377,
          0.041679324428955,
          0.10766559852507497,
          0.313841536166352,
          -0.19839267741533714,
          -0.4192716914465229,
          -0.34373348714982593,
          -0.4019097290499418,
          0.11434276943369878,
          -0.08643836575403845
        ],
        [
          -0.2618913713981383,
          -0.024950335715356986,
          0.17137588770021636,
          0.016001870928593422,
          0.12027847997124806,
          0.110959161868427,
          -0.5381545507598463,
          -0.49289473787654753,
          0.31481516548794586,
          0.06671980838533494,
          0.0015342259551638655,
          0.2454227224110164,
          -0.42983857920996404,
          -0.33214413460194175,
          -0.0028681305519191813,
          0.20116044518699855,
          0.021609704500945508,
          0.10720549486250773,
          0.13754379135500225,
          -0.1228913595764741,
          -0.06083333743908695,
          -0.21390061864327128,
          0.06705545620802175,
          -0.011256725108611029,
          0.04530869262027713,
          0.27926340278298756,
          -0.13810593790368916,
          -0.17354659299018368,
          0.11474481287131398,
          0.12022588921503977,
          0.22548950872246823,
          -0.250795760089805,
          0.12203106964703987
        ],
        [
          -0.08920486825913926,
          0.31517292506948463,
          0.19763454396094296,
          0.21940239553421226,
          -0.13138124234301815,
          0.09889456216280916,
          0.009025454780443752,
          -0.417503736608555,
          0.1292200645607199,
          0.2260817680562471,
          -0.22003132860777508,
          -0.08489781335702147,
          -0.4673408355154036,
          -0.026956268044625035,
          0.22929941218205474,
          -0.21179560081818333,
          -0.12320960445156895,
          -0.03893892974578745,
          0.00017817114664205394,
          0.13903276405544102,
          -0.07793099364246987,
          -0.11441419965580009,
          0.23012780585342854,
          0.38639668905755836,
          0.0807222766287486,
          0.054015281158995024,
          -0.17011962997325286,
          0.20871897270627393,
          0.047376744170715246,
          0.2948738001377362,
          0.15509366622336174,
          -0.21325745211041758,
          -0.24039828850617254
        ],
        [
          -0.1847859135020351,
          0.15448240437250071,
          0.018059560857189173,
          -0.1962219463801877,
          -0.12437992024976059,
          -0.09267566697056553,
          -0.1240810393511356,
          0.11952226919879654,
          -0.03384711526967001,
          0.21122569261979376,
          -0.13659811221854729,
          -0.21076811945646226,
          -0.12154131240056504,
          -0.00333853558455161,
          -0.2901890448580386,
          -0.024490351850481512,
          0.2941807716162558,
          -0.16728353198383417,
          -0.09798384029466733,
          0.2742033786619063,
          0.11817941756446532,
          -0.16995042322199458,
          0.26254539837448526,
          0.32427463580978777,
          0.30206214369753387,
          -0.22951951249928706,
          -0.29622296322598296,
          0.2500095602190148,
          0.1805307253933646,
          0.23231000555287523,
          -0.20934407800784605,
          -0.02483959807148912,
          -0.19124895225209373
        ],
        [
          0.21982191115501837,
          -0.13822591517556013,
          0.10637668832325221,
          0.23835278583533503,
          0.2967946076830149,
          -0.19895563608978242,
          0.29160605755998636,
          0.07092679566468728,
          -0.27290364535021555,
          -0.15654724322439864,
          0.09090373020441339,
          0.20946329048158954,
          0.13366095536841827,
          -0.29978511265238095,
          -0.24538309880393136,
          0.25121831380155096,
          -0.1674532768099265,
          0.0340118070874286,
          0.29611605498771026,
          -0.12906665515098176,
          -0.06161209990804424,
          0.2215067681942194,
          -0.2939245645075055,
          0.10354583362575362,
          -0.1663870876754371,
          -0.28767408927015986,
          -0.21976560590135683,
          0.2635287144352971,
          0.23951358116252225,
          -0.09483811273165259,
          -0.07441589295503073,
          0.00771983722671896,
          -0.07127347513290586
        ],
        [
          0.07414833956841448,
          0.10928815887456714,
          0.2771047571046866,
          0.005571799802885043,
          0.1321699399641953,
          0.22249124575863258,
          0.9043298350044917,
          0.82099023615325,
          0.026908985607351055,
          0.213344409969646,
          -0.038745779071259895,
          0.16956460330021397,
          0.07453334041978386,
          -0.05139267238283021,
          0.1938376390414334,
          -0.027324313515074326,
          -0.11211452682533125,
          0.01586474482263789,
          0.10276752130443279,
          -0.01940286219265228,
          0.2558073103767039,
          -0.2189705620018935,
          0.19714294826355352,
          0.11514258164544935,
          -0.1611030305234872,
          -0.021338875714950484,
          -0.027180393101159318,
          0.03905895204624996,
          0.16813821591550235,
          0.1516085488857507,
          0.07520200336177488,
          -0.13069676493638024,
          -0.030057239630788168
        ],
        [
          -0.10448733206986575,
          0.10498985553579075,
          0.25311502158482885,
          -0.13164225672870697,
          -0.20430666831728722,
          0.30918636063585686,
          0.3057616407151075,
          0.06551244823249677,
          0.15141994317998272,
          0.2881436720797159,
          -0.10589272871467459,
          -0.34495619455781007,
          0.049258612836652664,
          -0.14081294005153716,
          -0.2559776732851706,
          -0.2353394103738142,
          -0.23194298119278708,
          0.001299987851091597,
          0.21076346912924954,
          0.2737324991511089,
          -0.05473418815891444,
          0.21402528842777793,
          -0.2804225435214592,
          -0.11089643057882309,
          -0.28528977968802777,
          0.11678129860149351,
          0.15704718883400132,
          0.031710362298304456,
          0.31977382061254345,
          0.2387115621687722,
          -0.1682420232771803,
          -0.030097635593997214,
          0.28475696918378707
        ],
        [
          0.23516748276807287,
          0.21419933978117273,
          -0.09110368627395898,
          0.29065640314825153,
          0.23113115802517578,
          0.2699597648490771,
          0.10864382182611,
          -0.04847324831747215,
          -0.31827210159869096,
          0.03695311001434246,
          -0.12016207316227061,
          -0.017581236883236404,
          0.09199894017662241,
          -0.2938167772110652,
          0.2633544858275988,
          0.008330861636678333,
          0.27047071145767654,
          -0.17300048377247335,
          -0.12714857002181165,
          0.11936045401522051,
          0.22407119818686197,
          -0.053517338558129825,
          -0.06827464105059684,
          -0.005157652776849075,
          -0.08534646102656185,
          -0.1730355169755728,
          -0.29171029983137775,
          0.27602093098713965,
          0.13899903399828661,
          -0.009798556261115456,
          0.24766121035311878,
          0.06367669745456463,
          -0.06109459386009725
        ],
        [
          0.8097002660065653,
          -0.7373957704209112,
          -0.2410119883357278,
          -0.45933358418729153,
          0.7804091322076342,
          -0.20963159900692047,
          0.35494763938361884,
          0.3299958642287967,
          -0.22316099571795925,
          -0.24617113736941285,
          -0.0971757335588659,
          -0.02882976488572012,
          0.08342308951889088,
          0.04410272503124994,
          0.172449699865696,
          0.22647804692070342,
          -0.07185673450577357,
          0.14025344368626813,
          0.09086425670058446,
          0.20583026187253586,
          0.0207983473721271,
          0.3915293824069394,
          -0.5200556511381784,
          -0.07090164821673697,
          -0.30783192884000016,
          -0.17404082323877026,
          -0.0035255846886937513,
          0.39694806224837476,
          0.7735002355294838,
          -0.1765791127904526,
          0.2778617894255373,
          0.446386348239225,
          -0.10003491211532309
        ],
        [
          0.19697299606587737,
          -0.10965769394201139,
          -0.06278093069019411,
          0.04773910375041805,
          -0.19905718632971345,
          0.3197768377754493,
          -0.13131640174244347,
          -0.29778026907632427,
          0.11267359671603056,
          0.004844173843388564,
          0.1787185220394924,
          -0.2955550268235867,
          0.07014809882103626,
          0.07436979480297799,
          -0.21798241093740076,
          -0.0631418032653914,
          -0.21376342619229835,
          0.1632668535391104,
          -0.11066561515476504,
          0.07176603417276432,
          -0.24978099963443853,
          0.05957498633228141,
          -0.22936153193496794,
          -0.037345828948525533,
          0.015125661034407928,
          -0.29913356907163197,
          0.021883955320689482,
          -0.07564455505954897,
          0.08065909771664295,
          0.20191426088772596,
          0.1758628230942715,
          0.03292271704588455,
          0.1733600731084386
        ],
        [
          -0.3168333916433627,
          0.024939574637095355,
          -0.21055030998538607,
          -0.21495663254425268,
          0.21372416758715485,
          0.05334595740116066,
          -0.17663269889710287,
          -0.3572421850001069,
          -0.1640304774403345,
          0.1339451299668279,
          0.08411997568376586,
          0.13211294962285614,
          -0.16840232050609552,
          0.09524195990355927,
          -0.06003437952362492,
          0.3240848071509749,
          0.17926011265479727,
          -0.028186527623067156,
          0.25385443115220785,
          -0.04333520941482423,
          -0.08282944132096073,
          -0.1332818827068884,
          0.26993573058236986,
          -0.0759388146393316,
          -0.09230556282683797,
          0.122018631482709,
          -0.11141031793446309,
          0.2536491445047221,
          0.10761670310194164,
          0.22000353861426503,
          0.2921944407613767,
          -0.21400098034300222,
          -0.1586584749299194
        ],
        [
          -0.34245957535903976,
          0.26966740929266775,
          0.047935855378878726,
          -0.07262414735033247,
          0.5006640881919172,
          -0.14607681226992364,
          0.6237334555017688,
          0.6099893977765997,
          0.18067436449393257,
          -0.09146200550257426,
          -0.19883913199705142,
          -0.0978470343091897,
          -0.41842060376301565,
          -0.053380742993863785,
          -0.06268892055826268,
          0.08488855386180112,
          0.26139802574974325,
          -0.12712439104074344,
          -0.1170911323912377,
          0.15730575945814138,
          -0.3278575902561871,
          0.047305260567323176,
          0.27644067167327274,
          -0.024955046495430257,
          0.1869351210600947,
          0.24157986849850344,
          0.15629398327327484,
          -0.18266298584835292,
          -0.21690834251171867,
          0.060282953730110306,
          -0.04861961196014506,
          -0.033342111157659136,
          -0.06574042994857456
        ],
        [
          -0.3216334591724422,
          -0.14738359267747506,
          0.05097668504929774,
          -0.09228252594645038,
          -0.1742398516216525,
          0.1996927378957808,
          0.06570566466492812,
          -0.1519393457057436,
          -0.3071221007621907,
          -0.020273968808439954,
          -0.17826041837142836,
          -0.1123394027851571,
          -0.2700491117837225,
          -0.24481823471060657,
          -0.32953296669081406,
          -0.26175312386691285,
          -0.241751820000874,
          0.238161776990071,
          -0.3248515822561253,
          -0.13428589880954064,
          -0.09573214448402616,
          -0.10412537795117142,
          -0.28222356921716096,
          0.0394814069015674,
          -0.10038969593493105,
          0.07424256600004016,
          -0.25864722857789196,
          0.2625842502286124,
          -0.013394033069566423,
          -0.2705198134441569,
          0.31075855563203025,
          0.07632196899601495,
          0.030814124112466347
        ],
        [
          -0.32831865513192926,
          0.16889043706346277,
          0.03616950931742626,
          0.15679274149339953,
          -0.2677739263804274,
          -0.09055938784106148,
          -0.4569220939968472,
          -0.06923858433042203,
          -0.012750536177589544,
          0.0661099799316554,
          -0.2721368440102539,
          -0.22000936878959076,
          0.010488899917000508,
          0.06378543678606961,
          -0.19361636248566577,
          0.13924613423542007,
          0.12732867574923099,
          -0.3511310573089135,
          -0.07839465057449399,
          0.22757793213597483,
          0.21035798535631287,
          -0.10926762470482856,
          0.3442716008585131,
          -0.17364234315879196,
          -0.06857863803763331,
          -0.04953221414207899,
          0.2533120109316563,
          -0.09546555253594821,
          0.05685070648339481,
          0.19948579534967625,
          -0.30219442259101365,
          -0.08145871766152311,
          0.006597668517029133
        ],
        [
          0.12899704136675216,
          -0.21907252439924169,
          0.29022651592709375,
          -0.2993090550603363,
          0.045219186596810776,
          -0.05602536548188373,
          0.23984796697559385,
          0.009690374347080625,
          0.22665271318427516,
          0.05950588701317223,
          -0.14679837371298488,
          0.06745659765731628,
          0.0503953785219937,
          -0.06772169349950341,
          0.29931268757631485,
          0.020151813039079793,
          0.306421072242004,
          0.005010533477908098,
          0.2481264810417236,
          0.1378053432309424,
          0.04686213706111466,
          0.10238588973729953,
          0.12318055767131623,
          -0.04292563034237391,
          -0.2875394141404188,
          0.17575508880400548,
          0.13801174851646283,
          -0.21034710935786044,
          0.29092101582342333,
          -0.3263537674200613,
          -0.17277606703331275,
          -0.1879514699125074,
          -0.292835043523191
        ],
        [
          -0.010632113199041447,
          0.15391489473379902,
          0.13288715317777053,
          -0.11949087057305917,
          -0.43386443491271165,
          -0.24840345397785896,
          0.05196770443145963,
          -0.47403578121271345,
          -0.19483191273680642,
          -0.055762432708688005,
          0.046616411405761365,
          0.1331370186262593,
          0.09739933926112021,
          -0.05860560907035628,
          0.26134019155999044,
          -0.19502351021508477,
          0.17384467105276974,
          0.2913908794855568,
          0.0659560935481725,
          0.0959858647143352,
          0.1999220297897414,
          0.04577317054664684,
          0.07746960931999901,
          -0.009284764752436642,
          0.1521562306694666,
          -0.1863327749034049,
          0.3240699311881965,
          0.1065318757816865,
          -0.13408721005020224,
          -0.19738191793200907,
          0.039448822072035684,
          0.01329682032178876,
          0.26980253256812775
        ],
        [
          0.2779660918808853,
          -0.17679411642246232,
          0.008330881475071307,
          0.28433899073807495,
          -0.2181124206544959,
          0.13456018907681783,
          0.2983762003670929,
          -0.060136748062956324,
          -0.3235324174300938,
          -0.03826548509098985,
          -0.052409498989765435,
          0.04177253451462578,
          0.1495658121492955,
          0.08582411032009556,
          -0.06612931518725369,
          -0.07792272666529058,
          0.09675500227300433,
          0.013868093285737265,
          0.17534144590113035,
          0.047943322232546146,
          0.036580242038788825,
          0.08851535679460446,
          0.2749476520495862,
          -0.24595062887494823,
          0.2999541887520302,
          -0.10064327464009057,
          -0.18398394726948122,
          -0.30351656460159054,
          -0.12450744974000132,
          -0.17364668825672985,
          -0.05432562919182215,
          0.20316135838328636,
          0.15899323594716466
        ],
        [
          0.1850634471427409,
          0.3239467028083389,
          -0.3103710591663277,
          -0.11089046570983734,
          -0.09308401295874572,
          0.07079882088613233,
          -0.031202955587005067,
          0.16136790221102035,
          -0.04568037585787851,
          -0.20793961348291493,
          0.017932434981838465,
          0.10782786961754555,
          -0.08060800686695958,
          0.09755319835412825,
          0.07340251814956711,
          -0.31329711584566905,
          -0.08771883392208643,
          0.12898688607142525,
          -0.29459370818541747,
          0.0989652239731551,
          0.26464112110540444,
          0.20922974295181143,
          0.06112812669177713,
          0.1966074795670855,
          0.15225655211058464,
          0.026697368130406213,
          -0.09602109545760912,
          0.30462763767452555,
          0.0015797957795875186,
          -0.27027833157047904,
          0.3040162623802285,
          0.2114949567225707,
          0.014199856399733708
        ]
      ]
    }
  ]
}
