{
  "layers": [
    {
      "activation": 2,
      "biases": [
        0.4721068063090746,
        0.0,
        0.43062858157440903,
        0.0,
        0.16476798414888136,
        0.012344702713979845
      ],
      "cols": 6,
      "rows": 4,
      "weights": [
        [
          0.7445345240008466,
          -0.5430999334354474,
          0.42655270038307125,
          -0.4227605136072304,
          -0.3188234848916911,
          0.9053476736903435
        ],
        [
          -0.15905543517050408,
          -0.03343090792339474,
          0.31297231453842345,
          -0.7353019138344132,
          0.6575983827652344,
          -0.45757532414908253
        ],
        [
          0.9205660793396009,
          0.48391240082087933,
          0.396314577488385,
          -0.30400473635600905,
          0.8346418593833701,
          0.4179547437057099
        ],
        [
          -0.15502143384326098,
          -0.1493064390566129,
          -0.420983962250292,
          -0.16797361861976431,
          1.155575752356197,
          -0.8793069335763691
        ]
      ]
    },
    {
      "activation": 2,
      "biases": [
        0.0,
        0.9710097103218015,
        0.0,
        0.0006961086306204977,
        0.25791701224926217,
        0.6975882825730224,
        0.2728261121816801,
        -0.30669990005709646,
        -0.07781691288441796
      ],
      "cols": 9,
      "rows": 6,
      "weights": [
        [
          -0.200168601927975,
          0.6951830745534809,
          0.024206764393562917,
          -0.5116026099231882,
          0.9911407264188055,
          -0.2316641990438262,
          0.4065633651882121,
          0.5427118807164755,
          0.29784190904250213
        ],
        [
          0.4297378156804114,
          0.14127700256677359,
          -0.45827346707547234,
          0.6290104976927372,
          -0.1718158424565679,
          0.5018986098519735,
          -0.38591599143035105,
          0.5050513824253412,
          -0.6263976963510761
        ],
        [
          -0.03870768390461288,
          0.39671827013307975,
          -0.15869203135797713,
          -0.3470402781861738,
          0.295375868641509,
          -0.17153444585659933,
          0.473675883775967,
          -0.3324161919730824,
          0.09363125330064227
        ],
        [
          -0.39575645420948763,
          0.5183169064623472,
          0.5604630845230552,
          0.2579263905801936,
          0.11750117500795541,
          -0.38492261018495366,
          -0.46915282232818856,
          0.2244572044817639,
          -0.12092623214268398
        ],
        [
          -0.5763510327233361,
          -0.5158864745613041,
          -0.08963253057979824,
          0.12029002897150617,
          0.17286818924738778,
          0.7258889282837998,
          0.49391402230132203,
          0.9680828688095943,
          0.6333009598467226
        ],
        [
          -0.042878353329571774,
          -0.44631280053551853,
          0.05513584954700821,
          0.3132704878942432,
          -0.5747238172112128,
          -0.3677427190965981,
          0.4801371025526047,
          -0.4157080812399525,
          0.7647676437036047
        ]
      ]
    },
    {
      "activation": 2,
      "biases": [
        0.0,
        -0.4215644455613037,
        0.0,
        0.4993181071584014,
        0.6307277128736563,
        -0.13937266317978786,
        0.4760871295515228,
        -0.06268138978340487,
        0.38660696742767486,
        0.3162367704899225,
        0.0,
        0.0
      ],
      "cols": 12,
      "rows": 9,
      "weights": [
        [
          -0.10998125291728726,
          -0.22090892797290307,
          0.09851110657802667,
          -0.3241866820050872,
          0.4017547601614043,
          -0.20723672040363234,
          0.24904241382425962,
          -0.06419502300898193,
          -0.008384131017164334,
          0.11343718027849198,
          -0.3637305363301362,
          0.45490687998561474
        ],
        [
          -0.0761687145193375,
          -0.052343948022673004,
          -0.2744866324880727,
          0.3410999517707876,
          0.7074713686835812,
          -0.3069168023386156,
          0.9289515240027962,
          -0.22747991421699115,
          0.33546578949364503,
          0.8026614420603084,
          -0.41999907962803595,
          -0.18967671241020004
        ],
        [
          -0.5207586498169179,
          -0.45041577767213287,
          -0.3677968185932058,
          -0.01046247380493557,
          -0.06932113739290216,
          0.14179318598744192,
          -0.2257951991096519,
          0.17658523689098174,
          0.3414056100355018,
          0.014757032633466062,
          -0.0206099174468916,
          -0.004411946833585248
        ],
        [
          -0.1194773248649164,
          -0.23091329131263924,
          -0.3431271454586939,
          -0.5190089322994601,
          0.17865857566392385,
          0.21739677064940194,
          0.17029910797205583,
          0.19924623116879903,
          0.439857287400689,
          0.002446518447782138,
          -0.020313011405469015,
          -0.38748766423789355
        ],
        [
          -0.388949758517397,
          0.406434859149302,
          -0.5093782217996402,
          -0.24701304001104213,
          0.0205944169546461,
          0.09030299324172948,
          0.6264545157879288,
          0.5459631337146384,
          0.6727295498507913,
          0.7403387326917973,
          -0.37543801146383216,
          0.11677007568138636
        ],
        [
          0.1313857760092342,
          -0.468518889195339,
          -0.20767284777525713,
          0.7881403303357095,
          -0.5597301858680748,
          -0.1564191011757334,
          0.10398216223304688,
          -0.45978541121713623,
          0.346593939453382,
          0.3046443986343828,
          -0.4832596041122176,
          -0.21189862778396898
        ],
        [
          -0.4461657770767223,
          0.35382172340049756,
          0.07426681751589288,
          0.14978584121343416,
          0.5555400458825226,
          0.5335342667849865,
          0.09261062595080216,
          0.5484745696171387,
          0.42779659823109056,
          -0.33414368574066505,
          0.4594978883611789,
          -0.39144992402437423
        ],
        [
          -0.42681223349328773,
          0.45006751237555487,
          -0.4421202252344175,
          -0.5764720179908558,
          -0.7059915154448873,
          -0.14386039029711464,
          -0.7021465268682512,
          0.027071647649366454,
          0.3539382487745794,
          -0.4015008889559011,
          0.00016338491732875398,
          -0.19614216141894567
        ],
        [
          -0.14147539221639202,
          0.7808459553779319,
          0.21694461819308103,
          0.27713547088991075,
          0.25947362236348354,
          0.78659457791026,
          -0.047188031299774766,
          -0.37070402521734747,
          -0.06898823019427333,
          -0.4811991034978972,
          -0.461124597404672,
          0.37337326344734695
        ]
      ]
    },
    {
      "activation": 1,
      "biases": [
        0.04839559797172738,
        -0.4284269372729829,
        -0.47671615298141,
        0.015988261374086682,
        0.2763958445658568,
        -0.6537032020390554,
        -0.21607347044755432,
        -0.21835565407108054,
        -0.6976400724501378,
        -0.28598101475107784,
        0.2905370583978784,
        -0.24130995878367353,
        -0.06864033811133632,
        0.6023809600005577,
        0.3637969046092452
      ],
      "cols": 15,
      "rows": 12,
      "weights": [
        [
          -0.008397036268321193,
          0.35219305578201626,
          -0.3554660860865466,
          0.4605356265155896,
          -0.3774969142117589,
          0.30396101584567153,
          -0.12555362509178603,
          0.21581900990040992,
          -0.02561218523677154,
          0.2284487226772644,
          -0.26986501880878083,
          -0.2625775332308845,
          -0.00108837189903831,
          0.2797284670853019,
          0.16718661792793305
        ],
        [
          0.39856645073285074,
          0.16919960022318364,
          0.6306773539557631,
          -0.3293799540620953,
          -0.42271789188285663,
          -0.6204021428313495,
          -0.14133017032660533,
          0.32897167900900515,
          0.6685425371940353,
          0.4277250052775444,
          -0.268379509658313,
          0.22194275966599486,
          -0.16524442593997074,
          -0.6341482715733576,
          0.14977579194150537
        ],
        [
          -0.09720032934023443,
          0.12009766637818688,
          0.43132836273388414,
          0.38749152040769935,
          -0.35779909239875785,
          -0.21608763327854885,
          0.4563209359551519,
          -0.3060934606717645,
          -0.11564701405207299,
          0.02728185064152472,
          0.2766146170861075,
          -0.3384297359033639,
          -0.3512430754747911,
          -0.12029860850303088,
          -0.2388350544153079
        ],
        [
          0.16824527867640834,
          -0.3663086553123757,
          -0.22697521458499992,
          -0.46690605078564434,
          -0.2794383883998979,
          -0.49459443835427214,
          -0.4076796386896209,
          0.39288185374213247,
          0.16160122020944773,
          0.1819296086224407,
          0.44472262220664605,
          -0.20467617357308723,
          -0.1711581959677067,
          0.7156151916041414,
          0.585171658718329
        ],
        [
          0.49719262708661616,
          0.19892925567405145,
          -0.8388355751739907,
          -0.20057267297555792,
          -0.11384394121427757,
          -0.23721944123703056,
          0.023366356741582023,
          -0.1886128125837235,
          -0.0693086098902718,
          -0.45019758380964037,
          -0.35900192716162116,
          -1.0531612752290354,
          -0.3238920337022807,
          0.09136912554759609,
          -0.049291566565291677
        ],
        [
          -0.3419449567636019,
          0.005092149966858172,
          0.17304949191686939,
          0.039755495441030624,
          -0.20070382125847702,
          -0.06621393689320365,
          -0.2483676341427064,
          0.3423080136428129,
          0.10204375850190135,
          -0.263060458281875,
          -0.6251911306005293,
          -0.37460340187642666,
          0.7673034928686486,
          -0.056907737030641274,
          -0.2966921841665875
        ],
        [
          -0.07316548943288353,
          -0.3157553370700057,
          -0.905487392428888,
          0.4926110130736842,
          0.5432098391690057,
          -0.7315453343564391,
          -0.43775710528051454,
          -0.06127244011279063,
          0.20217712414888506,
          -0.4618823250408272,
          -0.13091980242394444,
          0.1294599268817595,
          -0.3096149306084384,
          0.07899989956774096,
          0.08410301647118293
        ],
        [
          -0.3172679517409141,
          -0.40858660405264424,
          -0.07808269472492221,
          0.5102616219921441,
          -0.06398292531696252,
          0.13182758334693423,
          -0.22585953991787752,
          -0.03025874080434141,
          0.038785414675527756,
          -0.00955775373920047,
          -0.5566870256942051,
          -0.34908927235592807,
          -0.10390544911266805,
          -0.1247023851129753,
          -0.24222496492491125
        ],
        [
          -0.40255987184095365,
          -0.020723449351417213,
          0.3214448185761724,
          0.25703546338984173,
          0.2628775436510226,
          -0.6358696221625211,
          0.17900631326978048,
          -0.32043467081809945,
          -0.46713053912860464,
          -0.04284903198895353,
          -0.16728023508263076,
          0.2059785520000435,
          0.05476031471343198,
          0.3829244448897689,
          0.28515035484272805
        ],
        [
          0.4720771255455841,
          0.24430166276141554,
          -0.38576089083831355,
          0.3809702941529784,
          -0.21914021601661895,
          0.058313584480580105,
          -0.5387051088475033,
          -0.5563125189769798,
          -0.7740168468464261,
          -0.7273411587575888,
          -0.2463432864515642,
          0.2489736798177542,
          -0.292518871617375,
          0.06672148222697348,
          0.24562326689512454
        ],
        [
          0.1819526337236398,
          0.015096301549849651,
          -0.019246242697143437,
          0.170601503987905,
          -0.05700204815529172,
          0.18001867948070135,
          0.1272683986002086,
          -0.24330312787784406,
          0.07506892215130069,
          -0.4410439963052229,
          0.36902509560470986,
          0.003501048486832653,
          0.3682548935579511,
          0.30031880197755684,
          -0.3812055765378491
        ],
        [
          -0.3946158989988715,
          0.107907962748724,
          -0.0880997482417389,
          0.21718207366523104,
          -0.13943709861112413,
          0.09973159530599254,
          -0.23374007599586827,
          -0.2328569015167717,
          0.2048769601106904,
          -0.26176098369969153,
          0.40690630154715635,
          0.38796134010886246,
          -0.28136195776215533,
          -0.3415037935701597,
          0.4081217200722487
        ]
      ]
    }
  ]
}
