{
  "layers": [
    {
      "activation": 2,
      "biases": [
        0.2868773586146573,
        0.28583389206206783,
        0.019502765441281898,
        0.3054090133130077,
        0.2424281688830461,
        0.16955679533406556
      ],
      "cols": 6,
      "rows": 4,
      "weights": [
        [
          -0.3265922403511785,
          -0.21411737243685317,
          -0.3613964258069497,
          0.45882773309164904,
          -0.5384711805968043,
          0.045429883235536456
        ],
        [
          0.5829219258946083,
          0.5025717229659874,
          0.31838653399028294,
          0.06671675210304091,
          -0.7121810767924838,
          0.47769295400638173
        ],
        [
          1.4555648692861662,
          0.8021400774465641,
          0.8760142372425395,
          0.07707404938359373,
          0.8630166975610598,
          1.234168063952749
        ],
        [
          -0.5608546392621949,
          -0.6312889641870137,
          -0.10771942942410119,
          -0.7810433486425181,
          -0.3517900125509348,
          1.156869440852376
        ]
      ]
    },
    {
      "activation": 2,
      "biases": [
        -0.006362407999560444,
        0.04329936311357986,
        0.08873277759777815,
        0.0,
        0.11422250281615401,
        0.17979689626888018,
        0.010358782901433264,
        0.18199769749556982,
        0.13830732164207876
      ],
      "cols": 9,
      "rows": 6,
      "weights": [
        [
          -0.34810666163390114,
          0.19820507738730375,
          0.8300737802739248,
          -0.554689342666096,
          -0.3719243318247865,
          0.7248231392152108,
          0.19324588861452857,
          0.5254479372028261,
          0.9886777549541985
        ],
        [
          0.26619615719656764,
          0.11126679639241152,
          0.2614842146254155,
          -0.26924001269287307,
          -0.5644857223949027,
          0.5905197911749585,
          0.3159725560139918,
          0.24788850382519,
          0.2773064841145054
        ],
        [
          -0.3311228635315897,
          -0.5712508556549412,
          -0.1702834978994023,
          -0.530017160200274,
          -0.22035247880374598,
          0.36978058053746676,
          -0.3380532850266724,
          0.0030615278309823993,
          0.7033848993863021
        ],
        [
          0.4193246738084104,
          -0.519064430965734,
          -0.5261902010707514,
          -0.4946983237133487,
          0.28091482235885334,
          0.3801275102624033,
          0.6007683476957796,
          0.594378329578748,
          0.513651215851556
        ],
        [
          -0.25478016555442096,
          -0.3985141000955848,
          0.12812360284261762,
          -0.1343025355487416,
          0.5311790282934001,
          -0.010638287645855284,
          -0.2554046370031637,
          0.839991098454585,
          0.3230438466861023
        ],
        [
          -0.36360983261146196,
          1.2030336653526075,
          1.0018876480283243,
          -0.6213766715449707,
          -0.18880754732302396,
          0.6722482375296305,
          0.6103094396306997,
          -0.36192976792071163,
          -0.07966582201442099
        ]
      ]
    },
    {
      "activation": 2,
      "biases": [
        -0.06132215900076521,
        0.0,
        0.2729645314753527,
        -0.013825099735427716,
        0.0008899484473827049,
        0.0,
        0.0,
        -0.09291888593525781,
        -0.03844221791346452,
        -0.06317587620941653,
        0.0,
        -0.14649506786994093
      ],
      "cols": 12,
      "rows": 9,
      "weights": [
        [
          -0.13853389669563132,
          -0.14235312887481247,
          -0.48850102637720977,
          -0.14027984535909732,
          0.021093162805342222,
          0.17023430773852058,
          0.018477981122662964,
          0.15042819103794858,
          -0.20134990364721655,
          -0.0368370677667514,
          -0.18126856615414022,
          0.5109145082740312
        ],
        [
          -0.01371599075689593,
          -0.006399398950097529,
          -0.6369140460810047,
          -0.43921302391739514,
          -0.40971474958701565,
          0.36367673072540213,
          -0.5326568574660966,
          -0.04831501633678156,
          -0.4587501853171001,
          0.5797218722533569,
          0.19736644900367198,
          1.074907905852278
        ],
        [
          0.4231535666767766,
          0.4188435783303211,
          0.4526320092586797,
          -0.009386700534541624,
          -0.05467977162274368,
          -0.48431171913817356,
          -0.18124433411774588,
          -0.4806029524571488,
          -0.4085790453046362,
          0.7367670457190124,
          -0.10862621229685318,
          1.0166677215932074
        ],
        [
          0.02080668893013113,
          -0.15709097555189963,
          -0.020785900265262176,
          -0.46519182899685807,
          0.5299251701516499,
          -0.11867987048579227,
          -0.46441068296689847,
          -0.5059826587275482,
          -0.48741235995307436,
          -0.18632902897860357,
          0.24805467247215904,
          -0.1873464205622238
        ],
        [
          0.12031642726320395,
          0.3130439939756641,
          0.2375853182594087,
          0.5158234396939158,
          0.23870924914884284,
          0.18532637962490262,
          -0.25303981422024946,
          0.20217241944204883,
          0.15807169612939162,
          -0.4324852939711443,
          -0.22049359424427573,
          -0.3947767820828606
        ],
        [
          -0.5368234864092092,
          -0.5089240228257148,
          1.1038684905731473,
          -0.5211127760117177,
          -0.13856064255865766,
          -0.41657337548094814,
          -0.17927628923542704,
          0.4215296696451189,
          -0.5453356326233681,
          -0.046002848462930915,
          -0.5259805896909392,
          0.3139983856160013
        ],
        [
          0.042790940804880266,
          -0.05726546655922393,
          0.013045625774406041,
          -0.13037118380647147,
          0.23018656277653463,
          -0.17322857042639767,
          -0.5278743429738715,
          -0.5215552407285928,
          0.47537748362827575,
          -0.08118629487899695,
          -0.2229334402652974,
          0.21027205201486854
        ],
        [
          0.12670206818160687,
          -0.32022557614880687,
          0.5965383438344949,
          0.43091882528339753,
          -0.5088742851411105,
          -0.44313624633924503,
          0.020104162982341515,
          -0.2799762999404796,
          0.10976550597960055,
          0.5689055579551465,
          0.16028107333703404,
          -0.7296043633831575
        ],
        [
          -0.061049127093073995,
          -0.4588911844188002,
          1.2844846438022772,
          0.15996236516018245,
          0.29577515798175824,
          0.24539739175186862,
          0.07245746690926665,
          0.25906977333367553,
          0.4802418705893026,
          -0.12158400217618975,
          -0.14931890170766152,
          0.08008624138234065
        ]
      ]
    },
    {
      "activation": 1,
      "biases": [
        -0.3646043854140665,
        2.151438692400476,
        -1.508617798244015,
        -0.8373054472804659,
        -0.6190724824779853,
        -1.5185448997587756,
        -1.0772098035725102,
        -0.31591992113262507,
        1.2315839422144785,
        -1.5819767852977504,
        -0.37284392556282137,
        1.4271249524316885,
        -0.6836669300322377,
        1.1042418220463712,
        0.7674330249774823
      ],
      "cols": 15,
      "rows": 12,
      "weights": [
        [
          -0.06699899608077935,
          -0.14753116062303434,
          0.2178020839856058,
          -0.19385653808360523,
          -0.3751941572792191,
          0.40550707829268273,
          0.3080420395399728,
          -0.07460435940368186,
          -0.004587304658507754,
          -0.3295930609109151,
          -0.3154126878972331,
          0.2321138340494353,
          -0.02480578106558165,
          0.2364750481721472,
          0.45344576039042445
        ],
        [
          0.019266953043869724,
          0.2334106132028458,
          -0.43253665449030776,
          -0.37503945264613386,
          0.1455581815707098,
          0.24426800094960938,
          0.054613166536700467,
          -0.02854738572078682,
          0.0911930657012241,
          0.22725646296738028,
          0.24006854164558894,
          0.2317961680722018,
          0.14893647977586053,
          -0.2933658899370969,
          0.4242046949317512
        ],
        [
          -0.47783041838060863,
          0.22445972530668015,
          -0.2754318069498688,
          -0.0208105837246101,
          0.036467817666811245,
          -0.8461580045584524,
          -1.1928995318415085,
          0.06948334675696317,
          1.2832641155023783,
          0.03920805975524393,
          -0.7260935747281348,
          0.24271374746577115,
          -0.2386998356955986,
          0.04020576431132007,
          -0.48800303892924074
        ],
        [
          -0.4306937885280207,
          0.2548768122485631,
          0.4606150305820108,
          0.26873395921491633,
          -0.37112110213481597,
          -0.1078629379830416,
          0.2525366820560628,
          -0.2471485365689279,
          -0.13196836528822847,
          -0.1850163808754078,
          -0.14147552766051935,
          -0.030481015071601194,
          0.34215409010949616,
          -0.46151754441053966,
          0.05349210134118716
        ],
        [
          0.39857841578240233,
          0.37525697348265,
          -0.2902370825712541,
          0.3669447420340437,
          -0.4180824585107029,
          -0.3634783994516035,
          0.3086746858555882,
          -0.3093926998509988,
          0.32867650354807904,
          -0.3456883309738051,
          -0.08026125254635277,
          -0.2979215269450094,
          0.05838467304439597,
          -0.35571236955158725,
          -0.1840009003093723
        ],
        [
          0.46355695759681437,
          -0.06908579724172693,
          -0.42576872584610764,
          -0.34213342973065386,
          0.3443249007790842,
          -0.12860327973328264,
          0.2582954042005606,
          -0.4084167897197812,
          -0.2176385297422023,
          -0.3943101495155333,
          -0.3924861098632656,
          0.396593519572036,
          0.413282320256791,
          0.4481116996779524,
          0.3538705051828574
        ],
        [
          -0.3721333045116463,
          0.4157449873972393,
          0.025650312329623448,
          -0.04420887409476762,
          0.10671016336243609,
          0.4258098703898966,
          -0.46477808658085296,
          0.3316469386412556,
          0.24831196121209503,
          -0.16592962724415117,
          0.3208154777917835,
          -0.11264053797883654,
          0.3617472208253676,
          0.2547123298244386,
          0.26214630862820376
        ],
        [
          0.1587247209685557,
          0.24506104118332214,
          0.23516633272675538,
          -0.09505375443058484,
          0.24802529266770876,
          -0.2996258744005207,
          -0.3685297415442686,
          0.10201574744227056,
          -0.4121671088238591,
          0.03365360693726626,
          0.006217870914542789,
          0.028443733197321176,
          -0.2998125835242196,
          -0.33788474872142693,
          0.15507114210687534
        ],
        [
          0.07304228640728723,
          0.059471434137603335,
          0.37416172535474834,
          0.3387623594128004,
          0.23834161856582115,
          0.05695614148823712,
          0.06695632560296609,
          -0.022268781615880594,
          -0.16656141944685338,
          -0.46919541589468966,
          0.25315392212001503,
          -0.25334176396618235,
          -0.17854086072390357,
          -0.11643149771297517,
          0.10748051129376486
        ],
        [
          -0.19685955284702106,
          -0.7233913193011615,
          0.10603486768997736,
          0.16623718372866486,
          -0.28441817508388045,
          -0.3143418270125073,
          0.07414986877712865,
          -0.20385760823329657,
          -0.3385547893360957,
          -0.41419828236467393,
          0.5041386361149769,
          -0.4346929902850638,
          0.7543522333292091,
          0.2014505478610503,
          -0.3302717364047317
        ],
        [
          0.01166946027287423,
          0.18949514241848991,
          0.33578487759537096,
          0.2810122640428086,
          0.4059940940358377,
          -0.054189444073058285,
          0.40646242762156043,
          -0.18933699602803192,
          -0.21631817390583274,
          -0.3062249891322272,
          0.42034797160483267,
          0.46189889267308964,
          -0.06616442531432638,
          0.11040131938034757,
          0.20847846495245104
        ],
        [
          0.7432319698542508,
          -1.3726821811103134,
          0.32134899785391585,
          -0.057454530518885376,
          0.10666240505066565,
          -0.23859813291406415,
          0.08620310010441712,
          0.0571136884601572,
          -0.5112723941884182,
          0.14667174879935527,
          0.24321558382137803,
          0.09554936613714271,
          -0.18877086023604428,
          -0.16755708263213626,
          0.6930716813925138
        ]
      ]
    }
  ]
}
