{
  "layers": [
    {
      "activation": 2,
      "biases": [
        1.2806390267113823,
        0.08376956157770278,
        -0.021868349112309757,
        0.3562546288909159,
        -0.08353613069056616,
        0.02259025321956587
      ],
      "cols": 6,
      "rows": 4,
      "weights": [
        [
          0.22013031653081994,
          -1.1040269491938077,
          -0.22485367282626953,
          0.3254364270986148,
          0.23547594624872759,
          0.6536298708077554
        ],
        [
          -1.1167719813237735,
          0.016005247216970754,
          0.4476848184029433,
          -0.6261211923069471,
          -0.6728321906995476,
          -0.21074029915995185
        ],
        [
          0.03512476878593424,
          0.22337878882612466,
          -0.7393957786557668,
          1.5096473059820243,
          -0.1474577370849529,
          0.532952242368646
        ],
        [
          -0.08095382083336049,
          0.8131796491708158,
          -0.4262962276265342,
          0.5719390783636928,
          -0.386690033772086,
          -1.0019044756447868
        ]
      ]
    },
    {
      "activation": 2,
      "biases": [
        0.5768871525113162,
        0.5575993260654608,
        -0.06275431798449166,
        0.0,
        -0.14684798882403166,
        0.6571595021212129,
        -0.14101399403911583,
        -0.05398518112551851,
        -0.15067441787689662
      ],
      "cols": 9,
      "rows": 6,
      "weights": [
        [
          1.2646588335533826,
          0.735183922500255,
          -0.19882316620454546,
          -0.5982853271798594,
          -0.5637319315107334,
          -0.7426297226634718,
          0.28030989085557695,
          -0.43503520110795463,
          -0.6446077917976872
        ],
        [
          -0.6933610271138602,
          0.8771756138004364,
          -0.3813190719995472,
          -0.603445640517588,
          0.512426370825421,
          0.597716828659423,
          -0.4098288886867418,
          -0.1925132485881949,
          0.04774051121427975
        ],
        [
          -0.6018569281253844,
          -0.1582016171795098,
          0.13154134745751264,
          -0.05396848707425212,
          -0.21195737517275023,
          0.015847298297238164,
          -0.03292227297016136,
          -0.1618740112983192,
          0.3865073708715901
        ],
        [
          0.7506441749177448,
          -0.3778080063260543,
          1.16248405557887,
          -0.1071293206641029,
          0.23790455792329004,
          0.6057886502412745,
          -0.5979349680050845,
          0.44114881392294497,
          0.08737257986613262
        ],
        [
          -0.5552869995034034,
          0.5930131073147461,
          -0.4978028323956206,
          -0.5540482337355952,
          0.1345627913424074,
          0.12971457883233525,
          0.07683850294142487,
          -0.012554598134011339,
          0.564246301951568
        ],
        [
          -0.5358343804664858,
          0.67879922520742,
          -0.40520666607595396,
          0.38658926969441604,
          0.5170052991098893,
          0.7359819723757933,
          0.5791797332260021,
          -0.26601281414634415,
          0.30369276360368547
        ]
      ]
    },
    {
      "activation": 2,
      "biases": [
        0.0,
        0.5965478800994356,
        0.12178003543224887,
        -0.012575423876686467,
        -0.636000011877879,
        -0.11321398616351214,
        0.24754614436292804,
        0.7352287369224926,
        0.29429539198142673,
        0.019640704567737016,
        0.010762842982658047,
        0.7886667124220541
      ],
      "cols": 12,
      "rows": 9,
      "weights": [
        [
          -0.3353472176210257,
          -0.5165208837879277,
          0.6705931583667147,
          -0.4662614103285255,
          1.146656756673731,
          -0.576263488647815,
          1.0524923499742203,
          0.24952003664924022,
          0.2766328006888858,
          -0.1385793963337843,
          -0.5124122448901746,
          0.735824472212292
        ],
        [
          -0.17561710737415834,
          0.5875404607855542,
          0.34201993590594476,
          0.22661230770369323,
          -0.4669234701691584,
          0.19898272328794764,
          -0.2926127916765472,
          -0.4259051103558877,
          0.7056623417688976,
          -0.503787746587964,
          -0.2144597082986357,
          0.3601738231049668
        ],
        [
          0.036432043336377506,
          -0.6120080764806147,
          -0.17976296502747277,
          0.409942477107051,
          0.8178850945148796,
          -0.23850561969786715,
          -0.22891710739822727,
          0.7401225111906982,
          -0.31559970758868844,
          -0.3245131183051312,
          -0.1374576809775333,
          -0.35423698012114524
        ],
        [
          -0.24941410878011205,
          0.3451439516080765,
          0.11857736235591151,
          -0.2604025081776188,
          0.3056328976743003,
          0.34372189293189576,
          0.17869388503199118,
          0.01882435681884345,
          0.19607543358809407,
          0.17544559441742222,
          -0.2814043270530966,
          -0.46630785074821046
        ],
        [
          -0.17760811287883715,
          0.1920350293428243,
          0.21488357705071634,
          0.08450364493783057,
          -0.19738687949789593,
          -0.19495137601241488,
          0.39117472052130675,
          0.10021097079642242,
          -0.5253070007271158,
          0.2880845957501782,
          -0.10712700932858742,
          -0.052263488244160036
        ],
        [
          -0.28600347666010867,
          0.09930883779363309,
          -0.6372185224871703,
          -0.45925409198211753,
          -0.6601943074965166,
          0.06986206748811767,
          -0.9909008828263254,
          0.6364620680196271,
          0.747932878406896,
          0.13347232452264762,
          -0.4747507655085174,
          -0.45309939699640284
        ],
        [
          -0.4342576734057781,
          0.49396861142845466,
          0.19283429491410795,
          -0.17885751263308722,
          0.009439163108619286,
          0.5095794472145029,
          -0.4056200073162558,
          -0.03156652520676363,
          -0.16915919831679896,
          0.2113131535686499,
          -0.28290485746321625,
          0.09613452173093065
        ],
        [
          -0.19872278642659608,
          0.27954365806879816,
          -0.5232938580008671,
          0.0961961706572554,
          -0.04376719389670927,
          0.38253349242320417,
          0.5065005260355145,
          0.34485056888966154,
          -0.4297911002679278,
          0.172789496002665,
          0.3300930632316642,
          -0.4719391678101863
        ],
        [
          -0.23739253414457087,
          -0.19807399007311446,
          -0.017416303367281886,
          -0.057830846833267474,
          0.3474306419200951,
          0.003971711510272302,
          -0.2859555382461045,
          -0.34605562429187947,
          -0.5184121553688981,
          -0.5221177874371573,
          0.32594218563548455,
          -0.0651110814728252
        ]
      ]
    },
    {
      "activation": 1,
      "biases": [
        -0.536722949649321,
        -0.8806252320810861,
        0.4721649502394393,
        0.18237945636873762,
        -0.3341834532056185,
        -1.0551482177982368,
        -0.3997393449319239,
        1.0069368470582367,
        -1.0787451552517384,
        -0.7489858313874798,
        0.13204463574165268,
        -0.43048441369001567,
        0.19828388787489468,
        1.0517422149445872,
        -0.3367090332307258
      ],
      "cols": 15,
      "rows": 12,
      "weights": [
        [
          0.34682288214927465,
          -0.2731999580044761,
          0.3507844800062273,
          0.4200123843478831,
          -0.06998380302120952,
          0.15107194732124654,
          0.11916359957948976,
          0.23320930843949264,
          -0.27579780282002225,
          -0.00021213277167334826,
          -0.4331696926917317,
          -0.398735920713035,
          -0.01760202345219059,
          0.3240677266267805,
          0.18395312598660687
        ],
        [
          -0.5308370924817741,
          -0.12170331385265762,
          0.19841375645627435,
          0.13370828716455033,
          0.47553955910704127,
          -0.10630770455245399,
          0.15054006768100797,
          0.6644611349991361,
          0.3943539685442667,
          0.38336621615587085,
          0.20784358547677093,
          0.5146374151754756,
          0.49351995004027893,
          0.0035893404803492715,
          0.050127578704337136
        ],
        [
          0.31515426684861064,
          0.32035649559093093,
          0.40030560742057364,
          0.020564288203878737,
          -0.45040129809729396,
          0.3708418219849142,
          0.47370702003806486,
          -0.3591030002896468,
          0.3149578395237947,
          -0.12356581760979041,
          0.05064127762913858,
          -0.7800823022628028,
          0.0990961020531303,
          0.4181553895957738,
          0.40842234464755117
        ],
        [
          -0.143050548693713,
          -0.08853772174463574,
          -0.09721404241136167,
          -0.3514349989255792,
          -0.057018522115400865,
          0.186437466045546,
          0.3102188783151488,
          -0.24815238370428783,
          0.3376852848950272,
          0.4379988622793645,
          0.10668167259942091,
          -0.09588979519676134,
          0.09933752122153737,
          -0.15318923335513962,
          0.19741311718233315
        ],
        [
          -0.3163693304246,
          0.5487770651677729,
          -0.9919011632001328,
          -0.15312314517852843,
          -0.4334033608055842,
          0.20881771630400786,
          0.06315735020533218,
          -0.36612473424179603,
          0.2084394392929668,
          0.6334451819394088,
          -0.6577144099656532,
          1.0642479328741454,
          -0.2579278404689198,
          -0.2984501700035258,
          0.0959671921437605
        ],
        [
          -0.2489223869446436,
          -0.05393718279112291,
          0.39679356320212533,
          0.20231978796457217,
          -0.45893643811776824,
          0.24184194298460504,
          0.4571727898753882,
          -0.0507228959047893,
          0.2534198542006718,
          0.09140198622061088,
          0.32985212465548897,
          -0.3326971408255336,
          0.37268909228935293,
          0.32180998115254605,
          -0.1539256436672788
        ],
        [
          -0.6495709345456381,
          0.04798381024701681,
          -1.0179504585499224,
          -0.06209024188135256,
          -0.4809873909486105,
          -0.36720662530493114,
          -0.14488838291877817,
          -0.8608595920805112,
          0.04254830921614503,
          -0.31937923154899595,
          0.6541168823815299,
          -0.541914529989101,
          -0.17977629312320548,
          0.062306042316083055,
          -0.40676929783948956
        ],
        [
          -0.16711630087253387,
          -0.06667825848598245,
          0.16365118876912155,
          0.28895401697244005,
          -0.6506392050343328,
          -0.532859869593677,
          -0.020146565875304424,
          0.4487166431127555,
          -0.6859910982370859,
          -0.38623683855460367,
          -0.8859106853812551,
          -0.39680001696221195,
          -0.21626511103844098,
          0.13795613571890142,
          0.006095340498334231
        ],
        [
          0.4579308410363411,
          -0.5482990382178199,
          0.16934510150107918,
          -0.4918348958315059,
          0.11266790534176042,
          -0.3264192801188174,
          0.1299414556361289,
          0.3159274901474433,
          -0.8996796619921674,
          -0.3913061266895999,
          0.3976874839208003,
          0.5019220559807254,
          0.13267406810502116,
          -0.4621601043749192,
          -0.23187823613310815
        ],
        [
          0.1816984950686708,
          0.0708668328173553,
          0.3478033260819005,
          -0.2755336556678612,
          0.08789348192793024,
          -0.22241845260547868,
          -0.20642490998243002,
          -0.1373690086095834,
          -0.13948069962327064,
          -0.16367706182786634,
          -0.1595224228230131,
          0.017907114376480515,
          -0.3095847520664386,
          0.33483674711798106,
          -0.41770261102185346
        ],
        [
          -0.0360772996344221,
          -0.43613706639122823,
          0.2677239514400664,
          0.37479488964896274,
          -0.1937026122978378,
          -0.26837153059096813,
          0.11662078086828004,
          -0.2051911954023469,
          0.44914402613610993,
          -0.051374062825408566,
          0.361762637049244,
          -0.1552218279982532,
          0.22194548752622942,
          -0.0014374724492634714,
          -0.4562238203075212
        ],
        [
          0.4088944396380159,
          -0.3579007704685437,
          0.23714907930937132,
          -0.21898709673755404,
          -0.253894576470069,
          -0.5207117705961606,
          0.19583329304584216,
          -0.39766283036678435,
          -0.8069565223476972,
          -0.3161786832067988,
          0.5393911238288724,
          0.16028195076874183,
          -0.3042057050202775,
          0.6806745514971673,
          -0.03607699398026874
        ]
      ]
    }
  ]
}
