{
  "layers": [
    {
      "activation": 2,
      "biases": [
        0.25636703892545565,
        0.01592643596180461,
        -0.0213463073739516,
        0.19697196362144656,
        0.5352560676371028,
        0.629417864031063
      ],
      "cols": 6,
      "rows": 4,
      "weights": [
        [
          1.2813591010087688,
          -0.40968904532141653,
          -0.22484105470166685,
          0.7899610927737032,
          0.45561206488673855,
          0.6198976943287129
        ],
        [
          -0.6692572945639965,
          -0.5216105125650422,
          0.44818165063642534,
          -0.04140767133203008,
          -0.8221619166533354,
          -0.3067122909696169
        ],
        [
          0.5383328618850655,
          0.5738746949821668,
          -0.7393440166249362,
          0.8238438460323623,
          0.25171737726959403,
          0.1138935976438682
        ],
        [
          0.40303802083343904,
          0.27792546510945404,
          -0.4257976123559017,
          1.170152692590246,
          -0.5497209007788244,
          -1.1053841264723083
        ]
      ]
    },
    {
      "activation": 2,
      "biases": [
        0.24742606812310045,
        0.4192597344748062,
        0.1891297442318904,
        0.0,
        -0.16299121249723109,
        1.2703254169860503,
        0.07260648805326744,
        0.3990019612758364,
        -0.23960634395546987
      ],
      "cols": 9,
      "rows": 6,
      "weights": [
        [
          0.9679447475428885,
          0.6886213659889413,
          -0.12712950717510152,
          -0.5982853271798594,
          -0.5087161440162421,
          -1.0198624734367692,
          0.3625722807660496,
          -0.34555473003638854,
          -0.7132094120811301
        ],
        [
          -0.19143002368393003,
          0.6620955740562552,
          -0.47805046520142314,
          -0.603445640517588,
          0.4686468876200206,
          -0.22535716875227116,
          -0.4006490387257268,
          -0.004778951041671258,
          0.1015304980750596
        ],
        [
          -0.6018157530028151,
          -0.15867565306466788,
          0.13195990183563494,
          -0.05396848707425212,
          -0.21146144813254447,
          0.01733482241757001,
          -0.03292227297016136,
          -0.16210414261108905,
          0.38636367301491653
        ],
        [
          0.9494927581429057,
          -0.5617345191212857,
          0.959655427259886,
          -0.1071293206641029,
          -0.14584749153496404,
          0.1921514646614691,
          -0.5747543494085077,
          0.12346839557942402,
          0.0848972966755234
        ],
        [
          -0.5955626717821129,
          0.9188448684713757,
          -0.6328928952888365,
          -0.5540482337355952,
          0.06678313220769014,
          0.48692134327289116,
          0.14547009355607132,
          -0.09868056633004033,
          0.4879480093639785
        ],
        [
          0.018101941841649295,
          0.9624772066436716,
          -0.48205366667052807,
          0.38658926969441604,
          0.469369634846132,
          0.8406355005580216,
          0.637808566167688,
          -0.1935867498696501,
          0.18681417554510746
        ]
      ]
    },
    {
      "activation": 2,
      "biases": [
        0.0,
        0.21739170340409758,
        -0.043025829628693564,
        -0.01225740126821474,
        -0.7314090642398055,
        0.05838824478056219,
        -0.028979481962138273,
        1.0317223566454137,
        0.12300524827212951,
        0.0,
        -0.009618627247926862,
        -0.02287368806849364
      ],
      "cols": 12,
      "rows": 9,
      "weights": [
        [
          -0.3353472176210257,
          -0.011150835247829198,
          0.014140007453183091,
          -0.4662062375297363,
          0.5604354599368565,
          -0.728146133119904,
          0.6536584595848307,
          0.3807351724523286,
          -0.27502635902270606,
          -0.13888433106002723,
          -0.5125928062668769,
          1.109667347756185
        ],
        [
          -0.17561710737415834,
          0.4511884233876835,
          0.05950713629953782,
          0.22665659207419514,
          -0.6710814506305285,
          0.4000900335442599,
          -0.2692552256469962,
          -0.1904066972112069,
          1.094901452067883,
          -0.503787746587964,
          -0.21455501941049848,
          0.2450111319833841
        ],
        [
          0.036432043336377506,
          -0.5120661789558946,
          -0.3019303580465573,
          0.40988449453186265,
          0.5576869879323882,
          -0.2987405002515665,
          0.0703528622108777,
          0.527027760000048,
          -0.886217109359696,
          -0.3245131183051312,
          -0.1377227100176933,
          -0.04298893773653201
        ],
        [
          -0.24941410878011205,
          0.3451439516080765,
          0.11857736235591151,
          -0.2604025081776188,
          0.3056328976743003,
          0.34372189293189576,
          0.17869388503199118,
          0.01882435681884345,
          0.19607543358809407,
          0.17544559441742222,
          -0.2814043270530966,
          -0.46630785074821046
        ],
        [
          -0.17760811287883715,
          0.19353908883084567,
          0.229909416768257,
          0.08458884877109231,
          0.009280227225749504,
          -0.16671733207770958,
          0.3601803664045792,
          -0.0404787563347295,
          -0.3931539537825749,
          0.2880845957501782,
          -0.10802245181095602,
          -0.07610357453494229
        ],
        [
          -0.28600347666010867,
          -0.1716557160637267,
          -0.542097294012592,
          -0.45930139449694346,
          -1.1980617742422712,
          0.4556319929145141,
          -0.744734940658618,
          0.985036681027049,
          0.6614021615317911,
          0.13314228776369283,
          -0.4748175406818651,
          -0.673992604125698
        ],
        [
          -0.4342576734057781,
          0.5235658669732377,
          0.17459462596827624,
          -0.17885751263308722,
          -0.044700468489022566,
          0.5570447846554292,
          -0.44173525475714326,
          0.000806417096033913,
          -0.12373468079129778,
          0.2113131535686499,
          -0.28290485746321625,
          0.09061234625586417
        ],
        [
          -0.19872278642659608,
          0.36747045835011116,
          -0.48063387180614814,
          0.09616696881263095,
          -0.011997219737083554,
          0.41437238735853715,
          0.11096292572689676,
          0.5300120601001566,
          -0.3497743156618714,
          0.172789496002665,
          0.33002395870499573,
          -0.4210768510424324
        ],
        [
          -0.23739253414457087,
          -0.19257131594369334,
          -0.06497061195402942,
          -0.057766982697999854,
          0.40559225991743836,
          0.0005890413261053496,
          -0.2190232675776047,
          -0.40095458231491266,
          -0.46028895970305667,
          -0.5221177874371573,
          0.32430465795996444,
          -0.07866601066014405
        ]
      ]
    },
    {
      "activation": 1,
      "biases": [
        0.6402537420159092,
        -0.01845097134419569,
        0.2881498666732516,
        -1.0039370849300882,
        -0.258382866299379,
        -1.3208889110615867,
        -1.4362447371756892,
        -0.01616999842131411,
        -1.5423242167461462,
        -0.9056732078882659,
        -1.068334467267191,
        -0.7236945596978208,
        0.27541229615166246,
        -0.08234921137056721,
        0.1844753530560995
      ],
      "cols": 15,
      "rows": 12,
      "weights": [
        [
          0.34682288214927465,
          -0.2731999580044761,
          0.3507844800062273,
          0.4200123843478831,
          -0.06998380302120952,
          0.15107194732124654,
          0.11916359957948976,
          0.23320930843949264,
          -0.27579780282002225,
          -0.00021213277167334826,
          -0.4331696926917317,
          -0.398735920713035,
          -0.01760202345219059,
          0.3240677266267805,
          0.18395312598660687
        ],
        [
          -0.33141995932561497,
          -0.2752898449638626,
          0.26295118484044655,
          0.22426730730103817,
          0.353430895047787,
          0.01769977224980152,
          0.19198948632059046,
          0.5443116166266594,
          0.43947148859975443,
          0.19985631803541853,
          0.09663237900043774,
          -0.12784293280321132,
          0.2790434634094103,
          -0.05590047248753849,
          0.31611143035909395
        ],
        [
          0.07910483202289532,
          0.3216616148730221,
          0.37095314079944836,
          -0.13985387222622414,
          -0.4221728694091015,
          0.3006739216150338,
          0.37707379000140634,
          0.2842904050573338,
          0.39156776011607136,
          -0.14232229564752,
          -0.2264678534678387,
          -0.32494201800497674,
          0.39578500139207473,
          0.31768463873792624,
          0.33257923671705647
        ],
        [
          -0.14302609744943037,
          -0.08850958952445498,
          -0.0971992152270733,
          -0.351471799696712,
          -0.057023677940103316,
          0.18641900984813936,
          0.3101685649686941,
          -0.2481511407451979,
          0.3376669415277652,
          0.43799410034110775,
          0.10662413486060397,
          -0.09593134196598882,
          0.0993343860321152,
          -0.15321476340585133,
          0.19743073293222904
        ],
        [
          0.17237613819067668,
          -0.26949314502540045,
          0.24068725255743542,
          0.1043377316220958,
          0.14616370180939134,
          0.058058614695505294,
          -0.19372543459923963,
          1.2444182851527246,
          0.9198424919757221,
          0.48436158388429196,
          -0.21422464901346105,
          -0.05612349013066134,
          -0.19299239900220483,
          -0.30893386665429334,
          0.8570081631789025
        ],
        [
          0.10931943723376288,
          0.33943267229409146,
          0.7353135902882636,
          -0.020759623018100637,
          -0.0572008986325742,
          0.207927280278716,
          0.44331466989902285,
          -0.19572906781985666,
          0.24306860244137024,
          0.38972573679759887,
          0.1747754895095273,
          -0.7036149994825465,
          0.12296971169888794,
          0.18700792754365017,
          -0.4208795664878138
        ],
        [
          -0.003544312524192199,
          0.11525080568267285,
          0.048304288306407615,
          -0.27449714871063957,
          0.34804576692240374,
          -0.2053743407925473,
          -0.046830068125941975,
          -0.0011429807498493391,
          0.763184796753419,
          -0.03597748975191198,
          0.29016234349609465,
          -0.6573282352635871,
          0.26851363618366053,
          -0.6157087299309157,
          -0.5013848149155267
        ],
        [
          -0.16346098765657316,
          -0.08239367961292109,
          -0.15837335885336076,
          0.20322337280089933,
          -0.2869172511754158,
          -0.8780484372160066,
          -0.6461707530464696,
          -0.22728971644687646,
          -1.0313379134405785,
          -0.39076966075566943,
          -1.4866290002764522,
          -0.13175510202351065,
          0.3936057925297884,
          -0.006635582406553663,
          0.029460065078086007
        ],
        [
          0.30099773778305977,
          -0.010237752647771886,
          0.15897350231517254,
          -0.8357956126243141,
          0.11759283500997468,
          -0.3212243567199306,
          -0.23535544713177836,
          0.6895523261134391,
          -0.9096100043813253,
          -0.02445975755201816,
          0.6788684630711445,
          0.43391595993674287,
          -0.5368409518126568,
          -0.22409033473107323,
          0.10815095198331265
        ],
        [
          0.18169348680097513,
          0.07093577388896836,
          0.3478685309733377,
          -0.27546619448899184,
          0.08800343522934229,
          -0.22232523998149054,
          -0.2064832208501854,
          -0.13727965719161522,
          -0.13937234612477242,
          -0.163579599751549,
          -0.15962830240876538,
          0.017941543975973282,
          -0.3095257002575893,
          0.33472600695370014,
          -0.41766343950245266
        ],
        [
          -0.03595653843241567,
          -0.4358853152203014,
          0.26769179715352603,
          0.3746705358573679,
          -0.19369984977653973,
          -0.2683037892484617,
          0.11638253889214062,
          -0.20532991019781924,
          0.4492157247554844,
          -0.05129145227860445,
          0.3614525050056809,
          -0.15547813012974096,
          0.22188056002721315,
          -0.0016077790729172514,
          -0.4560899917576758
        ],
        [
          0.07702194686427155,
          0.09613077831517254,
          0.19392868290612875,
          0.37931281321998983,
          -0.11639598692383522,
          0.29973929521397946,
          0.4439725403058975,
          -0.3638264776907067,
          0.1877042870342248,
          -0.023434486573203277,
          0.8320205164608189,
          0.5013028696354931,
          -0.37757305407524283,
          0.5305707510470955,
          -0.2785791805307815
        ]
      ]
    }
  ]
}
