{
  "layers": [
    {
      "activation": 2,
      "biases": [
        0.0,
        -0.6722713037270092,
        0.0,
        0.0,
        0.0,
        -0.07226635109799771,
        0.0,
        -0.17522511640116703,
        -0.14027229868621874,
        -0.5004402377651412,
        -0.21462462137509972,
        -0.7576172197526351,
        0.9659741908810645,
        0.0
      ],
      "cols": 14,
      "rows": 4,
      "weights": [
        [
          -0.541025283241354,
          0.3314130216912604,
          0.1791425146504911,
          -0.5224096868960304,
          -0.44281478979400674,
          -0.2850854735653824,
          0.49112716254701927,
          -0.1136981053471206,
          0.4172787421663352,
          0.3166459540601091,
          -0.20643541582787198,
          -0.4673514635147635,
          -0.0452812473156657,
          0.11796677888262207
        ],
        [
          0.2548042991683582,
          -0.21674157649499098,
          0.543940176094449,
          0.20328617424548714,
          -0.3432022135948946,
          0.5756800605114683,
          0.5747725928641418,
          0.10533444860522949,
          -0.4472505259765626,
          -0.1462315017150671,
          0.31508401060624197,
          -0.5029852369622275,
          -0.09426884246653071,
          0.04682828305534785
        ],
        [
          -0.2884407260464716,
          0.30452243522511385,
          0.23837727087075924,
          -0.12816252030189718,
          -0.47041468503222866,
          0.21896593649924326,
          -0.021735813186216892,
          0.20015237269963343,
          0.16091476083868175,
          -0.5101036540857635,
          0.16029725186172525,
          -0.11023614965832217,
          -0.1272966786489309,
          -0.46281386341855296
        ],
        [
          -0.3904225469499373,
          2.8064266716190844,
          -0.4040766511510248,
          -0.5109746366821138,
          -0.025025053932505103,
          0.07173573742612907,
          -0.4284420929040495,
          1.3995118277464642,
          0.1362051038766832,
          2.0597135698451314,
          0.6520785505184824,
          1.8231160617939042,
          -0.4333807641799156,
          -0.4497759529818377
        ]
      ]
    },
    {
      "activation": 2,
      "biases": [
        -0.0009108572837383248,
        0.04251121601243851,
        0.9674283441997777,
        0.11627018260657192,
        -0.47716869548335195,
        0.0,
        0.0,
        -0.06957149925240076,
        0.0,
        0.0,
        0.01469682227160363,
        -0.39890744937907974,
        -0.09094933460156418,
        -0.058093381236177334,
        0.021603622094533422,
        0.5725887387408427,
        -0.07180022812401363,
        1.6667128852207422,
        1.019463000150687,
        -0.015450750771379194,
        1.3154009530525754,
        -0.024052468796358386,
        -0.0364351253838875,
        0.0,
        1.0524526565380463
      ],
      "cols": 25,
      "rows": 14,
      "weights": [
        [
          0.29890958997130423,
          0.20082882293966856,
          -0.24260520492652785,
          0.2625451496974094,
          -0.36314700879845146,
          -0.3853059497879855,
          0.0839981315374764,
          -0.1697549475208897,
          0.06454548048940442,
          0.16349458752221566,
          -0.05476552585783522,
          0.1004203519846747,
          0.24763454237894086,
          -0.30516847344852605,
          0.3898241799516649,
          -0.16776979365206968,
          0.29765478308270055,
          0.1757387538095758,
          0.3118531024983969,
          0.020686350657040088,
          0.37557634263840145,
          -0.371229186224574,
          -0.2672262830628655,
          0.1074889273880745,
          0.13092126840460713
        ],
        [
          0.0625429177234998,
          -0.24935269600612034,
          -0.25686189769023965,
          -0.19503810563624432,
          0.06696519723339783,
          -0.08231582383486376,
          -0.2795762445597464,
          0.042416176286207675,
          -0.09856899901405672,
          -0.12575307035616096,
          -0.2528431722212883,
          1.2851051610616682,
          -0.37528802876105655,
          -0.14616265063692116,
          -0.09348398864757158,
          -0.6530482491801575,
          0.15158139795204578,
          -0.6298439204670969,
          -0.3729781626963268,
          0.15516897006841013,
          -1.0687084627207306,
          0.8065463319867915,
          -0.21264771307394917,
          -0.05543428158310829,
          -0.3477242758955315
        ],
        [
          0.27936847658515696,
          0.35813072478927716,
          -0.04290823558804321,
          -0.000694325445794157,
          0.29288730828059195,
          0.3133983424716975,
          0.10465559523220744,
          -0.11631296405902604,
          0.1399432181278978,
          -0.18438122692611836,
          0.33540672393495924,
          0.25782186131572943,
          -0.3219283044344101,
          -0.04996885414080703,
          0.1550158647260168,
          0.2829556025312174,
          0.06460205186364625,
          0.17125830389197905,
          0.07082443253058915,
          -0.17408375517852195,
          0.3555708570455453,
          -0.18708085462160215,
          0.09974415958851529,
          0.2599036093494545,
          -0.21900673223305914
        ],
        [
          0.3257107586070316,
          -0.09332812776329129,
          -0.2358027602775015,
          0.09744034082885558,
          0.04199830348988114,
          0.39101665074929326,
          0.17708914847599877,
          0.013648117367657565,
          0.20097449847489302,
          -0.2603457639630806,
          0.018620762898555243,
          -0.17009887985082994,
          -0.19707643690998844,
          0.3349913874367238,
          0.14489927452749757,
          0.21076691148452387,
          0.0677615473160551,
          0.13791422450338395,
          0.31352952311052884,
          0.22706297628771915,
          0.028524433735667078,
          -0.13404508990056546,
          -0.0006329570206592721,
          0.30140053864704724,
          -0.13852436758725178
        ],
        [
          0.2271559313861457,
          0.36323778783594524,
          -0.022133111544432933,
          -0.28215236353711576,
          -0.15259974303054497,
          0.3573929331016895,
          0.0788515790305063,
          0.3202627568210468,
          -0.12591575255460308,
          0.11195227566581388,
          -0.04218964452404967,
          -0.2630878787277324,
          -0.2543849325235313,
          0.09824110202854615,
          0.3441731079591558,
          -0.28238381576328137,
          -0.17418714163434268,
          -0.1683461049610018,
          0.24237602592970334,
          -0.17254732136619277,
          0.10232351763459226,
          0.08633450865451062,
          0.3443949215175737,
          0.3513146919054718,
          0.11171032158036392
        ],
        [
          -0.17918006321663135,
          0.2344455773384053,
          -0.14856165810364494,
          -0.04638608245993362,
          -0.32505029943974745,
          0.05803962779486304,
          0.29787977214853645,
          -0.3385940257520722,
          0.21927722606814126,
          -0.3485356706798224,
          0.07602753796399972,
          0.305916139023058,
          -0.11581491057882588,
          -0.1596560697350799,
          -0.12409656634536831,
          -0.014321189415908934,
          0.0584238757338809,
          0.16988870639146667,
          -0.10753665676724078,
          0.16257622186374546,
          0.2033012412773747,
          -0.2288031797351138,
          -0.3183987927791541,
          -0.11856988518048929,
          0.2994300360827874
        ],
        [
          0.08004870003053104,
          -0.038568869815732286,
          -0.10524418482888064,
          0.03139788256295269,
          -0.114950305351358,
          0.38260044121203207,
          0.012632692889337329,
          -0.1744055952114848,
          -0.022072989505046395,
          -0.24229280849390658,
          0.04540691791931901,
          0.3878745199489747,
          -0.2446769869883932,
          0.31362919342267503,
          0.20022276312071718,
          0.1343834365082086,
          -0.24148281373836608,
          0.2528480607227753,
          -0.19954076619069466,
          0.12856611878944693,
          -0.023292930103931492,
          0.3635097969137248,
          0.28858541152322137,
          -0.26412722453393317,
          0.1902687911940557
        ],
        [
          0.021811414721645734,
          -0.2890177104528297,
          -0.02871740452627231,
          -0.35167479143774255,
          0.31812331068490524,
          0.10977653984535314,
          -0.2722210986985261,
          0.3146816293635871,
          0.07099307012963345,
          -0.05980234783474918,
          -0.11908732917343158,
          0.7637626180104115,
          -0.12966184342765508,
          0.3396058124819445,
          -0.21832620938691108,
          -0.028002900050637332,
          0.21441507269802632,
          -0.20231299096193459,
          -0.43168923120437036,
          -0.3910280380519787,
          -0.39951443207161597,
          0.3910648240945716,
          -0.09198654361882604,
          0.09857224611924918,
          0.25738739906329616
        ],
        [
          0.28909535827047717,
          -0.09400910771267976,
          -0.2846968429500328,
          -0.02204659875625296,
          -0.20511612955093858,
          -0.04629419918480345,
          -0.22280532257146612,
          0.3772487907178591,
          0.009963488038014515,
          -0.19898361057410013,
          0.2454225640562664,
          -0.3178837966249365,
          -0.17569968845649941,
          -0.14661033202423387,
          0.29440651223460024,
          0.32471328136421007,
          0.06945176500331082,
          0.1574794165744686,
          -0.27616292316512236,
          -0.2636493020831011,
          -0.3322090757870621,
          -0.11407053857336297,
          -0.006979827587463325,
          -0.0853691211576228,
          0.3868252876631457
        ],
        [
          -0.14767879725441035,
          -0.11982771212975048,
          -0.1952033249565316,
          -0.4879821458597829,
          0.5128285190034895,
          0.12221852932253949,
          0.3446601401309115,
          0.17859662380089272,
          0.3653963171769502,
          -0.1452065425868713,
          0.29718590529346794,
          0.9724047348100332,
          -0.2602003825630618,
          -0.08253131201897408,
          -0.3281424505797621,
          -0.16775188389422857,
          -0.2711292213284213,
          -0.6901425053089876,
          -0.41358640769563487,
          0.2847580281902882,
          -0.3156709423159705,
          0.5847819435453516,
          0.35971882041416664,
          -0.013174625211771453,
          -0.3766739976773132
        ],
        [
          0.026162272277720416,
          0.36728654917101244,
          0.22766684335520568,
          0.22839496001615578,
          0.024758080936802998,
          -0.3858093836948231,
          0.21680773882531124,
          0.11419447476523736,
          -0.356985194369333,
          -0.01717559798400366,
          0.047256897854757514,
          0.2185968921742304,
          -0.2391275623666011,
          0.07974791455462549,
          -0.045134998274817234,
          -0.13066195688381244,
          0.30952641775209977,
          -0.32950201140425084,
          0.06845867220542318,
          0.32061418141687753,
          -0.3271587551549385,
          0.17287669325539745,
          -0.07416503021339615,
          -0.2069254983710572,
          -0.2950287644976263
        ],
        [
          -0.2624281786597573,
          -0.16138346432397552,
          -0.3901321026848834,
          0.16670615442143558,
          0.6247982447824886,
          0.08558045002561042,
          0.04987556954649975,
          0.20997219689788657,
          -0.26535561805374913,
          0.012675606257499557,
          0.14611616233355929,
          0.39997417454689016,
          -0.181558806459038,
          -0.2684761646821126,
          0.18438738981369923,
          -0.4771531545256639,
          -0.22695257874837382,
          -0.7909487932501557,
          -0.5375955285091238,
          -0.36239887076450766,
          -0.5857575124800546,
          0.12747674681322796,
          -0.33059444682544337,
          -0.2655428520788414,
          -0.3395233346616227
        ],
        [
          -0.37075174705872,
          0.318990940940233,
          0.4187336620904482,
          0.38613298028803367,
          -0.35967497217130684,
          -0.3573437932842073,
          -0.333896482853378,
          0.22102898386143968,
          -0.15095958705650328,
          -0.33544066054949334,
          -0.10860646789172008,
          0.41265274239246946,
          0.09380856476218143,
          -0.04522166072716525,
          0.1533455582293108,
          0.325351616675885,
          -0.19098193683855022,
          0.5478449716767333,
          -0.10320545269526445,
          -0.09850090475873123,
          0.7945058526414633,
          0.024812698572391684,
          0.04541110383226892,
          -0.159943684570642,
          0.7551775807559448
        ],
        [
          -0.22276720552360743,
          -0.05840469717596237,
          -0.12493300588504655,
          -0.04823674762895074,
          -0.2606087246894576,
          -0.016611255923438838,
          0.26113579755132016,
          0.06455518564079989,
          -0.2194555111020077,
          0.19547109718028208,
          -0.37339298530790177,
          0.061952286538695785,
          -0.01850140575547878,
          0.29603521987061365,
          0.032008978700870196,
          0.01458026961596571,
          -0.22673606231042917,
          -0.27326280905776,
          0.13778544713883112,
          -0.24039990908814812,
          0.18644401798785962,
          -0.32636659093400333,
          0.03589937053682649,
          0.186473895446932,
          0.18582602910296533
        ]
      ]
    },
    {
      "activation": 2,
      "biases": [
        0.06609344887755032,
        0.0,
        -0.19237270006015159,
        0.0,
        0.316007812558777,
        0.8901816279264277,
        -0.060062262728565206,
        0.1754986155390162,
        1.02661576747904,
        0.015215598532775421,
        -0.5111281146605722,
        -0.19523744303753524,
        -0.3310382236013886,
        0.11039610669654638,
        0.00031314839900233634,
        0.458572410658148,
        0.0,
        0.10920666641361777,
        -0.06911321892326461,
        0.05843148148158052,
        -0.07057396989526195,
        0.01825981145893255,
        0.0,
        -0.011474795920547376,
        1.1282326220141046,
        0.02740168568295872,
        -0.2072000277505164,
        -0.09363979521291109,
        0.11340003718621296,
        0.2233992095912293,
        0.0557635178988183,
        0.404156791611605,
        -0.1570857816300202,
        -0.7715513507609983,
        0.5742381336251619
      ],
      "cols": 35,
      "rows": 25,
      "weights": [
        [
          0.1811789274060474,
          -0.1825414641956232,
          -0.09546053871266952,
          -0.0700228094543654,
          0.26312015997657984,
          -0.2218698504288631,
          0.0027947006191666357,
          0.10542473841985092,
          0.08508387381026955,
          0.21032626485006378,
          -0.28048049631468813,
          -0.1491362392024284,
          0.07335581953223999,
          -0.3058605316522551,
          0.09113718932862272,
          -0.14804254300657585,
          -0.14163927924106334,
          0.30160014886813663,
          -0.14443013576770644,
          0.2551932365976488,
          -0.06513150307556956,
          -0.2537284493766692,
          -0.1399788070933958,
          -0.22932144847864502,
          0.31551992966556686,
          0.11270527678204299,
          0.1374552295416581,
          0.22585435939840404,
          0.22419527857539506,
          -0.05322237710011461,
          -0.11647312678750588,
          0.27579058878211105,
          -0.16706083989721898,
          -0.30837194613961344,
          -0.3006325273761096
        ],
        [
          -0.08538594303781952,
          0.0673971595224324,
          0.15328138043332035,
          0.126386615151369,
          0.07904203623060607,
          0.08543271413906046,
          0.17390295189177313,
          -0.28444777692040973,
          0.26329792720537276,
          0.15910765576372654,
          0.10586572100282879,
          -0.11149882575643531,
          0.2354269447238255,
          0.022650631723459026,
          -0.06838778120859246,
          -0.13597711195889836,
          0.031256370204291326,
          -0.13986614995629268,
          -0.07387086929581162,
          -0.03778460124019441,
          0.10502752741373911,
          0.25545777669962794,
          0.11076834657099183,
          -0.021572367365671596,
          0.06497670402376517,
          0.03997072720024842,
          -0.28470434848187615,
          0.09399271883528747,
          -0.10748918829798669,
          -0.21027764553753595,
          -0.2306599181129105,
          0.11235388761249142,
          0.3023935247328248,
          0.16578624749062235,
          -0.2536989226638249
        ],
        [
          0.4913838434318583,
          0.016202221207773114,
          -0.19963932570791598,
          -0.23829125205877139,
          0.014433922943781097,
          0.1837820687015032,
          0.20429633431295555,
          0.34919464404997297,
          0.3245262380744597,
          0.21851214126835913,
          0.23347726889796758,
          -0.07331797045282533,
          0.11065977360648727,
          0.09674557457769516,
          -0.22173205226268813,
          0.22282441064751293,
          -0.24473309646004768,
          0.11321031422573238,
          0.04782838077726988,
          0.06000141104277428,
          0.42220019107793255,
          -0.0758187155772123,
          -0.2654854884822836,
          -0.1797926170728168,
          0.4856473468712406,
          0.08562086025700989,
          0.4660545561519311,
          -0.24694662619091537,
          -0.050813204707118115,
          0.39069424737945124,
          -0.10551466705942274,
          0.3137167042746528,
          0.1417657656485663,
          -0.5310713868606792,
          0.297614859795833
        ],
        [
          -0.2827557852985539,
          -0.2776024674721377,
          0.11241763924888898,
          -0.2526445145349186,
          -0.035568266845392195,
          0.21724690539921307,
          -0.10262550293723102,
          -0.17999405210636096,
          -0.2361392781254156,
          -0.3021272259295821,
          -0.2999892530275183,
          0.16305104599354647,
          -0.10459974807799917,
          0.2196015337883529,
          -0.30689876755748124,
          0.2432533570645922,
          0.26162814300615705,
          0.26156581597631073,
          0.07192407064056087,
          0.28508691648937134,
          -0.26303761257386193,
          0.11754633535643479,
          -0.04082642415662222,
          -0.1235245920364279,
          0.12158820720372072,
          0.06545703396012771,
          -0.1842644680755026,
          0.09207769456795885,
          0.08894730283991178,
          -0.2916683268783965,
          0.2447112154433563,
          -0.23919172450725878,
          -0.22262870714805713,
          0.14451492184795997,
          0.06480634005765741
        ],
        [
          -0.04646865073532467,
          -0.0402109917909614,
          -0.3076423827331484,
          0.11008628572250667,
          -0.2977484580177678,
          0.2849077463447009,
          0.036580610490530754,
          0.06428112076220731,
          -0.06844842991739405,
          -0.21458538801466692,
          0.23240567829285996,
          0.018346152473355207,
          0.21558728576109176,
          0.12773708502579928,
          0.2252209375340578,
          -0.22027609800145578,
          -0.27911472566638407,
          -0.3597317411751751,
          -0.2961860241123943,
          -0.17700129459128078,
          0.2355582868587138,
          -0.17346722322602012,
          0.04454145618832657,
          0.2620568028280243,
          -0.007175857310408434,
          0.21339791374460448,
          -0.193208695366898,
          -0.18789814466124233,
          -0.1642641067168916,
          0.010719555937202056,
          -0.30235692748480436,
          -0.4539125629769341,
          -0.13977594770421425,
          0.41224788377523275,
          0.03592017891845391
        ],
        [
          -0.23987379478369403,
          0.2688247133113884,
          0.009202824502406672,
          0.2877729396674058,
          0.26423187520511215,
          0.12982513198473852,
          0.06354337761799986,
          -0.010460195727909872,
          0.2481300181654676,
          -0.2751727064871994,
          0.1793012392168063,
          0.15887818071012033,
          0.1861706226902957,
          0.12666349848727543,
          0.04193791335933839,
          -0.169016266812422,
          -0.15851318114309532,
          0.25965825329105785,
          0.058985380051507975,
          -0.1787769915825515,
          -0.31175095279824483,
          0.1563819155256019,
          -0.21909577066763689,
          0.11438196936562912,
          -0.08501082356691549,
          -0.07658585740817327,
          0.3140918062035405,
          -0.3098607728191871,
          -0.11844426380164455,
          0.27777873527558167,
          -0.056157033278094556,
          -0.08684556968493874,
          0.14561944336287588,
          -0.11927324128674824,
          -0.029634520105544522
        ],
        [
          -0.28730774689534055,
          -0.12536422407630257,
          -0.2797339363015706,
          0.212343528569458,
          -0.15761936815239644,
          -0.0005922486812013645,
          -0.24384597915550266,
          0.018128306380472466,
          -0.09056292304491508,
          -0.3128277001220458,
          -0.13468262360227976,
          0.03832694881247875,
          0.21213858520526016,
          -0.011901749714648295,
          0.29504714488532463,
          -0.29860195313797916,
          -0.2283345461599992,
          0.1330920304449395,
          0.3094638289242817,
          0.09133516405100067,
          0.2958192189042077,
          -0.17433689316574771,
          -0.18651011091262298,
          -0.24705825424634698,
          -0.059864825074549,
          -0.13149777063738524,
          -0.16533902218813587,
          -0.1911580067905904,
          0.2772731277718766,
          -0.15953369589458635,
          -0.20760451069072675,
          0.09387823895854422,
          -0.1769243704711075,
          0.2586702403749857,
          0.30757982864975736
        ],
        [
          0.0911999313313099,
          -0.2871368462431817,
          0.0501936199562313,
          -0.08888259915232188,
          0.23149649539229777,
          -0.23182735037286542,
          -0.03462747347624918,
          -0.19271992338079566,
          0.36641026082100137,
          -0.08642829105240707,
          0.07423565081208547,
          -0.22072253468622074,
          0.3390415530700983,
          -0.2771708962322693,
          -0.22646258840171982,
          -0.08422286459742237,
          0.12145106923881852,
          -0.10090764754133529,
          -0.17743369875022724,
          0.11599978738666919,
          0.23022280418954802,
          0.06646622223341457,
          -0.22581734955668487,
          -0.25442227935053247,
          0.16820597420714148,
          -0.27956584394528483,
          0.29278790623851375,
          0.22633951949579556,
          0.2172195461975464,
          -0.2661094468302619,
          0.1023046823901687,
          -0.09131994970194666,
          0.16267344673528714,
          0.13891237178528112,
          -0.10387081928948227
        ],
        [
          0.24711409482577065,
          -0.27326539220751517,
          -0.004753089127506316,
          0.01012271046848267,
          0.12543713121903952,
          0.27873020361667755,
          0.03375412119204909,
          0.21219943952390005,
          -0.2532348299048485,
          -0.17781564655217239,
          -0.18842078761363196,
          0.1347086706607718,
          -0.2330408062740717,
          -0.1504497620099758,
          -0.03933148904394909,
          -0.08596321608057132,
          0.29411882415120616,
          -0.27524455781138074,
          -0.13067184898863657,
          0.25107420192914753,
          0.2229211747609836,
          -0.13199014050303257,
          0.05345373488601133,
          0.2066088069390171,
          0.27982935932721203,
          -0.11777490634997306,
          0.10316455927103467,
          0.21185858565843688,
          -0.16863258882853982,
          0.03213875679378519,
          -0.133915121852037,
          -0.3060418211466869,
          0.07240228225799128,
          0.03277649976884047,
          -0.07517125256423253
        ],
        [
          -0.08888712842249384,
          0.12062679684639106,
          -0.19577192975540242,
          0.00185672672889844,
          0.24757613015551108,
          0.020406412061969494,
          -0.007097359438487313,
          0.019234940290383164,
          0.30794437584933426,
          -0.19518274324252233,
          -0.08332852969654865,
          -0.1421768849679893,
          0.0802788362322732,
          -0.051933031026850374,
          -0.12830538646130416,
          -0.2553375012463639,
          -0.017360865888321645,
          -0.2555218415704798,
          -0.316158731092335,
          0.060802094496759995,
          -0.030387559644911105,
          0.2957149396666318,
          0.3100667413728946,
          0.2933473591791217,
          0.15270601003854653,
          0.14296424140825828,
          -0.30632116805922305,
          -0.017396188246559818,
          -0.1746813983669019,
          0.03906107638851263,
          0.19778554066655538,
          0.11595401751916816,
          0.02071427726688889,
          0.005863213570616734,
          0.24291115622833812
        ],
        [
          -0.06580278223181017,
          -0.2778611026703808,
          -0.30685862284125165,
          0.2156850629464325,
          0.08663331000024424,
          0.18049014326109789,
          0.24877547170833433,
          0.0968645912612554,
          0.24010180775894216,
          0.11047898160434486,
          -0.2458533823944026,
          -0.14990563376880972,
          0.21758224300648007,
          -0.04981826180119923,
          0.24473397969570967,
          -0.24659859914689009,
          -0.22207271749715668,
          -0.1825287663945006,
          0.21158667806994935,
          -0.1473375593750482,
          0.3003095639355238,
          0.2454202564556658,
          -0.14186170324971514,
          0.2981935209947567,
          0.02726798112520295,
          0.10143915266239271,
          -0.15183223562800827,
          -0.18098403213354616,
          -0.011682652197094254,
          0.010673821027149411,
          -0.0034396860177912706,
          0.24356370414135048,
          0.29257603338779553,
          -0.12015266990201726,
          0.10834280817998858
        ],
        [
          0.08875181146079586,
          0.04009595557354079,
          -0.26359489482466175,
          -0.21625667633870066,
          0.07759512653420715,
          -2.3049154753281536,
          -0.014077229394007356,
          -0.20796423507324469,
          -0.18388176239013238,
          -0.031336897007837816,
          0.6602148288826187,
          0.5482669128982972,
          0.42808775300191404,
          -0.44083991203771605,
          -0.2467828105726773,
          -0.653224713961291,
          -0.25606844399063766,
          0.3083758605700094,
          -0.1602021357029452,
          -0.253052943957677,
          -0.0014145662134730796,
          -0.22043025069467556,
          0.08770924899558978,
          0.08523547563650737,
          -0.2500245254213885,
          -0.21812863610028066,
          0.318067360813747,
          0.8544440494552118,
          -0.34335471997943756,
          -0.8226701195386446,
          0.3437985944653903,
          -0.18513479042124903,
          0.13314948193650827,
          0.9208470989119228,
          -0.24559085599763775
        ],
        [
          -0.07165145805974364,
          -0.3048718233979376,
          -0.28388763320426663,
          0.09598337299315907,
          0.07207578867296119,
          -0.1334575999861728,
          -0.03357795364229824,
          -0.14931092805286633,
          0.2860772645202767,
          0.07112104106331933,
          -0.29056623297026335,
          0.20492056956118293,
          0.032976378738092185,
          -0.02187099285361296,
          -0.04860688156076168,
          0.1722926178926486,
          0.11755733851765689,
          0.17541113094102925,
          -0.049900713812596385,
          0.018024611441157797,
          0.1605521373821773,
          0.30756154610336706,
          -0.12449730162090002,
          0.02030489709579188,
          -0.07772752547649059,
          -0.033776025499597,
          0.20732331280904417,
          -0.05948137445243109,
          -0.0930745479727652,
          0.1307740923938448,
          0.09846830963631271,
          0.09530978448356174,
          -0.28839667037986605,
          0.10903448722919383,
          -0.2813951296791762
        ],
        [
          0.04905375710836001,
          0.17398468770463407,
          -0.1441755088513439,
          -0.20151232188248755,
          -0.254654509131574,
          -0.2900640364784973,
          -0.11095489253210777,
          0.18161179109264747,
          0.2727858128709575,
          0.1095475847126774,
          0.274681428279924,
          -0.25281484059795556,
          0.2029513896153218,
          -0.007820454373262899,
          0.1966889957876793,
          -0.1945356136429192,
          -0.0048936069441088345,
          0.30644899043078344,
          -0.09940705329336957,
          0.1550826126804838,
          0.19778699891925372,
          0.007679139317935122,
          -0.26324837506664883,
          -0.26158180921138463,
          -0.13500726783518027,
          0.19079630544169768,
          0.05009397135678526,
          0.20864439041357336,
          0.11743125611151534,
          -0.24284953542025153,
          0.17126111575182779,
          0.2537586843671668,
          0.05086304631616206,
          -0.3135049725315085,
          0.20754330537855079
        ],
        [
          -0.2008901612727126,
          -0.31373387193279123,
          -0.20148828046755196,
          -0.0182198386337462,
          -0.18530820406776807,
          0.14876084973978346,
          0.2393886341661099,
          0.2138186894721733,
          -0.20540318122847112,
          0.08875481400602564,
          0.21079167353312775,
          -0.22276172760495502,
          0.1713210070999755,
          0.13990647134534237,
          -0.09311373649872547,
          0.22766207414055345,
          -0.027632745259086364,
          -0.231787455240879,
          0.21119283060291258,
          -0.13271490839504188,
          0.21632718566285744,
          0.06340762441891265,
          0.2434623624297124,
          -0.20706424966112372,
          -0.27688523886568056,
          0.17021100709667836,
          0.11019576362800976,
          -0.0095830213527583,
          -0.2064240344537515,
          -0.33783254756017655,
          -0.2969567562265176,
          -0.12541336396313846,
          -0.22965853017624058,
          -0.09103596451000867,
          -0.02337242937090678
        ],
        [
          0.21705224332879242,
          -0.14341500966673473,
          -0.07416182579563586,
          -0.11235041307315173,
          -0.23498630064640713,
          0.5683352641592222,
          -0.2132755539520672,
          0.13831846576365897,
          0.0030714189157062454,
          -0.04438918102750304,
          -0.3160045357673941,
          0.1792914861580912,
          -0.17870248004089628,
          0.2320018689562818,
          -0.26758308276492027,
          0.27611543302156083,
          -0.20118905674666934,
          -0.26433119846871617,
          -0.10353104948363433,
          0.12124805965973573,
          -0.12051848883169096,
          -0.05908650106833028,
          -0.1153669017065013,
          0.2739487268119984,
          -0.08553454171747954,
          0.05370957309153779,
          -0.05309265444208177,
          -0.5998584589917354,
          0.33100504447684215,
          0.004693738115838784,
          -0.07751839027573487,
          -0.20844566839083975,
          -0.16541830404161695,
          -0.13455725852154682,
          -0.15721966793402176
        ],
        [
          0.2983519499438757,
          -0.08803488847149034,
          -0.08798957523982169,
          0.2388261320951166,
          0.10904132692859737,
          -0.22918944048751244,
          0.27363752453122653,
          0.2583178874406096,
          -0.26687900082734967,
          -0.20642812148471285,
          0.062048590211956904,
          -0.11351167094143913,
          0.13906613367862436,
          0.15584529787991833,
          0.1224172430920914,
          0.3082488518682415,
          -0.2772024892401114,
          0.14363083665010193,
          0.02549325338667114,
          0.18565772330597397,
          0.05916100055356891,
          -0.06562815040528987,
          0.13714423408285997,
          -0.020021675903451257,
          -0.258512631155904,
          0.2362052214190264,
          0.20090504044569618,
          0.13810641669058674,
          0.15369464849398046,
          0.05776550380029346,
          0.2984875772729459,
          -0.15152423433422205,
          -0.26199455192336213,
          -0.08388852231097393,
          -0.06602470305680092
        ],
        [
          -0.07496984936728332,
          -0.28888111357040636,
          0.24895188789440537,
          -0.24445969511654927,
          -0.08420303114278066,
          1.0058965353877423,
          0.1879619116648599,
          0.24993354250144764,
          -0.03627192520694777,
          0.25313183034866266,
          -0.42353424802478734,
          -0.6214519379223987,
          -0.5879332009758755,
          0.46888097393814165,
          0.07226139991317478,
          0.8215259522086382,
          -0.27478769849589824,
          -0.015498468026668738,
          0.25350439560463106,
          0.10033617455136619,
          -0.2603747998018046,
          0.07063347165214479,
          0.3151834999127519,
          -0.03796386738945725,
          0.4280349746499172,
          0.03165685645903852,
          0.11932554494365007,
          -0.2965645783247912,
          0.34154121900039314,
          0.6692110115282219,
          -0.1745083279991557,
          0.30785866891463054,
          0.2896614508942732,
          -0.9910646991748273,
          0.22341584143460366
        ],
        [
          0.3711541302106476,
          0.13624364471025155,
          -0.04291409520751468,
          -0.20295973308524654,
          0.07630167520899846,
          0.5690670256439415,
          -0.2763952636026289,
          0.02537348207876494,
          0.1320597548467084,
          -0.2810967271605853,
          -0.5706193155791437,
          -0.08960008019548507,
          -0.32379752055857824,
          0.2328873081640973,
          0.1685029783334349,
          0.5555503726210647,
          -0.16655371066004762,
          -0.135886498596756,
          -0.24098264985440407,
          0.3311852504459202,
          0.24919615734797113,
          -0.23609859591816953,
          -0.1584532804480211,
          0.0889126073710853,
          0.28074264217084494,
          -0.2507171715981948,
          0.06190105308013272,
          -0.6027968312914475,
          0.14916141085995263,
          0.15983612631812472,
          -0.2042281517266652,
          -0.21225010727003504,
          -0.27829953175970507,
          -0.09356948840416265,
          -0.11241246185439045
        ],
        [
          -0.018770990167863585,
          -0.27454484874221896,
          -0.13616613025217747,
          -0.3115497061242868,
          -0.0448888730229034,
          0.22159285816669846,
          -0.07706792236691398,
          0.1404456904798235,
          0.10980439423749927,
          -0.20360621594076372,
          0.10086337301765146,
          -0.12230243228326408,
          0.11125689232620546,
          -0.153371300306326,
          -0.24362054122142515,
          -0.06192410657664219,
          -0.020030282370857157,
          0.034094178383204936,
          0.07777046727341788,
          -0.3098260315555118,
          0.08973000478914304,
          -0.10298505892520127,
          0.1459609039190572,
          -0.1382383802257212,
          -0.23484225530327604,
          0.15507570069061755,
          0.16350730327070273,
          -0.22934615857347496,
          0.21399495219012357,
          0.17693567589408404,
          0.26650222561725884,
          0.2719017958321816,
          -0.14907209301151417,
          -0.08014489633320965,
          -0.02518656670676684
        ],
        [
          0.08068663486833343,
          0.12028890722465506,
          0.3538387281121324,
          -0.11656112408550778,
          0.3007959907701325,
          0.8416130447246049,
          0.010054719837376816,
          0.3079998125819858,
          -0.20732110888521652,
          0.24186933475731748,
          -0.4547187182457216,
          -0.47334659722223227,
          -0.42698542492566827,
          0.30436277220873104,
          -0.026486950641360064,
          0.7023807886594153,
          -0.18261276508050736,
          -0.051726401840910256,
          -0.22729484995271812,
          -0.21677546958261568,
          -0.17748283632104797,
          0.24698297571454295,
          -0.13009659103440874,
          -0.22428533945642226,
          0.14863021598508402,
          0.061393153650675894,
          0.37290146802751867,
          -0.4188402008917688,
          -0.02847290699892925,
          0.601262348875119,
          -0.38615081255662437,
          0.4409964056711246,
          0.04381386680494683,
          -1.004364316440552,
          -0.3298175631233091
        ],
        [
          0.2785559095445644,
          -0.2646721868840024,
          -0.007396221838777664,
          0.3044257351987825,
          0.21957601515085232,
          -1.3130756898965612,
          -0.2630535134390196,
          -0.31502956971567997,
          0.27115391954152046,
          -0.290668904320878,
          0.2908735673773099,
          0.2380340530660868,
          -0.016924179057308773,
          -0.4578786771096035,
          0.0825257399529767,
          -0.34373020436371604,
          0.13395425134178657,
          -0.12274943195390395,
          -0.12972416886221927,
          -0.1600881164364286,
          -0.07695515541055528,
          -0.11023736930302318,
          -0.1346312748902508,
          -0.1723682424972429,
          0.014450896394414835,
          0.014501617794774876,
          0.038506733848332336,
          0.6859002576636891,
          -0.27579090062733186,
          -0.023213179827279273,
          0.1016990039648931,
          0.39025306824992917,
          -0.030287880793644015,
          0.7457606583482378,
          0.25372006565027944
        ],
        [
          0.2525191602904708,
          -0.2856881665856057,
          0.14446521136987545,
          -0.08192266650013018,
          0.17336933240175786,
          -0.14116969716478295,
          0.041201277055479116,
          0.2595045628204043,
          0.21789672799350296,
          0.26289885554714293,
          0.13553287767196656,
          -0.0592606347467973,
          -0.23424191577076922,
          0.06428472258788802,
          -0.14332009143133165,
          -0.22392387424823648,
          -0.17259173847972026,
          0.09788425741262391,
          -0.149961985381807,
          -0.21733121984329684,
          0.2743883683218797,
          0.26895319767943493,
          0.17805653604690988,
          0.0766370226404365,
          0.048962685600312666,
          0.1540624572035948,
          0.12751272830631766,
          0.04260041343883452,
          0.19415576022723616,
          -0.14597586803123408,
          -0.22582898681106386,
          -0.08502746705474537,
          -0.059115870675171794,
          0.31450345881424,
          -0.211217331799253
        ],
        [
          -0.1284823616779059,
          0.04138339539236914,
          0.1575665822312876,
          -0.018562630375386736,
          0.038001270461250604,
          -0.15386215727380878,
          -0.17705015159346038,
          0.2380523516849612,
          0.18008065036474813,
          0.002170595226826916,
          -0.20375135255859564,
          0.12397476361752814,
          0.1318085503138322,
          -0.031961212289242605,
          0.24234482988061948,
          -0.13246328916978703,
          -0.3082787222205703,
          0.2188242889406923,
          0.25939550172574316,
          -0.247041245701515,
          -0.16721741528567835,
          0.26789736770006983,
          -0.18337624293983654,
          -0.27347923478211594,
          -0.25427622100175473,
          0.27828535235976326,
          -0.1677515864363155,
          0.04548640437126282,
          0.18095828356191634,
          -0.07886146328830348,
          -0.23450265642141227,
          0.15497761941719856,
          -0.24745068153501293,
          -0.2037044465307818,
          -0.313483647647276
        ],
        [
          0.0433974493887296,
          -0.17035887749480355,
          0.08198370121023732,
          -0.18155142652290687,
          -0.0012342352656958275,
          0.4612383313373526,
          0.013117458573306309,
          0.16342369424143285,
          0.4352216905335401,
          -0.17186378926797133,
          0.307048180225647,
          -0.5181613562105852,
          -0.3980124303559992,
          -0.16679798830152254,
          0.0759312009140083,
          0.3627071311498558,
          -0.16476594125225194,
          0.16593350648153948,
          0.10517347877606521,
          0.10120910604905954,
          0.3140392457002603,
          0.14717982775817395,
          -0.04870748973047272,
          -0.3123520667773542,
          0.06990028365952763,
          0.1706924036887044,
          0.296513376050727,
          -0.16325889895534126,
          -0.008475950373249462,
          0.6034043950078178,
          0.1654191298350847,
          0.48369439236540607,
          0.13246253828180699,
          -0.7725511160265237,
          0.3207281717931287
        ]
      ]
    },
    {
      "activation": 1,
      "biases": [
        -0.030647345324929208,
        0.716819855332974,
        0.08589136821610958,
        0.5047216895401183,
        -0.17189979930020524,
        0.0450607995119077,
        0.3758266157867061,
        0.34751830877935547,
        -0.3980630435252282,
        -0.33229875673407205,
        -0.1924273865650795,
        -0.3579341899127266,
        -0.17022270132213196,
        -0.3608642036151402,
        -0.05374521218306002,
        -0.2798724057113167,
        -0.3867532117511781,
        -0.20696444239604525,
        -0.13415179934356827,
        -0.5047043272799655,
        -0.04925888203868676,
        -0.058524682407896836,
        -0.04501792129070568,
        -0.3951361170926504,
        -0.1983091343392667,
        -0.20317176218960245,
        -0.3052200840599731,
        -0.08159820605792234,
        -0.34924027564271476,
        -0.13535420527396136,
        -0.3356238601772466,
        0.10091043534372435,
        0.2266740123384553,
        -0.3257721032664172,
        0.1645917325107829,
        -0.398975417935025,
        0.12777340942543255,
        -0.3682089155968154,
        -0.5272529845977677,
        -0.18732483346828682,
        -0.7138292381566639,
        -0.20623833592687726,
        0.40046602720429264,
        -0.5380930656023496,
        0.19502990167167752,
        -0.5137607840982454,
        0.44650705317957357,
        0.07761473798582559,
        -0.3310778176764238,
        -0.03226695387475091,
        -0.4133948605630907,
        0.09913661615234123,
        -0.5056969010199711
      ],
      "cols": 53,
      "rows": 35,
      "weights": [
        [
          0.05069095745811115,
          0.396889392608615,
          0.08693029216000166,
          -0.016941871663493833,
          -0.6163642842511768,
          -0.031186931439103616,
          -0.1299496013990112,
          -0.06694594154161167,
          0.019719823054396325,
          -0.06847156787182827,
          -0.037341051392228916,
          0.108866832059428,
          0.00572816850290604,
          -0.20817252544298928,
          -0.436682519690683,
          -0.1627554500635489,
          -0.34489822002710374,
          -0.09758207815161524,
          -0.1097684298099826,
          -0.184680296674085,
          -0.2218895648651247,
          0.016036795907880996,
          -0.051313163001553336,
          -0.053474066180750415,
          -0.16857285207729863,
          -0.11589794599674808,
          0.044533060014514896,
          0.15611139931414936,
          0.12520716578143287,
          0.44294803794703524,
          -0.02419256463422837,
          -0.030872627870587744,
          -0.059504505874980726,
          0.12679145987135138,
          0.29903256026713426,
          -0.09331125311622918,
          0.032052303156692115,
          -0.021783106216732788,
          0.09973429917079508,
          -0.065244404000478,
          0.26788251576935385,
          -0.16543686886758452,
          -0.10615078454476344,
          0.08677194822771155,
          -0.10708068796763716,
          -0.12904790856761567,
          0.08899956704395752,
          0.2169525325142595,
          -0.0784763578017116,
          -0.035271720902133076,
          0.17620716794299074,
          0.1034011221437409,
          -0.12403123953722425
        ],
        [
          -0.1370704359277179,
          -0.04804706844815867,
          -0.07990575474112468,
          0.10613819724500952,
          -0.1917412779989945,
          -0.19219012916249226,
          -0.025469264887667778,
          0.0754038419833025,
          -0.1437140853174676,
          0.10885518194479525,
          0.06551421676569436,
          -0.1320011129119215,
          -0.03874285443060479,
          -0.1956081805437148,
          -0.09813248751446965,
          0.0555789984997367,
          0.10111273435068605,
          -0.06707182231643916,
          0.04660634524044289,
          -0.015664304796481385,
          0.0029217282107010115,
          0.02384243005116468,
          -0.1894284003685706,
          0.1869736873181023,
          -0.22287017226832312,
          0.051771391917152756,
          -0.16094957151500974,
          0.214778771905799,
          -0.006306013295298816,
          -0.25016927674012435,
          0.23897819425612207,
          0.14795803904528618,
          0.060464941082613244,
          0.058354553258385296,
          -0.1045094473370563,
          0.12029015503994905,
          0.03088879817466875,
          -0.09822599893348068,
          -0.240568668269359,
          0.24112787180781234,
          -0.03719341012403342,
          -0.06219236009216608,
          -0.05362902119429269,
          -0.191679717024098,
          -0.09570484907540792,
          0.12252827752194027,
          -0.1348898149555163,
          -0.09363682530667695,
          -0.17458324896371138,
          -0.11496919528336301,
          0.025883022214852423,
          -0.2299903690104535,
          0.18434318602908523
        ],
        [
          -0.17296374375310655,
          -0.17509569090789048,
          0.20358617987836142,
          -0.07616946855384146,
          0.14221419259648657,
          -0.1261856651622458,
          0.17006996434520194,
          -0.13733740157902877,
          -0.09920675419644388,
          0.11102315745405536,
          0.20972901894567617,
          -0.1307800620462349,
          0.06442383141357251,
          -0.1799662193829384,
          -0.09041711598051107,
          -0.19749048815106704,
          0.08516591611933669,
          0.24414687488706888,
          -0.02651624402471083,
          -0.0419530151287714,
          0.020710123899497525,
          0.15792491309283582,
          -0.21907427385377687,
          0.21275676543885286,
          0.20883809371051876,
          0.0478880972164758,
          0.10319103598619103,
          0.08952674388843859,
          -0.02553637709822822,
          -0.13812318290072345,
          -0.001810096250847882,
          -0.19470520876870429,
          -0.03701098392410293,
          0.005645875567614093,
          -0.27086705844948294,
          0.13967682579764454,
          -0.00019830340335369367,
          -0.12558520187449604,
          -0.13037760254323336,
          0.06813686136693271,
          -0.05262663665029578,
          0.24824987359200423,
          0.02117496848837288,
          0.06922778645032014,
          -0.050358128752363306,
          0.15214260602218624,
          -0.051968861520968114,
          0.2230676360272116,
          0.19014343109191564,
          -0.060805477623898284,
          -0.049753909655511144,
          0.13276036228941995,
          -0.1967624319581963
        ],
        [
          0.03188845525791314,
          -0.25927214294202566,
          0.23647454632722578,
          0.2095584940821005,
          -0.23148308634724396,
          0.23321458865390393,
          0.04977059287113713,
          -0.10832285117529729,
          0.14229823177476628,
          0.25832063428120045,
          0.094032448427127,
          0.21524211803231694,
          -0.08908800168816379,
          0.07386099987035638,
          0.18613492177095337,
          0.1759231029871089,
          -0.029990608507586104,
          -0.17876406442730958,
          -0.06920314485061682,
          0.22574414273118082,
          -0.18927035043373158,
          -0.15852012524849907,
          -0.2234122279530325,
          -0.11142385767507607,
          0.11719107431170214,
          0.02272498354977905,
          0.1982954163412068,
          0.0248023917765748,
          0.11003850957908519,
          0.03261370655594843,
          0.25771485036867214,
          -0.14567550319895864,
          0.21390874096295145,
          -0.046008514406861205,
          -0.1738789486689321,
          0.0559848326595669,
          -0.20172616263987822,
          0.06828015774407162,
          -0.08963747763638523,
          -0.12408590471603227,
          -0.21751626039406025,
          -0.2551361865984423,
          0.14844839996002634,
          -0.09313454377131289,
          0.19295380056316389,
          0.07494383817323029,
          -0.21268164342833246,
          0.10197161775381634,
          -0.024021490812444098,
          0.14912454517832568,
          -0.1061901580579205,
          0.25430610927449315,
          0.24903437402809342
        ],
        [
          0.12690984292873767,
          0.029237052236898774,
          0.246798314324471,
          0.12391617528655534,
          -0.041155556026212424,
          -0.20210824603481167,
          -0.15308724734931634,
          -0.07393909575591802,
          -0.2217933123177952,
          -0.2564133024372462,
          0.16780849798513145,
          0.04178021660044897,
          -0.05291701998852511,
          0.05450413137248907,
          0.16244380635709463,
          -0.07224943360898928,
          -0.2277001840618695,
          -0.10913034334493339,
          -0.06534079586321542,
          -0.0023253860162038235,
          -0.1344686336258153,
          0.17994001809640736,
          0.05288686811637147,
          0.020635537873156955,
          -0.2149839743733522,
          0.2269278270623791,
          -0.14669318562480466,
          0.133746276527416,
          0.2362764111653134,
          -0.1746951748299794,
          0.04816973573781052,
          -0.08390308352223234,
          0.1369087642665715,
          0.10722424813869569,
          0.13537708633930215,
          -0.10396918332035456,
          0.005222291634262568,
          0.23186214116778414,
          0.09474433329160648,
          -0.20228499196547806,
          -0.17669895174931033,
          -0.03602080040734247,
          -0.19972938837605592,
          -0.2126663853983364,
          -0.046084877384712196,
          -0.05020452653217814,
          0.19323570582371657,
          -0.06315723190228978,
          -0.02262309417339451,
          0.23862000260795516,
          0.2697021569191881,
          0.10721287685401974,
          -0.19977445488377363
        ],
        [
          0.10841722071549328,
          -0.3745417984694084,
          -0.014416021317289385,
          0.3570017972323953,
          0.9081942507764321,
          0.5198889812269554,
          0.1445964588668423,
          0.0026471625501069728,
          -0.04077913423530633,
          -0.23540877230534757,
          -0.21429370127622302,
          0.027264170240418,
          -0.00980710617095579,
          -0.5484173084514006,
          0.4953604340002808,
          -0.5931631634399893,
          0.699599970344003,
          0.610334886224666,
          -0.19998370895916875,
          0.4537335134983913,
          -0.14880294013130085,
          -0.05235228822025574,
          -0.37382156427778085,
          -0.009804256570932217,
          -0.07810638440454198,
          -0.49177421203064253,
          -0.09173093944500044,
          -0.6322393379070552,
          -0.7082839466179046,
          -0.8861511132654676,
          -0.45427399107333916,
          -0.3651905509225531,
          -0.10529038671850503,
          0.14065240975664847,
          -0.8022692578647459,
          -0.47045985008572666,
          -0.7907372104859529,
          -0.49079058344549426,
          -0.3686746498299772,
          -0.714139201379124,
          -0.4815109854760805,
          0.019632413786519476,
          0.0011395921439554992,
          -0.47431213046991905,
          -0.29117827732429247,
          -0.18778370750197265,
          0.563060976510191,
          -0.6354634145713064,
          -0.5661335513890865,
          -0.8008489964281117,
          -0.7152213643618146,
          0.10032883505219768,
          -0.4684488161976196
        ],
        [
          -0.15883493605636537,
          0.04278526110170235,
          -0.22223250466134625,
          -0.061188570472845816,
          0.04519315744532943,
          0.06302876346792138,
          -0.026799434466798534,
          -0.09464309649431456,
          -0.21765610535830707,
          -0.07477586474245791,
          0.0019722726043436005,
          -0.15776700166866314,
          -0.01470948783122753,
          -0.020102637807936724,
          0.2513337098393087,
          -0.07720653909515621,
          -0.16379418288797207,
          -0.03709795099137138,
          -0.046686010579296056,
          0.12695516797134312,
          -0.024328388762727127,
          0.1851731447024091,
          -0.23649048447334212,
          -0.1751860890298967,
          0.12388670661054872,
          0.2542572868419628,
          0.15613329440110288,
          0.11956990271828342,
          0.07742870701040704,
          -0.11152788376576486,
          0.23725940364089057,
          -0.06622126410974352,
          -0.1413757708897952,
          0.13128486398396066,
          0.18713433422524983,
          -0.20961386856180442,
          0.195079329639741,
          0.24956242023647907,
          0.10290547942696096,
          -0.04211304718777402,
          0.172421862806162,
          -0.2133502659079475,
          -0.03642016243730597,
          -0.026436472396856286,
          0.06967314005760877,
          0.19299772821685815,
          0.04295697958702339,
          0.1874557374248434,
          0.04705439843901616,
          -0.1841375309463789,
          0.18006544746179723,
          0.18293783059378968,
          -0.17856378275974413
        ],
        [
          0.000982534807845468,
          -0.025660189921001043,
          -0.13016205305418937,
          0.1332610903944351,
          0.1345566508479022,
          0.04658500421142659,
          0.039196515341633584,
          -0.028410807134228343,
          0.00445119844954464,
          0.21953389596756315,
          0.30930884985791046,
          -0.07022704271838237,
          0.18042087588028366,
          0.16143587019913808,
          -0.035395706609590884,
          0.04267797792258639,
          -0.3157372936206268,
          0.03212797512013798,
          -0.03042173742226584,
          0.04431891984882741,
          -0.07439652022788924,
          -0.22167426617175398,
          0.059482760307481924,
          -0.1414291668013777,
          0.22990668607400053,
          0.004192198311446832,
          -0.11584859493294516,
          -0.19205755777548603,
          0.24521349168140383,
          0.03621332049298881,
          -0.2756784479323976,
          0.009277443837379724,
          0.11500247643655595,
          0.1683369858147493,
          0.3387164568898942,
          0.19228837694949746,
          0.10165937774321897,
          -0.22609413510617205,
          -0.056442630921764166,
          0.13296106511284844,
          0.30350866424055317,
          -0.050191607047766096,
          -0.13222399136871052,
          -0.021536856298023745,
          0.0021457638034466492,
          -0.1965346080658436,
          -0.2819468436958669,
          -0.20428495233458313,
          -0.015254228177685979,
          0.32271267289144584,
          0.16332702225137832,
          -0.21924171687851743,
          0.12420298664941846
        ],
        [
          -0.07796129027200553,
          0.7017199849610949,
          0.09720665435711606,
          0.4236974169428096,
          -0.15351721681397748,
          -0.015533832295308695,
          0.2962724344648396,
          0.3685462575646438,
          -0.3338301561429184,
          -0.1546300394078262,
          0.17090060417380942,
          -0.3063478694351161,
          0.06398233732979229,
          -0.3619351999790188,
          -0.34690968643140285,
          -0.13650452036130697,
          -0.3714131996473019,
          -0.13162112497396963,
          -0.14121834417987802,
          -0.17402360258229238,
          -0.11174991228095602,
          -0.2814807001759546,
          0.060812535581657196,
          -0.3735001400894206,
          -0.06115359076439361,
          -0.1897375329393645,
          -0.09412618838402524,
          0.18635736800770522,
          0.08248898741998072,
          -0.061055360313513586,
          -0.37552365360854933,
          0.0014288572338627854,
          0.13001716972989186,
          -0.23020909109567167,
          0.5428974706664718,
          -0.1555820351552974,
          0.17024869488471522,
          -0.45049532009662263,
          -0.12306733568805739,
          0.086063781925285,
          -0.3895189857748653,
          -0.26208070768972386,
          0.5692399689427179,
          -0.5545325939291972,
          -0.004860720630511173,
          -0.42378421313523246,
          0.10815265361283767,
          0.29025356927113677,
          -0.11844768264324579,
          0.12100338793248906,
          -0.041272748172907076,
          0.119724656860893,
          -0.19749673480633903
        ],
        [
          0.1724939823988914,
          0.17746137799163306,
          -0.01954049363453481,
          0.19939593392410732,
          -0.02743705720119582,
          -0.20951325510648688,
          0.1884960484152195,
          -0.05492330524384742,
          0.18965121157768436,
          -0.27509171233097324,
          -0.004821027773765293,
          0.00046382585969591045,
          -0.137352180353182,
          0.18546502733768228,
          -0.026622806446196034,
          -0.0759197271857253,
          0.2087258087916807,
          0.04728581899952775,
          0.11519515337055669,
          0.2242219981433941,
          -0.061856920255282,
          0.1196678465763829,
          0.02394597968076417,
          -0.023041336703845013,
          0.2136283980528231,
          0.17353516750021042,
          0.24642098535438148,
          -0.15661209902037918,
          -0.04328951987558615,
          0.22722479031046763,
          0.05801178904839737,
          -0.2571084374558857,
          -0.03485203877646439,
          -0.22664395422447742,
          0.03245889655694785,
          0.029983607242969924,
          0.23359746673342957,
          0.035025539100954337,
          0.14997285287139525,
          -0.24029640813587919,
          -0.04188388163521968,
          -0.14738010950617522,
          -0.035301025213132345,
          -0.12190355630168935,
          0.08625726900423786,
          -0.0554898002621317,
          -0.20962810410259017,
          0.10981830091690187,
          -0.2177684969166579,
          -0.2012635764232407,
          -0.04254346757416645,
          0.14631527899868527,
          0.21244022874649923
        ],
        [
          0.14737499730407647,
          0.10225906763228595,
          0.0017183444951609085,
          -0.05913711642597424,
          -0.9201748479498769,
          -0.44919588251210846,
          -0.07606838879198151,
          -0.03821204573214093,
          -0.11354041532554163,
          -0.0379112240405122,
          -0.0038826416918430885,
          -0.1530861079105933,
          -0.2051828413442126,
          -0.5568925575917628,
          -0.22897299496516937,
          -0.2725215871003382,
          0.1543982300573151,
          0.01793967166427442,
          0.19943619350915615,
          0.26776309729510134,
          -0.31156027694776856,
          -0.11216224864887621,
          -0.29392374120996423,
          -0.19087940515826524,
          -0.1603409666047585,
          0.014814386977257179,
          0.1068360701021332,
          0.004907959133916321,
          -0.1453918508759807,
          0.36345340832048495,
          0.09192709819384108,
          -0.34471421284121506,
          0.134173091129554,
          -0.16026717303485905,
          -0.24823643081908656,
          0.1741479150405126,
          0.14355877727847705,
          0.09477262315292054,
          -0.20265989952106186,
          -0.17523377004976948,
          0.015299770026353264,
          -0.05751007294508691,
          -0.28335940302424817,
          -0.40122507667924673,
          -0.3626254061961589,
          0.25078077402361687,
          0.06419372177313296,
          -0.1508176912372202,
          -0.18200428982157987,
          -0.47765462117584895,
          -0.27818391575130186,
          0.03210619585750629,
          -0.34907749832727275
        ],
        [
          0.11880090337485875,
          -0.02491728869077987,
          -0.05157755608779578,
          -0.02194415561411744,
          0.25230432198903974,
          -0.03096372402110381,
          0.028534203066988718,
          0.09281699736029847,
          -0.02964784695704631,
          0.2455326348747926,
          0.16480970451343127,
          0.06355095721557945,
          0.272547519950683,
          0.03646350759458229,
          -0.20835926993726878,
          0.44684189049265294,
          -0.10779538147003619,
          -0.19547255621915077,
          -0.09775378700266926,
          -0.11620389536013112,
          -0.13295417624437542,
          0.17612140191944178,
          0.10731895029597537,
          0.1525598767982073,
          0.10018756463358755,
          -0.006701883413867256,
          -0.26681671793265704,
          0.10966885949905433,
          0.044474776344781565,
          0.026888616685780645,
          -0.3052319098636104,
          0.3263078468355671,
          -0.16018089667039362,
          -0.14845267548218738,
          -0.43658530538416396,
          -0.059959348719679464,
          -0.393090376639198,
          -0.006793065560305456,
          -0.17242325625275484,
          -0.2384107508856423,
          0.3863839450534399,
          0.25150451512343674,
          0.08787937158047276,
          0.11612568746954438,
          0.17161227508935317,
          0.11853635750744622,
          -0.14087680407217026,
          -0.05408332479296831,
          -0.22146637919082446,
          0.09870294900619099,
          0.1109360100609329,
          -0.10690126866276232,
          -0.018232295166169518
        ],
        [
          -0.13717757494013297,
          -0.026236335861151188,
          -0.20690936661454493,
          0.25378671970949634,
          0.1949677494317917,
          0.39428992615464437,
          0.06675373239811917,
          -0.14474779222800171,
          0.017330859640717837,
          0.21124970494975434,
          0.04075959179232896,
          -0.015551325331512982,
          -0.008302254154529379,
          0.16469375272947734,
          -0.19676296209177324,
          0.16447497974830647,
          0.23159150539875478,
          0.0631825850239206,
          -0.06148991852638668,
          0.2102049686073105,
          -0.11977539385674194,
          -0.06329890333549286,
          0.07021527485456791,
          0.02755398061960134,
          0.06231544137553049,
          -0.09755854337704369,
          0.12900678436458204,
          -0.14263355649568926,
          0.03292705207284693,
          -0.0037501164639973756,
          -0.024823111836901043,
          0.19585358664053742,
          -0.25021551792353564,
          -0.00795670287238043,
          -0.4072913902758558,
          0.09008773509083962,
          -0.42406197220740155,
          -0.3112290575981169,
          -0.20048956002767737,
          0.05730401989246545,
          -0.05007175966719364,
          0.22665816515226422,
          -0.16259110749886782,
          0.1848331530448716,
          -0.023961687088054302,
          -0.1396616413244033,
          -0.44732421408571565,
          -0.10828606795120892,
          0.07455230268730133,
          -0.0638278221613303,
          -0.23377468671870127,
          -0.3702468227366507,
          0.1673795394572299
        ],
        [
          0.0658922757634316,
          -0.20845929792168627,
          -0.12488473672837172,
          -0.10587565730356938,
          0.17976635242385494,
          0.13483564380236293,
          -0.1866930006768576,
          0.09912117859322558,
          -0.2307278678727399,
          0.08986730494904403,
          -0.01985541608397212,
          -0.26866494544850655,
          0.10036579673525631,
          -0.079662153326037,
          0.2651319963387232,
          -0.22483100425732294,
          0.27394006393741366,
          0.09613204090562215,
          0.2245379008081225,
          0.28131751264356286,
          -0.20858499326600116,
          0.18299756247298,
          -0.22967103607180503,
          0.10629451210930108,
          -0.01683287294364566,
          -0.0257023880371386,
          0.14732288978276797,
          -0.07341745697072133,
          -0.22238090924971457,
          0.08298011343248948,
          -0.060361174572548366,
          0.04508251743479729,
          -0.237616369488806,
          0.14254452235650616,
          -0.4941874292655383,
          0.08877801049397506,
          -0.5227329695677558,
          0.054066976268217354,
          0.04774941424633324,
          0.025320122875030396,
          -0.3801845143987,
          -0.22451987155677086,
          -0.2572562451162238,
          0.029985720729432692,
          -0.05012908127166338,
          0.13787669088057244,
          -0.13583451101336985,
          -0.2121359893801767,
          0.18246400216688222,
          -0.4178114958382188,
          -0.05042667728492834,
          0.09559177102795373,
          0.09448781716278154
        ],
        [
          -0.17749628593219255,
          0.007337663167144933,
          -0.003238067746998049,
          0.22046664840594576,
          -0.2385322207059485,
          -0.15357612092402018,
          0.053357366112563705,
          -0.1954311811569643,
          -0.0078292561890838,
          0.14170979465357972,
          -0.11017571809282997,
          -0.21823920666594232,
          -0.2128883917126053,
          -0.19839079484654268,
          0.052889354543544195,
          0.12812062007945205,
          -0.13159525461969412,
          -0.014013187179022963,
          -0.0280572810322603,
          -0.0727543657109859,
          -0.21535582152003913,
          0.1442719669691227,
          0.1890854920841934,
          0.13924691189271424,
          0.025034131896100507,
          0.13816679868497966,
          0.02708289761517136,
          0.08858297091261927,
          -0.15883022017534884,
          0.10041203064468635,
          -0.25920048432803344,
          0.13416216944022394,
          0.08210823771797544,
          -0.20609738697459629,
          0.02691569298136862,
          -0.24148449865680935,
          0.0002785553186680765,
          -0.0017628554793240507,
          -0.09758937618919686,
          0.07349140397969019,
          -0.1916259939217642,
          0.16735451144397842,
          0.06694336725560722,
          0.05044946799648878,
          -0.11664132771394614,
          -0.027587223083532255,
          -0.0936108013908218,
          0.0936608105282197,
          0.11012631609488464,
          0.04481927151203005,
          0.0658062439310694,
          -0.05627019459228631,
          -0.1966888609958267
        ],
        [
          -0.1722661567664023,
          -0.0248367738704373,
          -0.165629342514273,
          0.08569067917087121,
          0.11524221165125867,
          0.5668698862105197,
          -0.21887687376768492,
          -0.0980697834613435,
          0.2928441018563834,
          0.24753840512049635,
          0.2614413514916891,
          0.31637537815160166,
          0.1668421130895781,
          0.2649571492587325,
          0.11076504311808799,
          0.517197336421741,
          0.27537966225856064,
          -0.16883389316620764,
          -0.13517561431530176,
          -0.03601262610239198,
          -0.1364650271707547,
          -0.007742049663808798,
          0.4707940211774289,
          0.14852854921488817,
          0.03772122796136648,
          -0.09834287496921942,
          -0.1860214134482409,
          -0.2150815186818535,
          0.061860256511481,
          -0.04245167703487026,
          -0.11976824579173165,
          0.33957893818317314,
          -0.22053480580241136,
          0.26430518053957697,
          -0.5171645342806236,
          -0.4096414933392178,
          -0.15421241086024956,
          0.060707982955358473,
          -0.2544112412248218,
          -0.04417565827693067,
          0.48299748505685236,
          0.19940171445890714,
          -0.07794952985957021,
          0.029445875227938942,
          0.18273982046910545,
          0.2397607369949531,
          -0.48150670638726367,
          -0.4676639023577547,
          0.08923001531592181,
          -0.252394393854492,
          -0.08753219587742224,
          -0.18805917026580157,
          0.17203823382918088
        ],
        [
          -0.054002237857184596,
          -0.17349236954940012,
          0.1565502311999739,
          0.2584410187123505,
          0.24847538765266292,
          -0.11196411258466318,
          -0.20979974931175296,
          -0.1629284521731054,
          0.16104729779349672,
          -0.038105666021315106,
          -0.019354945380851706,
          -0.15851458990166134,
          0.13998720282664884,
          0.24184062541036014,
          0.10367481396693345,
          0.01915328483099152,
          -0.03729988785347602,
          0.08555579891659605,
          -0.032130086206345304,
          0.25835704374120183,
          0.18790910937874655,
          0.06459921410878994,
          -0.11260485171880913,
          -0.14143740727953247,
          -0.003451169471758317,
          -0.1664004888713433,
          0.2127347206975009,
          0.019254112430901176,
          -0.2511138889550761,
          -0.1897554007033508,
          -0.2366899423774853,
          -0.08002452248719531,
          0.19838177840332102,
          -0.2385311365722363,
          -0.10782180695847776,
          -0.10881691723652812,
          -0.19687793954746674,
          -0.21098291109477574,
          -0.12593087433735634,
          -0.07363373256575922,
          -0.016284264371863012,
          -0.07239577128677312,
          0.03238328710454033,
          0.03909390295594122,
          -0.21552554690464784,
          -0.05917970538334028,
          -0.090006628268211,
          0.045084355641364,
          0.0788871161992178,
          -0.015812541783618173,
          0.022650160553100682,
          -0.0159930159284237,
          -0.07400953062337404
        ],
        [
          0.0015714332423883738,
          -0.18422579077562665,
          0.10398309630000095,
          0.18332734775310822,
          -0.37272931187234604,
          -0.23914645202216986,
          0.021450208035349236,
          0.2233555807006639,
          -0.05016729498801247,
          -0.19347289422787617,
          -2.841447338488556e-05,
          -0.2935941403439893,
          0.09652802567766984,
          0.021488013690653347,
          -0.25473230123946733,
          0.11988121711087928,
          -0.2428730033315924,
          0.2560127661422945,
          0.0027705504567497705,
          -0.15679876749925112,
          0.1959484532115514,
          0.0007170121558238724,
          -0.009136715373832106,
          0.05099296937027564,
          -0.01335415157067045,
          -0.12665567382806356,
          0.18259725195853174,
          -0.17663723759945132,
          0.12863407988268774,
          0.1014835735274345,
          -0.13306386607669546,
          -0.23595394644628237,
          -0.21192183464862674,
          0.18379394819579908,
          0.029350684132422353,
          0.029392213640378455,
          -0.011464706466850256,
          0.0121434468640317,
          0.1036800782792913,
          0.17653560609944738,
          -0.11675242907103735,
          0.0167671147164479,
          0.1109038552971019,
          0.03336856584548865,
          -0.17513646439919878,
          0.23478417948569197,
          0.27002453024004985,
          0.010359764511772708,
          -0.04262790143242412,
          0.002210024243774837,
          -0.02876202894165791,
          0.16120271359814858,
          0.0637179916538276
        ],
        [
          -0.1074546454663981,
          0.23630259829811545,
          0.09894391081340129,
          0.12947096171892913,
          0.0831051084327961,
          0.1446252553287874,
          -0.05070698185266549,
          -0.0175375419409109,
          -0.17767048001621558,
          0.18408859304425798,
          -0.04092901638654277,
          0.16087702773619494,
          0.004768067886854309,
          0.21774463344128575,
          0.02317643565287771,
          0.0547317367218828,
          -0.05436471539898446,
          0.18186523262488552,
          0.014858311421715877,
          0.14466470205126689,
          -0.22455122418585072,
          0.12003803598179263,
          0.08840577019390623,
          -0.01702338066401616,
          0.08111435141668749,
          0.03177091238368165,
          -0.024302802303991053,
          -0.1861138689056276,
          0.17419815824766502,
          0.23102031124680675,
          0.25025282425769746,
          0.05593091776253867,
          -0.02715618390619662,
          -0.24755215484199125,
          -0.04235964418485706,
          -0.081210551329058,
          -0.070923952169611,
          -0.015452386213812574,
          -0.04752984212253805,
          0.25123188529091256,
          -0.017592901280035888,
          0.21024026611757476,
          0.03315466300525789,
          -0.031795332139993734,
          0.08426920977000919,
          0.10099608200041955,
          -0.07436040100451237,
          0.17420429946529659,
          0.030425397014870015,
          0.10692429500506204,
          0.21431754773403622,
          -0.03397369960581702,
          -0.14741550337510068
        ],
        [
          -0.15169791579848296,
          0.05362175421882485,
          0.16467550334750047,
          -0.020483317078391145,
          -0.11378562445552921,
          -0.03960330689299129,
          -0.12033351661519229,
          -0.09856811025936159,
          0.14914827792765303,
          0.17080781543971538,
          0.11358793645828678,
          0.20829383602954216,
          -0.03147515638265913,
          -0.2805294332966908,
          -0.198828649214885,
          0.20595579240310813,
          -0.14078414185237711,
          0.22574044982127647,
          -0.24110490495363418,
          0.08662502939530443,
          -0.10089473859931758,
          0.19598606624981593,
          -0.15807383022686905,
          0.1260538927065396,
          0.03743061564595482,
          0.1928551655451353,
          0.1974375889411173,
          -0.15097604098213774,
          -0.1896504692248083,
          -0.23242331914457795,
          0.037043523630573484,
          -0.2716244336109995,
          0.08198983228035493,
          0.02218765881444395,
          -0.31900411562843034,
          0.09982642291532118,
          0.029423127367427433,
          0.19209714269640485,
          0.021588917081745942,
          -0.07679305861484659,
          -0.07664656414026216,
          -0.034022425682964395,
          -0.18431625022951043,
          0.20796961322226826,
          -0.24939186968796767,
          -0.07225080985451642,
          0.09340442209261302,
          -0.2500924156902371,
          -0.18434024146393807,
          0.0967164315912346,
          -0.01898272111573292,
          0.09942582082261701,
          0.1653872099627725
        ],
        [
          -0.010727157653121742,
          -0.00562978167370916,
          -0.060593886507737074,
          0.14125848706305366,
          -0.4507156803538585,
          0.017985794772110396,
          -0.17400958536825598,
          0.1938992268417812,
          0.06435232742535685,
          0.14511564330904037,
          0.10349665071266627,
          0.15955100763731636,
          -0.06878580715240809,
          -0.02738873731186493,
          -0.3052492704309632,
          0.010771747640006228,
          -0.07539512629531553,
          0.10156977946319402,
          0.19186819034275823,
          0.1627987428763774,
          -0.28735639779523997,
          0.21322945613961483,
          0.07732892284224242,
          0.145696745218747,
          -0.14648017561607085,
          0.27459491891777404,
          0.1855752526571249,
          0.22010814595983452,
          -0.113787110280592,
          -0.09984685963827516,
          0.1316807640658461,
          0.0913440282928795,
          -0.16860703237865993,
          -0.1303162297591405,
          0.04402207327814393,
          -0.1740103769968824,
          -0.05354024752842198,
          -0.11810862506295063,
          0.026799528047335,
          0.19235516684322515,
          -0.014350567225873663,
          0.18371985902712176,
          0.28988327526304314,
          -0.18886634999326268,
          -0.1103572970161499,
          -0.20745686325978463,
          0.10577203134365613,
          0.25713312375145203,
          -0.149962607432964,
          -0.11379989086751846,
          -0.07974390431547748,
          0.20968290237982515,
          0.14709519386924938
        ],
        [
          0.09279797557842225,
          -0.18000935752931732,
          -0.0031830364276839935,
          0.24037678305991608,
          -0.017460636853461043,
          0.13130285983742027,
          0.2522762444135504,
          -0.015295184955694189,
          -0.23080196699758496,
          -0.2816301445733478,
          0.0747395956869526,
          0.1818257721920324,
          0.24304662471754304,
          -0.1299328368069042,
          0.1932694087539759,
          -0.28132012230388453,
          -0.12543427905676355,
          0.21590243520371338,
          -0.21533010045983433,
          -0.024721825687425425,
          0.007397856805082521,
          -0.2405428259315994,
          -0.11807685942884445,
          -0.001728748043281962,
          0.10255865336348896,
          -0.173222683626254,
          0.08746282198640737,
          -0.09632257950147323,
          -0.20917652702250503,
          -0.21682311079272984,
          -0.059738251249000014,
          -0.03553385671611626,
          0.1293765032808573,
          0.15625355396202625,
          -0.04867901058318166,
          -0.25420755397476774,
          -0.18237015579156102,
          0.25337802230901435,
          0.18615052544183258,
          0.04131362358788566,
          -0.21410637167449348,
          -0.050463747858276,
          0.22531711152421924,
          -0.1380472776512678,
          -0.14668203194343352,
          -0.026816544511896405,
          -0.19332056949661097,
          0.17372425630656602,
          0.13668640822127526,
          0.18831309733405763,
          0.0800127636329461,
          0.1730432277715957,
          -0.007668571936143389
        ],
        [
          -0.20857065110502984,
          -0.23978774031184025,
          -0.17595418939962185,
          -0.013557579318417116,
          -0.03954679850715795,
          -0.023958161892221563,
          -0.11196259925264616,
          0.1231591618807917,
          -0.19400390050681238,
          -0.04815015327895084,
          -0.02905597241658331,
          0.1000096313088903,
          0.10221062012989247,
          -0.18452363196458432,
          0.1666784648361027,
          -0.1501644292189205,
          0.16634907035803023,
          0.09141645255802819,
          -0.2441870764927536,
          0.043142881009974834,
          -0.16111276745962091,
          -0.08142624608557447,
          0.20094599827910276,
          -0.018266459380281614,
          -0.15746384187351575,
          -0.06529400203089081,
          0.24402237572755403,
          0.24831991230340394,
          0.1807382686633118,
          0.19884610212821735,
          0.2266011886384537,
          -0.0599053158636654,
          -0.18552212735940746,
          -0.05707613983396463,
          0.05134651404363896,
          -0.15702736219317753,
          -0.07206248635624876,
          0.22842819938847372,
          -0.1573585880875155,
          -0.05643761148261904,
          0.12899384326242158,
          -0.030761093428497584,
          0.010817517946861602,
          -0.08942521914191608,
          -0.21626712166376477,
          0.07118236961361432,
          0.11827924174165635,
          -0.11580085062618704,
          0.19601215702344252,
          -0.1678975224752027,
          -0.11302788261230219,
          0.14548985872601333,
          -0.22541739068693398
        ],
        [
          -0.21924024718798424,
          -0.040724717060460235,
          0.1432502616344004,
          -0.16865789756106103,
          0.1395255850944006,
          -0.023604171436560968,
          -0.14984938308564263,
          -0.19542018451353946,
          0.19867970775599544,
          0.20142070975241347,
          -0.056178633906748,
          -0.20630967396973718,
          0.2294668729677595,
          0.2529105469634169,
          0.10731886124153919,
          0.1381065917584867,
          -0.20664977985289193,
          0.026592361666868944,
          0.17671991002980192,
          0.24257107398791047,
          -0.044337097923725324,
          0.241627893077817,
          0.018570854890489444,
          0.06859842649103676,
          0.1816853106557281,
          -0.18477886053773848,
          0.18880086079103445,
          -0.1727057713073603,
          -0.16084385233030737,
          0.2376759114970081,
          -0.15887509848064799,
          0.03640417505485703,
          0.18277376802599762,
          0.0629476497222469,
          0.2519982461789984,
          0.20653616317020265,
          -0.0959555935663046,
          0.258197126941712,
          -0.13804261943903318,
          -0.17186850960330066,
          0.2102208574247463,
          0.008859912740385988,
          0.07320073838422969,
          0.016823210460447786,
          -0.06010221347882122,
          -0.07387999453294337,
          -0.22168943981393865,
          0.09737495254954606,
          0.13075961479121814,
          -0.22893479558391516,
          0.2239142876384364,
          0.1536222125815651,
          0.21009412189375107
        ],
        [
          -0.1323258467071535,
          0.562056976231581,
          -0.032815268928151314,
          0.29285166707632104,
          -0.1632209504997446,
          -0.02802501520181754,
          0.06977973994502149,
          0.08556231294350658,
          -0.11107875060868527,
          -0.2019590227862105,
          -0.2552988776508953,
          -0.36152964309179125,
          -0.10340431085815167,
          -0.27467554994507976,
          -0.22241844017732662,
          0.07127176422449807,
          -0.717309853609198,
          -0.4288589144958663,
          -0.09717375308495502,
          -0.5342638194606012,
          0.02467944100665473,
          0.11195111272144373,
          -0.05732826674151592,
          -0.2573545882782415,
          -0.1477253300444293,
          -0.04680910546025608,
          -0.12692618236978634,
          -0.03350160811976409,
          -0.26448352753591914,
          0.18757963675109973,
          -0.3681923778745129,
          0.1489829245108225,
          0.46823089369021886,
          -0.49229334530915897,
          0.4383803544859114,
          -0.07079594790536771,
          0.27880469038206807,
          -0.3788320885056366,
          -0.049625904530923,
          -0.07172780575457549,
          -0.5954603617419473,
          -0.2345283902897423,
          0.24084466153352208,
          -0.06758584045634514,
          0.28008909575453345,
          -0.2930572370324722,
          0.4468663500015122,
          0.20619042655104666,
          0.08322770894563043,
          0.41289791807272247,
          -0.05529197873449488,
          -0.2082866998266541,
          -0.4802463418168056
        ],
        [
          -0.054881654915259905,
          0.19709468795378418,
          0.17646041305231772,
          -0.20653057294205973,
          0.23967592298074814,
          -0.10359340925891643,
          0.02627757852308198,
          -0.057659274561169635,
          0.014021291136562388,
          0.001748718277147071,
          0.15613836237513248,
          0.01181662942225006,
          -0.10946026275385026,
          -0.08978273709305015,
          0.17125063750479838,
          -0.13316697378954362,
          0.04888635984935208,
          -0.01560757378947633,
          0.16921521553353192,
          0.1946779347472839,
          0.1927208749792847,
          -0.2559694904988517,
          0.009163977082022623,
          -0.06466336716725365,
          -0.037655203822293835,
          0.20286583783083847,
          -0.18568322239399793,
          0.1365588230298531,
          -0.16039261292903464,
          0.09145766083156252,
          0.2221288098191577,
          -0.14186037251636913,
          -0.2340861937711499,
          0.015146363693326352,
          0.01362001766361194,
          -0.17575026540945396,
          0.15503280699985375,
          -0.23053709530651897,
          -0.006872047859223657,
          -0.02262694145068549,
          0.0022411218600715526,
          0.23910738299762335,
          -0.16604547730047958,
          -0.16345850524896796,
          0.09426488157754612,
          0.11209513017837776,
          -0.007466530889985602,
          0.03771839063902092,
          -0.1359963309234517,
          -0.01873183828212466,
          0.1422755614654512,
          0.036340384267967214,
          -0.2397718981863963
        ],
        [
          -0.11079319528880761,
          -0.025368484914582035,
          -0.22993942035126477,
          0.05915893484175046,
          -0.8331041256029003,
          -0.2753831524148857,
          0.14974851307341971,
          -0.04711913251790581,
          -0.016269352244792205,
          0.09030748061044248,
          0.01585033401521231,
          -0.0657981289019014,
          -0.19548226542057104,
          0.17423018144031419,
          -0.3429238256950417,
          -0.1399152210100023,
          -0.07521582080324511,
          -0.08823669471407576,
          0.03529936719704474,
          -0.2730935563368018,
          0.05208048514847877,
          -0.18838293455477215,
          -0.2126729474439851,
          -0.31589556948705266,
          -0.042524275433364,
          0.2064333686721871,
          0.24269947104778114,
          0.31748831074646433,
          0.11972856041094761,
          0.28466550486459985,
          0.012914893970912406,
          0.01188866826712945,
          -0.1281996183369841,
          -0.20454046516487548,
          0.26339730170414594,
          -0.03427339606338429,
          -0.09903918371155113,
          0.10999922770963383,
          -0.0133556832636748,
          0.10512403180323678,
          0.19900396340443902,
          -0.12344713414552308,
          -0.08004943745429459,
          0.06713574143125585,
          0.16856765400863608,
          0.38135898031516263,
          0.08666554922050981,
          0.11188626196512229,
          0.059611435331963655,
          -0.13650302269040995,
          -0.04328692588327764,
          0.12352491010511171,
          -0.08520049982435936
        ],
        [
          -0.05885881780688521,
          0.16627312437927164,
          0.026302364299711885,
          0.3420200103076284,
          -0.751295619605081,
          -0.11462456459241767,
          -0.08702994147588267,
          0.04843098300821582,
          -0.41183148545916926,
          -0.2708635484135374,
          -0.47206929455498087,
          -0.4476442432468514,
          -0.18816458110991993,
          -0.6339042311216568,
          -0.3013111280088322,
          -0.47546619525928885,
          -0.04134024745681796,
          0.1993167375456441,
          0.050397054347918455,
          0.0942323706554977,
          -0.05020367136195231,
          0.17785984458104742,
          -0.18350383133416034,
          -0.07749037066437553,
          0.07389725124223293,
          -0.22908285690057228,
          0.0012627591820282807,
          0.025024004494340786,
          -0.3490145231205073,
          0.11269303689314807,
          -0.012398535909122765,
          -0.03085252142704671,
          -0.12425405096888638,
          0.10938935289949175,
          -0.11815551630162244,
          -0.37433117497559987,
          -0.002579086904471675,
          -0.24973904960290869,
          -0.20258262135053545,
          0.06366973311854585,
          -0.15528865325470262,
          0.08585158427437382,
          0.2097494857666701,
          -0.6699670152841541,
          0.06286058600127532,
          -0.24935991041709973,
          0.4702574980497584,
          -0.18864289314871,
          0.1254814410300479,
          -0.5376180907648085,
          -0.395692891968523,
          0.06847081137416981,
          -0.7805579902577078
        ],
        [
          -0.19189686400661743,
          0.18656957332426477,
          0.15945628569595727,
          0.2102229866294678,
          0.23750744283017453,
          0.03114229868341282,
          -0.22099930817012484,
          0.06901579110398288,
          0.19380205773020198,
          -0.13731016627972756,
          -0.22086380315578738,
          -0.030445376075902125,
          -0.23145067771535988,
          -0.12837931139484487,
          -0.08380582516491462,
          0.06385112392506949,
          -0.1870824634940661,
          -0.060622399668208336,
          -0.20295188510504175,
          0.09381663207816301,
          0.22622013371110686,
          -0.25873792590877226,
          0.1595275318780372,
          -0.20212737521177787,
          0.03933598057609073,
          -0.14281949584448744,
          0.10978951667340332,
          0.02404646644472324,
          -0.1655295489351799,
          0.06808665971285578,
          -0.23888227265984657,
          -0.2963367689428809,
          -0.19382448422793336,
          0.07837269445464429,
          -0.15939818188854257,
          0.11864900510949669,
          -0.020051122672196428,
          -0.2628677600463924,
          0.021902418926572784,
          0.05640558124588,
          -0.20864262690136784,
          -0.2487536001789582,
          -0.21678991860266777,
          -0.08996954661481277,
          -0.021155281119989072,
          0.04924389095413244,
          0.12552152004686484,
          -0.23313239148002785,
          -0.20338197363475946,
          -0.1861041700213566,
          0.08146535624054224,
          -0.09935981394752877,
          -0.2858116079243512
        ],
        [
          0.2715003741268433,
          0.15393162702711496,
          0.24837243662528974,
          -0.005333207830906233,
          0.04907692466677934,
          0.1950029614646627,
          -0.082176546972329,
          0.11807299906181358,
          0.43978849113854934,
          0.17447448611030167,
          0.14586678405288142,
          0.08549811489863911,
          0.29843542328337436,
          0.048970997779180916,
          -0.2660070293619727,
          0.7312336920653674,
          0.13108211620215676,
          0.013565630585640786,
          0.15978219059873536,
          -0.029272470689046134,
          0.17707889100979374,
          0.19138954250759135,
          0.47394398915897784,
          -0.16449600995281752,
          -0.06969656213610527,
          -0.0786270650836708,
          -0.23610812769848982,
          -0.0921416130573101,
          0.3198732960955771,
          0.14490550875606273,
          -0.013799624600569467,
          0.42912779273183455,
          0.005936046568362838,
          -0.01543860504675492,
          -0.17883123317007651,
          0.029496188411617556,
          -0.004668621724693055,
          -0.03346046194633428,
          -0.17464365071284563,
          0.00738540425345766,
          0.19815233986648106,
          0.04404864708509439,
          0.000838086205861602,
          0.05244803259574272,
          0.2660360802384572,
          -0.09847318568319845,
          -0.3164124336169615,
          0.2000555708243636,
          -0.0999493851666766,
          0.05993080102270567,
          0.1907306075284509,
          -0.2941179402020175,
          0.013744302886602952
        ],
        [
          -0.11678293698117122,
          0.06509940296310437,
          -0.13717141378700531,
          0.10604032337841668,
          -0.17919140707134065,
          -0.08038234983215273,
          -0.1445262081381894,
          0.0006592284509369857,
          0.13017854983485708,
          -0.23471637443740365,
          0.10965808170719309,
          -0.15840544779951476,
          0.17947761887408054,
          -0.34157597314806454,
          0.06469466644820737,
          -0.30662857507733043,
          -0.11942618418407466,
          -0.18793165773437628,
          -0.17089378120117482,
          -0.14946574344733835,
          0.08899432263996966,
          0.021286574541168196,
          -0.23973221758108174,
          -0.16816099963016592,
          0.2017486358752554,
          0.08715788312508321,
          0.14835322310844862,
          -0.12458527423780721,
          0.09093695923644364,
          0.2229887150545409,
          0.01239528393744439,
          0.0127316273837759,
          0.10448135614909165,
          0.181785010989207,
          0.11598667753357517,
          -0.15826341469981078,
          -0.1726810666050147,
          -0.05566253196987126,
          -0.17999692600001294,
          0.12311712360282383,
          -0.43220730323189943,
          0.21072778476457224,
          -0.15914788329647986,
          -0.37072802596481347,
          -0.09608401197760318,
          0.0972844439713118,
          0.17177931262469234,
          0.049817017392679,
          -0.039404995502089,
          -0.173479615240869,
          -0.335966792477355,
          -0.07334951546633355,
          -0.1707424505336564
        ],
        [
          -0.059853009621340075,
          -0.0690470425580983,
          0.13388895161155526,
          -0.19966223417265264,
          -0.13958083961807122,
          -0.10962130843554889,
          0.06367713241655835,
          0.08048892729131271,
          -0.3145967593105596,
          -0.03929543759518791,
          -0.09502019256602556,
          -0.07020952266762441,
          -0.20144351056039067,
          0.12853574508378185,
          -0.022697048825391173,
          -0.29829897085339885,
          -0.426432932779312,
          -0.3728957145637362,
          -0.006177259083533816,
          -0.33633830638511014,
          0.2905708339697841,
          0.12421941781629221,
          -0.33034635273064233,
          0.3206842176534948,
          -0.016674819219883584,
          -0.06749976106978434,
          -0.05502040640164591,
          0.05148060473975823,
          -0.19149864440223496,
          -0.02262823959291057,
          0.11025307007740673,
          0.10240392963667316,
          0.006812712241658335,
          -0.21003165459264292,
          0.14757342656763334,
          0.21010231140094365,
          0.10943528929727338,
          0.069168595110872,
          0.26585115310983076,
          0.1396774381294336,
          -0.009171424324102914,
          0.1102599228195497,
          0.08180220967641376,
          0.2844938176259454,
          -0.22900917007270336,
          -0.3255011095819064,
          -0.07974903381973232,
          0.05265644277173562,
          -0.09917875441459183,
          0.18718257088412663,
          0.046326623470732596,
          0.2842415516170702,
          0.3276698340910479
        ],
        [
          0.23126948951188234,
          0.18025083606356454,
          -0.24898624715987422,
          -0.24046533986370666,
          -0.2503972869542766,
          0.11531274954630005,
          0.1318076978922782,
          -0.09841669992699598,
          -0.07280576664924933,
          0.23232742992755287,
          0.012136699201113458,
          0.19043679305003972,
          -0.1373630730963775,
          -0.0960848082381823,
          -0.006791343553438509,
          -0.12396364420985108,
          0.08507051757390269,
          0.08355228848806563,
          0.13529434374815164,
          0.040506392410639434,
          -0.13506378540794975,
          -0.15156495997835562,
          -0.017826189920179803,
          -0.1478731556737069,
          0.00979406400949858,
          0.06919285071758732,
          0.17204238295229893,
          -0.1645733682598698,
          0.21325643196194047,
          0.2638962816529817,
          0.1412015886320413,
          -0.2807427485699337,
          0.16995720285801058,
          -0.07900394507328465,
          0.10394651126523508,
          0.11484431775041767,
          0.08163254607151411,
          0.27952475386331377,
          0.025842711462050638,
          -0.10454915541421055,
          0.07935386591765567,
          0.12923539869877762,
