{
  "layers": [
    {
      "activation": 2,
      "biases": [
        0.5788372877707765,
        -0.0026289552382966984,
        0.6154582332249011,
        0.2210035219522556,
        0.6500712920608406,
        -0.1735677183474546
      ],
      "cols": 6,
      "rows": 3,
      "weights": [
        [
          -1.143211956323583,
          -0.6966394732774455,
          -0.615356377338503,
          0.49666402223929795,
          1.2891830449048767,
          0.44314987234578856
        ],
        [
          0.33793888210750095,
          0.13871417432671393,
          1.4512874966982092,
          1.098239970344747,
          -0.2764115672214122,
          0.2177692980992856
        ],
        [
          0.692265664976073,
          -0.45107190054813756,
          -0.3230487324404256,
          -0.1668545938426518,
          0.345965147516636,
          0.2864934383412132
        ]
      ]
    },
    {
      "activation": 2,
      "biases": [
        0.0,
        0.48984916165126835,
        0.0,
        0.6799500738848526,
        -0.027428955362773975,
        0.3516322453642153,
        0.4908798182130214,
        -0.1602329828245592,
        0.005822253922359605
      ],
      "cols": 9,
      "rows": 6,
      "weights": [
        [
          0.01833240081942998,
          0.29478203952252996,
          -0.24908374966909919,
          0.16007430652099033,
          -0.4550185473829091,
          -0.1055449000856758,
          1.1779764155133976,
          -0.3586735169355431,
          0.38812684368699835
        ],
        [
          -0.5256390602736829,
          0.3331491513572831,
          0.5050413743845724,
          0.20628842959552235,
          -0.6053018959473184,
          -0.20095595672671707,
          0.3292464614182141,
          -0.21207411249871133,
          -0.5582075009091738
        ],
        [
          -0.276814573403759,
          -0.30110387705455494,
          -0.587771674489675,
          -0.7576615687236119,
          -0.39835853126636334,
          0.4210720682468563,
          1.1639289148502099,
          0.9434726358294984,
          0.05229149935673711
        ],
        [
          -0.07964155725781327,
          0.04227964556088543,
          0.2768772180490376,
          0.1318103244877604,
          1.0333551533533092,
          0.3704245370116324,
          0.2435176387266676,
          0.7806516894250894,
          -0.5981892788744891
        ],
        [
          -0.25974704880962357,
          0.5869379582902234,
          -0.1324009536128137,
          1.0452265393015356,
          0.5998576979210831,
          0.7989591296832368,
          -0.27904311744414206,
          0.10356972050719115,
          -0.5287898304908246
        ],
        [
          -0.36056724691332465,
          0.18424963105255518,
          -0.2842656760876245,
          -0.20410721112987418,
          0.1299345564901766,
          -0.4204804281765357,
          -0.4647830820724992,
          0.5106190992225955,
          -0.6060708118706778
        ]
      ]
    },
    {
      "activation": 2,
      "biases": [
        0.11708930687470072,
        0.3052612357804802,
        0.06898853777778371,
        0.5087948063533867,
        0.2748381826373349,
        -0.028521963244076364,
        -0.20061489604766503,
        -0.03531715964569565,
        0.006017734739878546,
        0.27679786586288674,
        0.05271295770492969,
        0.2162101404673526
      ],
      "cols": 12,
      "rows": 9,
      "weights": [
        [
          0.0816958420494547,
          0.10789483560499073,
          -0.16251198431549116,
          -0.5172626510098648,
          -0.004295107169391421,
          -0.17197537186224301,
          0.419000956886635,
          0.016015808692860047,
          -0.3171076861184436,
          -0.2890666271888198,
          -0.5182552261247978,
          -0.0933446902609057
        ],
        [
          0.3198024867982806,
          0.564605564719844,
          -0.05819954115271177,
          0.05032709289033287,
          0.6762908276015921,
          0.22619768158780743,
          0.2803304433635659,
          -0.22929149003905097,
          -0.5401855204144843,
          0.6506260306023884,
          0.34225566416567155,
          0.5939016307831086
        ],
        [
          -0.25679733453091663,
          -0.5145648099915014,
          -0.22854432331500774,
          0.3176199176260639,
          -0.19527994905444132,
          -0.38350925490454946,
          -0.37505366210517876,
          -0.46924540906709256,
          -0.013386833611565042,
          0.27791633357458173,
          -0.23050145016576756,
          -0.25327442097398795
        ],
        [
          -0.6594825511308562,
          0.6510906961898371,
          -0.3176932740660054,
          0.6541176314876574,
          0.1519262906394743,
          -0.4889391076851125,
          -0.4744114948732463,
          -0.27420875605366096,
          -0.5852936517625371,
          0.4921348219696978,
          0.4785956331989912,
          0.35841097681832357
        ],
        [
          -0.8379500076365778,
          -0.2769323624536297,
          0.24983943407525233,
          -0.6504879100266936,
          -0.20646758149362957,
          0.6127029418406472,
          -0.43111127241759245,
          0.3966855645465174,
          0.3933027772055193,
          -0.1731729320741857,
          0.15583554116945939,
          0.4852640762350774
        ],
        [
          0.17376116702522937,
          0.1536081247469496,
          -0.35929887913878256,
          0.3290347124531319,
          0.7642631324468402,
          -0.11161003910855556,
          -0.40443213599088995,
          -0.2954415496081657,
          0.6084258778056579,
          -0.14524729134691608,
          0.3832851735659046,
          0.33907908228207156
        ],
        [
          1.0756188551543673,
          -0.3392488590342824,
          0.4929213812656092,
          0.6788184776211518,
          0.32266198022028403,
          0.5040369665087197,
          0.12222908285587455,
          -0.2674496525042932,
          0.3158887736311413,
          0.25070396381758486,
          -0.873717607655131,
          -0.5903353224505042
        ],
        [
          0.06824607755896418,
          -0.5250942432959366,
          0.2109554094012817,
          -0.41303356051563106,
          -0.18245121290948993,
          0.5598992542270449,
          0.16379949561199197,
          0.29500563976437777,
          0.5552699513688704,
          -0.7744808658506094,
          -0.3566687788133562,
          0.6686269208828428
        ],
        [
          0.34464403645370095,
          0.05921954433246663,
          -0.2882547003058936,
          -0.24837092092452578,
          -0.07288486038544163,
          -0.020842941653127618,
          -0.05090946410811939,
          -0.2614441556926504,
          -0.12975073172583027,
          0.2857736689483233,
          0.44479324971443424,
          -0.033631330028298566
        ]
      ]
    },
    {
      "activation": 1,
      "biases": [
        0.28979706833133445,
        -0.003960345187033443,
        -0.39175971094545003,
        0.14223048729414245,
        -0.15829867759882638,
        0.5519420961850491,
        0.6926719062010522,
        0.3092679466542311,
        0.3603459507773868,
        -0.18074773586472515,
        -0.5224427248244132,
        -0.3663589346426885,
        0.2745029552857167,
        -0.41335269007980757,
        -0.42123266553875677,
        -0.2083872643029802
      ],
      "cols": 16,
      "rows": 12,
      "weights": [
        [
          -0.25308546020684464,
          0.008218814441951343,
          0.10254596730449013,
          -0.3146061062466251,
          0.18270673958497494,
          -0.12343116833678863,
          -0.23455829021910407,
          0.1963438476143151,
          0.8367889077235094,
          0.31805417739714076,
          -0.7717105784037398,
          0.07379090853793448,
          -0.13035098347558155,
          -0.43939213886086137,
          -0.240375429886717,
          -1.0977038860022938
        ],
        [
          -0.32421867200019977,
          0.22906049573194365,
          -0.042903580841934956,
          -0.022585415782366988,
          -0.09078324603338865,
          0.23449385227828812,
          -0.03646101604603838,
          0.2700187507423374,
          -0.2605885590864824,
          -0.09359384541690245,
          -0.8176347502277506,
          -0.3178099456814649,
          0.10140950101204975,
          0.1257495108148136,
          0.27247232748389394,
          -0.5700448648717842
        ],
        [
          -0.38923212576745636,
          0.044865988279153585,
          -0.42348340767083475,
          0.19326451597924962,
          -0.22238644040284306,
          -0.10004496479662475,
          -0.25207309840206416,
          0.2769423402846464,
          0.07239343334635878,
          0.5155482513809417,
          -0.21202468719843823,
          -0.34652127582228553,
          0.328162254560417,
          -0.5623246041676401,
          0.30217129021806133,
          -0.024510001018732235
        ],
        [
          0.40546891311574185,
          -0.15330292151045607,
          -0.12307042322425424,
          -0.06846763224991455,
          0.15564605406779145,
          0.09457897272522588,
          0.04741468429192828,
          0.553627914552698,
          -0.003591509936242253,
          -0.7122748590207779,
          -0.8247054300487686,
          -0.5397820396646638,
          0.351329665716698,
          0.2837875912004052,
          -0.771009756251511,
          -0.31364483376038227
        ],
        [
          -0.0701514516085572,
          0.2871221565288637,
          0.038094533030297584,
          0.2971478964568344,
          -0.20691419687080684,
          0.2661321192631611,
          0.6487059014907114,
          0.6376924500820432,
          0.0808453134089496,
          -0.5087779704436532,
          -0.12752047841372724,
          -0.5721936046257013,
          -0.22233109743748844,
          -0.13226285757697903,
          -0.5319515759562129,
          0.02359729990167788
        ],
        [
          -0.09686198318138134,
          -0.012172661869188979,
          0.04650524026818313,
          0.24722216060650845,
          -0.34870862122149426,
          -0.022207570661768112,
          -0.1449114034952767,
          0.28125397848247696,
          0.17275282281922963,
          0.16090632791766774,
          0.5155383535889719,
          -0.3881039659333605,
          0.11518967055590511,
          -0.5294558753253114,
          -0.7623987824763448,
          0.3022414554319417
        ],
        [
          0.1138722305719362,
          -0.014494733202187221,
          -0.2224280173751749,
          -0.3212504788600366,
          -0.337044439577733,
          0.2989701727612681,
          -0.26252825505900274,
          0.10616414567005866,
          -0.34772390971170214,
          -0.4321364654293831,
          -0.3320749236375218,
          -0.3119932201537691,
          -0.430362307478984,
          0.21544677261015405,
          0.3129501865055357,
          0.4411631067658066
        ],
        [
          -0.15405111144890432,
          0.43051433843611897,
          0.4062147435102555,
          0.11182663374139086,
          -0.15192578121777525,
          -0.04922450066461299,
          -0.2314003899627318,
          -0.3065354682395025,
          0.20653802472598878,
          -0.1916800046292485,
          -0.4224158236381093,
          0.4571918857191778,
          0.06273363680119148,
          0.3316490687763894,
          0.4340485965569424,
          -0.34008054493038253
        ],
        [
          0.5189482566472803,
          0.07035415948442995,
          -0.06815082398994628,
          0.1691268470747753,
          -0.043221786127049376,
          0.14189671584576724,
          0.4113872759896177,
          -0.33185492517301657,
          -0.1893531323956136,
          0.8601192630199178,
          0.2622814188814526,
          -0.04061804149032852,
          -0.05085078644514846,
          0.1793079710032895,
          -0.4019281602549919,
          0.09500762688463775
        ],
        [
          0.4487371048203072,
          0.2472391496939882,
          -0.1839618660134426,
          0.3969464896817756,
          -0.3347707020444948,
          -0.27824246898658156,
          0.013611907274787253,
          -0.06307497555615754,
          0.017608757962403226,
          -0.7345498628117209,
          -0.5587712460895705,
          -0.08601375515784798,
          0.14184279533760127,
          -0.20082504832872494,
          0.1244324231370915,
          -0.7415510740487321
        ],
        [
          -0.5536970902249734,
          -0.7981924645928494,
          0.0514404925508914,
          0.2815967603316634,
          -0.5566465915305661,
          0.3174859374087145,
          0.20330433625790345,
          -0.32597768696713175,
          0.24304316324890704,
          -0.22384088795553386,
          0.10621964045693617,
          -0.09206063866769391,
          -0.11696926878819067,
          -0.4962461067656022,
          0.4652764872129463,
          -0.12547706408395443
        ],
        [
          0.10598291068909355,
          -0.30842844436524264,
          -0.09328307357645486,
          -0.3172379947423851,
          -0.5918744229316016,
          0.6543295309623767,
          0.3116413258656757,
          -0.44736915900022894,
          0.0481640063351342,
          -0.39321774586283276,
          0.06694016815145172,
          -0.45262554315205783,
          0.1390570316815028,
          -0.5184110614944939,
          0.33846982819087174,
          0.6844990834492001
        ]
      ]
    }
  ]
}
