{
  "layers": [
    {
      "activation": 2,
      "biases": [
        0.044314592060618226,
        0.38716529494413093,
        0.17929990214431427,
        0.4350810489156008,
        0.9509256198927639,
        0.5149040086036757,
        0.0
      ],
      "cols": 7,
      "rows": 4,
      "weights": [
        [
          -0.699509253306927,
          1.0714209674575295,
          0.7453896325927222,
          1.4587022305479513,
          -0.2177884827215984,
          0.1371209879363543,
          0.06388418238982185
        ],
        [
          0.3031862098069027,
          -0.08863073982637239,
          0.6226919525355156,
          0.20280816198530316,
          -0.31274413297762366,
          0.18686229302223967,
          -0.14871387796338467
        ],
        [
          0.15975875969657524,
          -0.9800186623177426,
          1.0256245323056692,
          -0.22284704574703731,
          1.1025962165624497,
          -0.6859518956019616,
          -0.18451408623452994
        ],
        [
          0.9755605412024126,
          -0.3125943594435924,
          0.3688165134742312,
          -0.36188058993563105,
          0.021051202309698078,
          0.5644521528762935,
          -0.699772556311557
        ]
      ]
    },
    {
      "activation": 2,
      "biases": [
        0.724152054747491,
        -0.039412777156268314,
        -0.07221626774366659,
        0.4542084774503381,
        0.03527867138502573,
        -0.004785143832834067,
        0.0,
        -0.005169438294620926,
        0.48758633527307804,
        0.0
      ],
      "cols": 10,
      "rows": 7,
      "weights": [
        [
          -0.48627711396097295,
          0.5177495082270982,
          -0.11222579443658622,
          0.6822046335044777,
          -0.05423193661522592,
          -0.504895455319818,
          0.14010464467434192,
          -0.09466709724133632,
          -0.726506393614329,
          -0.44911820923831963
        ],
        [
          0.6727285860469026,
          0.013046705235510905,
          0.3337051335773,
          -0.7726069764534148,
          -0.14436013637107734,
          0.24736343706239447,
          -0.22815317405762436,
          0.13958725363007862,
          0.3752141992716172,
          0.15906596853622973
        ],
        [
          -0.24015355140323097,
          -0.49364480587657755,
          0.12772646196855827,
          0.7421887702971113,
          -0.002911376497467708,
          0.8771501063483272,
          -0.32305096361958424,
          -0.3459309210462413,
          -0.05396651574266456,
          0.023367151392730014
        ],
        [
          0.39230542913402566,
          -0.107959687080404,
          0.12314937412184512,
          -0.3436970730352189,
          -0.3473977039672378,
          1.1689773075333882,
          0.4515801297298901,
          0.580250189192319,
          1.0524808364049085,
          -0.5548906127221
        ],
        [
          0.5820359245065293,
          -0.019711770072504506,
          -0.5106389047100823,
          1.2226816894721433,
          -0.2557354615475052,
          -0.553600422605222,
          -0.36776507173201656,
          -0.4054468507083787,
          0.6183254167043047,
          -0.044850231636253776
        ],
        [
          0.8355644088983376,
          0.09150800888395531,
          -0.2796697479111237,
          -0.44964394124212526,
          0.11836712477298879,
          -0.27114064710214353,
          -0.13053832240997942,
          0.11767841105303793,
          -0.41940203240985896,
          -0.4935924138629777
        ],
        [
          0.3578929560119095,
          -0.5666300451991564,
          0.3475491721835525,
          0.015266972761524302,
          -0.3440929698178948,
          -0.34519714631888176,
          -0.5827475425956429,
          0.27058747422884866,
          -0.10041414478737971,
          0.04447428070176577
        ]
      ]
    },
    {
      "activation": 2,
      "biases": [
        0.07793748734547742,
        -0.22491557721799707,
        0.3196186194564727,
        -0.11123760374260029,
        1.6416618348195489,
        -0.5800960720699229,
        -0.043912307999377925,
        0.0561654509286533,
        -0.004690556736517587,
        -0.05030577479153286,
        0.325077480139241,
        0.0014955410629512106,
        0.7239240591245776
      ],
      "cols": 13,
      "rows": 10,
      "weights": [
        [
          0.26365814939794807,
          0.12196649607494743,
          0.6128384370948259,
          -0.20088125503009358,
          1.0641380786278165,
          0.4069482690089352,
          -0.5861969749455083,
          -0.2126066003799852,
          0.006745211740168786,
          -0.32406818393589343,
          0.13969796726566003,
          -0.24155228770586884,
          0.4888248161406333
        ],
        [
          0.02147316922498556,
          0.38097073511637225,
          0.504964845667491,
          0.30888698988235813,
          -0.11411395044149206,
          0.3121153189133346,
          -0.4150807579949489,
          -0.02501268611521948,
          -0.020596180048944,
          0.11090125570046856,
          -0.366566844330227,
          -0.14520302322362538,
          0.026721084347083587
        ],
        [
          0.4218845364117257,
          0.042836606420378884,
          -0.0047532675998987195,
          0.22027815062077105,
          -0.10836329169063218,
          -0.46497880339765385,
          -0.15903930312945458,
          0.28866560300402805,
          0.13111125859067552,
          -0.33439780388479545,
          -0.34946783720843827,
          -0.177000960983896,
          -0.21639016732232524
        ],
        [
          0.4156248932582785,
          0.6006117117221849,
          0.2161224710700033,
          0.15280231249953108,
          -0.10840864338942374,
          -1.007287829685107,
          0.382916324571898,
          -0.22320983089474294,
          -0.03081667472454631,
          0.04419107184135614,
          1.4040941414559027,
          0.3647865973247064,
          -0.5918276636921981
        ],
        [
          0.23901323740080357,
          -0.4353021903080916,
          0.3044846432157608,
          0.18899153566428806,
          0.024710316297581927,
          0.2918736642679117,
          -0.36759079346174556,
          0.31684263756291386,
          -0.03137878182723063,
          -0.4957045156370189,
          -0.08461288333350997,
          0.46636419946001156,
          0.1938855207133945
        ],
        [
          0.37591029486516014,
          0.46581956669453806,
          -0.15258910365510592,
          -0.5141442464134288,
          -0.6101321359911014,
          0.985065143600596,
          -0.06257725079334488,
          0.25459918910552876,
          -0.2851423244481814,
          0.05357043291133439,
          -0.43510487844774004,
          0.613932252709241,
          0.4305506786990783
        ],
        [
          -0.35201832892376805,
          0.49753074153567883,
          -0.06284798241350352,
          0.4062399901260407,
          -0.3457779987198727,
          0.4599601230746161,
          0.1627296920426815,
          -0.07515679178656759,
          -0.4937840534363257,
          -0.2217794960238449,
          0.43637465036601475,
          -0.09395140620381529,
          -0.34261756972966206
        ],
        [
          0.20884626805815903,
          -0.09226899048938021,
          -0.034012924706249156,
          -0.08286786140622966,
          -0.1654600837047014,
          -0.1485886696543282,
          0.4214547519440162,
          0.44499565873649344,
          -0.2989190434365942,
          0.03410721364736993,
          -0.34011783751999036,
          0.20412051365913855,
          -0.07383439665272089
        ],
        [
          -0.5171662625986256,
          0.5890914413475652,
          -0.5455683850001928,
          -0.44496494549229815,
          0.4362541835715032,
          0.5643618816893372,
          0.09796058263041839,
          -0.4542932159356927,
          -0.1568211130079705,
          0.1360462870260587,
          0.1620504276436341,
          0.6215040102958074,
          0.543409715608831
        ],
        [
          0.0005144668965392407,
          -0.24018452032045132,
          -0.4546909062637319,
          -0.06696486729629186,
          0.12868610894787602,
          -0.3424570060262713,
          0.20128635871667827,
          0.1306746352453925,
          -0.2022270958742064,
          -0.4532975042611689,
          -0.5025930684937854,
          0.4357251210293735,
          -0.22573997414152655
        ]
      ]
    },
    {
      "activation": 1,
      "biases": [
        0.6243447456321992,
        0.045646164027799745,
        -0.0434482118074019,
        0.2549489144804865,
        -0.6598759056630653,
        0.4858721736960167,
        0.8239606378652292,
        0.893751609606525,
        -0.06064476416354887,
        0.7447564804639846,
        -0.8580168150205788,
        -0.5229909737484175,
        1.142597698149926,
        -0.08992199538028357,
        -0.9949218588593602,
        -0.8391610758287944
      ],
      "cols": 16,
      "rows": 13,
      "weights": [
        [
          -0.21649711387209145,
          0.13664738316573388,
          0.2105248236521026,
          0.5014425186335535,
          0.2566934874395793,
          0.0804995853670416,
          -0.083263728770292,
          0.7083243376688076,
          -0.09329767731643031,
          -0.32171636321687774,
          0.1280717346168452,
          -0.04868718606987244,
          -0.5039070374248499,
          -0.1264539120091609,
          -0.4389603085935232,
          -0.12531129947468755
        ],
        [
          -0.21344966797859882,
          0.10369383747456463,
          -0.04592902486372156,
          -0.3126362917210651,
          -0.13017798584442442,
          -0.7376719717193663,
          0.3841311422751883,
          0.3532242895134697,
          0.13230096058170204,
          -0.09447600700749832,
          -0.0037206910119334264,
          -0.3861446454822415,
          -0.29199852968607054,
          0.11087315615199221,
          -0.6011192076069805,
          0.10022327581952827
        ],
        [
          -0.10036548071159991,
          0.47483901332911566,
          -0.31699818799063517,
          0.45997678413514004,
          0.034138892358656074,
          0.5835352557024539,
          0.2690406846261645,
          0.3733207369891007,
          -0.14318403277913994,
          -0.2518772503030193,
          0.3240257354212791,
          -0.002110732915905083,
          0.12492927331450521,
          -0.14672843778189812,
          -0.40811154955571405,
          -0.2016002804840458
        ],
        [
          0.3110654047745039,
          -0.30280397767668255,
          0.17548050244654834,
          -0.2124895760390889,
          0.008314976864010488,
          -0.2620743356767873,
          -0.13550332029522838,
          -0.42924754570719564,
          -0.43546709938462685,
          0.07329223177605725,
          0.306386188246676,
          -0.19495283145192696,
          0.44981367514900417,
          -0.18963119425821348,
          0.18351162471826432,
          -0.2510663653681171
        ],
        [
          0.3993991032883753,
          0.012790396123279694,
          -0.24070711296450187,
          0.4247558119307491,
          -0.5184073286694697,
          1.0009214211283455,
          0.8768242859073255,
          0.8266684725034713,
          0.07002751377979663,
          0.3913727350982714,
          -0.9761935123105925,
          -0.8839682178039263,
          0.7921766573281744,
          0.021645791535540606,
          -0.6683857369641606,
          -0.22796480272337366
        ],
        [
          -0.2537779795442493,
          1.0352600417575328,
          0.043975317150880856,
          -0.16182068975877772,
          0.40539210154123123,
          -0.06372841338908584,
          -0.3925266498973116,
          -0.27496566823467206,
          -0.24140713730263935,
          -0.14535518674290443,
          -0.08727940864107261,
          -0.08755768252404521,
          -0.027310697305883466,
          -0.41120361034860603,
          0.5442220578705471,
          1.2530325003774685
        ],
        [
          0.5573484389688288,
          0.07347290515521662,
          0.09356100852022083,
          0.30088283360087503,
          0.4067250974563815,
          -0.19161932408056126,
          0.07431289596582372,
          -0.2948633150612538,
          -0.19807349632377805,
          -0.33221564964390593,
          -0.04174127931816192,
          -0.13129834668309542,
          0.03380191731651983,
          -0.2516766981552345,
          -0.28349324696736655,
          0.3166569707623194
        ],
        [
          0.39436081144614055,
          -0.007433084730691001,
          -0.09280504796107808,
          -0.26137548315380715,
          0.4115367004631348,
          0.3187129307557857,
          0.19886531603078608,
          -0.02057294427622232,
          -0.019254274306991958,
          -0.19172971353141766,
          0.09960796972229635,
          -0.08537122958975481,
          0.20200246979724118,
          0.03210501061915225,
          0.11008611643005767,
          -0.06196662287468494
        ],
        [
          0.016336604850016784,
          0.02522322411346229,
          0.16981578994761676,
          -0.007056150751590076,
          -0.031941668629718055,
          -0.38392548121157266,
          0.4248357272555522,
          0.31080101931689635,
          0.3925637214857653,
          0.27252328180422786,
          0.43058438800879817,
          -0.006637608239999459,
          -0.21786216093980165,
          -0.40027311400501114,
          0.4165104955375661,
          -0.0486378618424663
        ],
        [
          -0.37143749417031685,
          -0.03089807824022424,
          0.43988206611792724,
          0.4162532694013203,
          0.10655524755384509,
          -0.28909707603984125,
          -0.43014245298166504,
          -0.2365562711079497,
          -0.45170132715889555,
          -0.34605181764545034,
          0.30001399294855985,
          -0.2994105959563659,
          -0.26609125103946724,
          -0.03601818102126339,
          0.2859986141097808,
          -0.2556723217306737
        ],
        [
          -0.27960480015253014,
          0.1477972262516547,
          0.2991546136232854,
          -0.5138848480472863,
          -0.045779164082986885,
          0.5390110362667934,
          -0.06404981554537607,
          0.341136963942651,
          0.23015029813343146,
          0.1635143316838067,
          0.43029681057129104,
          0.5016856954106622,
          -0.40067486750135506,
          -0.08367764032265418,
          0.07749143198130987,
          -1.2957314456256275
        ],
        [
          0.1345474236606845,
          -0.3529447322083604,
          0.391952349464825,
          -0.04827709932600395,
          0.15454207505436462,
          -1.134711426957324,
          0.6375341990473974,
          -0.045361635673680276,
          -0.24472844330845653,
          0.11065105393089186,
          -0.1027131888285688,
          0.09879390097871232,
          0.026629741043873688,
          -0.12992565163789083,
          0.08835759657378978,
          -0.12419931628315849
        ],
        [
          0.324875702421916,
          -0.3392832462710014,
          -0.32125995846559746,
          0.1921204264756151,
          0.2766987738753859,
          -0.16967882691390856,
          0.5389707206820343,
          0.056851868988323215,
          0.03222823672247807,
          0.15238303719701013,
          -0.41871784766343284,
          -0.13343760998993184,
          1.117020037936355,
          0.20220656201908743,
          0.21249180155215125,
          0.16267969954716432
        ]
      ]
    }
  ]
}
