{
  "layers": [
    {
      "activation": 2,
      "biases": [
        0.5517685271448126,
        0.5861187575169882,
        0.23968391954044704,
        0.09329762045769316,
        0.6352331576584076,
        0.8091992230556325
      ],
      "cols": 6,
      "rows": 4,
      "weights": [
        [
          -0.7136484235305653,
          1.1585103576732767,
          -0.5274651858590877,
          0.7560126827235545,
          -0.4442519579762909,
          -0.559460759302266
        ],
        [
          -0.6828882859364304,
          -1.0654434406818514,
          -0.13927077259239615,
          -0.09738876598695975,
          0.7265472845491638,
          0.4549812087323409
        ],
        [
          1.063208582286929,
          -0.10013725796411158,
          0.2931185665219941,
          1.5562364714922217,
          -0.7059116362529051,
          -0.4047897287647578
        ],
        [
          -0.303994239340065,
          -0.554751031078669,
          -0.550841908455649,
          -0.36281930795054645,
          -0.3805666318914273,
          0.09505547121389062
        ]
      ]
    },
    {
      "activation": 2,
      "biases": [
        0.0,
        0.7216936133701769,
        0.9694718735012285,
        -0.13642314576456469,
        -0.24387038468842948,
        0.019902623665449606,
        1.227519943663626,
        -0.09678960492684412,
        0.7735614447284177
      ],
      "cols": 9,
      "rows": 6,
      "weights": [
        [
          -0.5244557547934823,
          -0.25476454690618777,
          0.2055239486515472,
          1.0246939423183108,
          -0.5980801242156291,
          0.01544144628532234,
          -0.29257066404204535,
          0.7160957164111046,
          0.5436810742285617
        ],
        [
          -0.6275763927488793,
          -1.0209466054540903,
          0.20929160469117725,
          1.0614688371130554,
          0.6385568480104741,
          0.5102317348254721,
          0.08129444155466872,
          0.036968283419411455,
          -0.4353645678232061
        ],
        [
          0.41693032723205686,
          -0.10339030374971232,
          0.6068581371121697,
          0.418918754662445,
          0.20084406442265118,
          0.5593413643384565,
          -0.5534114156929245,
          0.18934733444042745,
          0.6310544495254741
        ],
        [
          -0.2592851439478386,
          0.5187451169716789,
          -0.6970339279738735,
          0.8052413069290596,
          0.5615043624884033,
          -0.5521642296550143,
          0.8977435516490214,
          0.6903985994385807,
          -0.22326331909440536
        ],
        [
          -0.18679861929676816,
          0.2835454886900297,
          0.5224747476477641,
          0.2960377273172486,
          0.2966916205552808,
          -0.1265417601664201,
          -0.07596224743634045,
          -0.29966453211853,
          0.80954335463946
        ],
        [
          -0.015133505615001078,
          0.3737865971331533,
          0.5604739742168915,
          -0.15665868704052865,
          0.3544657109369944,
          0.03334019032225822,
          0.05031996349768414,
          -0.18185399418079357,
          0.8268791259412852
        ]
      ]
    },
    {
      "activation": 2,
      "biases": [
        -0.01529246776238819,
        0.014569564693975332,
        0.7065393421969902,
        -0.03897776987556923,
        -0.053413935547462155,
        0.0768782327352137,
        1.2568104736876544,
        1.035881221586608,
        0.0763362251856358,
        0.0,
        -0.11789877792715668,
        -0.192081634204401
      ],
      "cols": 12,
      "rows": 9,
      "weights": [
        [
          0.4861612258188338,
          0.35360705391438074,
          0.22352949847974912,
          0.33137337024469454,
          -0.1616827490658235,
          0.27714164716424233,
          0.32450947381721196,
          -0.0003576922269308206,
          -0.15848032145187033,
          -0.3832449561030114,
          -0.3239674516948467,
          -0.3398661421972199
        ],
        [
          0.12224794123165585,
          0.45226975735872244,
          0.5837959950881991,
          -0.21986890326421857,
          0.41380280475396375,
          0.18049966524651467,
          -0.5799531092549919,
          0.7752559343204789,
          0.7955423157842101,
          -0.20204713388493908,
          -0.23735573465384008,
          -0.4299640009156849
        ],
        [
          -0.6058828754808604,
          0.009858197402010849,
          0.8125236810954425,
          -0.18315588254951098,
          -0.19755700801769854,
          -0.7073383885716392,
          0.3705661812802072,
          0.9021239942017574,
          -0.2313119920274915,
          -0.5193619487319989,
          -0.9191528588710776,
          0.010853900875766724
        ],
        [
          1.05984768649333,
          -0.505831651471076,
          -0.6600778940036914,
          0.44855028648976214,
          -0.62908596308414,
          0.13707783432999235,
          0.5359796422674893,
          -0.45277880878561055,
          0.04054609854237092,
          -0.16411147892576936,
          0.4857775403731872,
          0.6300074099829719
        ],
        [
          0.013072049084938486,
          0.03970983252502949,
          0.17161603968546577,
          -0.5173516423152342,
          0.056165947467633856,
          0.37981145435164115,
          0.1311176146690319,
          -0.19488751326103368,
          -0.17220496178996378,
          -0.08560976918574087,
          0.6337136751790029,
          0.36378034238776197
        ],
        [
          -0.14271403635440744,
          -0.498766637789518,
          -0.47957598278212177,
          -0.43604778286434615,
          -0.5866383758997606,
          -0.13781370536083162,
          0.5628638175674965,
          -0.3805966061669757,
          0.506191729889538,
          0.0911357517462892,
          0.2486316872061414,
          -0.27730916187844473
        ],
        [
          0.32902339650968476,
          0.34020370431947394,
          0.24149640332714936,
          -0.07797706721263273,
          -0.002469686970221569,
          0.9677637386207527,
          0.67696033111243,
          0.8983432749895093,
          0.5400639080851141,
          -0.2228590421339596,
          0.08989639811712435,
          0.12520584462631973
        ],
        [
          0.7473087716985476,
          0.46295751959494585,
          0.3186177678677513,
          0.30631107585466927,
          -0.012368004879295676,
          -0.2754375384522353,
          0.03197638332065378,
          -0.5411554996137383,
          0.0009201984485720756,
          0.34164549908145586,
          0.7656575390924155,
          -0.3052850946464756
        ],
        [
          -0.24608839375768404,
          -0.23458347280181768,
          0.9005217224998193,
          0.1792068027595491,
          0.5918628887348835,
          -0.8922444230351957,
          0.6656536843990652,
          -0.12427744253405897,
          -0.0290305763434611,
          0.19538181550355063,
          0.0011526171280990649,
          -0.7882953944369118
        ]
      ]
    },
    {
      "activation": 1,
      "biases": [
        0.4071568251520495,
        0.2749874032580987,
        -0.15573471658763563,
        0.18483631030776007,
        -0.38216964154542565,
        0.3819545943972998,
        0.9208461755002665,
        1.311866985144409,
        0.12457935412926123,
        0.6538890597212492,
        -0.8379593700616506,
        -0.7112049229156321,
        1.0248137787975726,
        -0.027800482582905572,
        -0.6337248556512609,
        -0.8077955761887898
      ],
      "cols": 16,
      "rows": 12,
      "weights": [
        [
          -0.09653984567996841,
          0.5420755818862412,
          0.035616979425587975,
          -0.08945283650152087,
          -0.04549282015417365,
          -0.9430503858191369,
          0.3084357893264731,
          0.17330607716118926,
          -0.15531014631204926,
          0.2131344510801542,
          0.10787115682562497,
          -0.02911476205809087,
          -0.3226455978926889,
          -0.7413771835144106,
          0.5018831109805971,
          0.7398451698547674
        ],
        [
          0.08615206859856306,
          -0.15742269440074586,
          0.3723467459351817,
          -0.09767297727586417,
          0.11621183889410588,
          -0.397989667194936,
          0.19359055749185478,
          -0.31682842451044746,
          0.36329603411066413,
          -0.1913164091243043,
          0.43520877114816753,
          0.28551496779219526,
          -0.13040201010940897,
          0.17732975290778635,
          -0.2489813253742513,
          -0.3314382875856251
        ],
        [
          -0.174106258131268,
          0.5751583374147845,
          -0.24466831328263267,
          0.009408781822144788,
          0.04400991308889108,
          1.0389056101271545,
          -0.07680919915856474,
          0.5502160463030027,
          0.21182283498230323,
          -0.21166694668789637,
          0.49803059610390177,
          -0.04074308342617196,
          -0.292548537015879,
          0.14691861321424068,
          -0.3909465501596018,
          -1.0370643902935925
        ],
        [
          -0.26030053374634304,
          -0.1434510878680897,
          0.28375266873904925,
          -0.014295151354539008,
          0.4448695675272801,
          -0.06636645099925587,
          -0.06657903938189753,
          -0.08591036675434686,
          0.007482506009633339,
          -0.23610096965730862,
          0.4971646488935499,
          0.19468480182165052,
          0.16135928655998327,
          -0.01950872641339264,
          0.5004083673797299,
          -0.033801208730020293
        ],
        [
          -0.15049228434418474,
          0.5057403587919125,
          0.24954422138257557,
          -0.009335200171116264,
          0.11021593964542896,
          -0.36080920483272744,
          0.41451262976135517,
          -0.33393643791469,
          -0.27294336933490626,
          -0.22225938540040505,
          0.3875872743222427,
          0.4306533757791664,
          -0.6603121388918058,
          -0.40799611021157745,
          -0.13179839410688216,
          -0.06930413848854082
        ],
        [
          -0.13954515773859072,
          -0.02145617627839114,
          0.17680828549993868,
          -0.44522590057198325,
          0.19605417700714062,
          -0.47450034055367024,
          -0.11332532681052485,
          -0.4243783407660257,
          0.3438774149633548,
          -0.18861140481889366,
          0.303807047601804,
          0.018253532426126925,
          -0.33892102829345766,
          0.7327320071156657,
          -1.062860476827294,
          0.47146024665610864
        ],
        [
          0.7151150143837,
          -0.19663089220601362,
          -0.3316631553248962,
          0.3625519380475664,
          -0.21721021828418036,
          0.14481543355568013,
          0.7774691388536302,
          0.5487431772915973,
          0.018262408534286928,
          0.259965371337059,
          -0.9048270746586262,
          -0.8715923372362256,
          0.7562249088418834,
          0.04453314744072721,
          -0.06201421009993723,
          -0.6695695504688834
        ],
        [
          -0.35800986026919174,
          -0.33042684790347115,
          0.5017460610186621,
          -0.12631762353083878,
          -0.32002693344876854,
          0.5255823116840231,
          0.687319208845432,
          0.22672016520419735,
          -0.15491617955930137,
          0.42538624712724427,
          -0.16861899902628946,
          0.24190852854314712,
          0.10013167529720576,
          -0.22358072824617425,
          -0.6354092898930523,
          -1.4910229520637228
        ],
        [
          -0.13044365439587963,
          -0.4643018258906948,
          0.19940949201054675,
          -0.3245819049637733,
          0.12509445105011205,
          -0.14419290916553884,
          -0.30520255473724933,
          0.350809448559707,
          0.1542910858765894,
          -0.2875946740257109,
          -0.09833891129842617,
          0.4650675137062249,
          -0.34294567926352953,
          -0.032945740537704084,
          0.14949270046456298,
          -0.5367814850351391
        ],
        [
          0.3474638905193367,
          0.15505724414824784,
          -0.20331680453752113,
          -0.06596106099349101,
          -0.4601275359895311,
          -0.3477760376157654,
          -0.368025569092394,
          -0.01854925390376735,
          0.3352939717447561,
          0.1366703113475923,
          0.35174080971803046,
          0.1080056487031639,
          -0.14464964845471923,
          0.13800181590749935,
          -0.3591636589625113,
          0.060537872937189575
        ],
        [
          -0.28846824925471887,
          -0.015723610736219775,
          -0.013530145746810968,
          0.12506166158314938,
          0.1570641276452471,
          -1.0008790123537237,
          0.09379078315469672,
          0.4304574585748035,
          -0.49159037865901056,
          0.006906302812988226,
          0.21271250570878472,
          -0.15752249976834018,
          0.06742148656771962,
          -0.08158504323294233,
          0.06654773521814335,
          0.5363416771414486
        ],
        [
          0.31187602156642247,
          0.2932997115640465,
          -0.35209399943907277,
          0.5667096862436705,
          0.12216078328800416,
          -0.09266936061735384,
          0.018657761261560313,
          -0.2896338241402182,
          0.2608807850980516,
          -0.1401457005474321,
          0.08403483466392062,
          -0.36136704892657756,
          0.06876578025187989,
          0.6832066035421767,
          -0.7513229024260044,
          0.3525606952738322
        ]
      ]
    }
  ]
}
