{
  "layers": [
    {
      "activation": 2,
      "biases": [
        0.4036451172722423,
        0.6692161342680748,
        -0.18256230422125624,
        0.0010836880830520554,
        0.12933143340913486,
        0.0,
        0.0,
        0.7156850096751692,
        0.0,
        -0.0021734644545472474
      ],
      "cols": 10,
      "rows": 4,
      "weights": [
        [
          0.17183081112681453,
          -0.4914970772441253,
          0.1603152791502442,
          0.31394918232593183,
          0.5456317839945317,
          -0.5376227837071983,
          -0.5507685691266858,
          -0.7760904840434303,
          -0.4809170368310714,
          0.059622589811018735
        ],
        [
          0.7903973668818782,
          -0.04037712614172702,
          -0.08717547913379786,
          -0.7765259149487477,
          0.3094399329571872,
          -0.2961626553817252,
          0.035562498588262936,
          -0.7960818326611286,
          -0.418419459131972,
          0.49760030556025103
        ],
        [
          -0.19888540456816245,
          -0.3108295882980835,
          -0.5093530237645981,
          0.5372569349355495,
          -0.45024727773959355,
          0.3807630628026129,
          -0.6545412541563715,
          0.057127069368754495,
          -0.0861188859630358,
          -0.6160104044714662
        ],
        [
          1.3848195620475603,
          -0.6011637038217108,
          0.30176260775536834,
          -0.0786351143496757,
          0.13885386864025945,
          -0.4094883176683157,
          -0.07457602929018622,
          0.09142114707073204,
          -0.6155041161127437,
          -0.5859847867298834
        ]
      ]
    },
    {
      "activation": 2,
      "biases": [
        0.052876155185537566,
        0.47723832699000573,
        0.24880959156843915,
        0.031205756634581125,
        0.25920123970455455,
        0.09299489330384236,
        0.6152950302987569,
        -0.06802518636804844,
        -0.021462303639326608,
        0.1798485534910279,
        0.04667241521930249,
        -0.0014725974393355605,
        -0.09632161245989475,
        0.25796617478619305,
        0.12824880373035505,
        0.17157973071669166,
        0.149580262958876
      ],
      "cols": 17,
      "rows": 10,
      "weights": [
        [
          0.07797380182526621,
          0.3724632823026584,
          0.14400117202459187,
          -0.22878846058376265,
          0.5504533832418383,
          0.9964423108250325,
          -0.18828301744795153,
          0.16169733569766453,
          -0.0698916082626992,
          0.22020479617385272,
          0.6721830258949851,
          -0.2637598828066269,
          0.7924644015034918,
          -0.02332994501188128,
          0.15211620194187442,
          0.39473856597468815,
          0.2827766235495643
        ],
        [
          -0.025994142401583254,
          0.46250432509501743,
          -0.23746182601655705,
          -0.1902706280147858,
          0.6084365354688989,
          -0.4431862307967539,
          0.38449405254084756,
          -0.35649436015533303,
          0.18691327568946617,
          -0.31928190674438633,
          0.39967069949696143,
          0.00400842059100681,
          -0.2088906511741102,
          0.3849746558254726,
          0.47433651347514455,
          0.411398332555678,
          0.42258823908756266
        ],
        [
          -0.3434861528225828,
          -0.3250577294052724,
          -0.027161198325825437,
          0.44306487492470314,
          0.35624401988168536,
          -0.09162664204114711,
          -0.032142439171460806,
          -0.02810133954276174,
          0.2515951901828925,
          0.3341802736108553,
          0.3728314518510738,
          0.4298637013720097,
          0.08993224952221074,
          -0.2767446167868784,
          0.3203964057709546,
          -0.16430122073362594,
          0.39455324909592226
        ],
        [
          0.10165641405137779,
          0.04764508506740657,
          -0.3030683529504116,
          -0.40283228377092817,
          -0.6297464984261449,
          -0.41373710879094155,
          0.5222431250693794,
          0.04577075868567059,
          -0.21058996498997268,
          -0.3060905815212309,
          -0.32749006275518255,
          -0.1132731740290808,
          -0.25376591706352497,
          -0.44336618009155704,
          -0.2217710302403157,
          -0.27692488823651507,
          -0.40045523557765594
        ],
        [
          -0.059317627798586264,
          0.428935216234179,
          -0.0032335360199103654,
          -0.40456708334431823,
          0.2083158408066463,
          0.1687396320725493,
          0.06837654686957229,
          0.36926290310706367,
          -0.08315652437626557,
          0.10296876167494384,
          0.10261014673841319,
          -0.2508671347483224,
          -0.0013239194578793718,
          -0.31968812850376693,
          -0.019495710617601705,
          -0.29289233061148945,
          0.2997860640625705
        ],
        [
          0.4190951077999693,
          0.2766342184438819,
          -0.0422194238670859,
          0.2914146510959641,
          0.10200938266118366,
          0.1583316708578218,
          0.021392556470581008,
          -0.4311991369840522,
          -0.22882823002359046,
          0.4059829475114904,
          0.14450044362559333,
          0.4237549858627822,
          0.1357209288776395,
          0.06702317306052148,
          -0.35359096796609735,
          0.007059041975841666,
          -0.14372031028861976
        ],
        [
          0.005127134489234882,
          0.39992534516929606,
          0.35335137718115084,
          -0.08693004894961975,
          0.4448567903231418,
          -0.46953227875396497,
          0.3344517582883714,
          0.20920735035578944,
          -0.19798139324795294,
          0.24636489622605584,
          -0.05713510004871679,
          0.07054728487360866,
          0.4065800594758091,
          -0.1983350623809814,
          -0.2780095144534297,
          -0.15262075136948236,
          -0.03049048758597515
        ],
        [
          0.5601905541698121,
          0.3860111063860669,
          0.04326179086472112,
          0.3210524844271006,
          0.4635187566534425,
          -0.09784418340915751,
          0.0777277883481934,
          0.3972587516285244,
          -0.30016857524335544,
          -0.17297233620703495,
          0.5208033536408978,
          -0.36555743949522945,
          -0.16376987104568264,
          0.5120146719110031,
          0.2751267623280658,
          0.4330097983188331,
          0.5871189461930173
        ],
        [
          0.02474916441477698,
          0.09329405273421547,
          0.08190439770571613,
          -0.34101865656276337,
          0.41519302173217143,
          0.3748010371436198,
          -0.3595083683776252,
          -0.25280355744543764,
          0.03793739054523043,
          0.18437585887736802,
          -0.3659395788244402,
          0.36263839398606185,
          -0.2920460069356843,
          0.1359947253424059,
          -0.04835351922712569,
          0.11121961756672478,
          -0.46215869550608457
        ],
        [
          0.1804189814674508,
          0.10172050608924486,
          0.06601153015777757,
          -0.16439707300117226,
          0.4193907199860076,
          0.37381931432050547,
          0.20600723749194116,
          0.3709607789463156,
          0.2748120333243068,
          -0.2082595283184328,
          -0.4031327861656199,
          -0.3969661042984909,
          -0.15336809182412114,
          0.2942243389190131,
          0.023794194594679158,
          -0.32221701328774915,
          0.3024948478551634
        ]
      ]
    },
    {
      "activation": 2,
      "biases": [
        0.3962468279567852,
        0.3400918189591605,
        0.0,
        -0.2670223695461163,
        -0.09405603956563342,
        -0.14003264663855447,
        0.826729521272759,
        0.0013230107937316955,
        0.5341070046036166,
        -0.07365373163233524,
        -0.1323588163841286,
        -0.0580879206316209,
        -0.028703271352578788,
        0.0,
        0.4453812517919848,
        -0.2984936338633544,
        -0.0745044516194356,
        -0.07025827376875202,
        0.33847090097430144,
        0.0005232431309314051,
        -0.005627825952981349,
        0.08228961919473586,
        0.35403057181559805,
        -0.18027183889077356
      ],
      "cols": 24,
      "rows": 17,
      "weights": [
        [
          0.401417945864728,
          0.20924917778097046,
          -0.0582884498535225,
          0.32208590518441504,
          -0.3537601210128562,
          -0.29457301506773514,
          0.2285839540301565,
          0.04336794795121165,
          -0.20923431403623663,
          0.10221196443604831,
          -0.3527794895432774,
          -0.04217054559383409,
          -0.20539285249098804,
          -0.041437415013447845,
          0.06996203451525321,
          -0.026223416321738642,
          0.23848150096502183,
          0.31705266057635656,
          0.2501636730943753,
          -0.05730081490167101,
          0.014797808366892535,
          0.33441633505799007,
          -0.22058236565120012,
          0.37117366258459933
        ],
        [
          0.43941920349320623,
          -0.025671962091529707,
          -0.3361454228651844,
          0.3371713749138964,
          -0.24092541483603644,
          -0.43932326367872493,
          0.5608054785571809,
          -0.3293737628989871,
          0.23228396233803744,
          -0.012912976645760878,
          -0.14091105983293603,
          -0.04092979234638093,
          -0.23558340088600271,
          -0.20486346585281176,
          0.09815278289300526,
          0.2526925872532347,
          0.03554090500854074,
          -0.06466320253334583,
          0.25556499208599154,
          -0.046087806340791744,
          0.051553348990416956,
          -0.047051505981212084,
          0.34720067514379244,
          0.31994672285137354
        ],
        [
          0.32674491647249676,
          0.2769816983595282,
          -0.15638298352695051,
          -0.10841305703524157,
          -0.04143698701694446,
          -0.30570290665018157,
          0.050382071258236585,
          0.11027580256328229,
          0.02473658113338136,
          0.22532738990622145,
          0.3481245551076195,
          0.23498424032695867,
          -0.01709291797912154,
          -0.2260200461809136,
          0.013582004175938167,
          0.3550369456542567,
          0.06345373843378059,
          -0.34403696164291087,
          0.029543802244843972,
          0.15254047721367417,
          -0.045205571820399845,
          0.041063740814416654,
          0.34854939594996887,
          0.011984783094071546
        ],
        [
          0.07700601807227661,
          0.3279104337002293,
          -0.2375928903770754,
          0.14671339454059168,
          0.07804357126041347,
          -0.1885806572807231,
          -0.04101963568962599,
          -0.0919258658233995,
          0.13250369502290366,
          0.1515402381712012,
          -0.31887795152596227,
          0.25769082991355874,
          0.1013185686822143,
          -0.03685973124526369,
          0.10830619822844269,
          0.14362488029911105,
          -0.2589486517150281,
          -0.2961729048561396,
          0.3107621801639772,
          0.14353581260643203,
          -0.31551536202365554,
          -0.21079577101852812,
          0.007978510193248765,
          0.15731225554170894
        ],
        [
          0.46370892693378507,
          0.25534684791404166,
          -0.2082699944310314,
          0.5021521554758506,
          0.22162529181210047,
          0.33367242520521645,
          0.024383163570808435,
          -0.2771280963250495,
          -0.42134247038960565,
          0.5371286934141353,
          0.21138100268499724,
          -0.14081581961613032,
          -0.2561440888643502,
          0.22306205841808802,
          0.23818895837164214,
          0.07300558261804184,
          0.3088780331041839,
          0.1303023830614302,
          0.16004592177139085,
          0.06782268119290767,
          -0.36536408558105615,
          0.34701037519458716,
          0.05552754033341101,
          0.42267798690482555
        ],
        [
          0.10731482303429886,
          0.0009485547084040667,
          -0.09764168461769122,
          0.6895917753164125,
          0.1282595465363009,
          -0.039085799890334186,
          0.2881006340406225,
          0.3047810889572953,
          0.20102198802525784,
          0.36048371781264776,
          0.2622168885412927,
          0.4735742636035238,
          -0.35410466485398034,
          0.05294302037699483,
          -0.012349409995209336,
          0.52326547601613,
          0.10324776292088399,
          0.22326230683566275,
          0.3305308152597452,
          -0.010048395607946346,
          -0.045347505187634835,
          0.4824807180797987,
          -0.11190276688743632,
          -0.27403357936165595
        ],
        [
          -0.2733647380810103,
          0.29368367170179777,
          0.058666055496127745,
          -0.21506043014576398,
          -0.11212071176542494,
          -0.08016856094143625,
          0.4707161653969934,
          0.2817263224447343,
          0.46724249565982695,
          0.0685725277308113,
          -0.23182027473276806,
          -0.13148445255311042,
          -0.16671163936674085,
          0.011282724957892306,
          0.49354522556270025,
          0.02738710222706822,
          -0.3150543613412218,
          -0.07288173672763738,
          0.10748718747412608,
          -0.25892782155688415,
          -0.12394704829453507,
          -0.23655040408322586,
          0.22884800644591305,
          -0.09456006649012008
        ],
        [
          -0.1608832029485843,
          -0.06861907289191609,
          -0.20326504295316838,
          0.1776889960111587,
          0.0436411887522322,
          0.3459660760857975,
          0.23264056078499262,
          -0.18845452356286957,
          0.09919314839857263,
          -0.1511062948962885,
          0.18715306591402714,
          -0.13122111374471374,
          -0.2061413224386876,
          -0.11407144035357972,
          -0.4022620561733732,
          -0.2726825993690337,
          -0.10490840717330208,
          -0.06346687291223627,
          -0.12774525051682345,
          0.10353623680361874,
          -0.19798686192864684,
          -0.24100350896110442,
          -0.0159638367643589,
          0.12850138156502194
        ],
        [
          -0.25484015226411233,
          -0.11130859491044641,
          -0.1395483205345887,
          -0.032065679784360396,
          0.20246745477163544,
          -0.33150445034215775,
          -0.1663901623170015,
          -0.14165779319191316,
          0.061130729185750514,
          0.08482860904630558,
          0.08332010274826677,
          0.35980630535295094,
          -0.31825486101991673,
          0.12199350145654327,
          -0.0007723763281681513,
          -0.18940239752802976,
          -0.27490744338008105,
          0.0046082055226627115,
          -0.026202966411758156,
          0.19511576965792615,
          -0.17983829981750346,
          0.1945348967780793,
          0.1692222613349612,
          0.062301977058013464
        ],
        [
          0.19593599772290193,
          -0.12445193194501555,
          -0.3814725778742578,
          0.20095772880040053,
          -0.2313046279308949,
          0.1285653799509156,
          0.036002621168374875,
          0.1227464169384398,
          -0.1693140456903592,
          -0.08910087666256855,
          -0.07207125954677539,
          0.2953679693518519,
          0.30115079210219226,
          -0.10193023157247631,
          -0.07360904848665951,
          0.18972570739023664,
          -0.3153146558972601,
          0.0054582711231314805,
          0.19687504671175587,
          0.11051918070795679,
          0.33636569957079415,
          0.31469283413355104,
          0.2179141453383645,
          -0.3641591354099079
        ],
        [
          0.22054763333400498,
          -0.25726351983362117,
          0.06181023227787632,
          0.49444433817268285,
          0.29939179791094844,
          0.34957721109365775,
          -0.3215672283084561,
          -0.16771728873556452,
          -0.04091134505909075,
          0.007630044877462239,
          0.19217702653963042,
          0.3533783532700985,
          0.35839671815629126,
          -0.10028938003174045,
          0.15984089343393743,
          0.2748458775870332,
          -0.1780719206789,
          -0.24764707009663517,
          0.07938818211262186,
          -0.28224256280101884,
          -0.03879844937513705,
          0.17173385610340294,
          -0.17274739727062613,
          0.1051491852370923
        ],
        [
          0.3383968811029239,
          0.3369422298234558,
          -0.15043771374833795,
          -0.1617729802511096,
          -0.30803279362118113,
          -0.025712038412867143,
          -0.09653843498426182,
          0.05494751305436344,
          0.3407138873374953,
          -0.26290155563958517,
          0.19786598132603278,
          0.16331180999532635,
          -0.03287116037650009,
          -0.06581153922071645,
          -0.07227780993839888,
          0.14653139769299645,
          0.2513445110258413,
          0.12380010614633022,
          0.27851030994561976,
          -0.27853763989284164,
          -0.22710721197155243,
          0.29302826346081945,
          -0.050361037317865044,
          -0.07267599292798738
        ],
        [
          0.06554623863660354,
          -0.3569244615357777,
          0.2225890408834032,
          -0.17773789616429983,
          0.36206558075245493,
          -0.23887433619138296,
          0.11415167917600218,
          0.03673858096935611,
          -0.37703552568326576,
          0.26670091479063235,
          0.19702258886536106,
          0.48011100099853093,
          -0.07416623427435443,
          0.2285728249233981,
          -0.1334112805310864,
          0.2196232468823424,
          0.4039426405174427,
          0.21409246566054732,
          0.19301996460764817,
          0.21301047703805534,
          0.05335416171157578,
          0.24473209789429193,
          -0.2838389677063965,
          -0.2702129023257054
        ],
        [
          -0.30244718118466113,
          -0.07787357833906593,
          -0.2461421283108197,
          0.48554378579931906,
          0.1623154266391121,
          -0.04082295402231685,
          -0.35715414562345266,
          0.07171895455693492,
          -0.1370351757668369,
          0.30274930953050555,
          0.10418050589192175,
          0.12304357785346538,
          0.33154857985582653,
          0.09625693832573744,
          0.07414728774661246,
          0.14913184590355383,
          0.023080130185634217,
          -0.0743420799531332,
          -0.2607807785374035,
          -0.1689055512725712,
          0.035506634175770324,
          0.17316963347357717,
          -0.2115629156356456,
          0.25881581662458286
        ],
        [
          0.2059392975864501,
          0.10405480197548908,
          -0.05800547978249194,
          0.35735896660121114,
          0.19642122189681943,
          0.24774281511276347,
          -0.21028951815709993,
          0.3605255115280823,
          -0.39693561060117205,
          -0.059636499325213414,
          -0.012960495111466262,
          -0.13004033749894528,
          0.33288900953620376,
          -0.3793353140829304,
          0.11983817477914344,
          0.19840238444683148,
          -0.013588979284615313,
          -0.08140672739447882,
          -0.08126105292607269,
          -0.30485153057231057,
          -0.011802835113353331,
          -0.19532729143528785,
          0.14034900614599732,
          0.4090530684265616
        ],
        [
          0.2262019288105933,
          0.1353691019182975,
          -0.17081977311015983,
          0.5988728594324528,
          0.01506795717260985,
          0.3353867759822225,
          0.1353068029913174,
          -0.14788516218192652,
          0.16032155251467878,
          -0.19774761289483145,
          -0.27825099383249047,
          -0.09263816376040812,
          0.04566861191068199,
          0.02347615634552294,
          0.09311918912600725,
          0.0919235502643036,
          0.15343414402029104,
          -0.31001206080710475,
          -0.01242192840556589,
          -0.002074183574960356,
          -0.21141108472941958,
          0.25402062933307273,
          0.1928767645685007,
          0.31498678973946664
        ],
        [
          0.016290892974305814,
          -0.009693753568524215,
          -0.34253376608219716,
          0.5066293260615533,
          -0.2029864850733681,
          -0.2574963200910053,
          0.03971828593777717,
          -0.20916342966768664,
          -0.3791631495208556,
          0.3547920120789735,
          0.252475240686278,
          0.035660876091644325,
          0.22430246743313828,
          -0.22374102961434644,
          0.13206582403543352,
          -0.0015704454349722277,
          -0.17295107695226802,
          -0.07043468949982444,
          -0.47990941468173226,
          0.07948732298419303,
          -0.035489493489301235,
          0.40242490602222125,
          -0.07637362733608467,
          -0.02917475148105188
        ]
      ]
    },
    {
      "activation": 1,
      "biases": [
        0.5510642616602623,
        0.24385918357884728,
        0.1712865504061479,
        -0.22597083709649868,
        0.196951291743936,
        -0.013676534908197056,
        -0.04784320635275701,
        -0.05297550813756525,
        0.4386859797500178,
        0.3807514843781461,
        -0.5637220633553993,
        0.05602829713123317,
        0.06784726954473747,
        -0.011955622398649625,
        0.36972425487915006,
        0.5114102173721689,
        0.11170434627826756,
        0.37776489442038713,
        -0.2550504644479221,
        -0.27466214821126783,
        -0.03273039382975783,
        -0.5561673532105434,
        -0.5353644260957497,
        0.09519660465466623,
        -0.45710431390850764,
        -0.37208637021997343,
        -0.11189181605790027,
        0.18817828201956674,
        0.320232311337475,
        0.42024815588398157,
        -0.4880706795589193,
        0.005186580020757259,
        0.1182279745717412,
        -0.22405218446550448,
        0.24355494399436428
      ],
      "cols": 35,
      "rows": 24,
      "weights": [
        [
          -0.05409905357951631,
          0.4526278595884482,
          0.1020719568691511,
          -0.07840335315546562,
          -0.18844218253018624,
          -0.21500472383806774,
          0.044289614982275106,
          -0.114732219537917,
          0.008041377870209492,
          0.3564464240584692,
          -0.23905614305284995,
          -0.5385487206402658,
          0.2653647888801929,
          0.0053905518660903266,
          0.20917342256203772,
          0.20967690379919948,
          0.20289012893044478,
          0.4092709233150096,
          0.28732505139341974,
          -0.07264129153070238,
          0.18962431512904523,
          -0.19283996496444067,
          -0.08012111439238097,
          -0.17234517863063126,
          -0.284473598526764,
          -0.2414708615802084,
          0.2617418718417446,
          -0.05473429779936377,
          0.0560441350442431,
          0.028229534303930288,
          -0.16446024200366155,
          -0.23473487868245344,
          -0.18919318520604406,
          -0.3691855232002789,
          0.27838121360097084
        ],
        [
          0.3412793313098101,
          -0.16693004132456465,
          -0.1763249100502191,
          0.16727099001200452,
          -0.032104685479954154,
          0.04886709435442593,
          -0.3474887427705583,
          -0.3258333225648721,
          0.05809345350364931,
          -0.20619444906854925,
          -0.12909999725515017,
          0.12498872890123426,
          -0.0704422083596231,
          -0.298881273474646,
          0.006792933485794189,
          0.11836465616579704,
          -0.2388303437010834,
          0.07882082395738113,
          0.049870583000680764,
          -0.050559261442725545,
          -9.004337009122575e-05,
          0.26110654746343076,
          -0.36220504753498023,
          -0.2006080455481471,
          0.08041543640965047,
          -0.20410833944180706,
          0.05424330461052866,
          -0.217064068831895,
          -0.051189011153969635,
          -0.08779460336487668,
          0.10056872553556813,
          0.38196520983740406,
          0.1053400934942948,
          -0.06542611598255513,
          0.31816912525203295
        ],
        [
          0.19349285942204136,
          0.09968180672269382,
          0.05407801708306435,
          -0.09634386303903174,
          -0.11011303988655771,
          -0.10070145644189955,
          -0.30353151933053407,
          -0.2568952913489847,
          -0.11503070932832027,
          -0.07396227257132271,
          0.24438680956313874,
          -0.037610971870649004,
          0.1011143757059325,
          -0.12492303301975988,
          0.11939686273313578,
          0.29330769618402547,
          -0.06978640175508151,
          -0.31353320208092816,
          0.2775454291182339,
          -0.12317300266389132,
          -0.14023426205356387,
          0.06055605026061884,
          -0.0596020181151528,
          -0.1873208728952079,
          0.27040809343551814,
          0.21119238928932926,
          0.29899652670334464,
          0.18212198888664816,
          -0.0852287141717061,
          0.19941007555713225,
          0.07655561250773713,
          -0.17639345928675337,
          0.02832661354133164,
          -0.023934255636764143,
          -0.22052144602309937
        ],
        [
          0.012803492450604866,
          0.010804520709070646,
          -0.06465313800116176,
          0.0183141308428749,
          0.22710715971909412,
          0.15659560865753933,
          -0.21893524330423753,
          0.35482694751919613,
          -0.11035448651421678,
          -0.04515692461924749,
          0.4781152623537174,
          -0.7362350699029134,
          -0.19629472751671545,
          0.1160261833199071,
          0.09969995629182753,
          -0.06385486538556275,
          0.00042616277912604553,
          -0.06214336944752236,
          0.3949644866272592,
          0.14264088500136574,
          -0.32525391760622135,
          -0.1796683733978435,
          0.5679547267645915,
          -0.12661288500243864,
          -0.17977789789730228,
          0.14728666750919062,
          0.024522886368612596,
          0.19762962953619462,
          0.07154235859619727,
          -0.1639755446037404,
          0.24932049877737586,
          -0.8067916688901285,
          0.32445728728724466,
          0.10862418382600152,
          -0.19977319381423841
        ],
        [
          0.28548079164859835,
          -0.26461713393369113,
          -0.07622306448836638,
          0.03465564979539198,
          0.19298787994052952,
          -0.17008361433973967,
          0.40434677494593724,
          -0.029104518959904693,
          0.030389015208114805,
          -0.1731413214142522,
          -0.1314505947727004,
          0.19206615942864821,
          0.10749861738337539,
          0.18588863078721246,
          0.3288397227248175,
          0.2772795344765672,
          0.019053886975877527,
          -0.008332653396740499,
          -0.05995052016353616,
          -0.041877248271955936,
          0.20988730982631087,
          0.21603581223758878,
          -0.24196342731943268,
          -0.2765145537200974,
          -0.19351889038571765,
          -0.08889633336820907,
          0.03185338534999416,
          -0.1540946103287049,
          -0.035409857883222956,
          0.009176258405676952,
          -0.3187477860372316,
          0.2841743799717546,
          -0.18192446235170898,
          -0.19131288166095148,
          0.27125268544656106
        ],
        [
          -0.32961772480084084,
          -0.008706093063945227,
          -0.2901834957212838,
          0.1441318497853997,
          -0.2330759138883316,
          0.0030516905922745715,
          0.07153268018771572,
          -0.05833806351211857,
          -0.26282184933499175,
          0.2221265401179289,
          -0.22017437638631224,
          0.024465663247794103,
          -0.1768419112062796,
          -0.12810785851008796,
          -0.21065235385543848,
          -0.10317133618468893,
          0.22143638899807763,
          -0.17556682447771282,
          0.053655572706688304,
          -0.2694256042648054,
          0.08502350493836582,
          0.14150376247137034,
          -0.113359941201188,
          0.021645481568244,
          0.0373424475153915,
          0.23153038663101225,
          -0.10303105541528984,
          -0.18217392959035097,
          -0.0264824927443631,
          0.1184645409563975,
          -0.014280576045225995,
          0.15830360240253616,
          0.12288501312452613,
          -0.2302958591948151,
          -0.09100447717406718
        ],
        [
          0.43485101502043083,
          -0.025376956420114408,
          0.1166889133106605,
          -0.09195766930621768,
          0.14764206166308025,
          0.005146863212530085,
          0.3448015982706378,
          0.13527795750191932,
          -0.09439510259903552,
          0.340554103831252,
          -0.5504378584230987,
          0.14094417261966097,
          0.1806933639214864,
          0.24014038657160072,
          0.06410370966012607,
          0.14989985939529543,
          0.029692405774631673,
          0.2685412768886595,
          -0.27547327736166843,
          -0.19823731293205207,
          -0.04583106615678348,
          -0.5031755948782497,
          -0.19091387764428241,
          -0.007715126169969875,
          -0.24741466186981026,
          -0.409465989606789,
          -0.18799543329001034,
          -0.004966272391366495,
          0.3282750974325268,
          0.3911886833660671,
          -0.7144901545939997,
          -0.1423709638831823,
          0.047654522664405,
          -0.10871070237421589,
          -0.05492262425545472
        ],
        [
          0.25215972000754294,
          -0.10176456535661546,
          -0.1532230736785246,
          -0.0033334828072635676,
          0.0483958004507412,
          -0.2314053705690308,
          0.15517130024204193,
          -0.1290255633284233,
          -0.29893381350683884,
          0.14879085859600719,
          -0.24131139405266527,
          -0.2780967447027367,
          0.23564959404015973,
          -0.09183862381083975,
          0.15599424382541674,
          -0.253191841653445,
          0.19005807300745445,
          0.015241467295836645,
          0.2057303220019573,
          -0.2374135358307344,
          0.14639821841883663,
          0.19535436288262784,
          -0.21693918248792016,
          0.1995025398915904,
          -0.30475374362892155,
          -0.2353166085710826,
          -0.22263496187807286,
          0.3210875039543203,
          -0.0939845502742459,
          -0.28374013475013327,
          0.061710631177418054,
          0.027382009213749572,
          -0.29040281951195895,
          0.2312885750004212,
          -0.041611328580731674
        ],
        [
          0.30851996988249414,
          0.2222749860481232,
          -0.02579718742826644,
          -0.021479834766001536,
          0.06379851653605811,
          0.23236494494274815,
          0.12239600888876387,
          0.030827857693308074,
          -0.13136076195094903,
          -0.0025801120110265897,
          -0.1823539893284448,
          0.5440633249875347,
          0.21211558608577394,
          -0.12234219777801907,
          0.022279861356506517,
          0.31374030784539814,
          -0.019367347363694776,
          0.2347210344708178,
          -0.26268078857067195,
          -0.2921418043932625,
          -0.20396317601117242,
          -0.3467019174256396,
          -0.23631749722826625,
          -0.23195081628497977,
          -0.11543083632038018,
          -0.18620352793077147,
          0.21431589563088455,
          0.20147634178791013,
          -0.11935438800527812,
          0.24406333436512975,
          -0.28074378037144043,
          0.3166283913169889,
          -0.09019126701328273,
          -0.09392390858441026,
          -0.07727066608575657
        ],
        [
          -0.39125732603536145,
          -0.2572549072129904,
          0.03317672048922049,
          -0.12204726411491164,
          0.005104653075916824,
          0.04609976498726034,
          0.032948767237141574,
          -0.15541628723111092,
          0.10355308297941283,
          -0.3105148581357081,
          0.17815601319470428,
          -0.23825441172579614,
          0.06956197352282599,
          0.08948892401003034,
          0.22580910626177098,
          -0.24110964909175048,
          0.07532842531750733,
          0.07689002504774542,
          0.061208236858121746,
          0.06820323460955342,
          0.24165185058799976,
          0.2735702982957653,
          0.14582800981389804,
          0.2637918210318504,
          0.014984847176882405,
          0.22185097350622648,
          -0.026436652576647745,
          -0.060341558581542845,
          -0.2493223605601058,
          0.17435730253306436,
          0.1577223325149282,
          -0.39246606559221414,
          -0.16596565359532342,
          -0.16782877268721524,
          -0.03937829881099439
        ],
        [
          -0.32239395989804787,
          0.09159021846166325,
          -0.17245966929939663,
          0.21218890990259126,
          0.19259585017342257,
          0.07576064385597758,
          0.40295715947664784,
          0.374084316383373,
          0.09773539031906954,
          0.18323994862548634,
          -0.05964795086670355,
          0.2552695813728823,
          -0.33851953483163044,
          -0.256608231605039,
          0.17401697768483593,
          0.011640072515614336,
          -0.2609943866489625,
          0.09672513977174037,
          0.09716564407236095,
          0.1251022350108034,
          0.10307669614245668,
          0.14618915230558982,
          -0.30005528391411446,
          0.0994107691233058,
          0.3625510296184176,
          0.24394821828888846,
          -0.0281713378510115,
          -0.24161995814439063,
          0.07709003972390553,
          -0.20753535218252622,
          0.14594829344881485,
          0.2873102817075466,
          -0.07815714020888366,
          0.1422297167871171,
          0.2673838873985896
        ],
        [
          -0.14177730934727503,
          0.13195442254541495,
          -0.12760553857104456,
          0.054268802864458184,
          0.12819048800928853,
          0.031038543795781953,
          0.6459156658540419,
          0.3492823448677784,
          0.06989290589963588,
          0.0749712715859186,
          -0.23581626154371552,
          -0.26508340613301734,
          -0.17767552312918766,
          -0.09392053370237033,
          -0.23162614229795167,
          0.21412652526958348,
          0.06963046234781993,
          -0.22098096036104764,
          -0.2677418796368683,
          0.09741857306363845,
          0.11098566482465488,
          0.1279533531154672,
          0.17218885570172127,
          -0.04876439650852106,
          -0.09514455447176069,
          0.21953440684026235,
          0.06230566709118602,
          0.1507670961389249,
          -0.06498047814106758,
          -0.08696912773909835,
          -0.03180479812994401,
          0.2719392292533564,
          -0.1762113285213668,
          -0.114978295512281,
          0.253514529443459
        ],
        [
          0.31474522969318564,
          -0.18106832369185633,
          0.000992675222754232,
          0.03181183025871014,
          -0.25086558686135085,
          -0.1737455492883762,
          -0.023375850903033124,
          0.07574931423145173,
          -0.07539251452600644,
          0.153348393340464,
          -0.06817892652479872,
          0.038645185191067764,
          0.23829984638470153,
          -0.023520491710653048,
          0.09994843891034615,
          0.230399330253465,
          0.017267692011601676,
          0.22492947573996216,
          -0.1408966582644489,
          0.11686420444892141,
          0.2595545370838364,
          0.167889202741372,
          0.07200301247578916,
          0.09539556874834987,
          0.16872490266728676,
          0.1843840937759591,
          0.2900724489358946,
          0.0745737563814916,
          -0.16184019811918482,
          0.160421358589563,
          0.2708201099366175,
          0.2601964732158973,
          -0.05894498078374335,
          -0.04006483199200822,
          -0.28636012066647204
        ],
        [
          -0.21984572026529403,
          -0.13118975930307492,
          -0.03333274395943636,
          -0.1414706777397937,
          -0.2981842264144288,
          0.22559999402204237,
          0.13566628511521228,
          -0.3120645909217,
          0.13123393232263256,
          -0.21466000681555647,
          0.23417667137151688,
          0.052061072489792255,
          0.013814577200649982,
          -0.2390266772381027,
          -0.30895832653299915,
          0.005362003544669347,
          -0.2093577226641161,
          0.16851039662011774,
          -0.15084924242182124,
          0.03713954896413208,
          0.3063478897583319,
          0.240913541402082,
          0.18639299891820862,
          0.05605371346765876,
          0.0023300200860614643,
          0.30609296641394884,
          -0.26378540893645114,
          -0.06964799001031306,
          0.08445139192419575,
          0.22027245159825282,
          0.2637529446642666,
          0.016837340436495124,
          0.26536683261735833,
          0.2937514919827365,
          0.11997249658002548
        ],
        [
          0.014445507645205257,
          0.06409593780624596,
          -0.20274972199127714,
          -0.11332047911928622,
          0.2457440219151023,
          -0.0787984182249421,
          -0.2317442016513948,
          -0.33327329396916655,
          0.3374307802298511,
          0.28523242930479586,
          -0.10386082394601213,
          -0.09845852080914574,
          0.06720945147838431,
          0.1609170585348196,
          0.26537562281310695,
          0.2913459818572034,
          0.03809744701853217,
          -0.16386798105784145,
          -0.10163796512129981,
          -0.21767364957880572,
          0.0005343706573288911,
          -0.4989916636914652,
          -0.2974726207421624,
          0.12903820915783265,
          0.0801207370504969,
          0.019226363078811568,
          -0.20390003387958136,
          -0.20781252229441105,
          0.37793307883420063,
          -0.19049332567674085,
          -0.007848392521151947,
          -0.21817589278976546,
          -0.07417841245578803,
          -0.1354007397459891,
          0.4212198102884991
        ],
        [
          -0.21944926054832872,
          -0.20960169966697756,
          0.08151847101001167,
          0.053846526976128614,
          -0.2187385654263441,
          0.13184478966202673,
          0.32949826706340685,
          -0.04535040213634048,
          0.2690726385074752,
          -0.2749738315680551,
          0.02854224676560203,
          -0.3168921310383746,
          0.15363255327105785,
          -0.0315735724727377,
          -0.3091579001162891,
          -0.3221433907438043,
          -0.1825876018647416,
          0.2569295092163677,
          0.0035435453554897847,
          -0.10830552161305529,
          -0.05720207209673752,
          -0.1533837973732384,
          0.029763172435473446,
          -0.037683753356628505,
          0.2094440583740742,
          -0.19737721733331592,
          0.14679073381932878,
          0.007448799882865419,
          -0.1121457069276855,
          0.09580879929972913,
          0.3093936417116417,
          -0.32615883102835125,
          0.3128538087224385,
          0.2406881758450289,
          -0.2183320041151966
        ],
        [
          -0.3071200795693859,
          -0.17294387681547108,
          0.30043941769533744,
          -0.17971569366027074,
          0.018970147830117377,
          -0.09894929188221693,
          0.21304236253183798,
          -0.10901175785159792,
          -0.13328608759184343,
          -0.11988390011753405,
          0.23342640445690277,
          -0.18471004318074916,
          -0.2930598915161748,
          -0.06232948929205447,
          -0.24731362634739773,
          0.190525879819655,
          0.033678343619404506,
          0.17703711391249324,
          -0.24780875510894051,
          0.15684552103670127,
          -0.17963814065147046,
          -0.24220983757869424,
          -0.25975852008639166,
          0.002739729516539078,
          0.22285637009634188,
          -0.19651240965333328,
          0.2898509285163108,
          -0.16940026752935558,
          0.015590025739864366,
          0.2023073371047425,
          -0.004849045971700614,
          -0.2570428750190961,
          0.1332299736004497,
          -0.27407343441752735,
          0.06055186198404555
        ],
        [
          0.1406550372440993,
          -0.13814685431944154,
          -0.029483521253239414,
          -0.17568613337433855,
          -0.09245468379312069,
          -0.11345406031975523,
          -0.22505381670100869,
          -0.044375504553274395,
          -0.2377488424437336,
          0.23961774704349229,
          -0.156970743570061,
          -0.27694873426882394,
          0.04159312754943976,
          0.27655357173123996,
          0.09395109260168184,
          -0.31068060044339246,
          -0.18644629289664724,
          -0.052890823101580456,
          -0.06616394820901578,
          0.2492475715059835,
          0.25393123798085215,
          -0.26999581936832673,
          0.0703666456683004,
          0.3006447588206012,
          0.23006663224674617,
          0.117956963430094,
          0.07728979203555,
          0.2229933568704291,
          -0.2691341222863083,
          0.08412527079819343,
          0.18577971435928095,
          0.2694409461741611,
          0.02618536206329992,
          -0.15337931494336987,
          0.21598846887161133
        ],
        [
          0.01701931167098085,
          -0.12468411721983283,
          -0.110595046017356,
          -0.25797006158365915,
          -0.19998732833674196,
          -0.0809555342706678,
          0.54901948125542,
          0.24366108004075906,
          0.36332836655954265,
          0.24262955218275,
          0.014386884274245696,
          -0.05726630038463175,
          -0.019785681991796714,
          -0.08102854842496363,
          0.3991309990868186,
          0.002648752499963785,
          0.2755563017716401,
          -0.10538886212117009,
          -0.06303454124646345,
          0.05912530338514425,
          -0.13233024284185513,
          -0.13276205088003987,
          -0.3376391037295092,
          0.1317159650243105,
          -0.20379770271181177,
          -0.14964133502315785,
          -0.13594552991099118,
          0.215883822704921,
          0.2319774595007951,
          -0.055876289690109174,
          -0.2792571600395736,
          0.17708742170610436,
          -0.12384936742236852,
          -0.17890129675226735,
          -0.04988861016292104
        ],
        [
          -0.04768420892038504,
          0.2614380020650468,
          -0.005531727330355205,
          0.021632932198905684,
          0.10991996439144651,
          0.07248792535212038,
          -0.059154081673209624,
          0.3179841556278427,
          0.029741285035079112,
          0.12085371790636325,
          -0.20028915666610342,
          -0.020091068470296004,
          -0.22977418376640865,
          -0.19684511213856976,
          -0.16519983610582498,
          0.14733311663685017,
          -0.04030636260916283,
          0.17018685898823896,
          -0.07610265626827294,
          0.1319195223795621,
          -0.14324921006109292,
          -0.282565164998119,
          -0.30877786368809873,
          0.19690546963991865,
          0.2726733983390102,
          0.08181781527402075,
          -0.05016925418647966,
          -0.18930023460280665,
          0.1100581541537047,
          -0.14933291254404377,
          -0.08321815988494734,
          -0.09288083166878326,
          0.02274517671827349,
          -0.25262480235189655,
          -0.2860654474786541
        ],
        [
          0.15474074926112513,
          0.1502397915184769,
          0.020607503851736955,
          -0.0032598257831715043,
          -0.05165018543167068,
          0.14074162987917593,
          -0.241280290542071,
          -0.09400018740645026,
          -0.09480590649131916,
          -0.18127300895270448,
          -0.278541340677029,
          0.24346431576615032,
          -0.16775076282211346,
          -0.21855414939391218,
          -0.12755287708597682,
          -0.22584384182015313,
          0.1280688336867512,
          -0.11673832235373287,
          0.15024637344260017,
          -0.11035957254628587,
          0.160371510420092,
          0.044213224203906755,
          -0.2215871871568953,
          -0.0010962195219505126,
          -0.042498526022264206,
          -0.04559365975102573,
          0.24068555280800855,
          -0.1333188416551389,
          0.054196436195286,
          -0.14080734845265666,
          0.1420194086311665,
          -0.032298520864873365,
          0.012387984954077938,
          -0.09038216161567075,
          -0.07640008523979913
        ],
        [
          -0.3798182632166234,
          0.034809607106629226,
          -0.0012728802788517053,
          0.14135187825508383,
          -0.1584912574879429,
          -0.08460276428431042,
          0.0032233652422823393,
          0.08048178431390914,
          -0.3624708575088545,
          -0.07784239810776891,
          0.14792401214366593,
          -0.28180542223125926,
          0.22715742833528318,
          -0.1794570540712067,
          -0.3198647620829036,
          0.10754527133551127,
          -0.1510126363064724,
          -0.3342525723228239,
          0.19946002755115735,
          -0.08725757081682639,
          0.0020121096528736247,
          0.2800252435658934,
          -0.019731755470036094,
          0.08408752502482454,
          0.2704494632340647,
          -0.16395931647833417,
          -0.274100329762529,
          -0.13839093295907728,
          -0.05644125034579224,
          0.11824099355944472,
          0.3283854584791164,
          -0.16674508747423805,
          0.14975701949902911,
          0.2747774250674704,
          -0.28335846841782475
        ],
        [
          0.028732243247838733,
          -0.19243305249382228,
          -0.09126243320786823,
          0.0096286042635704,
          0.2961922301124066,
          -0.2719611272969531,
          0.020004537269899442,
          0.08387811913241797,
          0.3436132260325954,
          -0.08340330068222855,
          -0.14439241521738364,
          0.2319095013115908,
          -0.22870905511268874,
          -0.02135024632530651,
          -0.043526860969566906,
          -0.02737193731150984,
          0.32066510042439433,
          0.36322267878331205,
          -0.02580170738748665,
          0.21860379176042702,
          -0.17718607522905075,
          -0.43526408490871277,
          -0.028125337961150028,
          -0.01839682384938827,
          -0.4748993965274328,
          -0.29195855749610133,
          0.2611026836326855,
          0.33585067768410437,
          0.2921466201473282,
          0.3405177578742022,
          -0.04210748368479786,
          0.07523813173942114,
          -0.013125935534167996,
          -0.19172942907963422,
          -0.08006082365251231
        ],
        [
          0.4655180591121273,
          0.023257881574454672,
          0.07715043427131374,
          -0.07456289436867516,
          -0.10396521898005588,
          -0.02778600248931697,
          -0.48191719144263434,
          -0.2743836764579499,
          0.03586029998861775,
          0.18993048858798045,
          0.2609267921390505,
          -0.06252318213954888,
          -0.0019584560853425806,
          -0.2200156636173315,
          -0.1301088708539756,
          0.24323780504557277,
          0.05316328847512094,
          0.09639589351919381,
          0.5060902563241112,
          0.2953220914982708,
          0.06644463272536946,
          -0.11723001263511378,
          0.42279769715661075,
          -0.03438994343843109,
          -0.0013649784909384064,
          -0.22233159925596332,
          0.05042942906725269,
          0.14520649111866119,
          -0.07191345253677214,
          0.3153162176636769,
          0.2604314327102114,
          0.023650972184987042,
          0.26266786342844983,
          -0.1455493817970375,
          -0.25362629175291684
        ]
      ]
    }
  ]
}
