{
  "layers": [
    {
      "activation": 2,
      "biases": [
        0.5109942431590864,
        -0.4518200045914649,
        0.6782586542161421,
        -0.008245016630642097,
        -0.7696231214502591,
        -0.7788917362436583,
        0.0,
        0.7525835412698801,
        -0.36546930134512084,
        0.0
      ],
      "cols": 10,
      "rows": 4,
      "weights": [
        [
          -0.48599122827131147,
          0.029344549830928237,
          -0.24537866803206454,
          0.1490880039350463,
          0.9516681938368506,
          0.14756940298162455,
          -0.514269505043273,
          -0.28180817209708775,
          -0.3136870864025097,
          -0.470793142963506
        ],
        [
          0.7941536290715888,
          -0.19236508252813975,
          0.5106552645182582,
          -0.051664468754593317,
          0.5227989193750534,
          0.8059847272292552,
          -0.5898105755748464,
          -0.1202821184286215,
          0.7858896152325265,
          -0.47608961103406594
        ],
        [
          -1.3705425607888286,
          0.8346922577265222,
          0.9860304459264547,
          -0.43583476363927104,
          0.6632122568118227,
          1.711586532865907,
          -0.18046182625441204,
          -2.0968406214405566,
          1.02288185405542,
          -0.46092925665053636
        ],
        [
          0.5799523547956555,
          0.21268744007843945,
          -1.5299552966947763,
          0.018626915383737633,
          1.9678178347421906,
          1.7052597308155935,
          0.6431962028631338,
          -1.8168122307179475,
          0.49897024330544143,
          0.33352263263650045
        ]
      ]
    },
    {
      "activation": 2,
      "biases": [
        -0.1646653331326522,
        -0.07136650490073011,
        0.6066468824061508,
        0.16774626669347018,
        0.2941880216107911,
        -0.04329911130788189,
        0.11105223155741435,
        0.0,
        -0.33360294110091265,
        0.0014509926442415873,
        -0.04121604083517949,
        0.20255954781525057,
        0.14710697275942564,
        0.011479034256364266,
        0.08854361560346864,
        0.08997299794869289,
        -0.04993996061548181
      ],
      "cols": 17,
      "rows": 10,
      "weights": [
        [
          0.13220313675717593,
          -0.16697482638944627,
          0.7863408789464619,
          0.044778269839913676,
          0.33256182267755835,
          -0.3404008597906281,
          0.9389041175665022,
          -0.02259942181959966,
          -0.8200607792938294,
          0.12753188707653718,
          -0.06338754407180414,
          0.8781836433114213,
          -0.26873456069716334,
          0.4011631412177267,
          0.5904906651227727,
          -0.4283911532100061,
          0.03834962986620853
        ],
        [
          -0.4330877406660603,
          -0.3347036612324761,
          0.19069907924538967,
          0.38546429747702776,
          -0.45126608225426534,
          -0.42207262732240636,
          -0.4909990045138676,
          0.123561235560449,
          0.4637307940466364,
          0.09292427415543808,
          0.2715774301662044,
          0.34241299730206926,
          0.3502694527236873,
          0.36182767622057643,
          0.3336726618763031,
          0.07448886741326671,
          -0.09824736902098283
        ],
        [
          0.26749103187431433,
          0.22205287326259576,
          0.8886029817981114,
          0.6575874762049034,
          0.3857305174763287,
          0.15525303329922216,
          -0.5962564828562354,
          -0.31463254081974185,
          0.14532733751365953,
          -0.32495351701144026,
          -0.04492869304505835,
          -0.2816043522487255,
          0.6176710251622202,
          -0.02914304159343502,
          -0.42335661651859535,
          0.8934715421027659,
          -0.0223727357413389
        ],
        [
          -0.04948526396505407,
          -0.13139242953333852,
          0.4236818462186147,
          0.09778305649734385,
          0.04721152578052955,
          0.14494935058735123,
          0.06286140964549435,
          0.18680067639171719,
          0.04872415096533063,
          -0.29689079858903905,
          -0.19153139496494453,
          -0.23405837038663205,
          0.41407762909341356,
          -0.27196990775345303,
          0.15654321290901463,
          -0.26079557657379915,
          -0.25728179676698065
        ],
        [
          -0.1338555682484128,
          -0.26046662351819544,
          -1.003760397136666,
          0.0557706121422794,
          -0.9640578110222641,
          -0.06477526874620666,
          0.38828483479978154,
          0.004859647319887573,
          0.07823451179313395,
          0.38302052926608854,
          0.3867725968189137,
          0.020568640518898916,
          -0.36622115047341963,
          0.7035849070187681,
          0.3396808100647258,
          0.004164849818469381,
          -0.2601320635058418
        ],
        [
          -0.11754370798728299,
          -0.1556408904304159,
          -0.8168931235260669,
          -0.31360925785812355,
          -0.8728925717050157,
          -0.385793283198306,
          -0.1368352094641843,
          -0.34829411228861196,
          0.4310829561628784,
          -0.30421541691043535,
          0.250690699852405,
          0.23081862038407464,
          0.5160449425950798,
          0.5167320270377656,
          0.32559940230151974,
          0.6319073591777067,
          0.34553950388913235
        ],
        [
          -0.19443641611066514,
          0.266027759862379,
          0.43909071773223324,
          -0.26720805425757715,
          0.18643135014348933,
          -0.43124440006519593,
          -0.19883342735240084,
          0.12219394833018135,
          -0.18350852590593317,
          -0.22327079004029357,
          0.0008051283937856789,
          0.009472693648537915,
          0.2289177077830207,
          0.4328681113561013,
          -0.16076938399073235,
          -0.18553300587212948,
          -0.18870373436050478
        ],
        [
          -0.2208445470836623,
          0.2928043960502563,
          1.0030469934931496,
          -0.44926662755892705,
          0.9520200918210907,
          0.3676969700508687,
          0.5585147378079617,
          0.2755970196239196,
          -0.5076331291107774,
          -0.10960618877810056,
          0.202176761773774,
          -0.1958924644838803,
          -0.3392747062945826,
          -0.8739977824141666,
          -0.14673096747445066,
          -0.9562677644075221,
          0.05882195102342743
        ],
        [
          -0.5016724805214087,
          -0.3859028006379181,
          0.08050847287080531,
          0.1936599704668795,
          -0.5227162842126912,
          0.12559746846578332,
          -0.15842048494994027,
          -0.061712473460382784,
          0.33963890144328024,
          -0.3715922132945401,
          -0.28209157730694057,
          0.19427204878996782,
          -0.058719561401948325,
          0.443030326582067,
          0.300403842925512,
          0.585775632144362,
          -0.29035961246048264
        ],
        [
          -0.353804960686977,
          0.1195123357751214,
          0.4435594277877941,
          0.4104648732382436,
          -0.0022625910016326723,
          0.3152316648570483,
          0.16497761598566243,
          -0.11159570838414185,
          0.21978922283661995,
          -0.4312060266766979,
          -0.3566882204485345,
          0.4481893227581742,
          0.3481484984391764,
          0.17885119465424873,
          -0.4339138124246953,
          -0.34403421923312527,
          0.26466802701568076
        ]
      ]
    },
    {
      "activation": 2,
      "biases": [
        0.0,
        0.32358801442155816,
        0.5345736014042235,
        -0.2243692147416023,
        0.0,
        -0.03190437578032781,
        -0.022590368431914157,
        0.0,
        -0.03058211323551954,
        0.15760285856733786,
        0.0,
        0.06475815317319727,
        0.01681402209916568,
        -0.17458713805834902,
        0.0,
        -0.008709892598867038,
        -0.0197143301579048,
        0.015440589767651974,
        0.18898648859065023,
        0.43269157144693793,
        -0.17654487235601074,
        0.05378307675727095,
        0.23030544529309638,
        -0.14626379065964884
      ],
      "cols": 24,
      "rows": 17,
      "weights": [
        [
          0.08315619490653794,
          -0.13875799918782372,
          -0.18831828422452898,
          -0.3399432486862879,
          0.27628279186877,
          -0.036267808414763264,
          -0.11738012511014427,
          0.009716571553311017,
          -0.16766516890824582,
          -0.24305014005710895,
          -0.28042455795685733,
          -0.17791761372913006,
          0.015796673608212332,
          0.05219205623117876,
          -0.004642392522751116,
          0.2753772966762808,
          -0.002191694760704707,
          -0.03305625890409908,
          -0.1493133727781466,
          0.1305153155839767,
          -0.34872423485750415,
          -0.21565534793473504,
          0.33461247118798093,
          0.08695161730491231
        ],
        [
          -0.2170179258798367,
          -0.21201596882287355,
          0.3458178812408024,
          0.2812911179716093,
          0.14119704073740505,
          0.22531234685068519,
          0.16255452663523384,
          0.3418102375091798,
          -0.11445278615803048,
          0.24712421611275584,
          -0.12848261670423033,
          0.37914255875978575,
          -0.07882268019108211,
          -0.3686987829580013,
          0.014698549074568093,
          0.3729036025512335,
          -0.11139517071582124,
          -0.02484817580513545,
          0.11979555000728427,
          0.07269103718330464,
          0.362023283809649,
          0.025890649962688566,
          0.13749853483228805,
          0.07000570248946937
        ],
        [
          -0.22645085489541078,
          0.5452237412145338,
          -0.06677430152998753,
          -0.014853262953799837,
          -0.21689303340362343,
          -0.38106207676360876,
          0.13823039960397582,
          -0.27158425434362204,
          -0.4436437177776087,
          0.0849915747672463,
          -0.3175578303101754,
          0.7655741440472847,
          -0.2862898957936515,
          -0.7572273512600528,
          -0.08621968708428182,
          -0.061421216756829676,
          -0.14630305627539905,
          0.6034296086081572,
          0.45238841280405534,
          -0.10458629319604437,
          -1.0841282901613147,
          1.0930256960949811,
          0.1661401214899971,
          -0.330010262332256
        ],
        [
          0.3734587609604548,
          0.5053215025015731,
          0.14865149755660878,
          0.03662375569101623,
          0.34243288146901735,
          0.07527389787327764,
          -0.02482133078562294,
          0.022641409795430865,
          0.31986161435902943,
          0.24834868808787516,
          0.08772637269932086,
          0.08099906036870576,
          -0.013490858303778826,
          0.1462342658192247,
          -0.009927375169466795,
          -0.1251611830738565,
          0.039625550447068746,
          -0.07451846529212304,
          -0.30866574141065894,
          0.04739315803690559,
          -0.21778505336372922,
          0.18059407943150788,
          0.5182356143031424,
          -0.08620035702228263
        ],
        [
          -0.09382930358873494,
          0.07334435182447172,
          -0.5254752301920246,
          -0.08784343879248638,
          0.2469960548583357,
          -0.3338585319361568,
          -0.02941368832658807,
          0.28342276083195583,
          0.24080198258559318,
          -0.0901116204222588,
          0.08475466982214909,
          0.2019656101985454,
          0.25523898950085605,
          -0.24174988259819533,
          -0.05932633585882334,
          0.15256669867456402,
          0.27283636695972535,
          0.3486946359343346,
          -0.21907210950404585,
          -0.6152888312955358,
          -0.33171253159278186,
          1.0112897612910128,
          -0.6079559877502166,
          -0.14964684138218853
        ],
        [
          -0.13437866762031636,
          0.020647876708295185,
          0.34696807043897154,
          -0.2733259293169945,
          -0.12680009396039818,
          0.024790076840729598,
          -0.2135947022361169,
          0.023202663868835665,
          0.1501642576704083,
          0.1458654490056927,
          -0.1296719678635165,
          -0.15648165039401388,
          -0.1695744069647692,
          -0.27876030386219214,
          -0.18277823340796054,
          0.008632530044509533,
          0.021207876444737754,
          -0.2591998417026658,
          -0.03481120949251093,
          -0.3259538798109632,
          -0.3105413194050018,
          0.03127216118199589,
          0.19225931197696924,
          0.16113526352245056
        ],
        [
          0.04948166091211165,
          -0.5158062106043435,
          0.25656076163728186,
          -0.15867654886046245,
          -0.347804134735891,
          -0.32834888128023715,
          -0.26955048073246674,
          -0.22977675124186717,
          -0.5357288967164626,
          -0.09603942210748787,
          0.3505027388188711,
          -0.2941856658229184,
          0.34999948555077387,
          0.44697657686012054,
          -0.10916534842889174,
          -0.19844556121714613,
          -0.1486301916547477,
          0.3882540298313331,
          0.3328638985489088,
          0.25069155402101895,
          0.1940569344170933,
          0.12243019447862122,
          -0.2800453700416618,
          -0.6910121172337657
        ],
        [
          -0.016789569958017128,
          0.11004152890376148,
          0.16996551558432846,
          0.09511471755224521,
          -0.2407871414346284,
          0.04934991408518904,
          -0.37125998223060774,
          0.3268389304162636,
          0.0953789515429465,
          0.2582018633415583,
          -0.309297376478816,
          0.02426173889924634,
          0.295329976138404,
          0.22371390578108044,
          -0.05126153332095901,
          0.29868304797782047,
          0.310047277503757,
          0.3011533831927879,
          0.04464249857442192,
          0.3124157786359964,
          -0.19347311504794648,
          0.18641615359362657,
          0.09812885975872192,
          0.23592558123498922
        ],
        [
          0.13666626005236118,
          0.38412449418358513,
          -0.4568935582022557,
          0.4423282793079043,
          -0.337603621403983,
          0.050630906940054315,
          0.3242847436799123,
          -0.17905624758038588,
          0.5002967143426579,
          0.10070628431548426,
          -0.3255802166765286,
          -0.007936448222699306,
          -0.2797955699575392,
          0.29262707963960244,
          -0.058935834175227075,
          0.19701007295275486,
          -0.05353202002237897,
          -0.30158281120274305,
          -0.36563014618450995,
          -0.3609806664561261,
          -0.059464582520574946,
          0.038672124612918336,
          -0.4557291223772053,
          0.0906214660003749
        ],
        [
          0.143481560664615,
          -0.3533821754003619,
          -0.02823956665883038,
          0.19122212707185654,
          -0.18138004348225933,
          -0.23839353297855775,
          -0.2621176075801851,
          -0.29129810981451004,
          -0.3234499183059207,
          -0.16480190981638873,
          -0.08831948762179453,
          0.33563455388478597,
          0.2855636183926935,
          -0.058588241801636035,
          0.2596471173861356,
          -0.1701208488024363,
          -0.17422360399452166,
          0.09839352769833543,
          -0.15147455162719212,
          0.37700572585314474,
          0.1075999997646126,
          -0.221825469115912,
          0.26326257381747625,
          0.3430383923189399
        ],
        [
          -0.07556940058607255,
          0.2304998181008199,
          -0.17775327588162326,
          -0.06778433776716476,
          -0.3276409931249203,
          0.10193947870543826,
          -0.01084404936734451,
          -0.02326738170838329,
          0.1730336837457115,
          -0.18447810375792695,
          -0.10704044804929652,
          0.2350488217005086,
          0.31949186712287103,
          0.23406622549724157,
          -0.19598366715655574,
          -0.07209376131294658,
          0.15511971434857735,
          0.13039193641148414,
          -0.23553729989544675,
          0.162788434823153,
          0.10958772935046764,
          -0.1818774528284199,
          -0.392230108127293,
          0.23559636033537965
        ],
        [
          -0.04210322795123393,
          -0.030755521657618846,
          0.34634589409150707,
          -0.4560118499116557,
          -0.2946467503210025,
          0.1557499179829154,
          -0.22706743579405422,
          -0.09284392235877277,
          -0.051295283366490474,
          0.20880614095273353,
          -0.2973874702367211,
          -0.02632181341915894,
          -0.1450909545074475,
          0.11131272210021444,
          -0.17619421502711136,
          0.22220212537637932,
          -0.13581490792380754,
          0.07091040306118494,
          0.03288250352629724,
          0.46899006632387974,
          0.15287101994691943,
          -0.340773566413982,
          0.026289623198926772,
          -0.5267800383071984
        ],
        [
          0.08119932391646686,
          0.37439608886235776,
          0.13199810294910513,
          -0.3584770971865999,
          0.3129437456965041,
          0.31041076477038093,
          -0.33109193503531376,
          0.3599904951583713,
          -0.17029845706284077,
          0.24941005860306736,
          0.15518746277510578,
          0.14935520609146993,
          -0.032927751242641676,
          0.07285145545210588,
          0.3751755611582137,
          -0.04330625357159581,
          0.2456582610604632,
          -0.2653058480666548,
          0.08736501461931552,
          -0.15436562672520177,
          -0.2178052812772085,
          -0.1974596710405847,
          0.41397595410259375,
          0.32786489137700753
        ],
        [
          -0.20719026193594847,
          -0.10123230454431947,
          0.6994202209999947,
          0.4320381979823361,
          -0.36234885139553036,
          -0.03131715229513136,
          0.08251382193142504,
          0.012275840891004345,
          0.09259478910529595,
          0.0842430088171279,
          0.03686906169854754,
          -0.7646687303956489,
          -0.022987026146128305,
          0.4092524466166761,
          -0.3130664955423746,
          0.09072443980106497,
          0.08059720843023024,
          -0.18669751343019017,
          0.26020913015027125,
          0.016404262657207958,
          0.7646877207032189,
          -0.6901850511789033,
          0.14286815817430065,
          0.4185590190822315
        ],
        [
          -0.3127869759826294,
          -0.12179125546725705,
          0.25767367669518515,
          0.10175567580401168,
          0.13561777632804167,
          0.03221308107512425,
          -0.30418291945469034,
          -0.2547971774111826,
          0.30957544682113636,
          -0.20201034660721903,
          -0.06624513007694084,
          0.014406212000353828,
          0.17568972203320457,
          0.22539774007015617,
          -0.1705236967966247,
          -0.21962755324157793,
          -0.2216333784190275,
          0.17256212039403215,
          0.25523754967308987,
          0.6516765237664733,
          0.610530910721514,
          -0.1650645434771711,
          0.3331833020143582,
          -0.12956623743710574
        ],
        [
          -0.06319079021560486,
          0.741893197808845,
          0.4833017046301366,
          0.3791764293052775,
          0.1187328865747097,
          -0.37058114966413974,
          -0.1049782215667353,
          -0.15592513114078144,
          0.5099716592688863,
          0.44824443415379944,
          -0.17296019455574876,
          -0.19338280871717153,
          -0.17995918120212379,
          0.2156398847683839,
          0.043068501446922744,
          -0.24102605805975547,
          0.2317963092285697,
          -0.21125458916957834,
          0.27805456725995636,
          0.21686030997320446,
          0.3936027710310102,
          -0.576909930073187,
          0.42707258940802717,
          0.6197524480630895
        ],
        [
          -0.09983787537500581,
          -0.1459961139444973,
          0.00935055509789889,
          0.1951970379664036,
          0.18354345812323683,
          0.16181923621910974,
          -0.06668948325065721,
          -0.19338839279351352,
          0.19600869785351416,
          0.18076828942825113,
          -0.357270385322916,
          0.03832896823986471,
          -0.04532705269430156,
          -0.14825110215417414,
          0.07521914892957694,
          -0.1679262009572481,
          0.09029958573809198,
          0.2626194879780596,
          0.14730072123497442,
          -0.21308205559586424,
          -0.09726862718472401,
          -0.15046746163069585,
          0.15713745851571803,
          -0.2120244960813438
        ]
      ]
    },
    {
      "activation": 1,
      "biases": [
        -0.6122450362252084,
        0.07079220241476769,
        0.43305075905545914,
        -0.1833414028786447,
        0.15888700898675814,
        -0.13102672720469113,
        -0.1953002449809088,
        0.16892939934391316,
        0.13505429412996034,
        0.1166636951010936,
        -0.03474816154597627,
        0.16707060744922123,
        -0.013411856953973853,
        0.45427720207647027,
        0.06105845479376973,
        -0.10954847589673972,
        -0.4094714950675854,
        0.0432549291973323,
        -0.18683091454135758,
        -0.24238860884117805,
        -0.33010968396865326,
        -0.1035950806941343,
        -0.2649609591051792,
        0.0643822249650241,
        0.052575113946422426,
        0.3260810505443451,
        0.193923325889829,
        -0.16018170487660932,
        0.04814253397212488,
        -0.18806604571495164,
        -0.022286817258098737,
        -0.05852607157486037,
        0.29392020580595984,
        -0.12592294738775858,
        -0.15228145777053362
      ],
      "cols": 35,
      "rows": 24,
      "weights": [
        [
          0.021605509809545124,
          -0.06147530661855924,
          0.09607922289554652,
          0.1852965761803545,
          -0.13182130639840967,
          -0.29225108300904257,
          -0.14937144816425768,
          -0.04767788907069306,
          0.3069680850947864,
          -0.22961269793140468,
          0.01834688320728498,
          0.008887403608504728,
          -0.14740341871638804,
          -0.08811388655811916,
          0.26745571484687264,
          -0.15642705842972407,
          0.24331774129129652,
          -0.27465317665804273,
          -0.1517740148756667,
          0.07551955765260798,
          -0.12012690004309501,
          -0.0491699138637269,
          -0.159678761771787,
          -0.06572424662358656,
          -0.25799657501085094,
          0.04525948834555009,
          0.26824592936849817,
          0.2643735421325175,
          0.06356990600987676,
          0.029365227308985307,
          -0.30927138732451526,
          0.26300661240368406,
          0.05132004011245027,
          -0.18178748621390872,
          -0.3043284310988435
        ],
        [
          -0.1504814863678413,
          0.19053547296767429,
          0.287472667849003,
          -0.3905207996150486,
          0.3971832557437565,
          -0.38599957843436306,
          -0.34097274022146157,
          -0.44415571362485823,
          0.006245400753329278,
          0.07348579386719788,
          0.31742047136054097,
          0.21643449103872736,
          -0.043229790213592335,
          -0.19840532143046388,
          0.01987864341344877,
          -0.2724312836105985,
          -0.23853870376917188,
          0.22578989446566852,
          0.10254761158282706,
          0.4570538901804905,
          0.2671252572298672,
          0.13674483578142851,
          0.19955707543566398,
          -0.06693415398652405,
          0.07886132621920806,
          -0.12443969634941,
          0.12353059637049421,
          -0.2025645314719481,
          -0.31343351658798435,
          -0.21300840234541174,
          0.4670684166558109,
          -0.01571893206633585,
          0.02675172399310886,
          -0.217322725697322,
          0.2168588325879763
        ],
        [
          0.03331494567558609,
          -0.2377679628097289,
          -0.018304359085389202,
          -0.0035053681094060064,
          0.4464067696613001,
          0.21962181373165476,
          0.09883686432976145,
          -0.013002915320642301,
          0.1779182735394886,
          0.49492521536543826,
          -0.28084925049940773,
          -0.24990725617136111,
          -0.22870751451577384,
          0.3125035631034042,
          0.027758387491195493,
          -0.02088089987504213,
          -0.45090388321791874,
          0.31176583119684526,
          0.06310174457133465,
          -0.1490282361178101,
          -0.4587747925389309,
          0.030264128180768214,
          -0.40245219344950095,
          0.3506295903013745,
          0.2400211208942901,
          0.458818431851523,
          -0.0264589785194072,
          0.04788815156575041,
          0.2262359448050806,
          -0.36140136361149017,
          0.46089656357347,
          -0.16788684218294092,
          -0.28875897066670037,
          -0.07153760303414648,
          0.10553677227556488
        ],
        [
          0.014437066406555678,
          0.06685409685436113,
          -0.04134704380265864,
          0.13556978656379468,
          -0.20151973606770196,
          0.044951816051105674,
          -0.07444765248871768,
          -0.3216461288477943,
          0.007249071758461348,
          -0.3074834689851721,
          0.4003070978676138,
          0.3519915542297275,
          0.2937677861516626,
          -0.5118057502641619,
          0.08108748626922604,
          -0.3019260582685322,
          -0.005936812072575091,
          0.04134470209750251,
          -0.10862623480640139,
          -0.07077820291251517,
          -0.08221172817721799,
          -0.04458347924396962,
          0.26244065409734774,
          -0.19040302000585904,
          -0.3440003485492239,
          -0.08074078008781858,
          0.13868545039702782,
          0.22864474815605346,
          0.044529564233308234,
          -0.04606664362919222,
          0.12795651897697521,
          -0.08636377701383942,
          0.11481766963592421,
          0.12082167447897717,
          -0.11278709344920508
        ],
        [
          0.06968084572245904,
          0.16945536149546145,
          0.09576211732342779,
          0.0509398886499194,
          0.23958744824627642,
          0.2300064996003584,
          0.06524054859943378,
          0.1100920850778205,
          0.1789445917192888,
          0.050861120119055116,
          -0.0833007226761844,
          0.06722486765200919,
          -0.1976665823674171,
          -0.23266368790880543,
          -0.24042970111712383,
          -0.2431683540808429,
          0.21384959571449683,
          -0.31882919705738955,
          0.2942370973114659,
          -0.2020684325425505,
          0.21537037708891252,
          -0.16240348089845874,
          -0.017795115615218605,
          -0.2041328868989054,
          0.28395198440845376,
          -0.18285659309515537,
          0.124010333132675,
          0.11865961229545109,
          0.21143931009216485,
          -0.22401223928980218,
          0.16162911553733345,
          0.07121971025691189,
          -0.0013994342438971847,
          -0.1123496856525735,
          0.21659363676909557
        ],
        [
          0.13885177539777643,
          0.29062381782323515,
          -0.31451050999253144,
          0.22798254186111858,
          -0.2763074993272118,
          0.05600941422917323,
          0.1322570606797713,
          0.08005144138656334,
          -0.30816047871045854,
          0.1798533823087051,
          -0.0792172564340432,
          0.3179894347210782,
          0.08088452387506109,
          -0.07160693069532258,
          0.15245011626476684,
          0.04546393661679817,
          0.2080830571686697,
          0.17232169150465387,
          -0.20136802875061308,
          0.08328159083899318,
          0.254223133497313,
          0.23632509192400553,
          0.0429758618334766,
          -0.17367186082992422,
          -0.22378659072054918,
          0.25154627469125046,
          -0.06522414429529536,
          -0.06570089646675206,
          -0.12219085789464554,
          -0.08283389169363752,
          0.14096780118130603,
          -0.1470173276048182,
          0.07869837446976731,
          0.24355770532987178,
          -0.2328172620081008
        ],
        [
          -0.18272488993548494,
          -0.21650412391017462,
          -0.18871000492987425,
          0.24469370714437827,
          -0.14536997899528914,
          0.28512392140774967,
          0.18138856800541245,
          -0.07295021556092705,
          0.22649467873976045,
          0.12392300516860977,
          -0.14263383910153013,
          0.18286592557551623,
          0.2869558538179616,
          0.07410053158314961,
          -0.2323748150079068,
          -0.05782222496347563,
          0.2384540669542034,
          0.1689222909095061,
          -0.3032348818733431,
          -0.011588866006016768,
          -0.09416566210534583,
          0.03269348146540151,
          0.0828119994216565,
          0.2891645317448168,
          0.23243142823463966,
          -0.1499076795635154,
          0.2975926872800175,
          -0.051403851730519985,
          -0.06122220695483249,
          -0.3056313980501547,
          0.251572045272025,
          0.08502964554633231,
          -0.2806188927816537,
          0.05781365388849783,
          0.29184697284322514
        ],
        [
          -0.2048155163152103,
          -0.15723714283582357,
          -0.17289507244119412,
          0.18507097935156117,
          0.014816335321863305,
          -0.21619077614589136,
          -0.29173370303149,
          -0.08282981149277331,
          0.20693753937247217,
          0.10066425360781517,
          0.1778381287543219,
          0.2863907409025751,
          -0.0010665790047433396,
          0.05218443399173571,
          -0.14267897092985982,
          0.001077261929941417,
          -0.17928674350902787,
          0.0887311754974097,
          -0.2606178978555824,
          0.15168125993956594,
          0.21014468805586486,
          0.2680740946503347,
          0.1649989565289265,
          -0.06164780838843225,
          0.14954073911666296,
          0.026779201775734073,
          0.12658657533985035,
          -0.0037696370675730125,
          -0.24728804316478087,
          0.05769562175049028,
          0.2547092972605825,
          -0.1079699461923455,
          -0.31828197557419186,
          -0.023097745172330545,
          -0.20074284992186905
        ],
        [
          -0.0637348067081995,
          -0.21782360407940451,
          0.17494883289001642,
          -0.05312409262592564,
          0.25755144360648663,
          -0.17678665044137193,
          0.23675579388065074,
          0.11146642220422105,
          0.10143719054715737,
          -0.3550392452221677,
          0.29582719566542887,
          0.040222231389477246,
          0.07564773679614349,
          -0.26255379999592104,
          0.13107035058739427,
          0.07429196632436778,
          0.5313521799836823,
          0.05955860829580123,
          0.11450263800927833,
          0.21307643392003492,
          -0.32356296162755704,
          -0.3222852102928072,
          0.19879282924514202,
          0.12754597605265486,
          -0.32200137688214586,
          -0.44315741047417406,
          -0.07496878191187446,
          -0.17817745171842997,
          -0.48596656375661945,
          0.22609861866690226,
          -0.0315058554095314,
          0.0005190776007379155,
          -0.3293496091160157,
          0.1888458201746958,
          -0.17269244497857375
        ],
        [
          0.04118030420293255,
          0.2912726486056074,
          -0.20302558872598098,
          -0.1905608637648911,
          0.12158690419407145,
          -0.38842469521842965,
          0.10242936018670756,
          -0.1298610509954297,
          0.005976275883188997,
          0.2757593068002716,
          0.22750750170138154,
          0.2949468580793829,
          0.3798105483135594,
          0.18716357670242517,
          0.020752586151408826,
          -0.06182229915121573,
          0.0698353530195872,
          -0.16955988215110554,
          -0.02912163352644417,
          0.0611561855641803,
          0.1309089290791401,
          0.24277265929788355,
          0.11612632753101951,
          0.289703710539928,
          -0.11376717683460762,
          -0.07352488553677033,
          0.2749612796063159,
          -0.2525761770522871,
          -0.05341605599908778,
          -0.18515729134936823,
          0.3995957348258036,
          -0.020304680921471176,
          -0.18062023931725416,
          0.014995764937608033,
          -0.02372855785723491
        ],
        [
          0.06055042516739526,
          0.2802075175540883,
          0.22532136539435274,
          -0.14561364859157158,
          0.2808722191389598,
          0.11254423161037821,
          0.18812542516764974,
          -0.007640125314848713,
          -0.31355101586612083,
          -0.09298270797544383,
          0.04675288882136173,
          -0.042038623225756265,
          0.0771543502222112,
          -0.07692911067890609,
          -0.2706790575024463,
          0.00157438236503122,
          0.06233676172818012,
          0.15406515276705074,
          0.007196030441751402,
          0.15596864273454925,
          -0.22062114174212694,
          0.15683081271214214,
          -0.2506956203942296,
          0.024086387975869563,
          0.17535703526631918,
          -0.31172486944546934,
          0.14354069392934807,
          -0.22690601979142075,
          -0.26229513790136266,
          0.25190012154679425,
          -0.20418565674784264,
          0.267403337328883,
          -0.10498091094418997,
          0.1286545214713388,
          0.018131473618336516
        ],
        [
          -0.5421264018872025,
          0.16089768384451092,
          0.1661221706466807,
          -0.42296357099294174,
          0.15922824152819995,
          -0.17083237028553064,
          0.11324600733834125,
          -0.003074646373802132,
          0.3637382036439796,
          -0.40995501703758336,
          0.19337533627956255,
          0.21971749562699566,
          0.08155575544320588,
          -0.28185289254206336,
          0.2263739249263689,
          -0.0025399591763562014,
          -0.11911880069089566,
          -0.24361525848727245,
          -0.34267022921632695,
          -0.03297452175494386,
          0.22142263323587422,
          -0.39735320533727025,
          -0.2266249825981154,
          -0.41061489271248386,
          -0.18279419605080457,
          0.3750243977107708,
          -0.09534397147986082,
          -0.4543656485847048,
          -0.05755867408800358,
          0.15975919255585594,
          -0.10025037849455863,
          -0.35624157471985735,
          0.007557721525656844,
          0.17527298208887196,
          -0.3078325143529236
        ],
        [
          0.035994752085620536,
          -0.19069876333396665,
          -0.1105490792382848,
          0.041946169623388166,
          -0.26572507064843204,
          0.26077412410829254,
          -0.1746650924153323,
          -0.1336213582411231,
          0.26164289019975195,
          -0.1508111987814041,
          0.05076192174401813,
          -0.2410177372396809,
          -0.3162416081487215,
          -0.016563130603578974,
          -0.1322210427704041,
          0.06315831532398823,
          -0.22017442689546882,
          -0.013405969751077213,
          -0.04112109536663087,
          0.044230109861371415,
          -0.17759827229174008,
          -0.021286139139797773,
          0.13613184887580942,
          -0.03838641617646915,
          -0.306348691921389,
          0.2950085921346834,
          -0.200482684088887,
          -0.2744305674830658,
          -0.022110208057373838,
          0.2739911636878036,
          -0.2083980934809949,
          0.07554019224366859,
          -0.16311987137064515,
          0.19194149823892953,
          0.040191634763622426
        ],
        [
          0.17393889464177825,
          0.08172645199911475,
          -0.17165424196838006,
          -0.11147247594788917,
          -0.5017178060697226,
          0.010826669321920411,
          -0.11096967743345361,
          0.28213680704750027,
          -0.2613593626206314,
          -0.12727261934092798,
          0.21821742655634455,
          -0.051072807435617394,
          -0.24977709415286561,
          -0.1852579273578028,
          -0.09512104003256444,
          0.123966859089903,
          0.16787797210598243,
          -0.2580213715813654,
          0.04541712903133994,
          -0.06441866408306755,
          0.26872635474306683,
          -0.5358251412353648,
          0.18299704087722468,
          -0.07506281310301569,
          0.028498760814557378,
          -0.10214513107060134,
          -0.13335883996351663,
          0.13894622102368118,
          -0.06826411360759539,
          0.36737313757644613,
          -0.5348389623046985,
          -0.006218691855629543,
          0.05978988747561354,
          0.09327236100269556,
          -0.2067070970581946
        ],
        [
          -0.015987345192086753,
          0.09793119128585116,
          -0.2985047355540418,
          0.21737985670234436,
          0.032752693493680395,
          0.0386163132415848,
          -0.259214622421442,
          0.1367304116802886,
          0.22293159413655264,
          -0.025284765082907758,
          -0.2500424146110162,
          0.2905399436092163,
          0.28023961622491284,
          0.04385476684071769,
          0.09486113568756938,
          -0.15596872737824352,
          0.10938944054628214,
          -0.24709867680707215,
          -0.05577159425281727,
          -0.09089176014279488,
          -0.28491047207918585,
          0.16937256837968304,
          0.19066646450788796,
          0.10099014578938575,
          0.28904071964724165,
          -0.04649602787886937,
          0.015897267966677894,
          0.07001976055913352,
          0.1399741421803459,
          0.16989798950818752,
          -0.01825795565114059,
          0.0019534052449723086,
          -0.1413467109611876,
          -0.30825569091132327,
          -0.15096004755146764
        ],
        [
          -0.18846469808800997,
          -0.2126285707846258,
          -0.09048627478511363,
          0.22605106834204639,
          0.05661194589351346,
          -0.24785874840970196,
          0.14277490676638774,
          0.06263790461327387,
          -0.22020556531541938,
          -0.19242471016888382,
          -0.044840422429883814,
          0.1632294052751144,
          -0.11296437705275052,
          -0.22238609979828466,
          -0.1500259058293506,
          -0.039549871218765235,
          -0.24616075725971912,
          -0.32055032834074837,
          0.20202675214989338,
          -0.10517767063839455,
          0.0587449461492657,
          0.17138308607866604,
          0.2604724467315887,
          0.17287422485398998,
          -0.16144488723619227,
          -0.1631203398715153,
          -0.05045853999535302,
          0.09387592077599757,
          -0.27143445883721645,
          0.07887860477784377,
          -0.08691737503297885,
          0.3025319894204244,
          0.16634118648292706,
          -0.06183378147414119,
          -0.047235863479898076
        ],
        [
          -0.2153702758138586,
          -0.1367870557500757,
          -0.029177982949527132,
          0.18708433000784191,
          0.3100643762909779,
          0.14778635963184772,
          -0.13016176366188478,
          -0.21096003666563135,
          0.07833618293330409,
          -0.19110545573457255,
          -0.08071737724882107,
          -0.19807935101028729,
          0.0745970301860028,
          0.06697822157178791,
          0.2807573481463221,
          0.09361489946753035,
          0.14017643581004866,
          -0.26171879851150565,
          0.20194185807135923,
          0.19871408661038278,
          0.10751765396372388,
          -0.14879721268272458,
          0.24810384265585547,
          0.21425381607019411,
          -0.18557937120056356,
          0.14422500655793788,
          -0.1854949585099861,
          0.2560734744353765,
          -0.21421952858989096,
          0.21169994342154497,
          -0.20640452623382682,
          0.32919507737785253,
          0.1546678426346395,
          0.19751569426481994,
          -0.33955989188563596
        ],
        [
          -0.22160651148159358,
          -0.050529588104231006,
          0.1863942715829941,
          -0.2728280976034339,
          -0.4445280879299808,
          0.22377597731788573,
          -0.12301633807088483,
          0.0881927559114565,
          0.3368385107830348,
          -0.1523156123882936,
          0.2866401231180397,
          -0.07248546705696331,
          0.11570746142433083,
          0.12396941800521596,
          0.1179954280466438,
          -0.46988846546456536,
          0.04444395214401471,
          -0.17458017576445592,
          -0.29472144314408083,
          -0.10557339829990826,
          0.2117456866630662,
          0.2991659583764706,
          -0.3442021328708044,
          0.05885608491883375,
          -0.08635810087872355,
          0.5072711286114592,
          0.37404998759534613,
          -0.28766632205530973,
          0.09044449019010914,
          0.3666791690663648,
          -0.2998798441406761,
          -0.09640202368337492,
          0.05881801937741178,
          0.2612352392395524,
          -0.027926461949612364
        ],
        [
          -0.7786027105963328,
          -0.11874492956769289,
          0.47326045645838305,
          -0.14836483961317154,
          -0.038154069879988046,
          0.047418182225170614,
          0.03905210929648715,
          0.013656958301845532,
          -0.044534192434185715,
          -0.12119154619586582,
          0.011866500318279643,
          0.29288318287417975,
          0.014226758246637721,
          0.31865050498054,
          -0.08682250324636387,
          0.224237301356967,
          -0.31093497585312596,
          -0.21265747830307935,
          -0.03125428273655655,
          0.03765514892017598,
          0.15347095025494978,
          0.14821470134274964,
          -0.4770044792282947,
          0.1180573844960551,
          0.35309956331832715,
          0.20028576038660637,
          0.21426008996651524,
          -0.08562780510535098,
          0.046602603632111106,
          0.036620170803175145,
          -0.060498701893177,
          -0.10140013301678552,
          0.009035068720722989,
          -0.28546286032970536,
          0.24002569280087116
        ],
        [
          0.15554890108463887,
          -0.33545697449742595,
          -0.07366472445186853,
          0.16066059181570883,
          0.022925848734179726,
          -0.01456238956436066,
          0.052559239566442005,
          0.07624484953687798,
          -0.35279877149522376,
          0.08025010819285938,
          -0.14649184058373038,
          -0.1031527900766873,
          -0.008169440739279554,
          0.5548075227513045,
          -0.25300798817498527,
          0.3308062486077578,
          0.0049384586412291225,
          0.0983829034274629,
          0.1475699586328665,
          -0.4137684196279371,
          -0.3596914839780125,
          0.4666854034166581,
          -0.1757012504543961,
          -0.053071630343993786,
          0.1530175467320724,
          -0.0834782555470988,
          -0.051060654473970894,
          0.007989867775418026,
          0.1792255237921128,
          -0.2242063560490819,
          0.30870967104815156,
          -0.1810267715511184,
          0.15670222259999705,
          0.08971819740838195,
          0.3470308435635936
        ],
        [
          0.3440332537817999,
          0.11620619069243181,
          -0.19303052719849637,
          0.28971314132009635,
          -0.27712957624274587,
          0.1850214702311222,
          0.06502912608649582,
          0.14157013001929705,
          0.38333322422341687,
          -0.2693117469751951,
          -0.1355707574285832,
          0.03604847610463607,
          0.25810469701318145,
          -0.024085664257361222,
          -0.03025347145015474,
          0.12060719129246257,
          0.33360412339777057,
          -0.39478054446957817,
          0.20109379579229059,
          -0.23527733312852675,
          -0.3787802259395941,
          -0.561193753835124,
          0.22526423362360565,
          -0.05512030059117166,
          -0.22565805217865095,
          -0.20014806613693195,
          -0.40207483935952265,
          0.1836254990821286,
          0.03115358212782544,
          0.13901152828163557,
          -0.829495855303394,
          0.003542500917847598,
          0.3219226904994371,
          0.11953621892368972,
          -0.3998738401116598
        ],
        [
          0.05454568825599719,
          0.05194178801151465,
          -0.06448421362428626,
          0.2623295984805002,
          -0.4612158695796241,
          0.0912151696427465,
          0.21411774995790822,
          0.40086179367907676,
          0.07973869885541257,
          -0.645917346333864,
          0.07783871178103441,
          -0.1330056864036907,
          0.018603577631841065,
          -0.5217459223790534,
          0.4261455736209802,
          0.05233379453649406,
          0.6544937844192107,
          -0.21544111699102014,
          0.09693453168488923,
          -0.2620230214755623,
          0.018046100345787516,
          -0.2972375715304273,
          0.3088312704880202,
          -0.38266450284802345,
          -0.20881224334186432,
          -0.2939342000713766,
          -0.2187667241960423,
          0.0883567419706395,
          0.09191805827429356,
          0.37333643104408953,
          -0.7017536882335885,
          0.13403597995348368,
          0.02961180232140047,
          -0.14229881001646347,
          -0.5919827717443086
        ],
        [
          -0.35954189697777533,
          0.05100739182743605,
          -0.00010298982468025853,
          -0.034329304367426657,
          0.20554664760688676,
          -0.1501600457561538,
          0.06394264295656311,
          -0.14014726015838616,
          -0.10260741598104144,
          0.2709722620502638,
          -0.06076789650034841,
          0.1382945482237385,
          0.010143555504780846,
          0.30311171532490255,
          -0.2612134382964259,
          0.09476977761732136,
          -0.03654818389005766,
          0.3539184079632065,
          -0.13992208726274372,
          0.156909793589635,
          0.2026678604373472,
          0.44306267411397404,
          -0.20340153795509866,
          0.004192656062909684,
          -0.25336987788581256,
          0.24355443133550062,
          0.04993337304699414,
          0.10129365039658755,
          -0.018835260726473867,
          -0.1966574902301204,
          0.3403355284854118,
          0.370577048547463,
          0.10888211558878869,
          -0.2148790592566588,
          0.3408497349176916
        ],
        [
          0.3239868766667338,
          -0.1918331640390289,
          0.06130331662340031,
          -0.2230662008618796,
          0.16879053348450207,
          -0.23946309187324497,
          0.05445053660842682,
          -0.13861242323526068,
          0.060460726181298066,
          -0.21485020104381392,
          -0.11326622721882121,
          -0.17341544598915054,
          -0.13833253334186185,
          -0.6120968053839809,
          -0.18258873370209164,
          -0.26360193014131234,
          -0.005854069382974067,
          -0.14279653407455553,
          0.12587300935957077,
          0.4932193756905254,
          -0.452472583231239,
          -0.34697785429920297,
          0.10818861048575196,
          -0.3740279915250154,
          -0.3151552987114373,
          -0.455838052797019,
          0.32674178528908493,
          -0.06411684070366967,
          -0.220985491014558,
          0.29342323096088646,
          0.0669612739776883,
          0.3297182394847934,
          0.15948155886207682,
          0.050771035175861096,
          0.006826357022548476
        ]
      ]
    }
  ]
}
