{
  "layers": [
    {
      "activation": 2,
      "biases": [
        -0.043396466976219523,
        0.7962778286102565,
        0.17107752314603974,
        0.5418474857226538,
        -0.0054866979783219725,
        0.0,
        0.19304060924911529
      ],
      "cols": 7,
      "rows": 4,
      "weights": [
        [
          -0.2989121226763813,
          0.22511931106833738,
          1.2561303149767216,
          -0.5677851526564505,
          -0.3700982910966254,
          -0.28580903794529955,
          0.9095086571465176
        ],
        [
          -0.24951244038959777,
          0.7475281278998349,
          -0.17193017546341396,
          0.8776700244711855,
          -0.1882429913207888,
          -0.07015676916919802,
          -0.7548022742765544
        ],
        [
          -0.39660900022551665,
          -1.4218500474060167,
          -1.1193443969490702,
          -0.3085934936184452,
          -0.6985052544471093,
          -0.4007018086214175,
          0.34442950002192824
        ],
        [
          0.29192221950863045,
          -0.34710655844279525,
          0.29117891550753466,
          0.8241146754522729,
          0.19074545429419862,
          -0.5060090028279002,
          -0.31632586045105815
        ]
      ]
    },
    {
      "activation": 2,
      "biases": [
        0.0,
        0.010209856746923866,
        0.6975118568919376,
        -0.3336336602173012,
        0.3834942490341081,
        -0.1555614522039134,
        1.094618994206299,
        0.07197174288498341,
        0.0,
        0.45232491822577914
      ],
      "cols": 10,
      "rows": 7,
      "weights": [
        [
          0.21083989225677824,
          0.5386869390510832,
          0.5805441216033969,
          -0.32420202089634015,
          -0.3603964289897467,
          -0.22974237954736537,
          -0.4424502138768493,
          0.3154577439443453,
          -0.31317557741378027,
          -0.47107788801430245
        ],
        [
          0.4421013719397896,
          -0.19774834715496878,
          -0.056216378489355595,
          0.7441420017609749,
          0.4603386416368923,
          0.05929984001293376,
          0.23180107060855934,
          -0.7885133004938525,
          0.08240887059493436,
          1.1937948351286296
        ],
        [
          -0.46152233930061415,
          -0.21215058145026425,
          0.4232526988878736,
          0.10178319235649068,
          0.7729471916242979,
          0.6322070162087191,
          -0.8922406529969628,
          0.6354204522936671,
          -0.3685540439007206,
          0.8971908578757888
        ],
        [
          -0.38616396334656655,
          -0.376946329335814,
          -0.7751281027099893,
          0.0227138317523053,
          -0.4356568908375079,
          0.23169645005981812,
          0.9485417786608958,
          0.9326086957337432,
          -0.32084599452735846,
          0.4022258667008593
        ],
        [
          -0.4346762794303549,
          0.11091806843754534,
          -0.31221157422853796,
          0.28073623507922774,
          0.14004393237599633,
          -0.33909254758843216,
          -0.0995770193005044,
          -0.13547155363242935,
          -0.5111699875358028,
          -0.08078275805183502
        ],
        [
          0.49646173030910246,
          -0.049817686656956746,
          -0.3500683170455659,
          -0.26191787698202657,
          -0.060367720780391564,
          0.3320211290697533,
          -0.3770393359166157,
          -0.5178709554498069,
          0.47427940296099397,
          0.5758541012591464
        ],
        [
          -0.5351318851348282,
          0.4337861287657588,
          0.8499155952646276,
          -0.21639224974255844,
          0.28151814489406374,
          -0.7261433874213102,
          0.00023960137743355342,
          -0.30110914177861287,
          -0.265913431183781,
          -0.6906095562203749
        ]
      ]
    },
    {
      "activation": 2,
      "biases": [
        -0.25483667161338014,
        0.12546315759134224,
        0.6959966449359559,
        1.2672573986830908,
        -0.0731272998220975,
        0.0,
        -0.12579839032018733,
        0.0,
        0.04148079672737725,
        0.07010503617974916,
        0.18626379712188812,
        0.2935162490121892,
        0.0
      ],
      "cols": 13,
      "rows": 10,
      "weights": [
        [
          -0.4678846492632719,
          0.3063863463708345,
          0.08952127873047125,
          0.09996355098678539,
          -0.43558002870917206,
          0.0533079793436638,
          -0.17578472868110742,
          0.01852527701974552,
          -0.502762501664077,
          0.4343187630217705,
          -0.025474063859924637,
          -0.29695170996106807,
          -0.20626939418188428
        ],
        [
          -0.21585341508884492,
          0.015852445255407046,
          -0.29771422338641323,
          -0.1830236347685861,
          0.31900362433837304,
          0.08483585845068889,
          -0.2132705982110118,
          -0.2055593868397067,
          0.010475354068561012,
          -0.04247225846747515,
          0.006400205851085437,
          0.3098660490451069,
          0.22789045930206167
        ],
        [
          0.4118704761697995,
          -0.6921441368986545,
          0.618846922039068,
          1.0642057078492473,
          -0.10777334545779489,
          -0.18866734632688115,
          0.03024538833759868,
          -0.09711018364468121,
          -0.16030460595948925,
          0.09112699532098119,
          0.22919106538367914,
          0.4364337957097032,
          -0.4994389246192114
        ],
        [
          -0.15455823624889614,
          0.6935320538871305,
          -0.4306360630486866,
          -0.41214640693830046,
          0.15984337662252224,
          -0.17176394570419157,
          0.40430524734171885,
          0.23866686681895266,
          -0.04393425032687127,
          -0.21879017426099584,
          -0.25138399151956975,
          -0.23691048265435666,
          -0.34011018152115663
        ],
        [
          0.46757323763265124,
          -0.02394524042002093,
          -0.17206993986808297,
          0.22238778564851663,
          -0.09936706753041305,
          -0.055488341279194595,
          -0.2939038655147485,
          -0.1872449213889173,
          0.17945110369526432,
          -0.8171269476512102,
          0.5814128171090542,
          0.14943254679025644,
          0.12603452506966295
        ],
        [
          -0.2864021056190173,
          0.280394284791506,
          -0.7058090570036281,
          -0.30032466695186394,
          0.03811777317221546,
          0.044103219861006245,
          0.40317626583002647,
          0.24025173771282943,
          0.2629220449900219,
          0.387432621978108,
          0.41081597996757774,
          -0.06752919796719892,
          -0.3449909065487949
        ],
        [
          -0.6330014668071243,
          0.197828031326125,
          0.6736588438860555,
          1.220594671048459,
          0.2614361865661123,
          -0.37187339309084166,
          -0.02478384964403386,
          -0.10952356767618866,
          0.23439306682258057,
          0.765368112027271,
          0.22084941937299096,
          0.39800646447786103,
          -0.18368406160710818
        ],
        [
          -0.20247494264319918,
          -0.516698595695418,
          -0.6031535261283717,
          -0.3878317768515829,
          0.14270601201550254,
          -0.49117145934645623,
          -0.2931509998182013,
          -0.005479820984818902,
          -0.2582731008612184,
          0.6756170553464602,
          0.011960265118306692,
          -0.5777227591696666,
          -0.18134028714070247
        ],
        [
          -0.5030357964535067,
          -0.09864370334099243,
          -0.507933927916965,
          0.3742385853742952,
          0.49393333646785376,
          -0.31388716215241796,
          -0.12999670325570797,
          -0.1636459699066325,
          -0.34072026584689574,
          -0.18258384433760835,
          0.4293130577585618,
          -0.43489273492724934,
          0.3931793671409837
        ],
        [
          0.493536878646563,
          0.6704266618951406,
          0.15492229263939916,
          0.7100689275605317,
          -0.354986192262735,
          -0.4350644898752918,
          0.0018839376377257553,
          -0.49871925771120984,
          0.8159711573171474,
          -0.44284236646586445,
          -0.6918539293922419,
          -0.7299325989022635,
          0.03142656449853369
        ]
      ]
    },
    {
      "activation": 1,
      "biases": [
        -0.08549640266582406,
        -0.08449478683612835,
        -0.169919682737008,
        0.2670679395919664,
        -0.5560333244826399,
        0.6183315129945964,
        0.3347791166100162,
        0.3381148993391208,
        0.35565287447891764,
        -0.5022604939370978,
        -0.5487849917258757,
        -0.4152599728111731,
        0.39089930707747567,
        0.08511432295989539,
        -0.5769595415013123,
        -0.46269499008993487
      ],
      "cols": 16,
      "rows": 13,
      "weights": [
        [
          0.18273022824133958,
          -0.27902459237982885,
          0.47401164736281576,
          0.0568899146712986,
          0.20460726514459512,
          0.04456821636997725,
          0.0660769421755112,
          0.07010981169135568,
          0.282245421721249,
          -0.10114819328653629,
          -0.28058614250274183,
          0.05890726497271206,
          -0.7275191288480328,
          0.12883490303717002,
          -0.08097502767328382,
          -0.4931607300229103
        ],
        [
          -0.03192536707464413,
          0.13512434253324385,
          -0.8252195270632194,
          0.10783430609182267,
          0.6014577469094307,
          -0.05924160221017548,
          0.2188580581664728,
          0.07863819570804931,
          0.32001953476696937,
          0.28566682333578086,
          -0.03285577898300485,
          -0.4170631890464649,
          0.7043727346259575,
          -0.22260131421568571,
          -0.13666051040664964,
          -0.3265280453313067
        ],
        [
          0.3570812186905751,
          -0.8976217752358129,
          -0.0271051225111694,
          0.09875142568578012,
          -0.9548206602172752,
          0.46228260267931914,
          0.3682258827474414,
          0.0389510605373579,
          -0.252951945698739,
          -0.1476490734819527,
          -0.2429906069883637,
          -0.39839375022194196,
          -0.06806708062788479,
          -0.7348276114385408,
          -0.3071901868481284,
          0.019588265085795063
        ],
        [
          0.17164783881011353,
          0.0540545110828361,
          -0.3917758610665003,
          -0.029266020975496958,
          -0.7877778536514707,
          0.7652683124309666,
          0.12368723274907473,
          0.12911521950625396,
          0.18015340437462773,
          -0.8973150651780385,
          -0.893353547602865,
          -0.688276727393789,
          0.4020434980223524,
          0.11484984640929315,
          -1.043684581352859,
          -1.0147811666168103
        ],
        [
          -0.2820706704055668,
          -0.33914170703726926,
          0.22257609632211084,
          -0.09602616353301166,
          0.17939969422142807,
          -0.38658315975927354,
          -0.3559674450682482,
          0.39638540237703634,
          0.4003055831916941,
          0.30775931733931716,
          0.34941500570130063,
          -0.3134029640678679,
          -0.3215609827141614,
          0.22138406859481075,
          0.35873745574052324,
          0.33509017035567645
        ],
        [
          0.14249648113035726,
          0.43618593591882354,
          0.37248911903552706,
          -0.39585620842936753,
          0.3288222057667824,
          -0.06048576129279145,
          -0.013365663147097634,
          0.05084003227329026,
          0.14839257324997024,
          0.3246002178368289,
          0.3143456498704986,
          -0.1532811637190797,
          0.41033180313120593,
          0.25488383410894405,
          -0.0005949219611450621,
          0.11514366701099665
        ],
        [
          -0.40891622882356354,
          -0.40019330634602907,
          -0.2743394694255561,
          -0.37552022717879985,
          0.012313201182293981,
          -0.4091904978674697,
          0.07759088600572506,
          0.2521775711402712,
          -0.3704038454811687,
          -0.03794024339365798,
          -0.4489526863862388,
          0.10750282106623646,
          -0.09269970886549146,
          -0.03662572651521096,
          -0.010797970122119801,
          0.23476981891631832
        ],
        [
          -0.3221347341742565,
          -0.4005277125610988,
          -0.44051666378909227,
          -0.14014157592017285,
          -0.10956214727236659,
          -0.304622800776611,
          0.23773251256937228,
          -0.436477261712594,
          -0.3937293926700582,
          -0.10902789769229199,
          0.24864955574234146,
          -0.41570825845276005,
          0.2738676107982739,
          -0.05631585790151355,
          -0.4066369250849045,
          -0.19144687099697152
        ],
        [
          -0.46901732163947163,
          0.47135926956593854,
          -0.007619279924347139,
          0.015990931231661978,
          0.7482360427600493,
          0.3108713547184983,
          0.06831109568293954,
          -0.006736968259191899,
          0.30564579316513724,
          -0.42380505261171886,
          -0.36459484307141915,
          -0.26506373290336743,
          -0.029177632571270762,
          -0.3268634189504414,
          0.11252604691003013,
          -0.11981673096434897
        ],
        [
          0.6712903913061522,
          0.3087025950009973,
          -0.03614127834425494,
          0.07631761928845705,
          -0.7255675307208274,
          0.1339474098355749,
          0.2887435879827034,
          0.09588535271818106,
          -0.48325170609239465,
          -0.27316617940857274,
          0.09279469174619487,
          -0.4900862914435581,
          -0.7441184316979791,
          0.17903787926314987,
          0.28262595833199267,
          0.11285572181090288
        ],
        [
          0.5523144046154769,
          0.5128156040486125,
          -0.15798475033275897,
          0.4170930787798461,
          0.08117120437115655,
          -0.030392418881885788,
          0.14934410342479254,
          0.1943039808267876,
          0.18235098742998046,
          0.2365868729997734,
          0.35744913273224604,
          -0.3988845783403455,
          0.4354750229262616,
          -0.008781456833428448,
          0.2154034603251538,
          -0.14175161619094115
        ],
        [
          -0.2695412452328741,
          0.013784290819361831,
          0.3191254310769167,
          -0.18928089423062636,
          -0.03316023527864797,
          -0.14634372633278842,
          0.23729110054902702,
          0.042865191723061455,
          0.7285831745394346,
          -0.2341233870728414,
          0.0691642027394823,
          0.10346372037022798,
          0.8414696365400924,
          0.5411370973234859,
          -0.420697381450392,
          -0.10192535114899363
        ],
        [
          0.08875077393442192,
          0.25294757504252763,
          -0.1898346844202345,
          -0.33491345594291366,
          -0.061058089677406065,
          -0.2427755283093227,
          -0.29721684671485527,
          0.020677945018748804,
          0.1412705600094127,
          0.36377717199223697,
          0.2875321514062996,
          -0.3554263193105346,
          0.2189978864610371,
          -0.43128695362030034,
          0.1761044830903751,
          -0.09164154314161854
        ]
      ]
    }
  ]
}
