{
  "layers": [
    {
      "activation": 2,
      "biases": [
        0.1964578230957458,
        0.11314373242923594,
        -0.025200577001619425,
        0.3120910303676604,
        0.23243800817841673
      ],
      "cols": 5,
      "rows": 4,
      "weights": [
        [
          0.5673775178647762,
          -0.5653885210544812,
          -0.23698935304330984,
          0.8102178683742257,
          0.7024140830743962
        ],
        [
          -1.0411722058873174,
          0.13744517054187158,
          0.46994154145248335,
          -0.7910238229064044,
          -0.7684376028875288
        ],
        [
          0.22707148863131713,
          0.47005692415631406,
          -0.7792709130229833,
          1.0149653375765937,
          0.29577064753275356
        ],
        [
          0.04937215315197009,
          0.9750034415319884,
          -0.45116230522464446,
          0.47479971268759963,
          -0.46497173249817425
        ]
      ]
    },
    {
      "activation": 2,
      "biases": [
        -0.0409508186613047,
        0.0,
        0.595684030650138,
        0.5227553792233247,
        0.0,
        0.0,
        0.15807113135627313
      ],
      "cols": 7,
      "rows": 5,
      "weights": [
        [
          0.5577374406997807,
          -0.18953308610669625,
          0.6743503546172909,
          1.0427455235898462,
          -0.5570552872155065,
          -0.1197742216941535,
          -0.13259932904613628
        ],
        [
          0.25595796779394797,
          -0.6736357310342224,
          0.935543656893955,
          -0.4630462491158267,
          -0.3344293211281869,
          -0.6194447567232416,
          -0.13314981361139888
        ],
        [
          0.020663802666386743,
          0.3980488668251651,
          -0.17650027805548424,
          -0.5321825460265152,
          -0.6689033307574341,
          0.4322199432043568,
          0.15343458851513217
        ],
        [
          -0.6383330455552231,
          -0.6370588565646252,
          -0.6800852257528885,
          0.1841675989500625,
          -0.6746727364616141,
          -0.4944844749650682,
          1.2371255683855764
        ],
        [
          0.44464370319028884,
          -0.03732155495320943,
          0.6959471901286647,
          0.9422452560092944,
          -0.06033860287042324,
          0.5325353287778098,
          -0.5493200499476861
        ]
      ]
    },
    {
      "activation": 2,
      "biases": [
        0.6912652327531935,
        0.8814193088801565,
        -0.07546573317305932,
        0.0,
        0.0,
        -0.37411978298897863,
        -0.05100138763536913,
        -0.1888078373392016,
        -0.13019838957922086,
        0.14508347035165858
      ],
      "cols": 10,
      "rows": 7,
      "weights": [
        [
          -0.27822542599990524,
          -0.014918779244526153,
          0.06228198402886205,
          0.5329192447037109,
          -0.3178750921810655,
          0.3834422114915831,
          0.23922281286741134,
          -0.025869773717244703,
          -0.233559270403851,
          0.046578910416712783
        ],
        [
          0.015139106232001275,
          -0.5246257986816532,
          -0.010676861854633398,
          0.29513098546552485,
          -0.48265041941516484,
          0.21828662884166158,
          -0.3343105542639445,
          -0.5181113640895759,
          0.10695834074396983,
          -0.48539377042952575
        ],
        [
          0.3798745248830731,
          0.4867664455265869,
          -0.03346845934865138,
          -0.37271759406138577,
          -0.22086802856911963,
          -0.5752692821077527,
          0.47547148737640965,
          0.5923109692952517,
          0.11837996002506417,
          0.06305066283505249
        ],
        [
          0.392117706515868,
          0.9102500820550751,
          -0.6104140932217942,
          -0.19518750207877789,
          -0.26384705023702054,
          0.6628734996005474,
          -0.07707974983402974,
          -0.013090432592400798,
          1.1580057963717094,
          -0.14457860236135925
        ],
        [
          0.40453910617790423,
          -0.02389519900056185,
          0.10931668128521961,
          0.040491952297693354,
          -0.20061686686629346,
          0.34116312697821105,
          -0.5668226718824402,
          -0.28942120654537706,
          -0.276677664138501,
          0.45849506962707665
        ],
        [
          0.3396684370011115,
          -0.0027661711035718104,
          0.36374063036087695,
          -0.2772082834292155,
          0.2787909395677055,
          -0.21377576372311619,
          0.21495317619758833,
          0.09463072765333043,
          0.40347867705690077,
          -0.5897212737750458
        ],
        [
          -0.4417025545369755,
          -0.4514030786591329,
          0.1298038896799838,
          -0.19740038097704712,
          -0.5309700855775711,
          0.5129318874122792,
          -0.6450562454866776,
          -0.6867924094330535,
          -0.13798404904088013,
          0.6969448642615406
        ]
      ]
    },
    {
      "activation": 1,
      "biases": [
        0.30633762763501704,
        0.9216469379922877,
        -0.05363740610933632,
        0.13353226060564838,
        1.4397028328773565,
        0.25763558875237114,
        1.2019471853275938,
        -0.39288264017064356,
        1.2366732200949528,
        -0.3959926336131515,
        -0.008716142467233222,
        0.1793451765451934
      ],
      "cols": 12,
      "rows": 10,
      "weights": [
        [
          -0.22555875213912094,
          0.039643378232852564,
          -0.21368325660275012,
          0.35165693914585916,
          0.22854820483649388,
          0.99178285444683,
          -0.05969216368672783,
          0.2066047267447989,
          0.2818242018996569,
          0.26951816072044277,
          -0.4949427966356492,
          0.44324380404931857
        ],
        [
          0.0034464392282531225,
          0.07208098853259172,
          -0.12200943314350618,
          -0.3730779549977956,
          0.33050913978918406,
          1.2198464909431117,
          0.6603724892066445,
          -0.17603241780694648,
          -0.462671385266732,
          -0.42771157089872647,
          0.36196292812624015,
          -0.5802156670093634
        ],
        [
          -0.18060501838922866,
          -0.5188003018888201,
          -0.030657069739110063,
          -0.29020034244916787,
          -0.5096204323170627,
          0.434190923812216,
          -0.37192344403292404,
          0.3134652876952454,
          0.07904552942640411,
          0.4340293787922663,
          0.22521899094177766,
          -0.06324933453464587
        ],
        [
          0.15880932523424188,
          -0.3968470261989279,
          0.24215379114739294,
          -0.46255105913194106,
          -0.5007744470879272,
          -0.01753786613057604,
          0.08724172677845768,
          -0.30265731149635844,
          -0.48288455191543234,
          -0.40988349706654476,
          -0.22612785507994587,
          -0.34897278802467246
        ],
        [
          0.49786341105550974,
          0.15149627313679936,
          -0.40498374189404335,
          -0.13569116097926473,
          -0.20962206071436656,
          -0.21952217955078657,
          -0.15847180525999638,
          -0.2123272938061834,
          -0.34034338803797437,
          0.3853769052806849,
          0.2806798080564974,
          -0.5094191832099815
        ],
        [
          0.5685946671364843,
          -0.10238697397866768,
          0.2320556343616699,
          -0.5278414539505156,
          -0.303952100298183,
          -0.5772187402023703,
          0.0916357416520555,
          0.15351944756182445,
          0.5441007138620741,
          0.5704314367928129,
          -0.22958554917206278,
          -0.6026214361710032
        ],
        [
          0.23381544189057943,
          0.5198634005349311,
          0.3991215442888013,
          -0.25875982407694087,
          -0.36093352994758077,
          -0.06766497435922605,
          -0.18345141153231154,
          -0.17816480443927787,
          0.41145363809154056,
          0.14920533447238965,
          -0.33834506332378644,
          -0.4471412549609152
        ],
        [
          0.7379668484945762,
          -0.09536628039420539,
          -0.31832612982224767,
          0.232103350899003,
          -0.19461689097690404,
          -0.48491325184286893,
          -0.29566217777420145,
          0.0987690547833074,
          0.5782552211842162,
          0.41818062544588885,
          0.37811148419173785,
          0.16438954719497473
        ],
        [
          -0.5468543134080781,
          -0.2305987887755559,
          0.05797755884456429,
          0.11447482710003119,
          -0.7760135686309064,
          0.2660619734497266,
          -0.5162550696761005,
          -0.022855338965311923,
          -0.5974020863176471,
          0.5587955591942809,
          -0.10331072776835912,
          -0.0848117438659161
        ],
        [
          0.06434761161705292,
          0.450203766130574,
          -0.12883598401435092,
          0.24183822375520017,
          0.2564328187923327,
          -0.8294384428385722,
          0.24280634221317393,
          -0.11801600297026876,
          0.09184793982197814,
          -0.1509949589804127,
          0.041500191237117616,
          -0.0015442009737000075
        ]
      ]
    }
  ]
}
