{
  "layers": [
    {
      "activation": 2,
      "biases": [
        0.0,
        0.11021341526373178,
        1.0510444837391213,
        -0.90510820913067,
        -0.12248955844332214,
        0.0,
        0.1776485488645884
      ],
      "cols": 7,
      "rows": 4,
      "weights": [
        [
          -0.34455470774188407,
          -0.7191187905098736,
          1.3197394870622141,
          -0.21933526390243646,
          0.7881144707799747,
          -0.2824606616036251,
          1.149431723652813
        ],
        [
          -0.7072373500335859,
          0.48528354266638035,
          0.09105543019146962,
          1.789630263083206,
          -0.12104306391011474,
          0.07628451877707983,
          -0.10166336583887821
        ],
        [
          -0.33140708619273407,
          1.7975518164208815,
          -0.6625192408502827,
          0.2332470758822328,
          0.8007803607269965,
          -0.007062954348497693,
          -0.26608594711183214
        ],
        [
          0.17725215548336318,
          0.24894591408044223,
          -0.2755693317207533,
          1.753752620938753,
          -0.23063333789727952,
          -0.539242395041752,
          0.28048771146703216
        ]
      ]
    },
    {
      "activation": 2,
      "biases": [
        -0.07616073314593129,
        1.6884325680775856,
        0.4694036381972484,
        -0.18246531409946942,
        -0.5606156828450354,
        0.09719422845407133,
        -0.0844848687152975,
        -0.14212912098664787,
        0.22504213874616316,
        -0.00020637619373798188
      ],
      "cols": 10,
      "rows": 7,
      "weights": [
        [
          0.24318371881029605,
          0.3076521265456908,
          0.020747678254299042,
          -0.5165736991226185,
          -0.39836584172656136,
          0.38821493854070566,
          0.34763334776847377,
          0.2847182276415755,
          0.48427949476165916,
          -0.2695149170336654
        ],
        [
          -0.42477767963820673,
          -0.09768504111685052,
          1.405279377554163,
          -0.014050919711240806,
          0.4655953121286884,
          0.8802517031008235,
          0.32664103051553006,
          0.8604246000353992,
          0.7947376476050818,
          -0.4062899923161526
        ],
        [
          1.1272744402951314,
          0.8080976134394019,
          -0.07871026932172798,
          0.1272423660462201,
          -0.7075505319393055,
          -0.621420508717905,
          -0.35766003418185616,
          -0.3627555416666895,
          -0.2615529177648847,
          -0.062385473239941674
        ],
        [
          0.23476991438607375,
          -0.8941827091154236,
          -1.049425384791939,
          -0.37273504322069934,
          0.7787554776510502,
          1.997162594023967,
          -0.29380298946489275,
          0.20043333790659787,
          -0.5060232288223537,
          -0.5404892571871198
        ],
        [
          0.7546269675040029,
          -0.40958394477655635,
          0.9942412941244692,
          -0.01388005869566922,
          0.5714680155073002,
          -0.1951483873714081,
          -0.5071863259319072,
          -0.4792912087096658,
          -0.24170087782771804,
          -0.38938627591232683
        ],
        [
          -0.4645220757006388,
          0.2123746779126941,
          0.24701745064126457,
          0.36903447221875557,
          0.12138693907623391,
          0.0561825276508538,
          -0.18219979309965892,
          0.2766786008551793,
          0.3097032787920078,
          0.06406080014815925
        ],
        [
          0.759409089173516,
          -0.01963334035728732,
          0.24693499664669305,
          -0.0874426611639629,
          -0.06170364014171902,
          -0.33262207040788483,
          -0.29969286965584585,
          -0.726878450277191,
          -0.4464649502210971,
          0.1814586634565346
        ]
      ]
    },
    {
      "activation": 2,
      "biases": [
        -0.2015685574864993,
        -0.05066406199447449,
        0.7130798681122831,
        0.9256805368276789,
        -1.2905576675198018,
        -0.1642314993205262,
        0.1025905326350168,
        0.8608277027703715,
        0.46367413647230316,
        0.009032864689620097,
        -0.3773421952617891,
        -0.017764572633571358,
        -0.24879066466867747
      ],
      "cols": 13,
      "rows": 10,
      "weights": [
        [
          -0.39175722365434995,
          -0.4905569048269491,
          -0.25342869471022356,
          0.754710775233237,
          -0.15928415465943746,
          0.4323310985252065,
          -0.3057387736595231,
          -1.0649062857773282,
          -0.1028624160390003,
          -1.0818333870309933,
          -0.8027039859974643,
          0.06905051529589773,
          0.4651962978892146
        ],
        [
          -0.1966297200074217,
          -0.08390383537477689,
          0.16102908133142166,
          0.6672586051180922,
          -1.689756357465581,
          -0.2812964938251264,
          0.7968902815245946,
          0.3286129291341977,
          0.5691714035151919,
          -0.21129200542314244,
          -0.042042284396529794,
          -0.3977279249432466,
          0.8238628448494749
        ],
        [
          -0.07927840415636546,
          -0.06093510936707128,
          1.0392091681672646,
          -0.8633558432123838,
          0.1399301076912246,
          -1.2543190680762732,
          -0.20664471944318547,
          0.3808667621501426,
          0.9149481813880533,
          -0.6414684951625993,
          -0.4676310974293322,
          0.07727521715952322,
          -0.27830359361491674
        ],
        [
          0.18336918126183088,
          0.27509469114451995,
          0.20564410502027664,
          -0.36828292468215273,
          -0.4547837848007287,
          -0.08371095931124645,
          0.46330176346476165,
          0.09577700756653106,
          0.36834781262995003,
          -0.02824421678899989,
          0.07908247009131518,
          0.4695259785528178,
          -0.12728315181775823
        ],
        [
          -0.1351111758362158,
          0.3100786262926805,
          -0.015297181423812617,
          -0.6474272771064989,
          1.0917891974957887,
          0.19582549208145708,
          -0.24150221648073572,
          -0.2260584190869276,
          -0.4742203960780744,
          0.4642641406749322,
          0.42261377356563945,
          -0.30144030827139273,
          -0.17063545024981203
        ],
        [
          0.18674855080943153,
          0.062139978728509584,
          0.5458115455404466,
          -0.7143399069105434,
          1.2143995310079665,
          1.062440132541009,
          -0.5117138370563403,
          0.5808643281075936,
          -1.3472189178791185,
          0.8190523880209368,
          0.15853216093351694,
          -0.4956649476317786,
          0.778520191852786
        ],
        [
          0.20206052632781626,
          0.43980091363300505,
          -0.2672761316144579,
          0.29447478551255,
          -0.2641067232270497,
          -0.297113196619956,
          -0.05791276672237966,
          -0.4785287322675454,
          -0.236095732169136,
          -0.36381366247260255,
          -0.06310657107819534,
          -0.15430516071697647,
          0.3867301812504115
        ],
        [
          -0.5269036269577423,
          0.24314839204043162,
          0.10399739876785538,
          0.03431151615752184,
          -0.05483665754682467,
          0.8428281406944497,
          0.15709827267021845,
          -0.024297978502987965,
          -0.3138002571247233,
          0.41666875906838585,
          0.609481937448066,
          0.2015617455320348,
          -0.08645770669152737
        ],
        [
          0.08193247115353991,
          -0.19208095115990792,
          -0.04981629525867193,
          -0.385458277402344,
          0.14237458096932146,
          0.7921666556321274,
          -0.2469820867355947,
          0.493972287631664,
          -0.40738604684356644,
          -0.17865871440775566,
          -0.05277020554324743,
          0.32826996169616857,
          -0.9090803978228497
        ],
        [
          -0.2434352703181516,
          -0.027212271026102845,
          0.5027834438044703,
          0.3720970034537035,
          -0.18255703662838776,
          -0.09417469629888772,
          -0.40631111567781253,
          0.39147496716746666,
          -0.03661148474675813,
          0.3238808225502324,
          -0.1952774475836059,
          0.06941546637094873,
          0.3432607288045455
        ]
      ]
    },
    {
      "activation": 1,
      "biases": [
        -0.11450849476010856,
        -0.6121616335759494,
        0.16957152659036473,
        0.41641281870051267,
        -0.170862532835481,
        1.1682767247550576,
        0.2802738041462767,
        0.3603365633159889,
        0.46246366185977555,
        0.8776601218005248,
        -0.9975421067932653,
        -0.7516596007935266,
        0.3464289711493644,
        -0.6426189622121952,
        -0.27479716117464736,
        0.763500751105909
      ],
      "cols": 16,
      "rows": 13,
      "weights": [
        [
          -0.26257696114459467,
          -0.2958016689501128,
          0.12232582700960892,
          -0.32283581492997404,
          -0.36266922787769823,
          -0.06043342375520045,
          -0.2606948769478721,
          -0.08344438487474785,
          0.35794088845210165,
          -0.27452903745552465,
          -0.1663643402250726,
          0.3349111065983585,
          -0.36513068340816207,
          0.3455985164193701,
          -0.44413837973952536,
          -0.20734688224100456
        ],
        [
          -0.05579622688135621,
          -0.43508831768306067,
          -0.20870306920434048,
          0.07748430207353621,
          0.505659067473362,
          0.026415351470715207,
          -0.373260887521725,
          -0.19195515900574942,
          -0.11784458198571397,
          -0.1763885106852634,
          -0.04835799237932984,
          0.01746435596970341,
          0.6166283489995542,
          -0.1304467379697777,
          -0.21803147887741633,
          -0.16206642797098011
        ],
        [
          -0.27885134440166737,
          -0.02707504753323227,
          -0.11253330049627966,
          -0.2116443113573242,
          0.16387165142008292,
          0.789328690341108,
          0.21461944026515212,
          0.8026948854824167,
          0.9193153925103812,
          0.46247687328898057,
          -1.063072021380374,
          -0.481152936218533,
          0.18829372645201725,
          -0.10409224530562858,
          -0.23876223314079775,
          0.5871064632050559
        ],
        [
          0.30949316636200513,
          -0.035660509479327834,
          -0.6702620849534443,
          -0.6820061108313927,
          0.3803887122199748,
          0.3060044773193034,
          0.4470902830130674,
          -0.49626936766339075,
          -0.2962448984492631,
          0.12275950726222294,
          0.6448101351433793,
          -0.15242541396653791,
          -0.27090251394311493,
          -0.29010730853647765,
          -0.7207799825633254,
          -1.806539008163755
        ],
        [
          0.09361193369106001,
          0.12382643086455514,
          0.21714595671982267,
          -0.18065496105058554,
          0.3784666540888979,
          -1.059048703768118,
          0.5946009780395844,
          0.3400336518554375,
          -0.9442375757059367,
          0.1999314405793987,
          0.9492353327491101,
          0.2358257132185092,
          -0.44011423738691896,
          -0.09964656695522721,
          -0.7758382456657738,
          -1.7867054658057457
        ],
        [
          0.5116778102091368,
          0.10972171137615679,
          -0.8026790905137988,
          -0.5930380650213296,
          -0.584200768711634,
          0.48882103044255093,
          0.610490172187163,
          -0.2733756843547965,
          0.24240592075398623,
          0.37699703924716943,
          0.012680829291217029,
          0.1626550161501154,
          0.3168613789178091,
          0.04192754075966948,
          -1.4034751480306493,
          -1.1481234698281564
        ],
        [
          0.40958118859797277,
          -0.6977312065731596,
          -0.2586177385181263,
          -0.11935443196274059,
          -0.23687456388330197,
          -0.16046651218232347,
          0.11441205234989468,
          0.26642344503957255,
          -0.27638885072664204,
          -0.0559780734935886,
          -0.15536723136926986,
          -0.032075841572315675,
          0.39112625435868953,
          -0.14340327420537574,
          -0.14776340269928626,
          -0.05054918152359399
        ],
        [
          0.20687861477753006,
          -0.2018768743788755,
          0.2655054140971537,
          0.35557157569525416,
          -0.6830416690943125,
          0.8527190178708335,
          0.6192236668874929,
          0.7669633663596426,
          -0.16179452247239756,
          0.4378517470417647,
          -0.4607176600427611,
          -0.5357208904723516,
          -0.36276646429604553,
          -0.30305773595957863,
          0.7910744638922838,
          0.018462637053755854
        ],
        [
          0.07745497826844763,
          0.37510749991221753,
          -0.2684731257561806,
          -0.0937258385824566,
          -0.28906837232855315,
          -0.6011388558670819,
          0.21107047383712038,
          -0.8329694490063484,
          -0.7122134955675373,
          0.5039590132027459,
          -0.8352705682068153,
          0.31421833865835597,
          0.24325212421075998,
          0.3468746239686585,
          -0.3326716703932569,
          -0.9723009796091634
        ],
        [
          -0.3890603837742646,
          0.41398905826965393,
          -0.14540379639111475,
          0.6300147206724502,
          0.005964020736201739,
          1.117340935102714,
          0.49880506874068714,
          0.25777222778559195,
          0.023322141090363138,
          -0.304705275499835,
          0.16092577461020316,
          0.03616391185204489,
          0.6348092351036715,
          0.5327062236294788,
          -0.359310894205331,
          0.08031219980045964
        ],
        [
          -0.034591946168227784,
          -0.4257252049156428,
          0.6318373931556222,
          -0.1356434809446365,
          0.4398272442500268,
          -0.33727644909042565,
          -0.18679403373434678,
          -0.1544986209732209,
          0.2372919447017453,
          -0.055512563268164034,
          -0.4150445470205223,
          0.5069182548203496,
          0.28809160423403596,
          -0.08574765537674026,
          0.03698797560731477,
          0.4286701891463889
        ],
        [
          0.20251519634343512,
          0.27358521182866696,
          0.12392837025686132,
          0.20971910864345175,
          0.22021127247395916,
          -0.15515045524392707,
          -0.17942269939803346,
          0.448969249479036,
          0.3943522474922968,
          -0.1872001718294183,
          0.10112533696088744,
          0.23247197892008103,
          -0.10682153223600131,
          -0.37468446183156984,
          -0.27437009926898104,
          -0.33256783221984443
        ],
        [
          -0.4807569479398874,
          -0.11448503345149676,
          1.011661488866218,
          0.6481902311835253,
          -0.11505203522109297,
          -0.7725251464056705,
          -0.9902674024797807,
          -0.26592914122798766,
          0.2802172584018263,
          0.6954101838302328,
          -0.4437211091304549,
          -0.2008007483228705,
          -0.18072052640743969,
          -0.1062968317795375,
          -0.43132811761134526,
          0.4802147912735955
        ]
      ]
    }
  ]
}
