{
  "layers": [
    {
      "activation": 2,
      "biases": [
        0.5475293893720621,
        -0.055343178596561654,
        0.826030438628387,
        0.38109674312424596,
        0.6059093529068433,
        0.17882432264549564,
        0.3238235130132835
      ],
      "cols": 7,
      "rows": 4,
      "weights": [
        [
          -0.1094602889729178,
          0.6125073878616083,
          0.29014449433655937,
          -0.18387978013983583,
          -0.15116507048319444,
          -0.5782171041109084,
          0.4326244577738141
        ],
        [
          0.3143962593520044,
          0.1747685121812977,
          0.18232260673619255,
          -0.0841597484541027,
          -0.5371743510758022,
          -0.15410069716250643,
          -0.3772494545531014
        ],
        [
          -0.542534999824643,
          -0.40594025519863275,
          -0.3992880949785402,
          0.09601196608263798,
          0.5596576666291297,
          0.5987353507564808,
          0.28657031063730376
        ],
        [
          -0.3446781580998796,
          -0.42220202807052637,
          0.3870273390237417,
          -0.23965249884521803,
          0.4614076753023651,
          -0.04768593593091866,
          0.0026034726998640273
        ]
      ]
    },
    {
      "activation": 2,
      "biases": [
        0.0,
        -0.0044815408273623705,
        -0.0968228666844589,
        0.002767988576970844,
        0.0046178604812855805,
        -0.055046481032801,
        -0.15741864189435448,
        0.9881328063836922,
        0.3754906823654183,
        -0.07323489997450565
      ],
      "cols": 10,
      "rows": 7,
      "weights": [
        [
          0.36128966718596045,
          -0.15783398581411767,
          0.24494711796787746,
          -0.5835689147127883,
          -0.22938986663076866,
          0.28773016348993896,
          0.38186753314057037,
          0.2712528697986265,
          0.6196128945197507,
          0.15822335787325495
        ],
        [
          -0.5774741901010408,
          0.4834857720229613,
          0.5371756291343868,
          -0.30315686471562403,
          -0.26100536997598706,
          -0.013943272907168125,
          0.1182501843236456,
          -0.05786408972058472,
          0.5967765071475815,
          0.036626978393261934
        ],
        [
          -0.5785557880230533,
          0.004447940548900682,
          -0.049536474657318204,
          0.33420988389117057,
          0.03509098135880312,
          -0.41980311712602586,
          -0.32891673789238945,
          0.9566799272430734,
          0.06614649444201488,
          0.09314351812359878
        ],
        [
          0.25386076186676765,
          -0.09787297080483393,
          0.26889921778250264,
          0.06308429612858629,
          -0.469865096014055,
          0.3861338754030062,
          0.5439310906897361,
          0.706880443365495,
          0.26164038157175196,
          -0.04272134131154291
        ],
        [
          -0.10596750032158868,
          -0.06871841886822669,
          0.16405676892731208,
          0.3442254283546789,
          -0.39794851466855274,
          -0.42464097265274575,
          -0.040124996904154255,
          0.6336329631211266,
          0.326293158444453,
          -0.3592379642535172
        ],
        [
          0.08162240150139405,
          -0.16503561404960268,
          0.5171427739605361,
          -0.3257328782142908,
          0.5203736942143943,
          -0.1946740840219203,
          -0.3513518016698332,
          0.044203004168359046,
          0.3228808891375534,
          -0.11212391659834917
        ],
        [
          -0.5167925317413697,
          -0.11013346540983726,
          -0.4951274799026241,
          0.32769361277307013,
          -0.2505979602343834,
          0.5063496935499323,
          0.3085321682890198,
          0.665697734326324,
          -0.24048974817305283,
          -0.01786286615136111
        ]
      ]
    },
    {
      "activation": 2,
      "biases": [
        -0.06140611184609197,
        -0.02252546368623806,
        -0.006103593546826101,
        0.0,
        0.28038763893431423,
        0.3129696595766258,
        -0.2554096597232258,
        -0.10823827156618786,
        0.5450568534342655,
        0.4986050302999517,
        -0.22326441755221207,
        0.0,
        0.4039498512905292
      ],
      "cols": 13,
      "rows": 10,
      "weights": [
        [
          0.33888076619119056,
          -0.288470689178575,
          0.5030812411740527,
          -0.15142192706476298,
          0.4127761935874507,
          0.2854730914423675,
          -0.12559281648501228,
          -0.2617716397275298,
          0.2670431283701162,
          -0.07600123248647145,
          0.37318712496188705,
          -0.30408717134755964,
          0.13802036759432232
        ],
        [
          -0.35874611939445056,
          -0.25070126542508486,
          0.266054233683718,
          -0.37230643341981634,
          0.46988604596214373,
          -0.0760345127713571,
          -0.4036498681213686,
          0.03830453019084145,
          -0.311273836019532,
          -0.4677166200542445,
          0.09761671837190337,
          -0.18938077521123492,
          -0.13574010225741778
        ],
        [
          -0.11515248778563292,
          -0.465034894805387,
          0.43488695100549934,
          0.40278242685950416,
          0.11128925048465842,
          -0.45510418880311926,
          -0.1583530930605542,
          0.22174797216836065,
          -0.40538595258921817,
          0.3034259157794781,
          -0.4141111893635462,
          0.09573083788726022,
          -0.2891206872517659
        ],
        [
          0.26140896166803823,
          -0.251634556263824,
          0.2570628708591588,
          0.03181302181272813,
          0.4293060470270703,
          -0.4046941719591736,
          -0.24366354696078812,
          0.5960655330413942,
          0.18466693460189343,
          -0.4713641301851247,
          0.08303607653667561,
          0.07334923714795209,
          0.27793087002356487
        ],
        [
          -0.0676718735223247,
          -0.3825065558156575,
          0.4990282353848808,
          0.4328589023310934,
          -0.2876200877321052,
          -0.39561991293409776,
          -0.46929051905893204,
          -0.2624336074216138,
          -0.46410942317670706,
          0.4986093479344505,
          -0.09896842486777012,
          -0.1793304053397799,
          -0.18273638021449662
        ],
        [
          0.19336516806246087,
          -0.4406764298019043,
          -0.4332967916520469,
          -0.11924299788283207,
          -0.2932303023605818,
          -0.1739999844355312,
          0.2950592355993724,
          -0.32319414002711727,
          -0.4070579939607906,
          -0.26363575655627897,
          -0.1887010737236729,
          0.4635041772002199,
          0.12812179877441524
        ],
        [
          -0.4058944404162693,
          0.2805205979190292,
          -0.08924932778297945,
          0.0813106016394431,
          0.12067968705272578,
          -0.4008772955498529,
          0.1978628449070543,
          -0.14194752745731137,
          0.2788088847177285,
          -0.16768532773819922,
          0.14162772084726113,
          0.09594192463516099,
          -0.012327222395119361
        ],
        [
          0.3902533795341077,
          0.016950380575102012,
          -0.43898724992737587,
          -0.190204032127005,
          0.7309371063709735,
          0.550914446859159,
          0.4240729352360546,
          0.1045146687724535,
          0.8723624206028231,
          0.8344147423385372,
          0.0763363185308677,
          -0.46494713852639075,
          0.8738854677443709
        ],
        [
          -0.045477750919269096,
          -0.07009592869514279,
          0.2937515259349805,
          -0.4611462656236409,
          0.09766197862908722,
          0.06240003784213938,
          -0.4238325284414582,
          0.3162158412416957,
          0.6781259404247628,
          0.7130276704964909,
          0.29205395030850434,
          0.1683951522635742,
          -0.34814371075616674
        ],
        [
          -0.3644813927752645,
          -0.24034987884451997,
          0.1357098452880411,
          -0.3053276965814694,
          -0.36524421135606333,
          -0.291937455310207,
          0.37964291289410473,
          0.27687305001087703,
          -0.4497335262399769,
          -0.11141781006309118,
          -0.07601596914816601,
          -0.3808919850985006,
          0.13596991015873983
        ]
      ]
    },
    {
      "activation": 1,
      "biases": [
        0.16552438863192875,
        0.15306991817195156,
        -0.0833721171177365,
        0.07566491848430726,
        -0.24575348025198937,
        0.11817200494622425,
        0.3782669468536443,
        0.3294045271364344,
        0.2487417598189297,
        -0.3781719848967935,
        -0.3304921616401144,
        -0.3173901986980384,
        0.19120789030604896,
        -0.0025698007208847717,
        -0.39658437975983735,
        -0.2984303739288973
      ],
      "cols": 16,
      "rows": 13,
      "weights": [
        [
          -0.28176822020593667,
          -0.1716696994868136,
          0.3393209418660017,
          -0.23865678095437962,
          -0.3115462411783958,
          0.2402560777782311,
          0.011355416737843774,
          -0.13063090513211745,
          -0.2078633419912618,
          0.034987502704654394,
          -0.4843493128419248,
          -0.44118028457812514,
          -0.2698433000461877,
          0.31757049731323894,
          0.1786187417421478,
          0.008959872691413306
        ],
        [
          -0.3208922917898535,
          -0.02078616123887774,
          0.13903411744076608,
          -0.33685615540908026,
          0.39170070459788725,
          0.0921123197568147,
          -0.07761193760580912,
          0.269915986368138,
          -0.0559555685375494,
          -0.19707609600313977,
          0.23805577551106744,
          0.429483170368142,
          0.09423686273949347,
          0.4083146576360641,
          0.005242340422078621,
          0.0025188655625092648
        ],
        [
          -0.14836002275105567,
          0.18523999067961744,
          0.1575870068675759,
          -0.41488960005300174,
          0.10338630101504304,
          0.35771337067992676,
          0.09404168007797457,
          -0.058655036176722346,
          0.28925668466817905,
          0.03810645734778798,
          0.27433032483047537,
          0.3508360371249483,
          -0.13030347594817387,
          -0.06752619014721864,
          0.12488301098482169,
          -0.1633192219452099
        ],
        [
          0.04914086585984139,
          0.27468188398269494,
          0.3767954658634381,
          -0.06375137727077593,
          0.05291573316077532,
          -0.23541357907638932,
          0.3788680345024748,
          0.31863473756042193,
          0.00585785848185575,
          0.014109334502584565,
          0.22081539840495076,
          -0.2884386865488691,
          -0.3202077218916012,
          0.4149844786117631,
          0.19024936547805762,
          -0.28789862362751023
        ],
        [
          -0.14661334436752677,
          -0.2636325987890022,
          0.30167892339725944,
          0.1625634664928633,
          -0.4100995727126687,
          -0.2445099832596418,
          -0.19497082534389598,
          0.0009172691485768441,
          0.3475517733475698,
          -0.5708324279205577,
          -0.6152402136852815,
          -0.10975339527572338,
          0.0707501039414379,
          0.03502996346077142,
          -0.4195860828804685,
          -0.11475933925705606
        ],
        [
          -0.3368144731267283,
          -0.19842724789227673,
          -0.24482550755663743,
          0.3940749683183481,
          -0.31850702679386206,
          -0.2876696979010269,
          0.4262568240559427,
          0.4542253532875294,
          0.13871214853970684,
          -0.04176637994554568,
          -0.03264135161548543,
          0.14916102581071136,
          0.34647876582656645,
          -0.3701802322629065,
          -0.3254785919622911,
          -0.5318941179169325
        ],
        [
          -0.21231866901872173,
          -0.3939855839592856,
          0.31023531957044637,
          -0.31739961842831604,
          0.38241625222713893,
          -0.352287555203587,
          -0.2580853583069657,
          -0.17203590568384497,
          -0.42461885867657756,
          -0.37484483333928514,
          -0.020490223787568505,
          -0.17834506866106525,
          0.007786379774840295,
          -0.01829026853585963,
          0.023486550407715183,
          0.12712856867269612
        ],
        [
          0.006092296894975623,
          0.14785591489303043,
          0.2577654338289369,
          0.009464558827105899,
          0.15860310756522414,
          -0.40957317734885723,
          -0.06907813992497815,
          0.43852145186357117,
          -0.2883964817278787,
          0.328376320921998,
          -0.1286466063799536,
          0.19912778209009008,
          -0.3930302748406005,
          0.49773590123759787,
          -0.15018080458956692,
          -0.17517273254305607
        ],
        [
          -0.10392847310897536,
          0.20828955948078523,
          -0.11602776812628189,
          -0.08089405868100212,
          -0.0011581876858613943,
          0.40171914541474296,
          -0.10288382446517035,
          0.7457465794817137,
          0.6590634836863657,
          -0.24675516319061655,
          -0.24574959192130263,
          -0.4110959139739956,
          0.42207467170845436,
          -0.13622803623167964,
          -0.47869986502103246,
          -0.7213023940654859
        ],
        [
          0.5238766710940559,
          0.3741460046347597,
          -0.1730699037251025,
          -0.019329103949830777,
          -0.1818055200680084,
          0.18883870511218584,
          0.17188592121517238,
          0.18910425478170081,
          0.45462670966435687,
          -0.6681133360968997,
          -0.5730413025534288,
          -0.40862500996660106,
          0.28508571079840805,
          0.05107754296654507,
          -0.25227960007886313,
          0.15203122868021207
        ],
        [
          0.22570688905931305,
          -0.06467730289201575,
          -0.2640891992956627,
          -0.11709918380563393,
          0.31176000087952693,
          0.026784938599668823,
          0.21054201082007878,
          -0.39073937766487465,
          -0.36510284450895386,
          -0.21950847538100748,
          0.38157628320351666,
          -0.26357081366595925,
          -0.2824440647087077,
          0.23117507310255708,
          0.23224714870927185,
          -0.25675335870273946
        ],
        [
          -0.07911991144549214,
          -0.29505271043133074,
          -0.22064844371669626,
          0.3579572434123882,
          0.32771252478344515,
          0.2292433258336681,
          -0.39326827477930903,
          -0.19485594302192347,
          0.18696320730481283,
          -0.3776917362626817,
          0.40818523946468604,
          -0.3184533670735881,
          -0.16310625484160443,
          0.3448205413149189,
          0.4254408249725546,
          0.27824635941774495
        ],
        [
          0.19623469447894057,
          -0.11658584416102227,
          -0.38455190892963237,
          0.2152459065108811,
          0.3649178338563594,
          0.2372852282171779,
          0.5654875752412367,
          0.2762255539290943,
          0.2833004877335561,
          -0.15318562676093442,
          -0.04493463070539478,
          -0.6038563348950752,
          -0.4608068133649991,
          -0.17158130459368798,
          -0.3093896664851292,
          -0.5811899929238677
        ]
      ]
    }
  ]
}
