{
  "layers": [
    {
      "activation": 2,
      "biases": [
        0.0,
        0.0,
        1.2151934674913123,
        0.966218731754465,
        -0.4989598279419188,
        -0.07689139155970351
      ],
      "cols": 6,
      "rows": 3,
      "weights": [
        [
          0.4795632309357851,
          -0.7408842736848043,
          -0.9711606385454518,
          -0.8721972887328648,
          0.8721644779407351,
          0.2928026453085831
        ],
        [
          -0.43502458077156436,
          -0.46912867268347,
          -0.11904626366579725,
          -0.808905040483551,
          -0.5894600128755142,
          -0.7580246227073439
        ],
        [
          -0.5477434008242321,
          -0.5546163529578247,
          -1.0463240247138423,
          0.8083080452478046,
          1.3020734272634045,
          0.1020336493462874
        ]
      ]
    },
    {
      "activation": 2,
      "biases": [
        0.15606521884681754,
        -0.0152555167006955,
        -0.00015871160119958536,
        0.0,
        -0.06271851098831739,
        0.414704042188068,
        0.008968296431869532,
        0.0,
        0.0214241765381892
      ],
      "cols": 9,
      "rows": 6,
      "weights": [
        [
          0.5179431661313302,
          0.267970856941935,
          0.35776128997251117,
          -0.6307306643784388,
          -0.5381574022818529,
          -0.27494120553132506,
          -0.4779355581265579,
          -0.054146891842672205,
          -0.507643517407258
        ],
        [
          -0.04714974224904341,
          -0.5621065207364554,
          -0.4931980081964379,
          0.5293517400535591,
          0.5675589945302952,
          -0.21672432694444949,
          -0.4776686053752752,
          -0.575756135365934,
          -0.13946992949726894
        ],
        [
          -0.6196116833738717,
          0.36954510492666065,
          -0.22876788601692252,
          -0.5697295695831832,
          1.0905095011803592,
          1.3600959987854004,
          0.3947491468371906,
          -0.16372698001057392,
          0.10427811113905769
        ],
        [
          0.4075047186879833,
          -0.127962347775495,
          0.7796101417720882,
          -0.0681209947082371,
          0.8170243597459813,
          0.751495645810119,
          0.06045210879091236,
          -0.577788691225546,
          1.0597336074164576
        ],
        [
          -0.5184001079253744,
          -0.45728129843562493,
          -0.3114177380233208,
          -0.16504508038794266,
          1.2565446953509816,
          -0.5914079465093103,
          -0.4023287061197914,
          -0.17229458269127118,
          0.8265517051383974
        ],
        [
          -0.4246049539274952,
          0.06993872432965682,
          -0.3129983446283838,
          0.03729741954989733,
          -0.2725566946953835,
          -0.09731496143671155,
          -0.1942150563325438,
          -0.37362564202699716,
          0.3037302762229333
        ]
      ]
    },
    {
      "activation": 2,
      "biases": [
        0.5023888681285887,
        0.0,
        -0.48586056630723123,
        0.28772870404475503,
        -0.026048960635587287,
        0.7254311554173035,
        1.2029579646911652,
        0.0,
        -0.06355500556618005,
        0.0,
        0.8743466861719265,
        1.5353432492533214
      ],
      "cols": 12,
      "rows": 9,
      "weights": [
        [
          0.1319002377584571,
          -0.3787477620536099,
          -0.12496615204847072,
          0.39648868040394086,
          0.0792944888054826,
          0.19772516331418505,
          -0.03621365428803902,
          -0.44698002019441696,
          0.06269110244354702,
          -0.4271073479062414,
          0.5356838884972024,
          0.0327429847903222
        ],
        [
          0.04475191194237451,
          -0.5198994487223799,
          -0.454481247436391,
          0.38041648710011006,
          -0.024217437191352387,
          0.5126204615037648,
          -0.1074139152927322,
          -0.2142117331409027,
          0.3395508006299885,
          0.2437615075196255,
          -0.07558885615844547,
          -0.09846639957376194
        ],
        [
          -0.25420881848743965,
          0.4235308915897666,
          -0.12307484858629478,
          -0.33322137326144363,
          0.27253249825399034,
          -0.1502839051537578,
          -0.45695976565930374,
          0.2868521450302382,
          -0.2814258967226816,
          0.3193408487044488,
          -0.3920236855009677,
          0.6001106574496953
        ],
        [
          -0.35641791836358344,
          -0.4867446301282975,
          0.4659504743835369,
          0.01822715164357131,
          -0.1969409230546298,
          -0.028393157233491114,
          0.3419382269795777,
          -0.26880257692227616,
          0.40401678942149355,
          -0.5131383934615787,
          0.31079189458861456,
          0.4552373032688229
        ],
        [
          -0.504471350311359,
          -0.38490611080926657,
          1.5143423338160253,
          -0.47050942902443665,
          -0.22287378877202932,
          -0.6313599751680282,
          0.08264349054551179,
          0.019122954926163754,
          -0.18224827185597264,
          -0.33122487864348693,
          0.5082643986596299,
          -0.6766570439677942
        ],
        [
          0.39445528778965006,
          -0.32590512302356606,
          0.957655588017683,
          -0.1414866810278393,
          0.08860640086926154,
          0.677902269185069,
          -0.5754286562837899,
          -0.38303181852431617,
          0.07289229638647578,
          -0.3793888091093022,
          -0.8468856119594874,
          0.8129985529860432
        ],
        [
          0.33266652519811274,
          0.2990115799756331,
          0.3501314453357216,
          0.002277132447361591,
          -0.17592288195478162,
          -0.11931356762842193,
          -0.274044642963669,
          0.1730212482974869,
          -0.38486299042832384,
          0.46551733040435833,
          0.15882004446918163,
          -0.49502497964109343
        ],
        [
          0.09888489633037731,
          -0.09276827076362537,
          -0.3563143837435934,
          -0.07282165136255968,
          0.5312370593580952,
          -0.2319134779128988,
          -0.38283041389682526,
          0.16580812868428718,
          0.18130295456842377,
          -0.3903461220851996,
          -0.13071586875102478,
          0.14356482129646767
        ],
        [
          -0.41663530197519266,
          -0.4887638909928732,
          0.8034833202926467,
          0.15974422836450683,
          -0.16298416171493224,
          -0.3257370515159857,
          0.7995207503714653,
          -0.26301186594769504,
          0.4671428421330608,
          0.18169258024553855,
          0.45859933290048566,
          0.06755653591360976
        ]
      ]
    },
    {
      "activation": 1,
      "biases": [
        -0.0646866910312971,
        -0.6182125463985535,
        0.764117620615085,
        -0.4726566132804907,
        -0.32834469167718755,
        1.0442269695195017,
        -0.31727210538389744,
        0.8655537059779707,
        -0.2469069450598905,
        -1.0019999895582334,
        -1.5159655387955826,
        -1.3045885814138565,
        -0.18867117396948851,
        -0.4653648325861115,
        -0.5580136083374341,
        0.33124613531079183
      ],
      "cols": 16,
      "rows": 12,
      "weights": [
        [
          -0.15730264080892536,
          0.11365715561471663,
          0.3321561686784735,
          -0.20127321259875158,
          0.3114174663969621,
          -0.10536494423684806,
          -0.5216147336209455,
          0.39789385094251756,
          -0.07157013706739773,
          -0.7301079439912217,
          0.1320196819222697,
          -0.3959736936285602,
          -0.20864209706264777,
          0.0943711761092856,
          0.3091260825225085,
          0.3771201424967528
        ],
        [
          -0.29576418019174616,
          0.3066116871283835,
          0.43258903095208706,
          -0.16609114390945245,
          0.28789742021709297,
          0.32978580547409614,
          0.26151091705212903,
          0.21807574687910172,
          -0.043034549568355306,
          -0.18817112511844908,
          -0.12529066440121464,
          -0.45129939667135016,
          0.2472954436543255,
          -0.3048364050539452,
          -0.22230158757959406,
          0.02745093342926946
        ],
        [
          0.022881777261258313,
          0.0503307017896248,
          0.00530236205503697,
          -0.02987183705987392,
          0.6360679195240352,
          -0.6490258129714451,
          1.217113988979598,
          -0.9047408345203787,
          -0.021314205816460024,
          0.7969855994197912,
          -1.086919705485356,
          -0.507696792840227,
          0.4020274476260834,
          0.01736542204131195,
          0.09950175625629919,
          0.10861332831855212
        ],
        [
          -0.003147240749103012,
          -0.29967104440661374,
          -0.17538810813712868,
          -0.059770535983866946,
          -0.5231983016307464,
          0.002437198090676076,
          -0.46593759776131194,
          -0.28866967973036517,
          -0.2980522676470197,
          -0.19959120246321943,
          0.2735957547092857,
          0.2692892730630314,
          -0.07870871925562381,
          0.3273630399714987,
          0.0976746817959245,
          0.27432080336268544
        ],
        [
          -0.25949087876876437,
          -0.21969767000285845,
          -0.13955634175328294,
          0.0003297486928877957,
          -0.0874761501030345,
          -0.44908145009966216,
          0.07789086518632117,
          -0.2583282774895138,
          0.2820446347376866,
          0.24271433617855698,
          0.10565239421937876,
          -0.21666507552491657,
          0.4070424672996138,
          0.3415879436626822,
          0.18453349393198656,
          -0.2618501869937401
        ],
        [
          0.40642374701619416,
          0.28902390179566373,
          -0.15375488429118392,
          -0.03221000411086593,
          0.1426910633127092,
          0.830896823020272,
          -0.5064575324017139,
          0.29844688713940426,
          -0.5875686720539312,
          -0.8515124477034417,
          0.017448725097451948,
          -0.41906739107816104,
          -0.0605947406805449,
          -0.11976938601984757,
          -0.005935863204465365,
          0.3450861378274225
        ],
        [
          -0.003668059645210643,
          -0.10282056643943283,
          -0.27589395125083394,
          -0.059172942270631766,
          -0.02770308372638873,
          0.5134173390929974,
          -0.5953554748762713,
          0.1294841844152371,
          0.9890654485931496,
          -0.12869157900903644,
          -0.6874422759151084,
          -0.9523332170846369,
          -0.36277099073127744,
          -0.14258227755550415,
          -0.0033510819304954443,
          0.22117868557772882
        ],
        [
          -0.3229791109036885,
          -0.3179927300367222,
          -0.21287080484362692,
          0.03912512878053486,
          0.3259918697135694,
          0.049218865836873384,
          -0.029131836317600777,
          -0.4430526250690484,
          -0.24259920343588826,
          -0.16527209664053058,
          0.37359667005331515,
          0.2658832177876276,
          -0.09099306675133795,
          -0.32602595782854576,
          0.19786118687941934,
          0.32243013097110756
        ],
        [
          -0.2785372436693135,
          0.24195976845142086,
          -0.35703462065564506,
          0.24761104272183462,
          -0.017182356750351457,
          -0.6160614950517647,
          0.1267731262541746,
          0.09955674604727423,
          0.11456778461753524,
          -0.15494673103806,
          0.12541822565883093,
          -0.23621235946369518,
          0.0009295993701031872,
          0.3023122550002872,
          -0.18307272069470068,
          0.10571442861819824
        ],
        [
          0.0735439703396925,
          0.43805667293849465,
          -0.3836448960767902,
          0.26451429946402055,
          0.14680143155821168,
          -0.34366367034327383,
          -0.37562716398007584,
          0.4253269415147817,
          0.1607494868433465,
          -0.06332903076145666,
          0.2453688023133416,
          0.13573927499193938,
          -0.35839989661577276,
          0.25929039812676724,
          -0.1953555463880329,
          -0.3016240900759039
        ],
        [
          0.30769187278154486,
          0.1678809969182224,
          0.4717047610358825,
          -0.09846774666039534,
          -0.1646810719094092,
          0.36531553842692743,
          -0.31965981284810624,
          0.2117450386855235,
          1.2872928272771522,
          -0.10297541026344831,
          -0.06736083959061633,
          -0.18713742932451166,
          -0.3334319292664617,
          0.16194879348039462,
          0.205075924956272,
          0.4256216345814861
        ],
        [
          -0.22166480146322537,
          -0.2776364612049936,
          0.3602764098990842,
          -0.09928584023168169,
          -0.4848688362808523,
          0.40729583056835694,
          -0.7873050739500388,
          1.156031358770943,
          -0.48758300081236244,
          -0.32560020235273285,
          -0.7645830077682259,
          -0.5488598468587146,
          -0.315083558166189,
          -0.14581453507546766,
          -0.7785829272154754,
          -0.3300240462467712
        ]
      ]
    }
  ]
}
