{
  "layers": [
    {
      "activation": 2,
      "biases": [
        0.555543975213218,
        -0.0358364857646097,
        -0.06179450207760196,
        0.3405810750391855,
        -0.01926602622842386,
        -0.0874905946039823
      ],
      "cols": 6,
      "rows": 3,
      "weights": [
        [
          -0.43628467545422034,
          0.25754054993888253,
          -0.43333041077047024,
          1.8068141469336942,
          0.06050222474815911,
          -0.29454192607540614
        ],
        [
          1.1449674750540761,
          0.02395518244173414,
          -0.5309616817403269,
          0.4714060597799942,
          -0.04165774612561151,
          1.021123657522947
        ],
        [
          0.703542953307606,
          1.4796689061431334,
          0.494883435108097,
          -0.6082144226684565,
          -0.7492090852793103,
          0.5764893332120125
        ]
      ]
    },
    {
      "activation": 2,
      "biases": [
        1.148393148178116,
        0.0,
        -0.00305481234356526,
        0.09548187598417675,
        -0.004806148686169542,
        0.05053235125365858,
        0.04684488768465286,
        -0.4164624489117652,
        -0.26599065128805083
      ],
      "cols": 9,
      "rows": 6,
      "weights": [
        [
          0.3855094826140931,
          -0.5583979122636119,
          -0.1480295634791129,
          1.4411551488345786,
          0.038450490932892906,
          -0.3181284614877714,
          -0.35106533192447265,
          0.4286564837953532,
          0.6017862396445041
        ],
        [
          -0.48446067042845714,
          -0.6185270988427041,
          -0.3278729615413084,
          -0.15345851701553384,
          -0.16491740910004168,
          0.22278496174456935,
          0.1814767113680882,
          1.1861740852289393,
          -0.636721651905646
        ],
        [
          -0.6187278010501187,
          -0.5458257438303005,
          -0.6082695473862293,
          0.039368067162670536,
          -0.34675337283348046,
          -0.34553895684409475,
          0.35831784800493943,
          -0.16952411731029587,
          -0.013566650860895866
        ],
        [
          1.1420945374679132,
          -0.5582399394249304,
          -0.17655865823000322,
          -0.8842553647477474,
          -0.4386650540164592,
          0.15666620078204516,
          0.3738103335456458,
          0.0039045321737673404,
          1.2531197837392363
        ],
        [
          0.01703105765802059,
          -0.49329972725808524,
          -0.10285760307140727,
          0.501168633895968,
          0.5230295939639112,
          -0.40069565175223915,
          -0.5836811173693125,
          0.5871090657488958,
          0.5861986783756103
        ],
        [
          -0.39655828839517065,
          0.6035089348520529,
          0.40424344434074233,
          0.7705003196567977,
          -0.5735095166381983,
          -0.10168962810030457,
          -0.31505706180536674,
          0.6859682082754897,
          0.39569397115950034
        ]
      ]
    },
    {
      "activation": 2,
      "biases": [
        -0.37191378806048814,
        0.0,
        1.432987297657499,
        0.0,
        0.06549530190734389,
        -0.020347879018310085,
        0.27008264092642353,
        -0.022769912299376686,
        -0.8292924628091636,
        0.3466616583932189,
        0.32232674016626345,
        -0.37734121840026774
      ],
      "cols": 12,
      "rows": 9,
      "weights": [
        [
          0.38289891637720846,
          -0.21146647743925123,
          1.0166298927736392,
          -0.09895471906375507,
          -0.24286302268474091,
          -0.4588405708195994,
          0.7596562814370598,
          -0.33002681303162723,
          -0.5233221571336415,
          0.6419211278306933,
          0.13528570197780826,
          1.0359926196407354
        ],
        [
          -0.5058676739140561,
          0.45743111374855666,
          -0.05050574244999993,
          0.30200635839762896,
          0.39159650750890457,
          0.3249948617621951,
          -0.16408905295441684,
          -0.10804117267215736,
          0.19302281578379135,
          -0.507757579103611,
          0.005057237743875435,
          0.45728937099623856
        ],
        [
          -0.0034115098288810654,
          -0.5266785646335987,
          -0.02570659891793191,
          -0.004640811813841955,
          0.5216808506218286,
          0.43769797489983187,
          0.29143306721574913,
          0.4592920001021032,
          -0.4168840791334376,
          0.3043447531454632,
          -0.5265436062954677,
          0.2983720359776338
        ],
        [
          -0.08948676241074563,
          -0.19430365739803007,
          0.24429487409096184,
          0.04215848318655161,
          -0.5675497415058534,
          0.8893454770022996,
          -0.7823505800066931,
          -0.39331698918119945,
          0.19548755457097106,
          -1.2759359211697316,
          0.18791174926434293,
          -0.34435870578394623
        ],
        [
          0.26624502499109076,
          0.27080628113510025,
          -0.16567494114816436,
          -0.21918663537635688,
          -0.24154713936018796,
          0.27565471102759587,
          0.05954388428598538,
          -0.005622901496587742,
          0.45422184568814844,
          0.3833337855882821,
          0.11579846526987951,
          -0.006073264542077993
        ],
        [
          -0.24147578328820024,
          0.5167397528661778,
          0.20174658300175147,
          0.05917775042791016,
          -0.4863768612983889,
          -0.31227807513117173,
          0.03374819443639724,
          -0.42814829997671316,
          0.028384893072997526,
          -0.3902202820305961,
          -0.5724945777048354,
          -0.44589798442525064
        ],
        [
          -0.22757737760811825,
          -0.07629076429288277,
          -0.5173932625344922,
          0.3886315276666595,
          0.1778931492167786,
          0.37432159291749334,
          -0.2202657886029906,
          -0.14741243081930047,
          0.2402332647884427,
          0.3935931603838895,
          -0.38362157322378715,
          -0.4090040153505451
        ],
        [
          0.002234509308694448,
          -0.43395925849358874,
          -0.08813113775331878,
          -0.13466684610693586,
          0.46117462598453346,
          -0.5961469269074399,
          -1.1993467944038452,
          0.07145835530673696,
          0.5673196433584309,
          -0.020855701120078417,
          0.5345664169410846,
          0.2943026074915427
        ],
        [
          0.42082575843763703,
          -0.5284881955088631,
          -0.4558442946228385,
          -0.17748600486118762,
          0.0493291863948022,
          0.5933653817278715,
          0.5118607908687798,
          0.25719187233646756,
          0.6118815260060955,
          0.33959603262368127,
          -0.3956632137371351,
          1.0419807043689775
        ]
      ]
    },
    {
      "activation": 1,
      "biases": [
        0.5511050535469674,
        0.28893021771942634,
        -0.37901857902031727,
        -0.1531607259238464,
        -0.8836942242598381,
        0.4289242394138715,
        0.552942583096102,
        0.5390815061822436,
        0.3597207279884247,
        0.5786526864752171,
        -0.8976680658022742,
        -0.5722491213044417,
        0.33244497518194616,
        1.164809730465674,
        -0.7615248484929521,
        -0.7711507573958147
      ],
      "cols": 16,
      "rows": 12,
      "weights": [
        [
          -0.29153069396239795,
          -0.04938253270893313,
          -0.18481034498886886,
          0.3955549706604301,
          -0.1831769333753283,
          -0.32061589532871804,
          -0.05676150286096477,
          -0.5090271957087111,
          0.1596529539858093,
          -0.616223204409139,
          -0.11928212552246832,
          0.43004075384042906,
          0.0765217861622398,
          -0.3558428582808145,
          -0.15127315488222282,
          0.05342716616780457
        ],
        [
          0.19240943204379132,
          -0.3740532336826824,
          -0.12308822270901726,
          0.28811576323960003,
          0.38306528948030893,
          0.33169768014148904,
          -0.22496328653004452,
          0.0664130435568306,
          0.02257957155041206,
          0.3189739365237292,
          -0.4453040349339997,
          -0.4165280445387416,
          -0.022200820082371935,
          -0.4076808299478843,
          -0.2633314243278126,
          -0.25825547943815563
        ],
        [
          0.47997726224484405,
          0.30370168625987004,
          -0.28824155378104854,
          0.16527010960359498,
          -1.0008100246950613,
          -0.09721553616860511,
          0.2937831443031344,
          0.014077955328322766,
          0.13220933047040956,
          -0.16560471058804668,
          -0.9876450757233602,
          -0.9199035396070188,
          -0.20776481861661794,
          0.7793952994762718,
          -1.2767704555023414,
          -1.1346767485332803
        ],
        [
          0.00842266474942032,
          0.4212798443018974,
          0.2428629091864675,
          -0.23502123815755846,
          0.1209969108842216,
          0.34050189668968367,
          -0.013631322164814741,
          0.20265640631920864,
          0.08064179540688826,
          -0.3578682648948379,
          -0.016480174433007,
          -0.09231997170711845,
          0.06387223413618863,
          0.08512713672733362,
          -0.17532166732285565,
          -0.07706448724804002
        ],
        [
          -0.06745560487675283,
          -0.2202303590268273,
          -0.10223225452071903,
          -0.41009997474386284,
          -0.4419343855243289,
          0.41857728442822,
          -0.33211469932703014,
          0.0050402278279799385,
          -0.006185224779349655,
          0.357267005520241,
          -0.16721738333990505,
          0.05420538406612645,
          -0.6165168214236215,
          0.306551810811626,
          0.2449700995610794,
          -0.00840557789659732
        ],
        [
          -0.03938466373751894,
          -0.547384444020346,
          -0.01625505811192818,
          -0.044897807274362204,
          0.43111661381983396,
          -0.3552264084277557,
          -0.030273659977644255,
          0.16722756493638372,
          0.11793490868498015,
          0.1572608811640079,
          -0.3683796631465609,
          0.1168765918938805,
          -1.167705363229226,
          0.15046018098062391,
          0.07749467133452888,
          -0.38417915188343144
        ],
        [
          -0.22781978178864237,
          -0.06873452485850975,
          0.04520778712183593,
          -0.12857297897271427,
          -0.4727094789463531,
          -1.2421857366580205,
          0.015806616964722995,
          0.11836294442656414,
          -0.14513066211581588,
          -0.6255563723110045,
          -0.06289170130095645,
          0.2722847161477533,
          0.5796304752259346,
          0.8780903089848152,
          -0.3183248102468006,
          0.13638705795592185
        ],
        [
          -0.12255900984163377,
          0.10178125958575618,
          0.1754124463139486,
          -0.21659274182782293,
          -0.14068507600302116,
          -0.13520386860881148,
          -0.005214806908676275,
          0.2160195791391115,
          -0.20995203882981808,
          -0.2015912816376379,
          -0.09222206914135353,
          -0.06990369562227104,
          -0.10666457634517112,
          0.2895606523413826,
          0.4305509567818562,
          -0.060854760861394366
        ],
        [
          -0.41710981537468994,
          0.6648980277996122,
          0.09837213625511779,
          -0.08966132469961142,
          0.015166805792517325,
          -1.1997377081400742,
          0.033991733214158854,
          0.022749892245305475,
          0.1852125113445748,
          0.3580423702104081,
          -0.1049373299599836,
          -0.1573046486446972,
          0.48923081034729643,
          -0.398508315886123,
          0.016788406702668,
          0.3706390189291177
        ],
        [
          -0.1919680494356937,
          -0.6644620284530409,
          -0.07862558742050711,
          0.11438340539832208,
          0.28132259150356753,
          0.9012651793415383,
          0.0648147133402359,
          0.040531837826346374,
          0.2841790985547622,
          -0.7866141790494919,
          -0.011249951326682795,
          0.025178320712088084,
          0.06824086220348813,
          0.6741728980390633,
          0.31358050605853643,
          0.21822044476930355
        ],
        [
          -0.011491041880230117,
          -0.2007524426033263,
          -0.19584501637451163,
          0.08334532019651536,
          -0.30483779375473335,
          -0.0485846807876987,
          0.18344140492546776,
          0.22467027979482548,
          -0.017662928127752425,
          0.7040635637698412,
          -0.03750032578979389,
          0.03689761169393882,
          0.8157779336803298,
          -0.10051548641990209,
          -0.1783293754373955,
          -0.5483095126985468
        ],
        [
          -0.07983181035984778,
          0.11134493367776002,
          0.09583462379867472,
          -0.15088725469221656,
          -0.0977541263645483,
          0.1881106286367781,
          -0.04037007632521733,
          0.14162303091534417,
          -0.14979475813522408,
          -1.5470922106077682,
          -0.573065213590862,
          -0.1524301215808684,
          0.15405662278592047,
          -1.4545850911077385,
          -0.1969647152213011,
          -0.21806757058425807
        ]
      ]
    }
  ]
}
