{
  "layers": [
    {
      "activation": 2,
      "biases": [
        0.0,
        0.08746202284022948,
        0.0,
        0.5749462799551555,
        -0.06679628002245765,
        0.37722365667785923
      ],
      "cols": 6,
      "rows": 3,
      "weights": [
        [
          -0.46340650548737355,
          -0.27968807767707454,
          0.26221140036434676,
          0.03538344366648086,
          -0.1632778857531261,
          1.2288046076379853
        ],
        [
          -0.7287488376363571,
          0.8656771363473261,
          -0.46153792428990525,
          -0.5628204309479476,
          -0.635763870271232,
          1.2042783389455363
        ],
        [
          -0.6330002383628001,
          -0.7254367634971736,
          -0.3503747270409882,
          1.2138618700454737,
          0.9195460047916884,
          0.013284013099601956
        ]
      ]
    },
    {
      "activation": 2,
      "biases": [
        -0.035353003900614764,
        0.5901125553777897,
        0.37874718234082205,
        -0.09069475971683473,
        0.14215695971710254,
        0.0,
        0.5363787884264473,
        0.43680363580498055,
        0.8273257391955579
      ],
      "cols": 9,
      "rows": 6,
      "weights": [
        [
          0.5247475912885304,
          -0.23043876618265108,
          0.44115679876610736,
          -0.2589585558550433,
          0.3916916517258239,
          -0.4292736684190497,
          -0.6221109987988235,
          -0.07074626972886709,
          -0.42278420704268105
        ],
        [
          0.5714614724204264,
          0.27185999045676956,
          -0.9026366656390657,
          0.20934169500335284,
          0.8988699806120923,
          0.25016432120599486,
          0.08327844711413011,
          0.1910903283667107,
          0.35715963808742174
        ],
        [
          -0.6141916881489257,
          0.1501966042570343,
          -0.4396673271095081,
          0.5439747163127767,
          0.523732902829504,
          -0.05263045072208126,
          0.3899240459491046,
          0.43694905170296844,
          0.521666617911064
        ],
        [
          0.4360961327703492,
          -0.30353723973673935,
          0.28416036159058755,
          -0.1953753129489893,
          -0.4693796262248227,
          -0.3871515029413576,
          -0.2916281363512332,
          -0.1767997849101105,
          1.334329389439476
        ],
        [
          0.5355657450450301,
          -0.33243321992104646,
          -0.714245088916676,
          -0.26853148982122504,
          0.05408103592268626,
          -0.15279637293963755,
          0.11374141142743337,
          0.2639464141115506,
          0.3401298795619036
        ],
        [
          1.0793514441441925,
          0.5783659997229689,
          0.3813136866573597,
          -0.06733309833859784,
          0.147575328027698,
          -0.279179939764658,
          0.4742165036096445,
          1.0811743496264592,
          -0.861686587478626
        ]
      ]
    },
    {
      "activation": 2,
      "biases": [
        -0.0899946838451968,
        1.0408597820035168,
        0.36890023349214235,
        0.4190068559385457,
        -0.1058172918486583,
        0.6123878441126774,
        0.08474253072166375,
        0.0,
        0.22337453545985692,
        -0.5097556442583018,
        0.0,
        0.943454447781834
      ],
      "cols": 12,
      "rows": 9,
      "weights": [
        [
          0.21520968576177546,
          0.8817304992714798,
          0.493806491833146,
          -0.053665867820976196,
          -0.07134938536620133,
          0.32558416490137315,
          -0.5081259184499336,
          -0.45239285088840914,
          -0.02114592037297095,
          0.5632684668848097,
          -0.40176907576570586,
          -0.5466709705802613
        ],
        [
          -0.3785160911282257,
          0.5151487934165743,
          0.179585726335181,
          -0.32271625036121054,
          -0.14495083332193734,
          -0.3313768519840389,
          0.3823109505832737,
          -0.31883495684355034,
          0.26093571314467506,
          0.07025961533999309,
          -0.4448407187289829,
          0.36320055601446155
        ],
        [
          0.2966766037614272,
          -0.21993959871844987,
          0.7508633194392699,
          0.15643028315484916,
          -0.30113728026568437,
          -0.5701761703388865,
          -0.4394515779408033,
          0.46330315838318614,
          -0.551128547164122,
          -0.11193448338353675,
          0.46254406396931125,
          0.9524027245213722
        ],
        [
          -0.008476473707998679,
          -0.48211990620858014,
          -0.42688541753302855,
          0.41315600483595133,
          -0.45675896035874075,
          -0.12267085955133604,
          -0.09770501403516996,
          -0.1873614141876354,
          -0.1971700772514713,
          0.0011727612645576386,
          -0.11692161638633736,
          -0.06359534764875568
        ],
        [
          -0.2796198456783358,
          0.5271644507761533,
          -0.3703311874103728,
          -0.2476148067257755,
          0.06406594312228336,
          -0.3443976525747549,
          -0.06207451789342167,
          0.42318644442059056,
          0.7375013787540491,
          -0.0940056683068585,
          -0.1969560650282725,
          -0.5617940792530203
        ],
        [
          0.2891001409459153,
          0.0827623677619679,
          0.36840152232352874,
          -0.40711263181827484,
          0.22802363297133738,
          -0.47954093162339856,
          0.23370498840020262,
          0.13840160342694696,
          -0.22171513141297236,
          -0.3457676693004365,
          -0.4773650867118271,
          0.06725288776078749
        ],
        [
          0.11873926376224155,
          0.5160385068360437,
          -0.0256164442436064,
          -0.42720671929621357,
          -0.16288393047894806,
          0.030739980818529963,
          0.24147851765578918,
          -0.12610080904513318,
          0.3504909852690318,
          0.07789515825625419,
          0.10746984530258159,
          0.5713265809893586
        ],
        [
          0.19692639512456606,
          0.9263432191599921,
          0.46515171228003205,
          0.09288888582396232,
          -0.1788882283687126,
          0.21050658756967663,
          0.43130070775756923,
          -0.5291717398524513,
          0.3249646302099889,
          0.6949097552301347,
          -0.4403053274991361,
          -0.09698421737844952
        ],
        [
          -0.5017648961808124,
          0.20935494540064042,
          -0.22646112740015775,
          1.0315243812558554,
          0.21988015399776406,
          0.6697573939888714,
          -0.5067751488569575,
          -0.40434582231339466,
          -0.09758875757412606,
          -1.2070743351146533,
          -0.28237320677389405,
          0.4242184345657265
        ]
      ]
    },
    {
      "activation": 1,
      "biases": [
        0.2976090181305308,
        -0.6747647406738629,
        0.09282565799192291,
        0.17704737352098732,
        -0.05421370139785963,
        -0.6524568174121171,
        0.6966827492741988,
        0.9656053078410246,
        0.7993761063530864,
        -0.7905635832733017,
        -0.657370337765234,
        -0.8506561375040755,
        -0.16386020554291675,
        -0.0366447117005441,
        -0.3030515677619085,
        -0.7472899121707915
      ],
      "cols": 16,
      "rows": 12,
      "weights": [
        [
          0.49154737721883845,
          -0.16236004440888033,
          0.1868558287703973,
          -0.12657624497929904,
          -0.12203736010828176,
          -0.19085097929592298,
          -0.3924603414955423,
          -0.3584650772918023,
          -0.3819560070288325,
          0.3005961241613229,
          -0.3929587504481409,
          0.169297788165114,
          -0.2706346955252392,
          0.24185999071953004,
          0.0647992440675468,
          -0.41470676399493034
        ],
        [
          -0.24166429796246816,
          0.026861045420458956,
          0.10913790816142699,
          0.027908321308847125,
          0.38559505462755317,
          -0.9611395858309939,
          0.9374281034938132,
          0.6594270068274823,
          -0.046968287577840835,
          -0.7100527316212831,
          -0.5794963780643511,
          -0.6791897685693612,
          0.5501765457625282,
          0.08235992445416054,
          -0.11792802905145176,
          -1.0936490814655409
        ],
        [
          -0.27161710389025634,
          -0.3350309343456761,
          -0.06220319103777604,
          0.003453862176643759,
          -0.8288752140899583,
          -0.6482567448764569,
          0.11780076498644138,
          0.23765774957977337,
          -0.12592128393401167,
          -0.5684296885570862,
          -0.6308842409785599,
          -0.0034907069050409186,
          0.056736035704604344,
          -0.017641441108520128,
          0.042825250756637755,
          -0.07304691189977437
        ],
        [
          0.4816428601589523,
          0.40840781072789933,
          0.018549453227465172,
          -0.09381925470591303,
          -0.22290908796030776,
          -0.1447202807382751,
          -0.11493351015289426,
          0.5206206127873476,
          1.1984288029426544,
          0.24706909160126606,
          -0.20759431063801057,
          0.11283695694110386,
          0.23351151022011793,
          0.29714406573879626,
          -0.21557716685663855,
          0.23332035716516963
        ],
        [
          0.22735370957416348,
          0.12807336503687175,
          0.2924476216503058,
          0.3813059690288727,
          0.3817268400187386,
          -0.3052431620116463,
          -0.20588058249452298,
          -0.049025398296893424,
          -0.24160009902218865,
          -0.39901537211057597,
          0.10466914973007058,
          0.40993986502007557,
          -0.14313397897369987,
          -0.38867837463814436,
          -0.24444451378152782,
          0.22779629676071267
        ],
        [
          0.7464706239764279,
          0.1513005254772802,
          -0.13996590808883602,
          0.09736019785404211,
          -0.004877611758831694,
          -0.04296583278624157,
          0.3514778064252867,
          0.4755540518380711,
          0.5618303838902278,
          -0.2422361633736264,
          -0.3157196744039919,
          -0.5382401435525174,
          0.2338120215637291,
          -0.3522307362973972,
          0.292080179737536,
          0.03574539773085069
        ],
        [
          0.43825914379773906,
          -0.10019298278066018,
          0.3460545559425727,
          -0.10637788029009604,
          0.6070253829100526,
          -0.2735147731855963,
          0.4624263458483638,
          0.023537377640517023,
          -0.24361583363460848,
          0.3756346300638138,
          -0.2547649077828145,
          -0.14256340805368944,
          0.29506377650560073,
          0.30569363819008066,
          -0.4000470088043935,
          0.13842074906450733
        ],
        [
          0.14658641806449546,
          0.022121426578094468,
          0.2587803331127808,
          -0.10103395599882406,
          -0.325364321868791,
          0.4094547798659114,
          -0.44904389850890775,
          0.074464217952889,
          -0.14305409842279218,
          0.23046382545079294,
          0.2582740171059631,
          -0.1504260282518275,
          -0.27896613276089444,
          0.26800005312569575,
          0.21313037746038282,
          -0.11052921984739762
        ],
        [
          -0.0007716797534470547,
          -0.731850512907124,
          -0.300857899361237,
          -0.10083178451232848,
          0.6419209175689431,
          -0.002114568290467987,
          0.29636127481863256,
          -0.01705362515012816,
          -0.2087533966937959,
          -0.3393604118907275,
          -0.44551403791685984,
          0.057753248759932395,
          0.15796616296026555,
          -0.03841948313170044,
          0.07907127696710706,
          0.3468207516330958
        ],
        [
          0.7321842414264506,
          0.5473156763396673,
          -0.3236922106727289,
          -0.4656917859153862,
          -0.6808189901730354,
          0.38587164290072345,
          0.19550907815846486,
          0.15851575346657154,
          -0.5859050346497042,
          0.13968453468907435,
          0.02372475440377575,
          0.14416096707898668,
          -0.48068528931389265,
          -0.10132064997196313,
          0.016659059763182965,
          0.1890045772675351
        ],
        [
          0.45830718736548487,
          0.4420484559131321,
          0.2765625647666694,
          -0.23410535303326974,
          -0.43629154241325196,
          -0.05165412966907629,
          -0.3921755390012355,
          -0.41993576487525835,
          0.2838138249363719,
          0.1613325902426275,
          0.25349707192052917,
          0.1109704516067159,
          -0.22785523427369841,
          -0.13541162745809687,
          -0.26534971932324275,
          -0.11729350269641099
        ],
        [
          -0.1579424336789763,
          -0.5292781935461658,
          0.058393902815675726,
          0.3037429635950977,
          -0.4600405631345893,
          0.06570090826807885,
          -0.1664858875777352,
          -0.03418309420963077,
          0.6926457670107472,
          -0.4739366783027927,
          -0.2807823623329254,
          -0.6855099119411663,
          -1.1125658598930082,
          0.0010279834418150408,
          -0.2064452316279944,
          -0.5137640753271151
        ]
      ]
    }
  ]
}
